booster[0]:
0:[f1<0.00994983315] yes=1,no=2,missing=1
	1:[f6<0.0012422977] yes=3,no=4,missing=3
		3:[f1<0.00580267562] yes=7,no=8,missing=7
			7:[f1<0.00508361217] yes=15,no=16,missing=15
				15:[f6<0.000894454366] yes=29,no=30,missing=29
					29:leaf=0.277777791
					30:[f0<0.0294117648] yes=47,no=48,missing=47
						47:leaf=-0.233333349
						48:leaf=0.24545455
				16:[f1<0.00535117043] yes=31,no=32,missing=31
					31:leaf=-0.276000023
					32:[f0<0.0242214538] yes=49,no=50,missing=49
						49:leaf=-0.180000007
						50:leaf=0.0600000024
			8:[f6<0.000645994791] yes=17,no=18,missing=17
				17:[f5<0.974130452] yes=33,no=34,missing=33
					33:leaf=-0
					34:leaf=0.291724145
				18:[f0<0.0224913508] yes=35,no=36,missing=35
					35:leaf=-0.286956549
					36:[f6<0.00114291394] yes=51,no=52,missing=51
						51:leaf=0.282051295
						52:leaf=0.190000013
		4:[f0<0.0432525948] yes=9,no=10,missing=9
			9:leaf=-0.298230082
			10:[f6<0.00243490352] yes=19,no=20,missing=19
				19:[f1<0.00590301026] yes=37,no=38,missing=37
					37:[f1<0.00508361217] yes=53,no=54,missing=53
						53:leaf=0.125
						54:leaf=-0.279310375
					38:[f0<0.0674740523] yes=55,no=56,missing=55
						55:leaf=0.0949579924
						56:leaf=0.252631605
				20:[f0<0.0847750902] yes=39,no=40,missing=39
					39:leaf=-0.298255831
					40:[f6<0.00342874182] yes=57,no=58,missing=57
						57:leaf=0.089235127
						58:leaf=-0.188473523
	2:[f6<0.00293182256] yes=5,no=6,missing=5
		5:[f6<0.00114291394] yes=11,no=12,missing=11
			11:[f5<0.957173944] yes=21,no=22,missing=21
				21:leaf=-0
				22:leaf=0.293939412
			12:[f0<0.0397923887] yes=23,no=24,missing=23
				23:leaf=-0.288000017
				24:[f1<0.0185284279] yes=41,no=42,missing=41
					41:[f0<0.0674740523] yes=59,no=60,missing=59
						59:leaf=0.263101608
						60:leaf=0.292307705
					42:leaf=-0
		6:[f0<0.102076128] yes=13,no=14,missing=13
			13:[f1<0.0113377925] yes=25,no=26,missing=25
				25:leaf=-0.0600000024
				26:leaf=-0.252000004
			14:[f6<0.0053170342] yes=27,no=28,missing=27
				27:[f1<0.0181939807] yes=43,no=44,missing=43
					43:[f6<0.00422381237] yes=61,no=62,missing=61
						61:leaf=0.283783793
						62:leaf=0.212903231
					44:leaf=-0.150000006
				28:[f0<0.183391005] yes=45,no=46,missing=45
					45:[f0<0.10899654] yes=63,no=64,missing=63
						63:leaf=-0
						64:leaf=-0.26363638
					46:[f3<0.0076923077] yes=65,no=66,missing=65
						65:leaf=0.265217423
						66:leaf=0.0600000024
booster[1]:
0:[f1<0.00994983315] yes=1,no=2,missing=1
	1:[f6<0.0012422977] yes=3,no=4,missing=3
		3:[f1<0.00580267562] yes=7,no=8,missing=7
			7:[f1<0.00508361217] yes=15,no=16,missing=15
				15:[f6<0.000894454366] yes=29,no=30,missing=29
					29:leaf=-0.277777791
					30:[f0<0.0294117648] yes=47,no=48,missing=47
						47:leaf=0.233333349
						48:leaf=-0.24545455
				16:[f1<0.00535117043] yes=31,no=32,missing=31
					31:leaf=0.276000023
					32:[f0<0.0242214538] yes=49,no=50,missing=49
						49:leaf=0.180000007
						50:leaf=-0.0600000024
			8:[f6<0.000645994791] yes=17,no=18,missing=17
				17:[f5<0.974130452] yes=33,no=34,missing=33
					33:leaf=-0
					34:leaf=-0.291724145
				18:[f0<0.0224913508] yes=35,no=36,missing=35
					35:leaf=0.286956549
					36:[f6<0.00114291394] yes=51,no=52,missing=51
						51:leaf=-0.282051295
						52:leaf=-0.190000013
		4:[f0<0.0432525948] yes=9,no=10,missing=9
			9:leaf=0.298230082
			10:[f6<0.00243490352] yes=19,no=20,missing=19
				19:[f1<0.00590301026] yes=37,no=38,missing=37
					37:[f1<0.00508361217] yes=53,no=54,missing=53
						53:leaf=-0.125
						54:leaf=0.279310375
					38:[f0<0.0674740523] yes=55,no=56,missing=55
						55:leaf=-0.0949579924
						56:leaf=-0.252631605
				20:[f0<0.0847750902] yes=39,no=40,missing=39
					39:leaf=0.298255831
					40:[f6<0.00342874182] yes=57,no=58,missing=57
						57:leaf=-0.089235127
						58:leaf=0.188473523
	2:[f6<0.00293182256] yes=5,no=6,missing=5
		5:[f6<0.00114291394] yes=11,no=12,missing=11
			11:[f5<0.957173944] yes=21,no=22,missing=21
				21:leaf=-0
				22:leaf=-0.293939412
			12:[f0<0.0397923887] yes=23,no=24,missing=23
				23:leaf=0.288000017
				24:[f1<0.0185284279] yes=41,no=42,missing=41
					41:[f0<0.0674740523] yes=59,no=60,missing=59
						59:leaf=-0.263101608
						60:leaf=-0.292307705
					42:leaf=-0
		6:[f0<0.102076128] yes=13,no=14,missing=13
			13:[f1<0.0113377925] yes=25,no=26,missing=25
				25:leaf=0.0600000024
				26:leaf=0.252000004
			14:[f6<0.0053170342] yes=27,no=28,missing=27
				27:[f1<0.0181939807] yes=43,no=44,missing=43
					43:[f6<0.00422381237] yes=61,no=62,missing=61
						61:leaf=-0.283783793
						62:leaf=-0.212903231
					44:leaf=0.150000006
				28:[f0<0.183391005] yes=45,no=46,missing=45
					45:[f0<0.10899654] yes=63,no=64,missing=63
						63:leaf=-0
						64:leaf=0.26363638
					46:[f3<0.0076923077] yes=65,no=66,missing=65
						65:leaf=-0.265217423
						66:leaf=-0.0600000024
booster[2]:
0:[f1<0.00998327695] yes=1,no=2,missing=1
	1:[f6<0.00144106545] yes=3,no=4,missing=3
		3:[f6<0.000944146304] yes=7,no=8,missing=7
			7:[f6<0.000645994791] yes=15,no=16,missing=15
				15:[f5<0.974130452] yes=29,no=30,missing=29
					29:leaf=-0
					30:leaf=0.222908422
				16:[f0<0.0224913508] yes=31,no=32,missing=31
					31:leaf=-0.215562493
					32:leaf=0.227512524
			8:[f0<0.0328719728] yes=17,no=18,missing=17
				17:leaf=-0.245797306
				18:[f1<0.0057357857] yes=33,no=34,missing=33
					33:[f1<0.00508361217] yes=47,no=48,missing=47
						47:leaf=0.197278753
						48:leaf=-0.1583388
					34:[f0<0.0363321789] yes=49,no=50,missing=49
						49:leaf=0.166919053
						50:leaf=0.239279881
		4:[f0<0.0501730107] yes=9,no=10,missing=9
			9:leaf=-0.235224679
			10:[f6<0.00253428752] yes=19,no=20,missing=19
				19:[f6<0.00193798449] yes=35,no=36,missing=35
					35:[f1<0.00590301026] yes=51,no=52,missing=51
						51:leaf=0.00764245912
						52:leaf=0.231630817
					36:[f0<0.0674740523] yes=53,no=54,missing=53
						53:leaf=-0.29131794
						54:leaf=0.168922827
				20:[f0<0.0882352889] yes=37,no=38,missing=37
					37:[f0<0.0847750902] yes=55,no=56,missing=55
						55:leaf=-0.230700031
						56:leaf=-0.284847379
					38:[f6<0.00293182256] yes=57,no=58,missing=57
						57:leaf=0.228587225
						58:leaf=-0.111648619
	2:[f6<0.00263367128] yes=5,no=6,missing=5
		5:[f6<0.00114291394] yes=11,no=12,missing=11
			11:[f5<0.957173944] yes=21,no=22,missing=21
				21:leaf=-0
				22:leaf=0.226996198
			12:[f0<0.0397923887] yes=23,no=24,missing=23
				23:leaf=-0.221660331
				24:[f6<0.00193798449] yes=39,no=40,missing=39
					39:leaf=0.231740773
					40:[f0<0.0674740523] yes=59,no=60,missing=59
						59:leaf=-0.342709869
						60:leaf=0.224569052
		6:[f0<0.0916955024] yes=13,no=14,missing=13
			13:[f0<0.0882352889] yes=25,no=26,missing=25
				25:[f1<0.0123913046] yes=41,no=42,missing=41
					41:leaf=-0.233824626
					42:[f1<0.013294315] yes=61,no=62,missing=61
						61:leaf=-0.0629417896
						62:leaf=-0.183549494
				26:leaf=-0.0494433679
			14:[f6<0.00422381237] yes=27,no=28,missing=27
				27:[f1<0.0123913046] yes=43,no=44,missing=43
					43:[f1<0.0115551837] yes=63,no=64,missing=63
						63:leaf=0.213571221
						64:leaf=0.130299956
					44:leaf=0.229610518
				28:[f0<0.147058815] yes=45,no=46,missing=45
					45:[f0<0.10899654] yes=65,no=66,missing=65
						65:leaf=-0.0573676527
						66:leaf=-0.271075666
					46:[f6<0.00581395347] yes=67,no=68,missing=67
						67:leaf=0.217824891
						68:leaf=0.0866422281
booster[3]:
0:[f1<0.00998327695] yes=1,no=2,missing=1
	1:[f6<0.00144106545] yes=3,no=4,missing=3
		3:[f6<0.000944146304] yes=7,no=8,missing=7
			7:[f6<0.000645994791] yes=15,no=16,missing=15
				15:[f5<0.974130452] yes=29,no=30,missing=29
					29:leaf=-0
					30:leaf=-0.222908422
				16:[f0<0.0224913508] yes=31,no=32,missing=31
					31:leaf=0.215562493
					32:leaf=-0.227512538
			8:[f0<0.0328719728] yes=17,no=18,missing=17
				17:leaf=0.245797321
				18:[f1<0.0057357857] yes=33,no=34,missing=33
					33:[f1<0.00508361217] yes=47,no=48,missing=47
						47:leaf=-0.197278753
						48:leaf=0.158338815
					34:[f0<0.0363321789] yes=49,no=50,missing=49
						49:leaf=-0.166919082
						50:leaf=-0.239279881
		4:[f0<0.0501730107] yes=9,no=10,missing=9
			9:leaf=0.235224694
			10:[f6<0.00253428752] yes=19,no=20,missing=19
				19:[f6<0.00193798449] yes=35,no=36,missing=35
					35:[f1<0.00590301026] yes=51,no=52,missing=51
						51:leaf=-0.00764248567
						52:leaf=-0.231630817
					36:[f0<0.0674740523] yes=53,no=54,missing=53
						53:leaf=0.29131794
						54:leaf=-0.168922827
				20:[f0<0.0882352889] yes=37,no=38,missing=37
					37:[f0<0.0847750902] yes=55,no=56,missing=55
						55:leaf=0.230700046
						56:leaf=0.284847379
					38:[f6<0.00293182256] yes=57,no=58,missing=57
						57:leaf=-0.228587225
						58:leaf=0.111648619
	2:[f6<0.00263367128] yes=5,no=6,missing=5
		5:[f6<0.00114291394] yes=11,no=12,missing=11
			11:[f5<0.957173944] yes=21,no=22,missing=21
				21:leaf=-0
				22:leaf=-0.226996213
			12:[f0<0.0397923887] yes=23,no=24,missing=23
				23:leaf=0.221660331
				24:[f6<0.00193798449] yes=39,no=40,missing=39
					39:leaf=-0.231740773
					40:[f0<0.0674740523] yes=59,no=60,missing=59
						59:leaf=0.342709869
						60:leaf=-0.224569082
		6:[f0<0.0916955024] yes=13,no=14,missing=13
			13:[f0<0.0882352889] yes=25,no=26,missing=25
				25:[f1<0.0123913046] yes=41,no=42,missing=41
					41:leaf=0.233824626
					42:[f1<0.013294315] yes=61,no=62,missing=61
						61:leaf=0.0629417822
						62:leaf=0.183549494
				26:leaf=0.0494433604
			14:[f6<0.00422381237] yes=27,no=28,missing=27
				27:[f1<0.0123913046] yes=43,no=44,missing=43
					43:[f1<0.0115551837] yes=63,no=64,missing=63
						63:leaf=-0.213571236
						64:leaf=-0.130299971
					44:leaf=-0.229610547
				28:[f0<0.147058815] yes=45,no=46,missing=45
					45:[f0<0.10899654] yes=65,no=66,missing=65
						65:leaf=0.0573676489
						66:leaf=0.271075666
					46:[f6<0.00581395347] yes=67,no=68,missing=67
						67:leaf=-0.217824861
						68:leaf=-0.0866422057
booster[4]:
0:[f1<0.00994983315] yes=1,no=2,missing=1
	1:[f6<0.00154044922] yes=3,no=4,missing=3
		3:[f6<0.000944146304] yes=7,no=8,missing=7
			7:[f6<0.000447227183] yes=15,no=16,missing=15
				15:[f5<0.974130452] yes=29,no=30,missing=29
					29:leaf=-0
					30:leaf=0.201379076
				16:[f0<0.0155709349] yes=31,no=32,missing=31
					31:leaf=-0.233261183
					32:[f3<0.0230769236] yes=49,no=50,missing=49
						49:leaf=0.196019784
						50:leaf=-0.0244623031
			8:[f0<0.0328719728] yes=17,no=18,missing=17
				17:leaf=-0.207961991
				18:[f1<0.0057357857] yes=33,no=34,missing=33
					33:[f1<0.00508361217] yes=51,no=52,missing=51
						51:leaf=0.16227445
						52:leaf=-0.138932973
					34:[f0<0.0363321789] yes=53,no=54,missing=53
						53:leaf=0.109237537
						54:leaf=0.189781696
		4:[f0<0.0536332205] yes=9,no=10,missing=9
			9:leaf=-0.204473302
			10:[f6<0.00253428752] yes=19,no=20,missing=19
				19:[f0<0.0743944645] yes=35,no=36,missing=35
					35:[f6<0.00213675201] yes=55,no=56,missing=55
						55:leaf=0.130675942
						56:leaf=-0.270089954
					36:[f1<0.00583612081] yes=57,no=58,missing=57
						57:leaf=0.085249342
						58:leaf=0.20178771
				20:[f0<0.0951557159] yes=37,no=38,missing=37
					37:[f6<0.00273305504] yes=59,no=60,missing=59
						59:leaf=-0.0539813489
						60:leaf=-0.216195151
					38:[f6<0.00422381237] yes=61,no=62,missing=61
						61:leaf=0.0824800059
						62:leaf=-0.141092896
	2:[f6<0.00263367128] yes=5,no=6,missing=5
		5:[f6<0.00114291394] yes=11,no=12,missing=11
			11:[f5<0.957173944] yes=21,no=22,missing=21
				21:leaf=-0
				22:leaf=0.195577845
			12:[f0<0.0397923887] yes=23,no=24,missing=23
				23:leaf=-0.191213667
				24:[f6<0.00193798449] yes=39,no=40,missing=39
					39:leaf=0.197859973
					40:[f0<0.0674740523] yes=63,no=64,missing=63
						63:leaf=-0.238002717
						64:leaf=0.192930728
		6:[f0<0.0916955024] yes=13,no=14,missing=13
			13:[f1<0.0115384618] yes=25,no=26,missing=25
				25:[f6<0.00273305504] yes=41,no=42,missing=41
					41:leaf=0.047169134
					42:[f6<0.00352812558] yes=65,no=66,missing=65
						65:leaf=-0.184038848
						66:leaf=-0.0286782403
				26:[f6<0.0065593319] yes=43,no=44,missing=43
					43:leaf=-0.194089189
					44:[f1<0.0147324419] yes=67,no=68,missing=67
						67:leaf=-0.119541332
						68:leaf=0.0153372856
			14:[f6<0.00422381237] yes=27,no=28,missing=27
				27:[f1<0.0123913046] yes=45,no=46,missing=45
					45:[f6<0.00303120655] yes=69,no=70,missing=69
						69:leaf=0.19965294
						70:leaf=0.12935698
					46:leaf=0.197727606
				28:[f0<0.147058815] yes=47,no=48,missing=47
					47:[f1<0.0115384618] yes=71,no=72,missing=71
						71:leaf=0.0511380509
						72:leaf=-0.198206201
					48:[f6<0.00601272099] yes=73,no=74,missing=73
						73:leaf=0.178503737
						74:leaf=0.0584913492
booster[5]:
0:[f1<0.00994983315] yes=1,no=2,missing=1
	1:[f6<0.00154044922] yes=3,no=4,missing=3
		3:[f6<0.000944146304] yes=7,no=8,missing=7
			7:[f6<0.000447227183] yes=15,no=16,missing=15
				15:[f5<0.974130452] yes=29,no=30,missing=29
					29:leaf=-0
					30:leaf=-0.20137912
				16:[f0<0.0155709349] yes=31,no=32,missing=31
					31:leaf=0.233261183
					32:[f3<0.0230769236] yes=49,no=50,missing=49
						49:leaf=-0.196019784
						50:leaf=0.0244623069
			8:[f0<0.0328719728] yes=17,no=18,missing=17
				17:leaf=0.207961991
				18:[f1<0.0057357857] yes=33,no=34,missing=33
					33:[f1<0.00508361217] yes=51,no=52,missing=51
						51:leaf=-0.16227448
						52:leaf=0.138933003
					34:[f0<0.0363321789] yes=53,no=54,missing=53
						53:leaf=-0.109237537
						54:leaf=-0.189781696
		4:[f0<0.0536332205] yes=9,no=10,missing=9
			9:leaf=0.204473317
			10:[f6<0.00253428752] yes=19,no=20,missing=19
				19:[f0<0.0743944645] yes=35,no=36,missing=35
					35:[f6<0.00213675201] yes=55,no=56,missing=55
						55:leaf=-0.130675942
						56:leaf=0.270089954
					36:[f1<0.00583612081] yes=57,no=58,missing=57
						57:leaf=-0.0852493569
						58:leaf=-0.20178771
				20:[f0<0.0951557159] yes=37,no=38,missing=37
					37:[f6<0.00273305504] yes=59,no=60,missing=59
						59:leaf=0.0539813526
						60:leaf=0.216195151
					38:[f6<0.00422381237] yes=61,no=62,missing=61
						61:leaf=-0.0824799985
						62:leaf=0.141092896
	2:[f6<0.00263367128] yes=5,no=6,missing=5
		5:[f6<0.00114291394] yes=11,no=12,missing=11
			11:[f5<0.957173944] yes=21,no=22,missing=21
				21:leaf=-0
				22:leaf=-0.195577815
			12:[f0<0.0397923887] yes=23,no=24,missing=23
				23:leaf=0.191213667
				24:[f6<0.00193798449] yes=39,no=40,missing=39
					39:leaf=-0.197859988
					40:[f0<0.0674740523] yes=63,no=64,missing=63
						63:leaf=0.238002717
						64:leaf=-0.192930743
		6:[f0<0.0916955024] yes=13,no=14,missing=13
			13:[f1<0.0115384618] yes=25,no=26,missing=25
				25:[f6<0.00273305504] yes=41,no=42,missing=41
					41:leaf=-0.047169134
					42:[f6<0.00352812558] yes=65,no=66,missing=65
						65:leaf=0.184038863
						66:leaf=0.0286782552
				26:[f6<0.0065593319] yes=43,no=44,missing=43
					43:leaf=0.194089219
					44:[f1<0.0147324419] yes=67,no=68,missing=67
						67:leaf=0.11954134
						68:leaf=-0.0153373005
			14:[f6<0.00422381237] yes=27,no=28,missing=27
				27:[f1<0.0123913046] yes=45,no=46,missing=45
					45:[f6<0.00303120655] yes=69,no=70,missing=69
						69:leaf=-0.19965294
						70:leaf=-0.129356995
					46:leaf=-0.197727606
				28:[f0<0.147058815] yes=47,no=48,missing=47
					47:[f1<0.0115384618] yes=71,no=72,missing=71
						71:leaf=-0.0511380434
						72:leaf=0.198206231
					48:[f6<0.00601272099] yes=73,no=74,missing=73
						73:leaf=-0.178503737
						74:leaf=-0.0584913641
booster[6]:
0:[f1<0.00994983315] yes=1,no=2,missing=1
	1:[f6<0.00134168158] yes=3,no=4,missing=3
		3:[f6<0.000944146304] yes=7,no=8,missing=7
			7:[f3<0.0076923077] yes=15,no=16,missing=15
				15:[f5<0.977173924] yes=29,no=30,missing=29
					29:leaf=-0.0243138596
					30:[f1<0.00538461562] yes=49,no=50,missing=49
						49:leaf=0.0766378194
						50:leaf=0.169527322
				16:[f6<0.000844762428] yes=31,no=32,missing=31
					31:[f6<0.000447227183] yes=51,no=52,missing=51
						51:leaf=0.159213156
						52:leaf=0.0484883636
					32:[f1<0.00608695671] yes=53,no=54,missing=53
						53:leaf=0.00512837758
						54:leaf=-0.121745393
			8:[f0<0.0328719728] yes=17,no=18,missing=17
				17:leaf=-0.190173924
				18:[f1<0.00535117043] yes=33,no=34,missing=33
					33:[f1<0.00508361217] yes=55,no=56,missing=55
						55:leaf=0.161251441
						56:leaf=-0.133805558
					34:[f0<0.0397923887] yes=57,no=58,missing=57
						57:leaf=0.143923774
						58:leaf=0.1941984
		4:[f0<0.0467128009] yes=9,no=10,missing=9
			9:leaf=-0.185902923
			10:[f1<0.00581939798] yes=19,no=20,missing=19
				19:[f1<0.00508361217] yes=35,no=36,missing=35
					35:[f1<0.00423076935] yes=59,no=60,missing=59
						59:leaf=-0.0775620341
						60:leaf=0.0793998688
					36:[f0<0.0847750902] yes=61,no=62,missing=61
						61:leaf=-0.191899493
						62:leaf=-0.224468634
				20:[f6<0.00193798449] yes=37,no=38,missing=37
					37:[f6<0.00173921685] yes=63,no=64,missing=63
						63:leaf=0.177591264
						64:leaf=0.105998613
					38:[f0<0.0674740523] yes=65,no=66,missing=65
						65:leaf=-0.197155207
						66:leaf=-0.00166300719
	2:[f6<0.00263367128] yes=5,no=6,missing=5
		5:[f6<0.00144106545] yes=11,no=12,missing=11
			11:[f5<0.957173944] yes=21,no=22,missing=21
				21:leaf=-0
				22:leaf=0.173074514
			12:[f0<0.0501730107] yes=23,no=24,missing=23
				23:leaf=-0.208019719
				24:[f6<0.002236136] yes=39,no=40,missing=39
					39:leaf=0.179442644
					40:[f0<0.0761245638] yes=67,no=68,missing=67
						67:leaf=-0.212741718
						68:leaf=0.169797048
		6:[f0<0.0916955024] yes=13,no=14,missing=13
			13:[f1<0.0115384618] yes=25,no=26,missing=25
				25:[f6<0.00273305504] yes=41,no=42,missing=41
					41:leaf=0.0376765579
					42:[f6<0.00352812558] yes=69,no=70,missing=69
						69:leaf=-0.158802211
						70:leaf=-0.0236228444
				26:[f1<0.0123913046] yes=43,no=44,missing=43
					43:leaf=-0.187614143
					44:[f6<0.00337904994] yes=71,no=72,missing=71
						71:leaf=-0.172606453
						72:leaf=-0.0347376354
			14:[f6<0.0053170342] yes=27,no=28,missing=27
				27:[f6<0.00362750934] yes=45,no=46,missing=45
					45:leaf=0.1694718
					46:[f0<0.126297578] yes=73,no=74,missing=73
						73:leaf=-0.226824179
						74:leaf=0.150037497
				28:[f0<0.183391005] yes=47,no=48,missing=47
					47:[f0<0.10899654] yes=75,no=76,missing=75
						75:leaf=-0.0528597087
						76:leaf=-0.213147938
					48:[f0<0.198961943] yes=77,no=78,missing=77
						77:leaf=0.0596333221
						78:leaf=0.189973742
booster[7]:
0:[f1<0.00994983315] yes=1,no=2,missing=1
	1:[f6<0.00134168158] yes=3,no=4,missing=3
		3:[f6<0.000944146304] yes=7,no=8,missing=7
			7:[f3<0.0076923077] yes=15,no=16,missing=15
				15:[f5<0.977173924] yes=29,no=30,missing=29
					29:leaf=0.0243138541
					30:[f1<0.00538461562] yes=49,no=50,missing=49
						49:leaf=-0.0766378343
						50:leaf=-0.169527352
				16:[f6<0.000844762428] yes=31,no=32,missing=31
					31:[f6<0.000447227183] yes=51,no=52,missing=51
						51:leaf=-0.159213185
						52:leaf=-0.0484883785
					32:[f1<0.00608695671] yes=53,no=54,missing=53
						53:leaf=-0.00512838596
						54:leaf=0.121745385
			8:[f0<0.0328719728] yes=17,no=18,missing=17
				17:leaf=0.190173939
				18:[f1<0.00535117043] yes=33,no=34,missing=33
					33:[f1<0.00508361217] yes=55,no=56,missing=55
						55:leaf=-0.161251441
						56:leaf=0.133805558
					34:[f0<0.0397923887] yes=57,no=58,missing=57
						57:leaf=-0.143923789
						58:leaf=-0.1941984
		4:[f0<0.0467128009] yes=9,no=10,missing=9
			9:leaf=0.185902953
			10:[f1<0.00581939798] yes=19,no=20,missing=19
				19:[f1<0.00508361217] yes=35,no=36,missing=35
					35:[f1<0.00423076935] yes=59,no=60,missing=59
						59:leaf=0.0775620192
						60:leaf=-0.0793998837
					36:[f0<0.0847750902] yes=61,no=62,missing=61
						61:leaf=0.191899493
						62:leaf=0.224468604
				20:[f6<0.00193798449] yes=37,no=38,missing=37
					37:[f6<0.00173921685] yes=63,no=64,missing=63
						63:leaf=-0.177591264
						64:leaf=-0.105998613
					38:[f0<0.0674740523] yes=65,no=66,missing=65
						65:leaf=0.197155207
						66:leaf=0.00166298647
	2:[f6<0.00263367128] yes=5,no=6,missing=5
		5:[f6<0.00144106545] yes=11,no=12,missing=11
			11:[f5<0.957173944] yes=21,no=22,missing=21
				21:leaf=-0
				22:leaf=-0.173074514
			12:[f0<0.0501730107] yes=23,no=24,missing=23
				23:leaf=0.208019719
				24:[f6<0.002236136] yes=39,no=40,missing=39
					39:leaf=-0.179442644
					40:[f0<0.0761245638] yes=67,no=68,missing=67
						67:leaf=0.212741718
						68:leaf=-0.169797048
		6:[f0<0.0916955024] yes=13,no=14,missing=13
			13:[f1<0.0115384618] yes=25,no=26,missing=25
				25:[f6<0.00273305504] yes=41,no=42,missing=41
					41:leaf=-0.0376765542
					42:[f6<0.00352812558] yes=69,no=70,missing=69
						69:leaf=0.158802226
						70:leaf=0.0236228369
				26:[f1<0.0123913046] yes=43,no=44,missing=43
					43:leaf=0.187614143
					44:[f6<0.00337904994] yes=71,no=72,missing=71
						71:leaf=0.172606453
						72:leaf=0.0347376429
			14:[f6<0.0053170342] yes=27,no=28,missing=27
				27:[f6<0.00362750934] yes=45,no=46,missing=45
					45:leaf=-0.1694718
					46:[f0<0.126297578] yes=73,no=74,missing=73
						73:leaf=0.226824194
						74:leaf=-0.150037482
				28:[f0<0.183391005] yes=47,no=48,missing=47
					47:[f0<0.10899654] yes=75,no=76,missing=75
						75:leaf=0.0528596975
						76:leaf=0.213147938
					48:[f0<0.198961943] yes=77,no=78,missing=77
						77:leaf=-0.0596333332
						78:leaf=-0.189973757
booster[8]:
0:[f1<0.00998327695] yes=1,no=2,missing=1
	1:[f6<0.0012422977] yes=3,no=4,missing=3
		3:[f6<0.000447227183] yes=7,no=8,missing=7
			7:[f5<0.985000014] yes=15,no=16,missing=15
				15:leaf=0.0226497352
				16:leaf=0.172753736
			8:[f0<0.0155709349] yes=17,no=18,missing=17
				17:leaf=-0.198371574
				18:[f6<0.00114291394] yes=29,no=30,missing=29
					29:[f3<0.0230769236] yes=47,no=48,missing=47
						47:leaf=0.1484797
						48:leaf=-0.0219939202
					30:[f0<0.0397923887] yes=49,no=50,missing=49
						49:leaf=-0.240443289
						50:leaf=0.172416985
		4:[f0<0.0432525948] yes=9,no=10,missing=9
			9:leaf=-0.172325909
			10:[f1<0.00590301026] yes=19,no=20,missing=19
				19:[f1<0.00508361217] yes=31,no=32,missing=31
					31:[f6<0.00233551976] yes=51,no=52,missing=51
						51:leaf=0.0835389569
						52:leaf=-0.0661431253
					32:[f6<0.00154044922] yes=53,no=54,missing=53
						53:leaf=0.0172351524
						54:leaf=-0.191897348
				20:[f6<0.00442257989] yes=33,no=34,missing=33
					33:[f0<0.126297578] yes=55,no=56,missing=55
						55:leaf=-0.000790753518
						56:leaf=0.285543948
					34:[f0<0.15743944] yes=57,no=58,missing=57
						57:leaf=-0.191607863
						58:leaf=0.0480512418
	2:[f6<0.00422381237] yes=5,no=6,missing=5
		5:[f6<0.002236136] yes=11,no=12,missing=11
			11:[f0<0.019031141] yes=21,no=22,missing=21
				21:[f6<0.000596302911] yes=35,no=36,missing=35
					35:leaf=0.167988777
					36:leaf=-0.212292895
				22:leaf=0.159057483
			12:[f0<0.0778546706] yes=23,no=24,missing=23
				23:[f6<0.00342874182] yes=37,no=38,missing=37
					37:[f1<0.0115551837] yes=59,no=60,missing=59
						59:leaf=-0.0640173331
						60:leaf=-0.187613249
					38:[f6<0.0038262771] yes=61,no=62,missing=61
						61:leaf=0.145700589
						62:leaf=-0.133522436
				24:[f0<0.112456754] yes=39,no=40,missing=39
					39:[f6<0.0032299743] yes=63,no=64,missing=63
						63:leaf=0.152621716
						64:leaf=-0.22901243
					40:leaf=0.169718236
		6:[f0<0.153979242] yes=13,no=14,missing=13
			13:[f6<0.00482011493] yes=25,no=26,missing=25
				25:[f0<0.147058815] yes=41,no=42,missing=41
					41:[f6<0.00452196412] yes=65,no=66,missing=65
						65:leaf=-0.198122814
						66:leaf=0.0921700299
					42:[f1<0.0115551837] yes=67,no=68,missing=67
						67:leaf=0.0605467968
						68:leaf=0.139755547
				26:[f8<0.166666672] yes=43,no=44,missing=43
					43:[f0<0.0709342584] yes=69,no=70,missing=69
						69:leaf=-0.0826593265
						70:leaf=-0.225731015
					44:leaf=0.0329095796
			14:[f6<0.0053170342] yes=27,no=28,missing=27
				27:leaf=0.175674751
				28:[f0<0.183391005] yes=45,no=46,missing=45
					45:leaf=-0.164187297
					46:[f0<0.198961943] yes=71,no=72,missing=71
						71:leaf=0.0470995754
						72:leaf=0.165817425
booster[9]:
0:[f1<0.00998327695] yes=1,no=2,missing=1
	1:[f6<0.0012422977] yes=3,no=4,missing=3
		3:[f6<0.000447227183] yes=7,no=8,missing=7
			7:[f5<0.985000014] yes=15,no=16,missing=15
				15:leaf=-0.0226497352
				16:leaf=-0.172753736
			8:[f0<0.0155709349] yes=17,no=18,missing=17
				17:leaf=0.198371574
				18:[f6<0.00114291394] yes=29,no=30,missing=29
					29:[f3<0.0230769236] yes=47,no=48,missing=47
						47:leaf=-0.1484797
						48:leaf=0.0219939016
					30:[f0<0.0397923887] yes=49,no=50,missing=49
						49:leaf=0.240443274
						50:leaf=-0.172416985
		4:[f0<0.0432525948] yes=9,no=10,missing=9
			9:leaf=0.172325909
			10:[f1<0.00590301026] yes=19,no=20,missing=19
				19:[f1<0.00508361217] yes=31,no=32,missing=31
					31:[f6<0.00233551976] yes=51,no=52,missing=51
						51:leaf=-0.0835389495
						52:leaf=0.0661431327
					32:[f6<0.00154044922] yes=53,no=54,missing=53
						53:leaf=-0.0172351543
						54:leaf=0.191897348
				20:[f6<0.00442257989] yes=33,no=34,missing=33
					33:[f0<0.126297578] yes=55,no=56,missing=55
						55:leaf=0.000790746417
						56:leaf=-0.285543948
					34:[f0<0.15743944] yes=57,no=58,missing=57
						57:leaf=0.191607863
						58:leaf=-0.0480512418
	2:[f6<0.00422381237] yes=5,no=6,missing=5
		5:[f6<0.002236136] yes=11,no=12,missing=11
			11:[f0<0.019031141] yes=21,no=22,missing=21
				21:[f6<0.000596302911] yes=35,no=36,missing=35
					35:leaf=-0.167988762
					36:leaf=0.212292895
				22:leaf=-0.159057468
			12:[f0<0.0778546706] yes=23,no=24,missing=23
				23:[f6<0.00342874182] yes=37,no=38,missing=37
					37:[f1<0.0115551837] yes=59,no=60,missing=59
						59:leaf=0.0640173107
						60:leaf=0.187613249
					38:[f6<0.0038262771] yes=61,no=62,missing=61
						61:leaf=-0.145700589
						62:leaf=0.133522451
				24:[f0<0.112456754] yes=39,no=40,missing=39
					39:[f6<0.0032299743] yes=63,no=64,missing=63
						63:leaf=-0.152621716
						64:leaf=0.229012415
					40:leaf=-0.169718236
		6:[f0<0.153979242] yes=13,no=14,missing=13
			13:[f6<0.00482011493] yes=25,no=26,missing=25
				25:[f0<0.147058815] yes=41,no=42,missing=41
					41:[f6<0.00452196412] yes=65,no=66,missing=65
						65:leaf=0.198122814
						66:leaf=-0.0921700299
					42:[f1<0.0115551837] yes=67,no=68,missing=67
						67:leaf=-0.0605468154
						68:leaf=-0.139755547
				26:[f8<0.166666672] yes=43,no=44,missing=43
					43:[f0<0.0709342584] yes=69,no=70,missing=69
						69:leaf=0.082659319
						70:leaf=0.225731015
					44:leaf=-0.0329095945
			14:[f6<0.0053170342] yes=27,no=28,missing=27
				27:leaf=-0.175674766
				28:[f0<0.183391005] yes=45,no=46,missing=45
					45:leaf=0.164187297
					46:[f0<0.198961943] yes=71,no=72,missing=71
						71:leaf=-0.0470995419
						72:leaf=-0.165817425
booster[10]:
0:[f1<0.00998327695] yes=1,no=2,missing=1
	1:[f6<0.00173921685] yes=3,no=4,missing=3
		3:[f6<0.000944146304] yes=7,no=8,missing=7
			7:[f6<0.000447227183] yes=15,no=16,missing=15
				15:[f5<0.985000014] yes=31,no=32,missing=31
					31:leaf=0.0189501941
					32:leaf=0.164512962
				16:[f0<0.0155709349] yes=33,no=34,missing=33
					33:leaf=-0.193841562
					34:[f3<0.0230769236] yes=53,no=54,missing=53
						53:leaf=0.152766764
						54:leaf=-0.017412819
			8:[f0<0.0328719728] yes=17,no=18,missing=17
				17:leaf=-0.169437781
				18:[f0<0.0467128009] yes=35,no=36,missing=35
					35:[f6<0.00134168158] yes=55,no=56,missing=55
						55:leaf=0.134506434
						56:leaf=-0.200552508
					36:[f6<0.00163983298] yes=57,no=58,missing=57
						57:leaf=0.166252345
						58:leaf=0.0825692415
		4:[f0<0.0605536327] yes=9,no=10,missing=9
			9:[f0<0.0432525948] yes=19,no=20,missing=19
				19:[f6<0.00183860073] yes=37,no=38,missing=37
					37:[f0<0.0155709349] yes=59,no=60,missing=59
						59:leaf=0.0571922697
						60:leaf=-0.139231652
					38:leaf=-0.163559854
				20:[f6<0.00213675201] yes=39,no=40,missing=39
					39:leaf=-0.236579254
					40:leaf=-0.169681251
			10:[f6<0.00293182256] yes=21,no=22,missing=21
				21:[f0<0.0882352889] yes=41,no=42,missing=41
					41:[f6<0.00253428752] yes=61,no=62,missing=61
						61:leaf=0.0918000564
						62:leaf=-0.184341431
					42:[f3<0.0076923077] yes=63,no=64,missing=63
						63:leaf=0.197946414
						64:leaf=0.0901876017
				22:[f0<0.102076128] yes=43,no=44,missing=43
					43:[f0<0.0916955024] yes=65,no=66,missing=65
						65:leaf=-0.175270334
						66:leaf=-0.225979999
					44:[f6<0.00342874182] yes=67,no=68,missing=67
						67:leaf=0.201230779
						68:leaf=-0.0536093488
	2:[f6<0.00243490352] yes=5,no=6,missing=5
		5:[f6<0.000944146304] yes=11,no=12,missing=11
			11:[f5<0.961739123] yes=23,no=24,missing=23
				23:leaf=0.018164333
				24:leaf=0.158407912
			12:[f0<0.0328719728] yes=25,no=26,missing=25
				25:leaf=-0.206168935
				26:[f6<0.00144106545] yes=45,no=46,missing=45
					45:leaf=0.165135652
					46:[f0<0.0501730107] yes=69,no=70,missing=69
						69:leaf=-0.228064626
						70:leaf=0.151514396
		6:[f0<0.0847750902] yes=13,no=14,missing=13
			13:[f6<0.00263367128] yes=27,no=28,missing=27
				27:leaf=-0.242986038
				28:[f0<0.0380622819] yes=47,no=48,missing=47
					47:leaf=-0.157569468
					48:[f1<0.0123913046] yes=71,no=72,missing=71
						71:leaf=-0.112990767
						72:leaf=0.0169318616
			14:[f6<0.00422381237] yes=29,no=30,missing=29
				29:[f0<0.112456754] yes=49,no=50,missing=49
					49:[f6<0.0032299743] yes=73,no=74,missing=73
						73:leaf=0.137748957
						74:leaf=-0.192061573
					50:leaf=0.158913076
				30:[f0<0.15743944] yes=51,no=52,missing=51
					51:[f6<0.00462134741] yes=75,no=76,missing=75
						75:leaf=0.0363673121
						76:leaf=-0.162935019
					52:[f6<0.00601272099] yes=77,no=78,missing=77
						77:leaf=0.146924958
						78:leaf=0.0529146343
booster[11]:
0:[f1<0.00998327695] yes=1,no=2,missing=1
	1:[f6<0.00173921685] yes=3,no=4,missing=3
		3:[f6<0.000944146304] yes=7,no=8,missing=7
			7:[f6<0.000447227183] yes=15,no=16,missing=15
				15:[f5<0.985000014] yes=31,no=32,missing=31
					31:leaf=-0.0189501978
					32:leaf=-0.164512962
				16:[f0<0.0155709349] yes=33,no=34,missing=33
					33:leaf=0.193841562
					34:[f3<0.0230769236] yes=53,no=54,missing=53
						53:leaf=-0.152766764
						54:leaf=0.0174128115
			8:[f0<0.0328719728] yes=17,no=18,missing=17
				17:leaf=0.169437781
				18:[f0<0.0467128009] yes=35,no=36,missing=35
					35:[f6<0.00134168158] yes=55,no=56,missing=55
						55:leaf=-0.134506434
						56:leaf=0.200552508
					36:[f6<0.00163983298] yes=57,no=58,missing=57
						57:leaf=-0.166252345
						58:leaf=-0.0825692564
		4:[f0<0.0605536327] yes=9,no=10,missing=9
			9:[f0<0.0432525948] yes=19,no=20,missing=19
				19:[f6<0.00183860073] yes=37,no=38,missing=37
					37:[f0<0.0155709349] yes=59,no=60,missing=59
						59:leaf=-0.0571922697
						60:leaf=0.139231652
					38:leaf=0.163559854
				20:[f6<0.00213675201] yes=39,no=40,missing=39
					39:leaf=0.236579254
					40:leaf=0.169681251
			10:[f6<0.00293182256] yes=21,no=22,missing=21
				21:[f0<0.0882352889] yes=41,no=42,missing=41
					41:[f6<0.00253428752] yes=61,no=62,missing=61
						61:leaf=-0.0918000638
						62:leaf=0.184341431
					42:[f3<0.0076923077] yes=63,no=64,missing=63
						63:leaf=-0.197946414
						64:leaf=-0.0901876017
				22:[f0<0.102076128] yes=43,no=44,missing=43
					43:[f0<0.0916955024] yes=65,no=66,missing=65
						65:leaf=0.175270334
						66:leaf=0.225980014
					44:[f6<0.00342874182] yes=67,no=68,missing=67
						67:leaf=-0.201230749
						68:leaf=0.0536093265
	2:[f6<0.00243490352] yes=5,no=6,missing=5
		5:[f6<0.000944146304] yes=11,no=12,missing=11
			11:[f5<0.961739123] yes=23,no=24,missing=23
				23:leaf=-0.0181643311
				24:leaf=-0.158407912
			12:[f0<0.0328719728] yes=25,no=26,missing=25
				25:leaf=0.206168935
				26:[f6<0.00144106545] yes=45,no=46,missing=45
					45:leaf=-0.165135652
					46:[f0<0.0501730107] yes=69,no=70,missing=69
						69:leaf=0.228064626
						70:leaf=-0.151514396
		6:[f0<0.0847750902] yes=13,no=14,missing=13
			13:[f6<0.00263367128] yes=27,no=28,missing=27
				27:leaf=0.242986023
				28:[f0<0.0380622819] yes=47,no=48,missing=47
					47:leaf=0.157569468
					48:[f1<0.0123913046] yes=71,no=72,missing=71
						71:leaf=0.112990774
						72:leaf=-0.0169318598
			14:[f6<0.00422381237] yes=29,no=30,missing=29
				29:[f0<0.112456754] yes=49,no=50,missing=49
					49:[f6<0.0032299743] yes=73,no=74,missing=73
						73:leaf=-0.137748957
						74:leaf=0.192061573
					50:leaf=-0.158913076
				30:[f0<0.15743944] yes=51,no=52,missing=51
					51:[f6<0.00462134741] yes=75,no=76,missing=75
						75:leaf=-0.0363673232
						76:leaf=0.162935019
					52:[f6<0.00601272099] yes=77,no=78,missing=77
						77:leaf=-0.146924928
						78:leaf=-0.0529146567
booster[12]:
0:[f1<0.00994983315] yes=1,no=2,missing=1
	1:[f1<0.00581939798] yes=3,no=4,missing=3
		3:[f1<0.00508361217] yes=7,no=8,missing=7
			7:[f6<0.00163983298] yes=15,no=16,missing=15
				15:[f1<0.00299331103] yes=29,no=30,missing=29
					29:leaf=0.0230172407
					30:[f0<0.0432525948] yes=51,no=52,missing=51
						51:leaf=0.0826359764
						52:leaf=0.153078899
				16:[f0<0.0570934266] yes=31,no=32,missing=31
					31:leaf=-0.194092125
					32:[f6<0.0028324388] yes=53,no=54,missing=53
						53:leaf=0.107735328
						54:leaf=-0.0438021831
			8:leaf=-0.172655135
		4:[f6<0.00173921685] yes=9,no=10,missing=9
			9:[f6<0.00114291394] yes=17,no=18,missing=17
				17:[f3<0.0076923077] yes=33,no=34,missing=33
					33:[f6<0.000645994791] yes=55,no=56,missing=55
						55:leaf=0.149832472
						56:leaf=0.0994852111
					34:[f0<0.0259515569] yes=57,no=58,missing=57
						57:leaf=-0.0316357277
						58:leaf=0.132174984
				18:[f0<0.0397923887] yes=35,no=36,missing=35
					35:[f0<0.0328719728] yes=59,no=60,missing=59
						59:leaf=-0.154735208
						60:leaf=-0.253084004
					36:[f0<0.0536332205] yes=61,no=62,missing=61
						61:leaf=0.0827616155
						62:leaf=0.175023586
			10:[f0<0.0605536327] yes=19,no=20,missing=19
				19:leaf=-0.163257018
				20:[f6<0.00511826668] yes=37,no=38,missing=37
					37:[f0<0.136678189] yes=63,no=64,missing=63
						63:leaf=-0.00175994483
						64:leaf=0.248125017
					38:[f0<0.178200692] yes=65,no=66,missing=65
						65:leaf=-0.180293307
						66:leaf=0.0589932613
	2:[f6<0.0028324388] yes=5,no=6,missing=5
		5:[f6<0.00193798449] yes=11,no=12,missing=11
			11:[f0<0.019031141] yes=21,no=22,missing=21
				21:[f6<0.000596302911] yes=39,no=40,missing=39
					39:[f6<0.000447227183] yes=67,no=68,missing=67
						67:leaf=0.159210116
						68:leaf=0.078264609
					40:[f1<0.0115551837] yes=69,no=70,missing=69
						69:leaf=-0.0500325002
						70:leaf=-0.221824661
				22:leaf=0.143830627
			12:[f0<0.0674740523] yes=23,no=24,missing=23
				23:[f1<0.0115551837] yes=41,no=42,missing=41
					41:leaf=-0.0744632781
					42:leaf=-0.18224068
				24:[f1<0.0173578598] yes=43,no=44,missing=43
					43:[f8<0.166666672] yes=71,no=72,missing=71
						71:leaf=0.156168267
						72:leaf=0.0814987272
					44:[f0<0.0813148767] yes=73,no=74,missing=73
						73:leaf=-0.0087614907
						74:leaf=0.123131029
		6:[f0<0.0986159146] yes=13,no=14,missing=13
			13:[f6<0.00342874182] yes=25,no=26,missing=25
				25:leaf=-0.188435718
				26:[f1<0.0115384618] yes=45,no=46,missing=45
					45:leaf=0.0873632729
					46:[f6<0.0038262771] yes=75,no=76,missing=75
						75:leaf=0.0505493321
						76:leaf=-0.118815444
			14:[f1<0.0123913046] yes=27,no=28,missing=27
				27:[f1<0.0115384618] yes=47,no=48,missing=47
					47:[f0<0.129757792] yes=77,no=78,missing=77
						77:leaf=0.0797092468
						78:leaf=0.133647501
					48:[f6<0.00308089843] yes=79,no=80,missing=79
						79:leaf=0.0944201797
						80:leaf=-0.0975780711
				28:[f6<0.00472073164] yes=49,no=50,missing=49
					49:leaf=0.152485311
					50:[f0<0.162629753] yes=81,no=82,missing=81
						81:leaf=-0.148066223
						82:leaf=0.111765131
booster[13]:
0:[f1<0.00994983315] yes=1,no=2,missing=1
	1:[f1<0.00581939798] yes=3,no=4,missing=3
		3:[f1<0.00508361217] yes=7,no=8,missing=7
			7:[f6<0.00163983298] yes=15,no=16,missing=15
				15:[f1<0.00299331103] yes=29,no=30,missing=29
					29:leaf=-0.0230172239
					30:[f0<0.0432525948] yes=51,no=52,missing=51
						51:leaf=-0.0826359689
						52:leaf=-0.153078899
				16:[f0<0.0570934266] yes=31,no=32,missing=31
					31:leaf=0.194092125
					32:[f6<0.0028324388] yes=53,no=54,missing=53
						53:leaf=-0.107735328
						54:leaf=0.0438021906
			8:leaf=0.172655135
		4:[f6<0.00173921685] yes=9,no=10,missing=9
			9:[f6<0.00114291394] yes=17,no=18,missing=17
				17:[f3<0.0076923077] yes=33,no=34,missing=33
					33:[f6<0.000645994791] yes=55,no=56,missing=55
						55:leaf=-0.149832472
						56:leaf=-0.0994851962
					34:[f0<0.0259515569] yes=57,no=58,missing=57
						57:leaf=0.0316357389
						58:leaf=-0.132174984
				18:[f0<0.0397923887] yes=35,no=36,missing=35
					35:[f0<0.0328719728] yes=59,no=60,missing=59
						59:leaf=0.154735208
						60:leaf=0.253083974
					36:[f0<0.0536332205] yes=61,no=62,missing=61
						61:leaf=-0.0827616081
						62:leaf=-0.1750236
			10:[f0<0.0605536327] yes=19,no=20,missing=19
				19:leaf=0.163257018
				20:[f6<0.00511826668] yes=37,no=38,missing=37
					37:[f0<0.136678189] yes=63,no=64,missing=63
						63:leaf=0.00175994181
						64:leaf=-0.248125017
					38:[f0<0.178200692] yes=65,no=66,missing=65
						65:leaf=0.180293307
						66:leaf=-0.058993239
	2:[f6<0.0028324388] yes=5,no=6,missing=5
		5:[f6<0.00193798449] yes=11,no=12,missing=11
			11:[f0<0.019031141] yes=21,no=22,missing=21
				21:[f6<0.000596302911] yes=39,no=40,missing=39
					39:[f6<0.000447227183] yes=67,no=68,missing=67
						67:leaf=-0.159210116
						68:leaf=-0.0782645792
					40:[f1<0.0115551837] yes=69,no=70,missing=69
						69:leaf=0.0500325002
						70:leaf=0.221824661
				22:leaf=-0.143830642
			12:[f0<0.0674740523] yes=23,no=24,missing=23
				23:[f1<0.0115551837] yes=41,no=42,missing=41
					41:leaf=0.0744632855
					42:leaf=0.18224068
				24:[f1<0.0173578598] yes=43,no=44,missing=43
					43:[f8<0.166666672] yes=71,no=72,missing=71
						71:leaf=-0.156168267
						72:leaf=-0.0814987347
					44:[f0<0.0813148767] yes=73,no=74,missing=73
						73:leaf=0.0087614581
						74:leaf=-0.123131037
		6:[f0<0.0986159146] yes=13,no=14,missing=13
			13:[f6<0.00342874182] yes=25,no=26,missing=25
				25:leaf=0.188435718
				26:[f1<0.0115384618] yes=45,no=46,missing=45
					45:leaf=-0.087363258
					46:[f6<0.0038262771] yes=75,no=76,missing=75
						75:leaf=-0.0505493693
						76:leaf=0.118815444
			14:[f1<0.0123913046] yes=27,no=28,missing=27
				27:[f1<0.0115384618] yes=47,no=48,missing=47
					47:[f0<0.129757792] yes=77,no=78,missing=77
						77:leaf=-0.0797092393
						78:leaf=-0.133647501
					48:[f6<0.00308089843] yes=79,no=80,missing=79
						79:leaf=-0.0944201723
						80:leaf=0.097578086
				28:[f6<0.00472073164] yes=49,no=50,missing=49
					49:leaf=-0.152485311
					50:[f0<0.162629753] yes=81,no=82,missing=81
						81:leaf=0.148066223
						82:leaf=-0.111765116
booster[14]:
0:[f1<0.00998327695] yes=1,no=2,missing=1
	1:[f1<0.00581939798] yes=3,no=4,missing=3
		3:[f1<0.00508361217] yes=7,no=8,missing=7
			7:[f6<0.00163983298] yes=15,no=16,missing=15
				15:[f6<0.000894454366] yes=31,no=32,missing=31
					31:leaf=0.139206514
					32:[f0<0.0363321789] yes=53,no=54,missing=53
						53:leaf=-0.0840855092
						54:leaf=0.12761344
				16:[f0<0.0570934266] yes=33,no=34,missing=33
					33:leaf=-0.181261003
					34:[f6<0.00263367128] yes=55,no=56,missing=55
						55:leaf=0.0964447483
						56:leaf=-0.0292530619
			8:[f6<0.0012422977] yes=17,no=18,missing=17
				17:[f1<0.00535117043] yes=35,no=36,missing=35
					35:leaf=-0.143086985
					36:leaf=0.0218385402
				18:leaf=-0.167059913
		4:[f6<0.00342874182] yes=9,no=10,missing=9
			9:[f0<0.102076128] yes=19,no=20,missing=19
				19:[f6<0.00293182256] yes=37,no=38,missing=37
					37:[f0<0.0743944645] yes=57,no=58,missing=57
						57:leaf=0.00276365876
						58:leaf=0.117691271
					38:[f0<0.0847750902] yes=59,no=60,missing=59
						59:leaf=-0.152231187
						60:leaf=-0.218661398
				20:[f8<0.166666672] yes=39,no=40,missing=39
					39:[f1<0.00961538497] yes=61,no=62,missing=61
						61:leaf=0.20738852
						62:leaf=0.0338237062
					40:[f0<0.112456754] yes=63,no=64,missing=63
						63:leaf=-0.0525293685
						64:leaf=0.140035495
			10:[f0<0.119377166] yes=21,no=22,missing=21
				21:[f5<0.992826104] yes=41,no=42,missing=41
					41:leaf=0.00826675538
					42:[f6<0.00521765091] yes=65,no=66,missing=65
						65:leaf=-0.191589847
						66:leaf=-0.132321045
				22:[f6<0.00412442815] yes=43,no=44,missing=43
					43:[f6<0.00362750934] yes=67,no=68,missing=67
						67:leaf=0.357328176
						68:leaf=0.134606212
					44:[f0<0.143598616] yes=69,no=70,missing=69
						69:leaf=-0.197535977
						70:leaf=0.032569617
	2:[f6<0.0028324388] yes=5,no=6,missing=5
		5:[f6<0.000944146304] yes=11,no=12,missing=11
			11:[f5<0.961739123] yes=23,no=24,missing=23
				23:leaf=0.0166855603
				24:leaf=0.144115523
			12:[f0<0.0328719728] yes=25,no=26,missing=25
				25:leaf=-0.192984298
				26:[f6<0.00144106545] yes=45,no=46,missing=45
					45:leaf=0.15429312
					46:[f0<0.0501730107] yes=71,no=72,missing=71
						71:leaf=-0.204249367
						72:leaf=0.126943216
		6:[f0<0.0986159146] yes=13,no=14,missing=13
			13:[f6<0.00342874182] yes=27,no=28,missing=27
				27:leaf=-0.17326647
				28:[f1<0.0115384618] yes=47,no=48,missing=47
					47:leaf=0.0995322466
					48:[f1<0.0123913046] yes=73,no=74,missing=73
						73:leaf=-0.134293556
						74:leaf=0.0152286198
			14:[f6<0.00422381237] yes=29,no=30,missing=29
				29:[f0<0.105536327] yes=49,no=50,missing=49
					49:[f6<0.00303120655] yes=75,no=76,missing=75
						75:leaf=0.144247428
						76:leaf=-0.256170273
					50:[f0<0.112456754] yes=77,no=78,missing=77
						77:leaf=0.0862116069
						78:leaf=0.145138755
				30:[f0<0.153979242] yes=51,no=52,missing=51
					51:[f6<0.00462134741] yes=79,no=80,missing=79
						79:leaf=0.00893831439
						80:leaf=-0.146108031
					52:[f6<0.0053170342] yes=81,no=82,missing=81
						81:leaf=0.153284177
						82:leaf=0.0277114306
booster[15]:
0:[f1<0.00998327695] yes=1,no=2,missing=1
	1:[f1<0.00581939798] yes=3,no=4,missing=3
		3:[f1<0.00508361217] yes=7,no=8,missing=7
			7:[f6<0.00163983298] yes=15,no=16,missing=15
				15:[f6<0.000894454366] yes=31,no=32,missing=31
					31:leaf=-0.139206514
					32:[f0<0.0363321789] yes=53,no=54,missing=53
						53:leaf=0.0840855092
						54:leaf=-0.127613425
				16:[f0<0.0570934266] yes=33,no=34,missing=33
					33:leaf=0.181261003
					34:[f6<0.00263367128] yes=55,no=56,missing=55
						55:leaf=-0.0964447483
						56:leaf=0.02925306
			8:[f6<0.0012422977] yes=17,no=18,missing=17
				17:[f1<0.00535117043] yes=35,no=36,missing=35
					35:leaf=0.143086985
					36:leaf=-0.0218385458
				18:leaf=0.167059913
		4:[f6<0.00342874182] yes=9,no=10,missing=9
			9:[f0<0.102076128] yes=19,no=20,missing=19
				19:[f6<0.00293182256] yes=37,no=38,missing=37
					37:[f0<0.0743944645] yes=57,no=58,missing=57
						57:leaf=-0.00276363967
						58:leaf=-0.117691271
					38:[f0<0.0847750902] yes=59,no=60,missing=59
						59:leaf=0.152231187
						60:leaf=0.218661413
				20:[f8<0.166666672] yes=39,no=40,missing=39
					39:[f1<0.00961538497] yes=61,no=62,missing=61
						61:leaf=-0.207388535
						62:leaf=-0.0338237062
					40:[f0<0.112456754] yes=63,no=64,missing=63
						63:leaf=0.0525293574
						64:leaf=-0.140035495
			10:[f0<0.119377166] yes=21,no=22,missing=21
				21:[f5<0.992826104] yes=41,no=42,missing=41
					41:leaf=-0.00826669671
					42:[f6<0.00521765091] yes=65,no=66,missing=65
						65:leaf=0.191589847
						66:leaf=0.132321045
				22:[f6<0.00412442815] yes=43,no=44,missing=43
					43:[f6<0.00362750934] yes=67,no=68,missing=67
						67:leaf=-0.357328147
						68:leaf=-0.134606197
					44:[f0<0.143598616] yes=69,no=70,missing=69
						69:leaf=0.197535977
						70:leaf=-0.0325696021
	2:[f6<0.0028324388] yes=5,no=6,missing=5
		5:[f6<0.000944146304] yes=11,no=12,missing=11
			11:[f5<0.961739123] yes=23,no=24,missing=23
				23:leaf=-0.0166855566
				24:leaf=-0.144115508
			12:[f0<0.0328719728] yes=25,no=26,missing=25
				25:leaf=0.192984298
				26:[f6<0.00144106545] yes=45,no=46,missing=45
					45:leaf=-0.154293135
					46:[f0<0.0501730107] yes=71,no=72,missing=71
						71:leaf=0.204249352
						72:leaf=-0.126943216
		6:[f0<0.0986159146] yes=13,no=14,missing=13
			13:[f6<0.00342874182] yes=27,no=28,missing=27
				27:leaf=0.17326647
				28:[f1<0.0115384618] yes=47,no=48,missing=47
					47:leaf=-0.0995322242
					48:[f1<0.0123913046] yes=73,no=74,missing=73
						73:leaf=0.134293541
						74:leaf=-0.0152286077
			14:[f6<0.00422381237] yes=29,no=30,missing=29
				29:[f0<0.105536327] yes=49,no=50,missing=49
					49:[f6<0.00303120655] yes=75,no=76,missing=75
						75:leaf=-0.144247428
						76:leaf=0.256170273
					50:[f0<0.112456754] yes=77,no=78,missing=77
						77:leaf=-0.0862115547
						78:leaf=-0.145138755
				30:[f0<0.153979242] yes=51,no=52,missing=51
					51:[f6<0.00462134741] yes=79,no=80,missing=79
						79:leaf=-0.00893831812
						80:leaf=0.146108031
					52:[f6<0.0053170342] yes=81,no=82,missing=81
						81:leaf=-0.153284177
						82:leaf=-0.027711425
booster[16]:
0:[f6<0.00193798449] yes=1,no=2,missing=1
	1:[f6<0.000844762428] yes=3,no=4,missing=3
		3:[f6<0.000447227183] yes=7,no=8,missing=7
			7:[f5<0.963695645] yes=15,no=16,missing=15
				15:leaf=0.0196839757
				16:leaf=0.15535745
			8:[f0<0.0155709349] yes=17,no=18,missing=17
				17:[f6<0.000546611031] yes=31,no=32,missing=31
					31:leaf=-0.287025571
					32:leaf=-0.122286454
				18:leaf=0.139707193
		4:[f0<0.0294117648] yes=9,no=10,missing=9
			9:[f6<0.00173921685] yes=19,no=20,missing=19
				19:leaf=-0.178495854
				20:[f0<0.00865051895] yes=33,no=34,missing=33
					33:leaf=0.00748820044
					34:leaf=-0.122098833
			10:[f0<0.0570934266] yes=21,no=22,missing=21
				21:[f6<0.00163983298] yes=35,no=36,missing=35
					35:[f1<0.00827759132] yes=49,no=50,missing=49
						49:leaf=0.0676597059
						50:leaf=0.139057562
					36:[f0<0.0467128009] yes=51,no=52,missing=51
						51:leaf=-0.14235802
						52:leaf=-0.271586359
				22:leaf=0.148131296
	2:[f0<0.0674740523] yes=5,no=6,missing=5
		5:[f1<0.0123913046] yes=11,no=12,missing=11
			11:[f0<0.0536332205] yes=23,no=24,missing=23
				23:[f0<0.0501730107] yes=37,no=38,missing=37
					37:leaf=-0.153384611
					38:[f1<0.00968227442] yes=53,no=54,missing=53
						53:leaf=-0.118386112
						54:leaf=-0.0109306611
				24:leaf=-0.183442354
			12:[f6<0.00337904994] yes=25,no=26,missing=25
				25:leaf=-0.129857123
				26:[f0<0.0380622819] yes=39,no=40,missing=39
					39:leaf=-0.0922328904
					40:[f6<0.00392566063] yes=55,no=56,missing=55
						55:leaf=0.161386341
						56:leaf=0.0359855779
		6:[f6<0.00243490352] yes=13,no=14,missing=13
			13:[f6<0.002236136] yes=27,no=28,missing=27
				27:[f6<0.00213675201] yes=41,no=42,missing=41
					41:[f1<0.00583612081] yes=57,no=58,missing=57
						57:leaf=0.0353125297
						58:leaf=0.177278608
					42:[f0<0.0743944645] yes=59,no=60,missing=59
						59:leaf=-0.230478764
						60:leaf=0.162648886
				28:[f0<0.0778546706] yes=43,no=44,missing=43
					43:[f1<0.00583612081] yes=61,no=62,missing=61
						61:leaf=-0.117989309
						62:leaf=-0.352020711
					44:leaf=0.168119937
			14:[f0<0.0847750902] yes=29,no=30,missing=29
				29:[f6<0.00253428752] yes=45,no=46,missing=45
					45:leaf=-0.256079882
					46:leaf=-0.16450493
				30:[f6<0.00313059031] yes=47,no=48,missing=47
					47:[f0<0.0986159146] yes=63,no=64,missing=63
						63:leaf=0.065512605
						64:leaf=0.159263447
					48:[f0<0.10899654] yes=65,no=66,missing=65
						65:leaf=-0.167120382
						66:leaf=0.010916057
booster[17]:
0:[f6<0.00193798449] yes=1,no=2,missing=1
	1:[f6<0.000844762428] yes=3,no=4,missing=3
		3:[f6<0.000447227183] yes=7,no=8,missing=7
			7:[f5<0.963695645] yes=15,no=16,missing=15
				15:leaf=-0.019683972
				16:leaf=-0.15535745
			8:[f0<0.0155709349] yes=17,no=18,missing=17
				17:[f6<0.000546611031] yes=31,no=32,missing=31
					31:leaf=0.287025511
					32:leaf=0.122286446
				18:leaf=-0.139707193
		4:[f0<0.0294117648] yes=9,no=10,missing=9
			9:[f6<0.00173921685] yes=19,no=20,missing=19
				19:leaf=0.178495854
				20:[f0<0.00865051895] yes=33,no=34,missing=33
					33:leaf=-0.00748818461
					34:leaf=0.122098833
			10:[f0<0.0570934266] yes=21,no=22,missing=21
				21:[f6<0.00163983298] yes=35,no=36,missing=35
					35:[f1<0.00827759132] yes=49,no=50,missing=49
						49:leaf=-0.0676597059
						50:leaf=-0.139057562
					36:[f0<0.0467128009] yes=51,no=52,missing=51
						51:leaf=0.14235802
						52:leaf=0.271586359
				22:leaf=-0.148131296
	2:[f0<0.0674740523] yes=5,no=6,missing=5
		5:[f1<0.0123913046] yes=11,no=12,missing=11
			11:[f0<0.0536332205] yes=23,no=24,missing=23
				23:[f0<0.0501730107] yes=37,no=38,missing=37
					37:leaf=0.153384611
					38:[f1<0.00968227442] yes=53,no=54,missing=53
						53:leaf=0.118386112
						54:leaf=0.0109306425
				24:leaf=0.183442384
			12:[f6<0.00337904994] yes=25,no=26,missing=25
				25:leaf=0.129857108
				26:[f0<0.0380622819] yes=39,no=40,missing=39
					39:leaf=0.0922328979
					40:[f6<0.00392566063] yes=55,no=56,missing=55
						55:leaf=-0.161386326
						56:leaf=-0.0359855667
		6:[f6<0.00243490352] yes=13,no=14,missing=13
			13:[f6<0.002236136] yes=27,no=28,missing=27
				27:[f6<0.00213675201] yes=41,no=42,missing=41
					41:[f1<0.00583612081] yes=57,no=58,missing=57
						57:leaf=-0.0353125148
						58:leaf=-0.177278608
					42:[f0<0.0743944645] yes=59,no=60,missing=59
						59:leaf=0.230478764
						60:leaf=-0.162648886
				28:[f0<0.0778546706] yes=43,no=44,missing=43
					43:[f1<0.00583612081] yes=61,no=62,missing=61
						61:leaf=0.117989331
						62:leaf=0.352020711
					44:leaf=-0.168119937
			14:[f0<0.0847750902] yes=29,no=30,missing=29
				29:[f6<0.00253428752] yes=45,no=46,missing=45
					45:leaf=0.256079882
					46:leaf=0.16450493
				30:[f6<0.00313059031] yes=47,no=48,missing=47
					47:[f0<0.0986159146] yes=63,no=64,missing=63
						63:leaf=-0.0655125976
						64:leaf=-0.159263447
					48:[f0<0.10899654] yes=65,no=66,missing=65
						65:leaf=0.167120382
						66:leaf=-0.0109160561
booster[18]:
0:[f1<0.00581939798] yes=1,no=2,missing=1
	1:[f1<0.00508361217] yes=3,no=4,missing=3
		3:[f1<0.00423076935] yes=7,no=8,missing=7
			7:[f6<0.0028324388] yes=15,no=16,missing=15
				15:[f0<0.0743944645] yes=29,no=30,missing=29
					29:[f6<0.00163983298] yes=45,no=46,missing=45
						45:leaf=0.0649598092
						46:leaf=-0.0779018328
					30:leaf=0.131415799
				16:[f0<0.105536327] yes=31,no=32,missing=31
					31:leaf=-0.158431321
					32:[f6<0.00506857503] yes=47,no=48,missing=47
						47:leaf=0.0477699563
						48:leaf=-0.145289093
			8:[f0<0.11072664] yes=17,no=18,missing=17
				17:[f6<0.00313059031] yes=33,no=34,missing=33
					33:[f0<0.0674740523] yes=49,no=50,missing=49
						49:leaf=-0.0309968274
						50:leaf=0.145029113
					34:leaf=-0.126579508
				18:[f3<0.0076923077] yes=35,no=36,missing=35
					35:leaf=0.29021436
					36:leaf=0.0610161386
		4:[f6<0.0012422977] yes=9,no=10,missing=9
			9:[f0<0.0259515569] yes=19,no=20,missing=19
				19:leaf=-0.12714614
				20:leaf=0.020520607
			10:leaf=-0.160957024
	2:[f6<0.00144106545] yes=5,no=6,missing=5
		5:[f6<0.000447227183] yes=11,no=12,missing=11
			11:[f5<0.963695645] yes=21,no=22,missing=21
				21:leaf=0.0163304936
				22:leaf=0.151751146
			12:[f0<0.0155709349] yes=23,no=24,missing=23
				23:leaf=-0.172596902
				24:[f0<0.0259515569] yes=37,no=38,missing=37
					37:[f6<0.000745378667] yes=51,no=52,missing=51
						51:leaf=0.136088341
						52:leaf=-0.213917196
					38:[f6<0.00114291394] yes=53,no=54,missing=53
						53:leaf=0.147159427
						54:leaf=0.082564868
		6:[f0<0.0501730107] yes=13,no=14,missing=13
			13:[f0<0.0432525948] yes=25,no=26,missing=25
				25:[f1<0.0123913046] yes=39,no=40,missing=39
					39:leaf=-0.142336771
					40:[f0<0.0363321789] yes=55,no=56,missing=55
						55:leaf=-0.108562402
						56:leaf=0.042612873
				26:leaf=-0.189780921
			14:[f6<0.0069071753] yes=27,no=28,missing=27
				27:[f0<0.198961943] yes=41,no=42,missing=41
					41:[f6<0.00561518595] yes=57,no=58,missing=57
						57:leaf=0.0264892131
						58:leaf=-0.15622887
					42:[f1<0.00974916387] yes=59,no=60,missing=59
						59:leaf=0.313473701
						60:leaf=0.148865283
				28:[f0<0.240484431] yes=43,no=44,missing=43
					43:leaf=-0.204364866
					44:[f6<0.00795070641] yes=61,no=62,missing=61
						61:leaf=0.175896719
						62:leaf=-0.120590381
booster[19]:
0:[f1<0.00581939798] yes=1,no=2,missing=1
	1:[f1<0.00508361217] yes=3,no=4,missing=3
		3:[f1<0.00423076935] yes=7,no=8,missing=7
			7:[f6<0.0028324388] yes=15,no=16,missing=15
				15:[f0<0.0743944645] yes=29,no=30,missing=29
					29:[f6<0.00163983298] yes=45,no=46,missing=45
						45:leaf=-0.0649598166
						46:leaf=0.0779018253
					30:leaf=-0.131415814
				16:[f0<0.105536327] yes=31,no=32,missing=31
					31:leaf=0.158431321
					32:[f6<0.00506857503] yes=47,no=48,missing=47
						47:leaf=-0.0477699675
						48:leaf=0.145289093
			8:[f0<0.11072664] yes=17,no=18,missing=17
				17:[f6<0.00313059031] yes=33,no=34,missing=33
					33:[f0<0.0674740523] yes=49,no=50,missing=49
						49:leaf=0.0309968162
						50:leaf=-0.145029113
					34:leaf=0.126579523
				18:[f3<0.0076923077] yes=35,no=36,missing=35
					35:leaf=-0.29021436
					36:leaf=-0.0610161386
		4:[f6<0.0012422977] yes=9,no=10,missing=9
			9:[f0<0.0259515569] yes=19,no=20,missing=19
				19:leaf=0.12714614
				20:leaf=-0.0205206051
			10:leaf=0.160957024
	2:[f6<0.00144106545] yes=5,no=6,missing=5
		5:[f6<0.000447227183] yes=11,no=12,missing=11
			11:[f5<0.963695645] yes=21,no=22,missing=21
				21:leaf=-0.0163304787
				22:leaf=-0.151751146
			12:[f0<0.0155709349] yes=23,no=24,missing=23
				23:leaf=0.172596902
				24:[f0<0.0259515569] yes=37,no=38,missing=37
					37:[f6<0.000745378667] yes=51,no=52,missing=51
						51:leaf=-0.136088341
						52:leaf=0.213917196
					38:[f6<0.00114291394] yes=53,no=54,missing=53
						53:leaf=-0.147159427
						54:leaf=-0.0825648978
		6:[f0<0.0501730107] yes=13,no=14,missing=13
			13:[f0<0.0432525948] yes=25,no=26,missing=25
				25:[f1<0.0123913046] yes=39,no=40,missing=39
					39:leaf=0.142336771
					40:[f0<0.0363321789] yes=55,no=56,missing=55
						55:leaf=0.108562402
						56:leaf=-0.0426128507
				26:leaf=0.189780936
			14:[f6<0.0069071753] yes=27,no=28,missing=27
				27:[f0<0.198961943] yes=41,no=42,missing=41
					41:[f6<0.00561518595] yes=57,no=58,missing=57
						57:leaf=-0.0264892075
						58:leaf=0.15622887
					42:[f1<0.00974916387] yes=59,no=60,missing=59
						59:leaf=-0.313473642
						60:leaf=-0.148865283
				28:[f0<0.240484431] yes=43,no=44,missing=43
					43:leaf=0.204364881
					44:[f6<0.00795070641] yes=61,no=62,missing=61
						61:leaf=-0.175896704
						62:leaf=0.120590396
booster[20]:
0:[f1<0.00998327695] yes=1,no=2,missing=1
	1:[f6<0.00213675201] yes=3,no=4,missing=3
		3:[f0<0.0674740523] yes=7,no=8,missing=7
			7:[f6<0.00193798449] yes=15,no=16,missing=15
				15:[f0<0.0536332205] yes=29,no=30,missing=29
					29:[f6<0.00154044922] yes=41,no=42,missing=41
						41:leaf=0.0533591323
						42:leaf=-0.174063176
					30:[f1<0.00336120417] yes=43,no=44,missing=43
						43:leaf=-0.000477774971
						44:leaf=0.121416077
				16:leaf=-0.179533079
			8:[f1<0.00583612081] yes=17,no=18,missing=17
				17:leaf=0.0343028195
				18:leaf=0.167771786
		4:[f0<0.0743944645] yes=9,no=10,missing=9
			9:[f0<0.0605536327] yes=19,no=20,missing=19
				19:leaf=-0.14244245
				20:leaf=-0.184171975
			10:[f6<0.0028324388] yes=21,no=22,missing=21
				21:[f0<0.0882352889] yes=31,no=32,missing=31
					31:[f6<0.00253428752] yes=45,no=46,missing=45
						45:leaf=0.134267807
						46:leaf=-0.173689544
					32:[f1<0.00583612081] yes=47,no=48,missing=47
						47:leaf=0.0379847288
						48:leaf=0.165453792
				22:[f0<0.0986159146] yes=33,no=34,missing=33
					33:[f6<0.00626118062] yes=49,no=50,missing=49
						49:leaf=-0.176688001
						50:leaf=0.0420560092
					34:[f6<0.00342874182] yes=51,no=52,missing=51
						51:leaf=0.104949228
						52:leaf=-0.0327925645
	2:[f1<0.0115384618] yes=5,no=6,missing=5
		5:[f6<0.00273305504] yes=11,no=12,missing=11
			11:leaf=0.125607833
			12:[f0<0.0865051895] yes=23,no=24,missing=23
				23:leaf=-0.116739191
				24:[f3<0.0076923077] yes=35,no=36,missing=35
					35:[f6<0.0038262771] yes=53,no=54,missing=53
						53:leaf=0.043116793
						54:leaf=0.13658613
					36:leaf=0.00950380415
		6:[f1<0.0123913046] yes=13,no=14,missing=13
			13:[f6<0.000645994791] yes=25,no=26,missing=25
				25:leaf=0.095791012
				26:[f0<0.0259515569] yes=37,no=38,missing=37
					37:leaf=-0.20643428
					38:[f6<0.00193798449] yes=55,no=56,missing=55
						55:leaf=0.0942553654
						56:leaf=-0.0731852576
			14:[f1<0.0132274255] yes=27,no=28,missing=27
				27:leaf=0.156146914
				28:[f1<0.0153678935] yes=39,no=40,missing=39
					39:[f6<0.00253428752] yes=57,no=58,missing=57
						57:leaf=0.00154495914
						58:leaf=-0.233138725
					40:[f1<0.0176421404] yes=59,no=60,missing=59
						59:leaf=0.103321277
						60:leaf=-0.102370188
booster[21]:
0:[f1<0.00998327695] yes=1,no=2,missing=1
	1:[f6<0.00213675201] yes=3,no=4,missing=3
		3:[f0<0.0674740523] yes=7,no=8,missing=7
			7:[f6<0.00193798449] yes=15,no=16,missing=15
				15:[f0<0.0536332205] yes=29,no=30,missing=29
					29:[f6<0.00154044922] yes=41,no=42,missing=41
						41:leaf=-0.053359136
						42:leaf=0.174063176
					30:[f1<0.00336120417] yes=43,no=44,missing=43
						43:leaf=0.000477762049
						44:leaf=-0.121416062
				16:leaf=0.179533079
			8:[f1<0.00583612081] yes=17,no=18,missing=17
				17:leaf=-0.0343028419
				18:leaf=-0.167771786
		4:[f0<0.0743944645] yes=9,no=10,missing=9
			9:[f0<0.0605536327] yes=19,no=20,missing=19
				19:leaf=0.142442465
				20:leaf=0.184171975
			10:[f6<0.0028324388] yes=21,no=22,missing=21
				21:[f0<0.0882352889] yes=31,no=32,missing=31
					31:[f6<0.00253428752] yes=45,no=46,missing=45
						45:leaf=-0.134267822
						46:leaf=0.173689544
					32:[f1<0.00583612081] yes=47,no=48,missing=47
						47:leaf=-0.0379847363
						48:leaf=-0.165453807
				22:[f0<0.0986159146] yes=33,no=34,missing=33
					33:[f6<0.00626118062] yes=49,no=50,missing=49
						49:leaf=0.176688001
						50:leaf=-0.0420560203
					34:[f6<0.00342874182] yes=51,no=52,missing=51
						51:leaf=-0.104949221
						52:leaf=0.0327925645
	2:[f1<0.0115384618] yes=5,no=6,missing=5
		5:[f6<0.00273305504] yes=11,no=12,missing=11
			11:leaf=-0.125607803
			12:[f0<0.0865051895] yes=23,no=24,missing=23
				23:leaf=0.116739191
				24:[f3<0.0076923077] yes=35,no=36,missing=35
					35:[f6<0.0038262771] yes=53,no=54,missing=53
						53:leaf=-0.0431168079
						54:leaf=-0.136586159
					36:leaf=-0.00950384606
		6:[f1<0.0123913046] yes=13,no=14,missing=13
			13:[f6<0.000645994791] yes=25,no=26,missing=25
				25:leaf=-0.0957909599
				26:[f0<0.0259515569] yes=37,no=38,missing=37
					37:leaf=0.206434324
					38:[f6<0.00193798449] yes=55,no=56,missing=55
						55:leaf=-0.0942553133
						56:leaf=0.0731852502
			14:[f1<0.0132274255] yes=27,no=28,missing=27
				27:leaf=-0.156146914
				28:[f1<0.0153678935] yes=39,no=40,missing=39
					39:[f6<0.00253428752] yes=57,no=58,missing=57
						57:leaf=-0.00154494529
						58:leaf=0.23313871
					40:[f1<0.0176421404] yes=59,no=60,missing=59
						59:leaf=-0.103321262
						60:leaf=0.102370165
booster[22]:
0:[f3<0.0076923077] yes=1,no=2,missing=1
	1:[f6<0.000944146304] yes=3,no=4,missing=3
		3:[f5<0.957173944] yes=7,no=8,missing=7
			7:leaf=-0.0716079548
			8:[f6<0.000447227183] yes=15,no=16,missing=15
				15:leaf=0.14872098
				16:[f0<0.0155709349] yes=25,no=26,missing=25
					25:leaf=-0.167946815
					26:[f0<0.0224913508] yes=41,no=42,missing=41
						41:leaf=0.0796544552
						42:leaf=0.145643994
		4:[f0<0.0328719728] yes=9,no=10,missing=9
			9:[f0<0.0294117648] yes=17,no=18,missing=17
				17:[f0<0.00519031147] yes=27,no=28,missing=27
					27:[f1<0.00801003352] yes=43,no=44,missing=43
						43:leaf=-0.121768281
						44:leaf=-0.0235701371
					28:leaf=-0.157953709
				18:[f6<0.00263367128] yes=29,no=30,missing=29
					29:leaf=-0.122357361
					30:leaf=0.0693061799
			10:[f1<0.0076923077] yes=19,no=20,missing=19
				19:[f1<0.00602006726] yes=31,no=32,missing=31
					31:[f0<0.147058815] yes=45,no=46,missing=45
						45:leaf=-0.0197001025
						46:leaf=0.0676432326
					32:[f1<0.00647157151] yes=47,no=48,missing=47
						47:leaf=-0.173445627
						48:leaf=-0.0273473542
				20:[f6<0.0069071753] yes=33,no=34,missing=33
					33:[f0<0.164359868] yes=49,no=50,missing=49
						49:leaf=0.0295984577
						50:leaf=0.149691954
					34:[f0<0.247404844] yes=51,no=52,missing=51
						51:leaf=-0.168825537
						52:leaf=0.0946661755
	2:[f6<0.00422381237] yes=5,no=6,missing=5
		5:[f0<0.13321799] yes=11,no=12,missing=11
			11:[f6<0.00332935806] yes=21,no=22,missing=21
				21:[f1<0.00889632106] yes=35,no=36,missing=35
					35:[f0<0.10899654] yes=53,no=54,missing=53
						53:leaf=-0.0611178242
						54:leaf=0.137282118
					36:[f0<0.0605536327] yes=55,no=56,missing=55
						55:leaf=0.0117678214
						56:leaf=0.118653618
				22:[f3<0.0230769236] yes=37,no=38,missing=37
					37:[f6<0.00352812558] yes=57,no=58,missing=57
						57:leaf=-0.0850423574
						58:leaf=-0.165819526
					38:leaf=0.0215450618
			12:leaf=0.191563442
		6:[f0<0.150519028] yes=13,no=14,missing=13
			13:leaf=-0.176380143
			14:[f6<0.00472073164] yes=23,no=24,missing=23
				23:leaf=0.195881695
				24:[f6<0.00670840777] yes=39,no=40,missing=39
					39:[f0<0.192041516] yes=59,no=60,missing=59
						59:leaf=-0.126592577
						60:leaf=0.113179862
					40:leaf=-0.165678337
booster[23]:
0:[f3<0.0076923077] yes=1,no=2,missing=1
	1:[f6<0.000944146304] yes=3,no=4,missing=3
		3:[f5<0.957173944] yes=7,no=8,missing=7
			7:leaf=0.0716079473
			8:[f6<0.000447227183] yes=15,no=16,missing=15
				15:leaf=-0.14872098
				16:[f0<0.0155709349] yes=25,no=26,missing=25
					25:leaf=0.16794683
					26:[f0<0.0224913508] yes=41,no=42,missing=41
						41:leaf=-0.079654485
						42:leaf=-0.145643994
		4:[f0<0.0328719728] yes=9,no=10,missing=9
			9:[f0<0.0294117648] yes=17,no=18,missing=17
				17:[f0<0.00519031147] yes=27,no=28,missing=27
					27:[f1<0.00801003352] yes=43,no=44,missing=43
						43:leaf=0.121768273
						44:leaf=0.023570111
					28:leaf=0.157953709
				18:[f6<0.00263367128] yes=29,no=30,missing=29
					29:leaf=0.122357354
					30:leaf=-0.0693062916
			10:[f1<0.0076923077] yes=19,no=20,missing=19
				19:[f1<0.00602006726] yes=31,no=32,missing=31
					31:[f0<0.147058815] yes=45,no=46,missing=45
						45:leaf=0.0197000951
						46:leaf=-0.0676432326
					32:[f1<0.00647157151] yes=47,no=48,missing=47
						47:leaf=0.173445627
						48:leaf=0.0273473635
				20:[f6<0.0069071753] yes=33,no=34,missing=33
					33:[f0<0.164359868] yes=49,no=50,missing=49
						49:leaf=-0.0295984615
						50:leaf=-0.149691939
					34:[f0<0.247404844] yes=51,no=52,missing=51
						51:leaf=0.168825537
						52:leaf=-0.0946661755
	2:[f6<0.00422381237] yes=5,no=6,missing=5
		5:[f0<0.13321799] yes=11,no=12,missing=11
			11:[f6<0.00332935806] yes=21,no=22,missing=21
				21:[f1<0.00889632106] yes=35,no=36,missing=35
					35:[f0<0.10899654] yes=53,no=54,missing=53
						53:leaf=0.0611178279
						54:leaf=-0.137282103
					36:[f0<0.0605536327] yes=55,no=56,missing=55
						55:leaf=-0.0117677758
						56:leaf=-0.118653625
				22:[f3<0.0230769236] yes=37,no=38,missing=37
					37:[f6<0.00352812558] yes=57,no=58,missing=57
						57:leaf=0.0850423574
						58:leaf=0.165819526
					38:leaf=-0.0215450767
			12:leaf=-0.191563442
		6:[f0<0.150519028] yes=13,no=14,missing=13
			13:leaf=0.176380143
			14:[f6<0.00472073164] yes=23,no=24,missing=23
				23:leaf=-0.19588168
				24:[f6<0.00670840777] yes=39,no=40,missing=39
					39:[f0<0.192041516] yes=59,no=60,missing=59
						59:leaf=0.126592591
						60:leaf=-0.113179855
					40:leaf=0.165678322
booster[24]:
0:[f1<0.00581939798] yes=1,no=2,missing=1
	1:[f1<0.00508361217] yes=3,no=4,missing=3
		3:[f1<0.00473244116] yes=7,no=8,missing=7
			7:[f6<0.00506857503] yes=15,no=16,missing=15
				15:[f0<0.126297578] yes=29,no=30,missing=29
					29:[f6<0.0028324388] yes=49,no=50,missing=49
						49:leaf=0.0317750424
						50:leaf=-0.0878732726
					30:[f1<0.00317725772] yes=51,no=52,missing=51
						51:leaf=0.0445673838
						52:leaf=0.188631594
				16:leaf=-0.137443975
			8:[f0<0.0674740523] yes=17,no=18,missing=17
				17:[f6<0.00198767637] yes=31,no=32,missing=31
					31:leaf=0.0973684043
					32:leaf=-0.131264716
				18:[f0<0.148788929] yes=33,no=34,missing=33
					33:[f6<0.00347843394] yes=53,no=54,missing=53
						53:leaf=0.114735641
						54:leaf=0.00377123407
					34:leaf=0.224993303
		4:[f6<0.0012422977] yes=9,no=10,missing=9
			9:[f1<0.00535117043] yes=19,no=20,missing=19
				19:leaf=-0.112936944
				20:leaf=0.0162719153
			10:leaf=-0.156812087
	2:[f6<0.0053170342] yes=5,no=6,missing=5
		5:[f0<0.15743944] yes=11,no=12,missing=11
			11:[f6<0.00442257989] yes=21,no=22,missing=21
				21:[f0<0.126297578] yes=35,no=36,missing=35
					35:[f6<0.00362750934] yes=55,no=56,missing=55
						55:leaf=0.0261026863
						56:leaf=-0.177960962
					36:[f0<0.140138417] yes=57,no=58,missing=57
						57:leaf=0.0858878493
						58:leaf=0.193207622
				22:[f0<0.153979242] yes=37,no=38,missing=37
					37:[f0<0.115916952] yes=59,no=60,missing=59
						59:leaf=-0.0606198721
						60:leaf=-0.185266018
					38:[f6<0.00462134741] yes=61,no=62,missing=61
						61:leaf=0.198685691
						62:leaf=-0.128009617
			12:[f0<0.164359868] yes=23,no=24,missing=23
				23:[f6<0.00482011493] yes=39,no=40,missing=39
					39:leaf=0.238911912
					40:leaf=-0.164631575
				24:[f1<0.00876254216] yes=41,no=42,missing=41
					41:leaf=0.297848105
					42:[f6<0.00521765091] yes=63,no=64,missing=63
						63:leaf=0.176643521
						64:leaf=0.0417629927
		6:[f0<0.185121119] yes=13,no=14,missing=13
			13:[f1<0.016856188] yes=25,no=26,missing=25
				25:[f0<0.0916955024] yes=43,no=44,missing=43
					43:[f1<0.00608695671] yes=65,no=66,missing=65
						65:leaf=0.0417013094
						66:leaf=-0.124028303
					44:[f1<0.0117224082] yes=67,no=68,missing=67
						67:leaf=-0.180241555
						68:leaf=-0.0595239773
				26:leaf=0.0618973561
			14:[f6<0.00601272099] yes=27,no=28,missing=27
				27:[f6<0.00561518595] yes=45,no=46,missing=45
					45:[f1<0.0100501673] yes=69,no=70,missing=69
						69:leaf=0.313396186
						70:leaf=0.098704651
					46:[f0<0.19550173] yes=71,no=72,missing=71
						71:leaf=-0.139839351
						72:leaf=0.209843829
				28:[f0<0.207612455] yes=47,no=48,missing=47
					47:leaf=-0.224541962
					48:[f6<0.00720532704] yes=73,no=74,missing=73
						73:leaf=0.135072649
						74:leaf=-0.0944395363
booster[25]:
0:[f1<0.00581939798] yes=1,no=2,missing=1
	1:[f1<0.00508361217] yes=3,no=4,missing=3
		3:[f1<0.00473244116] yes=7,no=8,missing=7
			7:[f6<0.00506857503] yes=15,no=16,missing=15
				15:[f0<0.126297578] yes=29,no=30,missing=29
					29:[f6<0.0028324388] yes=49,no=50,missing=49
						49:leaf=-0.0317750387
						50:leaf=0.0878732726
					30:[f1<0.00317725772] yes=51,no=52,missing=51
						51:leaf=-0.044567395
						52:leaf=-0.188631609
				16:leaf=0.137443975
			8:[f0<0.0674740523] yes=17,no=18,missing=17
				17:[f6<0.00198767637] yes=31,no=32,missing=31
					31:leaf=-0.0973684043
					32:leaf=0.131264701
				18:[f0<0.148788929] yes=33,no=34,missing=33
					33:[f6<0.00347843394] yes=53,no=54,missing=53
						53:leaf=-0.114735655
						54:leaf=-0.00377124012
					34:leaf=-0.224993303
		4:[f6<0.0012422977] yes=9,no=10,missing=9
			9:[f1<0.00535117043] yes=19,no=20,missing=19
				19:leaf=0.112936936
				20:leaf=-0.0162719246
			10:leaf=0.156812087
	2:[f6<0.0053170342] yes=5,no=6,missing=5
		5:[f0<0.15743944] yes=11,no=12,missing=11
			11:[f6<0.00442257989] yes=21,no=22,missing=21
				21:[f0<0.126297578] yes=35,no=36,missing=35
					35:[f6<0.00362750934] yes=55,no=56,missing=55
						55:leaf=-0.0261027012
						56:leaf=0.177960962
					36:[f0<0.140138417] yes=57,no=58,missing=57
						57:leaf=-0.0858878493
						58:leaf=-0.193207622
				22:[f0<0.153979242] yes=37,no=38,missing=37
					37:[f0<0.115916952] yes=59,no=60,missing=59
						59:leaf=0.0606198572
						60:leaf=0.185266018
					38:[f6<0.00462134741] yes=61,no=62,missing=61
						61:leaf=-0.198685691
						62:leaf=0.128009617
			12:[f0<0.164359868] yes=23,no=24,missing=23
				23:[f6<0.00482011493] yes=39,no=40,missing=39
					39:leaf=-0.238911912
					40:leaf=0.164631575
				24:[f1<0.00876254216] yes=41,no=42,missing=41
					41:leaf=-0.297848105
					42:[f6<0.00521765091] yes=63,no=64,missing=63
						63:leaf=-0.176643491
						64:leaf=-0.0417629778
		6:[f0<0.185121119] yes=13,no=14,missing=13
			13:[f1<0.016856188] yes=25,no=26,missing=25
				25:[f0<0.0916955024] yes=43,no=44,missing=43
					43:[f1<0.00608695671] yes=65,no=66,missing=65
						65:leaf=-0.0417012535
						66:leaf=0.12402831
					44:[f1<0.0117224082] yes=67,no=68,missing=67
						67:leaf=0.180241555
						68:leaf=0.0595239811
				26:leaf=-0.061897371
			14:[f6<0.00601272099] yes=27,no=28,missing=27
				27:[f6<0.00561518595] yes=45,no=46,missing=45
					45:[f1<0.0100501673] yes=69,no=70,missing=69
						69:leaf=-0.313396186
						70:leaf=-0.0987046435
					46:[f0<0.19550173] yes=71,no=72,missing=71
						71:leaf=0.139839351
						72:leaf=-0.209843829
				28:[f0<0.207612455] yes=47,no=48,missing=47
					47:leaf=0.224541962
					48:[f6<0.00720532704] yes=73,no=74,missing=73
						73:leaf=-0.135072649
						74:leaf=0.0944395438
booster[26]:
0:[f6<0.00193798449] yes=1,no=2,missing=1
	1:[f0<0.0570934266] yes=3,no=4,missing=3
		3:[f6<0.00163983298] yes=7,no=8,missing=7
			7:[f0<0.0467128009] yes=15,no=16,missing=15
				15:[f6<0.00134168158] yes=29,no=30,missing=29
					29:[f0<0.0397923887] yes=43,no=44,missing=43
						43:leaf=0.0441913679
						44:leaf=0.14940758
					30:leaf=-0.196431294
				16:[f6<0.00154044922] yes=31,no=32,missing=31
					31:leaf=0.151507422
					32:[f0<0.0536332205] yes=45,no=46,missing=45
						45:leaf=-0.255400777
						46:leaf=0.142345145
			8:[f0<0.00865051895] yes=17,no=18,missing=17
				17:leaf=0.0552027114
				18:leaf=-0.205184743
		4:[f0<0.0640138388] yes=9,no=10,missing=9
			9:[f6<0.00173921685] yes=19,no=20,missing=19
				19:leaf=0.147314131
				20:[f1<0.00909698941] yes=33,no=34,missing=33
					33:[f1<0.00608695671] yes=47,no=48,missing=47
						47:leaf=0.0355415605
						48:leaf=-0.0755742043
					34:leaf=0.118114643
			10:leaf=0.152454212
	2:[f0<0.0674740523] yes=5,no=6,missing=5
		5:[f1<0.0123913046] yes=11,no=12,missing=11
			11:[f6<0.00263367128] yes=21,no=22,missing=21
				21:leaf=-0.167449296
				22:leaf=-0.125162527
			12:[f6<0.00337904994] yes=23,no=24,missing=23
				23:leaf=-0.120265298
				24:[f1<0.013294315] yes=35,no=36,missing=35
					35:leaf=0.139587879
					36:leaf=0.000769152364
		6:[f6<0.002236136] yes=13,no=14,missing=13
			13:[f6<0.00213675201] yes=25,no=26,missing=25
				25:leaf=0.152350143
				26:[f0<0.0743944645] yes=37,no=38,missing=37
					37:leaf=-0.156791776
					38:leaf=0.144511878
			14:[f0<0.0778546706] yes=27,no=28,missing=27
				27:[f6<0.00253428752] yes=39,no=40,missing=39
					39:leaf=-0.222490028
					40:[f1<0.0102842804] yes=49,no=50,missing=49
						49:leaf=-0.15106976
						50:leaf=-0.0164916683
				28:[f6<0.0028324388] yes=41,no=42,missing=41
					41:[f0<0.0882352889] yes=51,no=52,missing=51
						51:leaf=0.0562110133
						52:leaf=0.145018369
					42:[f0<0.0986159146] yes=53,no=54,missing=53
						53:leaf=-0.149301261
						54:leaf=0.00534497295
booster[27]:
0:[f6<0.00193798449] yes=1,no=2,missing=1
	1:[f0<0.0570934266] yes=3,no=4,missing=3
		3:[f6<0.00163983298] yes=7,no=8,missing=7
			7:[f0<0.0467128009] yes=15,no=16,missing=15
				15:[f6<0.00134168158] yes=29,no=30,missing=29
					29:[f0<0.0397923887] yes=43,no=44,missing=43
						43:leaf=-0.044191353
						44:leaf=-0.14940758
					30:leaf=0.196431294
				16:[f6<0.00154044922] yes=31,no=32,missing=31
					31:leaf=-0.151507422
					32:[f0<0.0536332205] yes=45,no=46,missing=45
						45:leaf=0.255400777
						46:leaf=-0.142345145
			8:[f0<0.00865051895] yes=17,no=18,missing=17
				17:leaf=-0.0552026853
				18:leaf=0.205184743
		4:[f0<0.0640138388] yes=9,no=10,missing=9
			9:[f6<0.00173921685] yes=19,no=20,missing=19
				19:leaf=-0.147314131
				20:[f1<0.00909698941] yes=33,no=34,missing=33
					33:[f1<0.00608695671] yes=47,no=48,missing=47
						47:leaf=-0.0355415605
						48:leaf=0.0755742192
					34:leaf=-0.118114635
			10:leaf=-0.152454212
	2:[f0<0.0674740523] yes=5,no=6,missing=5
		5:[f1<0.0123913046] yes=11,no=12,missing=11
			11:[f6<0.00263367128] yes=21,no=22,missing=21
				21:leaf=0.167449296
				22:leaf=0.125162527
			12:[f6<0.00337904994] yes=23,no=24,missing=23
				23:leaf=0.120265298
				24:[f1<0.013294315] yes=35,no=36,missing=35
					35:leaf=-0.139587879
					36:leaf=-0.000769163657
		6:[f6<0.002236136] yes=13,no=14,missing=13
			13:[f6<0.00213675201] yes=25,no=26,missing=25
				25:leaf=-0.152350143
				26:[f0<0.0743944645] yes=37,no=38,missing=37
					37:leaf=0.156791776
					38:leaf=-0.144511878
			14:[f0<0.0778546706] yes=27,no=28,missing=27
				27:[f6<0.00253428752] yes=39,no=40,missing=39
					39:leaf=0.222490028
					40:[f1<0.0102842804] yes=49,no=50,missing=49
						49:leaf=0.15106976
						50:leaf=0.0164916683
				28:[f6<0.0028324388] yes=41,no=42,missing=41
					41:[f0<0.0882352889] yes=51,no=52,missing=51
						51:leaf=-0.0562110394
						52:leaf=-0.145018369
					42:[f0<0.0986159146] yes=53,no=54,missing=53
						53:leaf=0.149301261
						54:leaf=-0.00534497621
booster[28]:
0:[f3<0.0076923077] yes=1,no=2,missing=1
	1:[f6<0.00114291394] yes=3,no=4,missing=3
		3:[f0<0.0294117648] yes=7,no=8,missing=7
			7:[f6<0.000844762428] yes=15,no=16,missing=15
				15:[f6<0.000447227183] yes=25,no=26,missing=25
					25:[f5<0.963695645] yes=43,no=44,missing=43
						43:leaf=-0.0117608085
						44:leaf=0.141628101
					26:[f0<0.0155709349] yes=45,no=46,missing=45
						45:leaf=-0.157877296
						46:leaf=0.101541176
				16:leaf=-0.16209805
			8:leaf=0.138417631
		4:[f0<0.0397923887] yes=9,no=10,missing=9
			9:[f6<0.00144106545] yes=17,no=18,missing=17
				17:[f0<0.0328719728] yes=27,no=28,missing=27
					27:leaf=-0.132649973
					28:leaf=-0.271674156
				18:[f0<0.00519031147] yes=29,no=30,missing=29
					29:[f6<0.00193798449] yes=47,no=48,missing=47
						47:leaf=0.0702455789
						48:leaf=-0.10404966
					30:[f6<0.00313059031] yes=49,no=50,missing=49
						49:leaf=-0.141263708
						50:leaf=-0.0568118766
			10:[f6<0.00154044922] yes=19,no=20,missing=19
				19:[f0<0.0467128009] yes=31,no=32,missing=31
					31:[f6<0.00134168158] yes=51,no=52,missing=51
						51:leaf=0.137622342
						52:leaf=-0.166486919
					32:leaf=0.146759167
				20:[f0<0.0536332205] yes=33,no=34,missing=33
					33:[f6<0.00263367128] yes=53,no=54,missing=53
						53:leaf=-0.178778604
						54:leaf=-0.0277761165
					34:[f6<0.0053170342] yes=55,no=56,missing=55
						55:leaf=0.0214083605
						56:leaf=-0.043119356
	2:[f6<0.00422381237] yes=5,no=6,missing=5
		5:[f0<0.13321799] yes=11,no=12,missing=11
			11:[f6<0.00332935806] yes=21,no=22,missing=21
				21:[f0<0.10899654] yes=35,no=36,missing=35
					35:[f6<0.00313059031] yes=57,no=58,missing=57
						57:leaf=-0.0185670666
						58:leaf=-0.162635267
					36:leaf=0.125789687
				22:[f0<0.115916952] yes=37,no=38,missing=37
					37:leaf=-0.15361847
					38:[f6<0.00362750934] yes=59,no=60,missing=59
						59:leaf=0.111166731
						60:leaf=-0.0900073349
			12:leaf=0.145115092
		6:[f0<0.150519028] yes=13,no=14,missing=13
			13:leaf=-0.167266548
			14:[f6<0.00621148851] yes=23,no=24,missing=23
				23:[f0<0.198961943] yes=39,no=40,missing=39
					39:[f6<0.0053170342] yes=61,no=62,missing=61
						61:leaf=0.0567486733
						62:leaf=-0.124903701
					40:leaf=0.161062539
				24:[f0<0.223183393] yes=41,no=42,missing=41
					41:leaf=-0.174888253
					42:[f6<0.00695686741] yes=63,no=64,missing=63
						63:leaf=0.128769532
						64:leaf=-0.127883375
booster[29]:
0:[f3<0.0076923077] yes=1,no=2,missing=1
	1:[f6<0.00114291394] yes=3,no=4,missing=3
		3:[f0<0.0294117648] yes=7,no=8,missing=7
			7:[f6<0.000844762428] yes=15,no=16,missing=15
				15:[f6<0.000447227183] yes=25,no=26,missing=25
					25:[f5<0.963695645] yes=43,no=44,missing=43
						43:leaf=0.0117608039
						44:leaf=-0.141628087
					26:[f0<0.0155709349] yes=45,no=46,missing=45
						45:leaf=0.157877296
						46:leaf=-0.101541214
				16:leaf=0.16209805
			8:leaf=-0.138417631
		4:[f0<0.0397923887] yes=9,no=10,missing=9
			9:[f6<0.00144106545] yes=17,no=18,missing=17
				17:[f0<0.0328719728] yes=27,no=28,missing=27
					27:leaf=0.132649973
					28:leaf=0.271674156
				18:[f0<0.00519031147] yes=29,no=30,missing=29
					29:[f6<0.00193798449] yes=47,no=48,missing=47
						47:leaf=-0.0702456012
						48:leaf=0.10404966
					30:[f6<0.00313059031] yes=49,no=50,missing=49
						49:leaf=0.141263708
						50:leaf=0.0568120591
			10:[f6<0.00154044922] yes=19,no=20,missing=19
				19:[f0<0.0467128009] yes=31,no=32,missing=31
					31:[f6<0.00134168158] yes=51,no=52,missing=51
						51:leaf=-0.137622342
						52:leaf=0.166486919
					32:leaf=-0.146759167
				20:[f0<0.0536332205] yes=33,no=34,missing=33
					33:[f6<0.00263367128] yes=53,no=54,missing=53
						53:leaf=0.178778604
						54:leaf=0.0277760867
					34:[f6<0.0053170342] yes=55,no=56,missing=55
						55:leaf=-0.0214083623
						56:leaf=0.0431193598
	2:[f6<0.00422381237] yes=5,no=6,missing=5
		5:[f0<0.13321799] yes=11,no=12,missing=11
			11:[f6<0.00332935806] yes=21,no=22,missing=21
				21:[f0<0.10899654] yes=35,no=36,missing=35
					35:[f6<0.00313059031] yes=57,no=58,missing=57
						57:leaf=0.0185670778
						58:leaf=0.162635252
					36:leaf=-0.125789687
				22:[f0<0.115916952] yes=37,no=38,missing=37
					37:leaf=0.15361847
					38:[f6<0.00362750934] yes=59,no=60,missing=59
						59:leaf=-0.111166738
						60:leaf=0.0900073126
			12:leaf=-0.145115107
		6:[f0<0.150519028] yes=13,no=14,missing=13
			13:leaf=0.167266548
			14:[f6<0.00621148851] yes=23,no=24,missing=23
				23:[f0<0.198961943] yes=39,no=40,missing=39
					39:[f6<0.0053170342] yes=61,no=62,missing=61
						61:leaf=-0.0567487106
						62:leaf=0.124903701
					40:leaf=-0.161062539
				24:[f0<0.223183393] yes=41,no=42,missing=41
					41:leaf=0.174888253
					42:[f6<0.00695686741] yes=63,no=64,missing=63
						63:leaf=-0.128769532
						64:leaf=0.127883375
booster[30]:
0:[f1<0.00581939798] yes=1,no=2,missing=1
	1:[f1<0.00508361217] yes=3,no=4,missing=3
		3:[f1<0.00473244116] yes=7,no=8,missing=7
			7:[f6<0.00506857503] yes=15,no=16,missing=15
				15:[f0<0.105536327] yes=27,no=28,missing=27
					27:[f6<0.0028324388] yes=41,no=42,missing=41
						41:leaf=0.0267260503
						42:leaf=-0.14158684
					28:[f3<0.0076923077] yes=43,no=44,missing=43
						43:leaf=0.151689738
						44:leaf=-0.0434697866
				16:leaf=-0.118314587
			8:[f0<0.0674740523] yes=17,no=18,missing=17
				17:[f6<0.00198767637] yes=29,no=30,missing=29
					29:leaf=0.0771097988
					30:leaf=-0.101610675
				18:[f0<0.148788929] yes=31,no=32,missing=31
					31:[f6<0.00347843394] yes=45,no=46,missing=45
						45:leaf=0.0941267088
						46:leaf=0.00469338661
					32:leaf=0.181895569
		4:[f6<0.0012422977] yes=9,no=10,missing=9
			9:[f0<0.0259515569] yes=19,no=20,missing=19
				19:leaf=-0.106907688
				20:leaf=0.00518763904
			10:leaf=-0.152902424
	2:[f6<0.00114291394] yes=5,no=6,missing=5
		5:[f0<0.0294117648] yes=11,no=12,missing=11
			11:[f6<0.000844762428] yes=21,no=22,missing=21
				21:[f6<0.000447227183] yes=33,no=34,missing=33
					33:[f5<0.963695645] yes=47,no=48,missing=47
						47:leaf=-0.00974042527
						48:leaf=0.14001523
					34:[f0<0.0155709349] yes=49,no=50,missing=49
						49:leaf=-0.150720105
						50:leaf=0.0976567194
				22:leaf=-0.165157959
			12:leaf=0.14281404
		6:[f0<0.0397923887] yes=13,no=14,missing=13
			13:[f6<0.00173921685] yes=23,no=24,missing=23
				23:leaf=-0.183303654
				24:[f6<0.00183860073] yes=35,no=36,missing=35
					35:leaf=0.0684801713
					36:[f0<0.0294117648] yes=51,no=52,missing=51
						51:leaf=-0.135527149
						52:leaf=-0.0445573814
			14:[f6<0.00213675201] yes=25,no=26,missing=25
				25:[f0<0.0674740523] yes=37,no=38,missing=37
					37:[f6<0.00193798449] yes=53,no=54,missing=53
						53:leaf=0.0639915317
						54:leaf=-0.165933102
					38:leaf=0.149011299
				26:[f0<0.0743944645] yes=39,no=40,missing=39
					39:[f1<0.0123913046] yes=55,no=56,missing=55
						55:leaf=-0.147655562
						56:leaf=0.0450110547
					40:[f6<0.00243490352] yes=57,no=58,missing=57
						57:leaf=0.13843891
						58:leaf=0.00386874308
booster[31]:
0:[f1<0.00581939798] yes=1,no=2,missing=1
	1:[f1<0.00508361217] yes=3,no=4,missing=3
		3:[f1<0.00473244116] yes=7,no=8,missing=7
			7:[f6<0.00506857503] yes=15,no=16,missing=15
				15:[f0<0.105536327] yes=27,no=28,missing=27
					27:[f6<0.0028324388] yes=41,no=42,missing=41
						41:leaf=-0.0267260317
						42:leaf=0.14158684
					28:[f3<0.0076923077] yes=43,no=44,missing=43
						43:leaf=-0.151689738
						44:leaf=0.0434697792
				16:leaf=0.118314587
			8:[f0<0.0674740523] yes=17,no=18,missing=17
				17:[f6<0.00198767637] yes=29,no=30,missing=29
					29:leaf=-0.077109769
					30:leaf=0.101610653
				18:[f0<0.148788929] yes=31,no=32,missing=31
					31:[f6<0.00347843394] yes=45,no=46,missing=45
						45:leaf=-0.0941267014
						46:leaf=-0.00469340337
					32:leaf=-0.181895569
		4:[f6<0.0012422977] yes=9,no=10,missing=9
			9:[f0<0.0259515569] yes=19,no=20,missing=19
				19:leaf=0.106907703
				20:leaf=-0.00518761808
			10:leaf=0.152902424
	2:[f6<0.00114291394] yes=5,no=6,missing=5
		5:[f0<0.0294117648] yes=11,no=12,missing=11
			11:[f6<0.000844762428] yes=21,no=22,missing=21
				21:[f6<0.000447227183] yes=33,no=34,missing=33
					33:[f5<0.963695645] yes=47,no=48,missing=47
						47:leaf=0.00974040572
						48:leaf=-0.140015274
					34:[f0<0.0155709349] yes=49,no=50,missing=49
						49:leaf=0.150720119
						50:leaf=-0.0976566896
				22:leaf=0.165157959
			12:leaf=-0.14281404
		6:[f0<0.0397923887] yes=13,no=14,missing=13
			13:[f6<0.00173921685] yes=23,no=24,missing=23
				23:leaf=0.183303639
				24:[f6<0.00183860073] yes=35,no=36,missing=35
					35:leaf=-0.0684802979
					36:[f0<0.0294117648] yes=51,no=52,missing=51
						51:leaf=0.135527179
						52:leaf=0.0445573777
			14:[f6<0.00213675201] yes=25,no=26,missing=25
				25:[f0<0.0674740523] yes=37,no=38,missing=37
					37:[f6<0.00193798449] yes=53,no=54,missing=53
						53:leaf=-0.0639915168
						54:leaf=0.165933102
					38:leaf=-0.149011284
				26:[f0<0.0743944645] yes=39,no=40,missing=39
					39:[f1<0.0123913046] yes=55,no=56,missing=55
						55:leaf=0.147655562
						56:leaf=-0.0450110435
					40:[f6<0.00243490352] yes=57,no=58,missing=57
						57:leaf=-0.13843891
						58:leaf=-0.00386874098
booster[32]:
0:[f6<0.00392566063] yes=1,no=2,missing=1
	1:[f0<0.112456754] yes=3,no=4,missing=3
		3:[f6<0.0032299743] yes=7,no=8,missing=7
			7:[f0<0.0951557159] yes=15,no=16,missing=15
				15:[f6<0.00273305504] yes=31,no=32,missing=31
					31:[f0<0.0813148767] yes=49,no=50,missing=49
						49:leaf=-0.000716220529
						50:leaf=0.102371894
					32:[f0<0.0536332205] yes=51,no=52,missing=51
						51:leaf=0.00285916333
						52:leaf=-0.177049249
				16:[f0<0.105536327] yes=33,no=34,missing=33
					33:[f6<0.00303120655] yes=53,no=54,missing=53
						53:leaf=0.123543225
						54:leaf=-0.254508644
					34:leaf=0.161391169
			8:[f0<0.0916955024] yes=17,no=18,missing=17
				17:[f6<0.00372689334] yes=35,no=36,missing=35
					35:[f1<0.0123913046] yes=55,no=56,missing=55
						55:leaf=-0.140101239
						56:leaf=-0.0083179092
					36:[f0<0.0813148767] yes=57,no=58,missing=57
						57:leaf=-0.0230889581
						58:leaf=0.196423113
				18:leaf=-0.213317856
		4:[f6<0.00362750934] yes=9,no=10,missing=9
			9:[f0<0.119377166] yes=19,no=20,missing=19
				19:[f6<0.00342874182] yes=37,no=38,missing=37
					37:leaf=0.175550357
					38:leaf=-0.150302574
				20:leaf=0.220034882
			10:[f0<0.126297578] yes=21,no=22,missing=21
				21:leaf=-0.20658876
				22:leaf=0.185819015
	2:[f0<0.136678189] yes=5,no=6,missing=5
		5:[f6<0.00631087273] yes=11,no=12,missing=11
			11:[f6<0.00452196412] yes=23,no=24,missing=23
				23:[f1<0.00413043471] yes=39,no=40,missing=39
					39:leaf=0.0169669148
					40:leaf=-0.197309792
				24:[f1<0.0105518401] yes=41,no=42,missing=41
					41:leaf=-0.139215991
					42:[f6<0.00482011493] yes=59,no=60,missing=59
						59:leaf=0.142130926
						60:leaf=-0.110512406
			12:[f6<0.006807792] yes=25,no=26,missing=25
				25:leaf=0.199544802
				26:leaf=-0.105307616
		6:[f6<0.00482011493] yes=13,no=14,missing=13
			13:[f0<0.150519028] yes=27,no=28,missing=27
				27:[f6<0.0043231966] yes=43,no=44,missing=43
					43:[f1<0.0115551837] yes=61,no=62,missing=61
						61:leaf=0.160773903
						62:leaf=0.0230555367
					44:leaf=-0.185274452
				28:[f3<0.0076923077] yes=45,no=46,missing=45
					45:leaf=0.219049975
					46:leaf=0.0803241804
			14:[f0<0.167820066] yes=29,no=30,missing=29
				29:leaf=-0.174799606
				30:[f6<0.00591333769] yes=47,no=48,missing=47
					47:[f0<0.174740493] yes=63,no=64,missing=63
						63:leaf=0.0276489183
						64:leaf=0.169009104
					48:[f0<0.205882356] yes=65,no=66,missing=65
						65:leaf=-0.167478591
						66:leaf=0.0389791094
booster[33]:
0:[f6<0.00392566063] yes=1,no=2,missing=1
	1:[f0<0.112456754] yes=3,no=4,missing=3
		3:[f6<0.0032299743] yes=7,no=8,missing=7
			7:[f0<0.0951557159] yes=15,no=16,missing=15
				15:[f6<0.00273305504] yes=31,no=32,missing=31
					31:[f0<0.0813148767] yes=49,no=50,missing=49
						49:leaf=0.000716260169
						50:leaf=-0.102371894
					32:[f0<0.0536332205] yes=51,no=52,missing=51
						51:leaf=-0.00285928743
						52:leaf=0.177049249
				16:[f0<0.105536327] yes=33,no=34,missing=33
					33:[f6<0.00303120655] yes=53,no=54,missing=53
						53:leaf=-0.123543225
						54:leaf=0.254508644
					34:leaf=-0.161391154
			8:[f0<0.0916955024] yes=17,no=18,missing=17
				17:[f6<0.00372689334] yes=35,no=36,missing=35
					35:[f1<0.0123913046] yes=55,no=56,missing=55
						55:leaf=0.140101239
						56:leaf=0.00831791479
					36:[f0<0.0813148767] yes=57,no=58,missing=57
						57:leaf=0.0230889469
						58:leaf=-0.196423158
				18:leaf=0.213317856
		4:[f6<0.00362750934] yes=9,no=10,missing=9
			9:[f0<0.119377166] yes=19,no=20,missing=19
				19:[f6<0.00342874182] yes=37,no=38,missing=37
					37:leaf=-0.175550357
					38:leaf=0.150302574
				20:leaf=-0.220034868
			10:[f0<0.126297578] yes=21,no=22,missing=21
				21:leaf=0.206588775
				22:leaf=-0.185819015
	2:[f0<0.136678189] yes=5,no=6,missing=5
		5:[f6<0.00631087273] yes=11,no=12,missing=11
			11:[f6<0.00452196412] yes=23,no=24,missing=23
				23:[f1<0.00413043471] yes=39,no=40,missing=39
					39:leaf=-0.0169669166
					40:leaf=0.197309792
				24:[f1<0.0105518401] yes=41,no=42,missing=41
					41:leaf=0.139215991
					42:[f6<0.00482011493] yes=59,no=60,missing=59
						59:leaf=-0.142130926
						60:leaf=0.110512428
			12:[f6<0.006807792] yes=25,no=26,missing=25
				25:leaf=-0.199544847
				26:leaf=0.105307601
		6:[f6<0.00482011493] yes=13,no=14,missing=13
			13:[f0<0.150519028] yes=27,no=28,missing=27
				27:[f6<0.0043231966] yes=43,no=44,missing=43
					43:[f1<0.0115551837] yes=61,no=62,missing=61
						61:leaf=-0.160773903
						62:leaf=-0.0230555721
					44:leaf=0.185274452
				28:[f3<0.0076923077] yes=45,no=46,missing=45
					45:leaf=-0.219049975
					46:leaf=-0.0803241804
			14:[f0<0.167820066] yes=29,no=30,missing=29
				29:leaf=0.174799606
				30:[f6<0.00591333769] yes=47,no=48,missing=47
					47:[f0<0.174740493] yes=63,no=64,missing=63
						63:leaf=-0.0276489165
						64:leaf=-0.169009104
					48:[f0<0.205882356] yes=65,no=66,missing=65
						65:leaf=0.167478591
						66:leaf=-0.0389791206
booster[34]:
0:[f6<0.000645994791] yes=1,no=2,missing=1
	1:[f1<0.0152508365] yes=3,no=4,missing=3
		3:[f5<0.963695645] yes=7,no=8,missing=7
			7:leaf=-0.00794686563
			8:[f6<0.000447227183] yes=13,no=14,missing=13
				13:leaf=0.135683909
				14:[f0<0.0155709349] yes=23,no=24,missing=23
					23:leaf=-0.100946777
					24:leaf=0.12779738
		4:leaf=-0.0229661912
	2:[f0<0.0224913508] yes=5,no=6,missing=5
		5:[f0<0.0155709349] yes=9,no=10,missing=9
			9:[f1<0.00817725807] yes=15,no=16,missing=15
				15:leaf=-0.130388051
				16:[f6<0.00183860073] yes=25,no=26,missing=25
					25:[f6<0.00114291394] yes=35,no=36,missing=35
						35:leaf=-0.0200016648
						36:leaf=0.0597049817
					26:leaf=-0.0939014703
			10:[f6<0.000944146304] yes=17,no=18,missing=17
				17:leaf=-0.276580334
				18:leaf=-0.117363125
		6:[f6<0.00114291394] yes=11,no=12,missing=11
			11:[f0<0.0259515569] yes=19,no=20,missing=19
				19:[f6<0.000795070548] yes=27,no=28,missing=27
					27:leaf=0.11384508
					28:leaf=-0.137125969
				20:[f1<0.00538461562] yes=29,no=30,missing=29
					29:leaf=0.0182890706
					30:[f0<0.0294117648] yes=37,no=38,missing=37
						37:leaf=0.0663117766
						38:leaf=0.138566598
			12:[f0<0.0397923887] yes=21,no=22,missing=21
				21:[f6<0.00313059031] yes=31,no=32,missing=31
					31:leaf=-0.168534338
					32:leaf=0.0285693128
				22:[f6<0.00134168158] yes=33,no=34,missing=33
					33:leaf=0.136287659
					34:[f0<0.0467128009] yes=39,no=40,missing=39
						39:leaf=-0.161833793
						40:leaf=-0.000845297531
booster[35]:
0:[f6<0.000645994791] yes=1,no=2,missing=1
	1:[f1<0.0152508365] yes=3,no=4,missing=3
		3:[f5<0.963695645] yes=7,no=8,missing=7
			7:leaf=0.00794685353
			8:[f6<0.000447227183] yes=13,no=14,missing=13
				13:leaf=-0.135683969
				14:[f0<0.0155709349] yes=23,no=24,missing=23
					23:leaf=0.100946762
					24:leaf=-0.127797365
		4:leaf=0.0229662526
	2:[f0<0.0224913508] yes=5,no=6,missing=5
		5:[f0<0.0155709349] yes=9,no=10,missing=9
			9:[f1<0.00817725807] yes=15,no=16,missing=15
				15:leaf=0.130388036
				16:[f6<0.00183860073] yes=25,no=26,missing=25
					25:[f6<0.00114291394] yes=35,no=36,missing=35
						35:leaf=0.0200016312
						36:leaf=-0.0597049333
					26:leaf=0.0939013883
			10:[f6<0.000944146304] yes=17,no=18,missing=17
				17:leaf=0.276580334
				18:leaf=0.11736308
		6:[f6<0.00114291394] yes=11,no=12,missing=11
			11:[f0<0.0259515569] yes=19,no=20,missing=19
				19:[f6<0.000795070548] yes=27,no=28,missing=27
					27:leaf=-0.113845102
					28:leaf=0.137125984
				20:[f1<0.00538461562] yes=29,no=30,missing=29
					29:leaf=-0.018289065
					30:[f0<0.0294117648] yes=37,no=38,missing=37
						37:leaf=-0.066311866
						38:leaf=-0.138566583
			12:[f0<0.0397923887] yes=21,no=22,missing=21
				21:[f6<0.00313059031] yes=31,no=32,missing=31
					31:leaf=0.168534338
					32:leaf=-0.028569378
				22:[f6<0.00134168158] yes=33,no=34,missing=33
					33:leaf=-0.136287659
					34:[f0<0.0467128009] yes=39,no=40,missing=39
						39:leaf=0.161833793
						40:leaf=0.000845296949
booster[36]:
0:[f6<0.0069071753] yes=1,no=2,missing=1
	1:[f0<0.212802768] yes=3,no=4,missing=3
		3:[f6<0.0053170342] yes=7,no=8,missing=7
			7:[f0<0.164359868] yes=11,no=12,missing=11
				11:[f6<0.00472073164] yes=19,no=20,missing=19
					19:[f0<0.140138417] yes=31,no=32,missing=31
						31:leaf=-0.00451086974
						32:leaf=0.133518264
					20:[f0<0.115916952] yes=33,no=34,missing=33
						33:leaf=0.0175001789
						34:leaf=-0.169020116
				12:[f6<0.00511826668] yes=21,no=22,missing=21
					21:leaf=0.196044207
					22:[f0<0.176470578] yes=35,no=36,missing=35
						35:leaf=-0.118614063
						36:leaf=0.171680152
			8:[f0<0.185121119] yes=13,no=14,missing=13
				13:[f0<0.10899654] yes=23,no=24,missing=23
					23:[f6<0.00631087273] yes=37,no=38,missing=37
						37:leaf=-0.106148817
						38:leaf=0.273281485
					24:[f1<0.0117224082] yes=39,no=40,missing=39
						39:leaf=-0.166179106
						40:leaf=-0.0553233661
				14:[f6<0.00601272099] yes=25,no=26,missing=25
					25:[f1<0.00700668897] yes=41,no=42,missing=41
						41:leaf=0.060670238
						42:leaf=0.178849846
					26:[f6<0.00611210521] yes=43,no=44,missing=43
						43:leaf=-0.035928838
						44:leaf=-0.197165549
		4:leaf=0.189098969
	2:[f0<0.240484431] yes=5,no=6,missing=5
		5:leaf=-0.163870946
		6:[f6<0.00944146328] yes=9,no=10,missing=9
			9:[f0<0.254325271] yes=15,no=16,missing=15
				15:[f6<0.00720532704] yes=27,no=28,missing=27
					27:leaf=0.113283418
					28:leaf=-0.0627456605
				16:[f6<0.00844762474] yes=29,no=30,missing=29
					29:leaf=0.174656034
					30:leaf=0.0493497141
			10:[f6<0.0100874584] yes=17,no=18,missing=17
				17:leaf=-0.00843296759
				18:leaf=-0.118033305
booster[37]:
0:[f6<0.0069071753] yes=1,no=2,missing=1
	1:[f0<0.212802768] yes=3,no=4,missing=3
		3:[f6<0.0053170342] yes=7,no=8,missing=7
			7:[f0<0.164359868] yes=11,no=12,missing=11
				11:[f6<0.00472073164] yes=19,no=20,missing=19
					19:[f0<0.140138417] yes=31,no=32,missing=31
						31:leaf=0.00451086741
						32:leaf=-0.133518264
					20:[f0<0.115916952] yes=33,no=34,missing=33
						33:leaf=-0.0175002329
						34:leaf=0.169020101
				12:[f6<0.00511826668] yes=21,no=22,missing=21
					21:leaf=-0.196044207
					22:[f0<0.176470578] yes=35,no=36,missing=35
						35:leaf=0.11861407
						36:leaf=-0.171680152
			8:[f0<0.185121119] yes=13,no=14,missing=13
				13:[f0<0.10899654] yes=23,no=24,missing=23
					23:[f6<0.00631087273] yes=37,no=38,missing=37
						37:leaf=0.106148832
						38:leaf=-0.273281395
					24:[f1<0.0117224082] yes=39,no=40,missing=39
						39:leaf=0.166179106
						40:leaf=0.0553233735
				14:[f6<0.00601272099] yes=25,no=26,missing=25
					25:[f1<0.00700668897] yes=41,no=42,missing=41
						41:leaf=-0.0606702343
						42:leaf=-0.178849846
					26:[f6<0.00611210521] yes=43,no=44,missing=43
						43:leaf=0.0359288417
						44:leaf=0.197165549
		4:leaf=-0.189098969
	2:[f0<0.240484431] yes=5,no=6,missing=5
		5:leaf=0.163870946
		6:[f6<0.00944146328] yes=9,no=10,missing=9
			9:[f0<0.254325271] yes=15,no=16,missing=15
				15:[f6<0.00720532704] yes=27,no=28,missing=27
					27:leaf=-0.113283426
					28:leaf=0.0627456456
				16:[f6<0.00844762474] yes=29,no=30,missing=29
					29:leaf=-0.174656034
					30:leaf=-0.0493496843
			10:[f6<0.0100874584] yes=17,no=18,missing=17
				17:leaf=0.00843298808
				18:leaf=0.118033312
booster[38]:
0:[f6<0.00402504485] yes=1,no=2,missing=1
	1:[f0<0.112456754] yes=3,no=4,missing=3
		3:[f6<0.0032299743] yes=7,no=8,missing=7
			7:[f0<0.0986159146] yes=15,no=16,missing=15
				15:[f6<0.0028324388] yes=29,no=30,missing=29
					29:[f0<0.0882352889] yes=49,no=50,missing=49
						49:leaf=0.000271140161
						50:leaf=0.127594486
					30:[f0<0.0536332205] yes=51,no=52,missing=51
						51:leaf=0.0917921662
						52:leaf=-0.175112963
				16:[f1<0.00583612081] yes=31,no=32,missing=31
					31:leaf=-0.051879786
					32:[f0<0.105536327] yes=53,no=54,missing=53
						53:leaf=0.0791071728
						54:leaf=0.157198131
			8:[f6<0.00372689334] yes=17,no=18,missing=17
				17:[f0<0.0640138388] yes=33,no=34,missing=33
					33:[f0<0.0536332205] yes=55,no=56,missing=55
						55:leaf=-0.0881295875
						56:leaf=0.00864875969
					34:leaf=-0.192814484
				18:[f0<0.0916955024] yes=35,no=36,missing=35
					35:[f0<0.0847750902] yes=57,no=58,missing=57
						57:leaf=-0.0520814992
						58:leaf=0.177901655
					36:[f1<0.00600334443] yes=59,no=60,missing=59
						59:leaf=-0.0198150631
						60:leaf=-0.131454736
		4:[f6<0.00362750934] yes=9,no=10,missing=9
			9:[f1<0.00627090316] yes=19,no=20,missing=19
				19:leaf=0.185568571
				20:[f6<0.00342874182] yes=37,no=38,missing=37
					37:leaf=0.154531673
					38:[f0<0.119377166] yes=61,no=62,missing=61
						61:leaf=-0.13226831
						62:leaf=0.146247968
			10:[f0<0.126297578] yes=21,no=22,missing=21
				21:leaf=-0.188111737
				22:[f1<0.0062541808] yes=39,no=40,missing=39
					39:[f6<0.00372689334] yes=63,no=64,missing=63
						63:leaf=0.180602342
						64:leaf=0.050914824
					40:leaf=0.175615445
	2:[f0<0.140138417] yes=5,no=6,missing=5
		5:[f6<0.00452196412] yes=11,no=12,missing=11
			11:leaf=-0.197368219
			12:[f1<0.0105518401] yes=23,no=24,missing=23
				23:[f6<0.00521765091] yes=41,no=42,missing=41
					41:leaf=-0.144052327
					42:[f6<0.00541641843] yes=65,no=66,missing=65
						65:leaf=0.035932675
						66:leaf=-0.0896128193
				24:[f0<0.10899654] yes=43,no=44,missing=43
					43:[f0<0.0951557159] yes=67,no=68,missing=67
						67:leaf=0.0162605178
						68:leaf=0.228618667
					44:[f6<0.00482011493] yes=69,no=70,missing=69
						69:leaf=0.00692667672
						70:leaf=-0.0891038701
		6:[f6<0.00482011493] yes=13,no=14,missing=13
			13:[f0<0.150519028] yes=25,no=26,missing=25
				25:[f6<0.0043231966] yes=45,no=46,missing=45
					45:[f1<0.0143478271] yes=71,no=72,missing=71
						71:leaf=0.161098972
						72:leaf=-0.0189469401
					46:leaf=-0.17470178
				26:leaf=0.169183865
			14:[f0<0.167820066] yes=27,no=28,missing=27
				27:leaf=-0.158224449
				28:[f6<0.0053170342] yes=47,no=48,missing=47
					47:[f6<0.00511826668] yes=73,no=74,missing=73
						73:leaf=0.163543537
						74:leaf=0.0827665105
					48:[f0<0.185121119] yes=75,no=76,missing=75
						75:leaf=-0.137247071
						76:leaf=0.0212675203
booster[39]:
0:[f6<0.00402504485] yes=1,no=2,missing=1
	1:[f0<0.112456754] yes=3,no=4,missing=3
		3:[f6<0.0032299743] yes=7,no=8,missing=7
			7:[f0<0.0986159146] yes=15,no=16,missing=15
				15:[f6<0.0028324388] yes=29,no=30,missing=29
					29:[f0<0.0882352889] yes=49,no=50,missing=49
						49:leaf=-0.000271158322
						50:leaf=-0.127594501
					30:[f0<0.0536332205] yes=51,no=52,missing=51
						51:leaf=-0.0917919576
						52:leaf=0.175112963
				16:[f1<0.00583612081] yes=31,no=32,missing=31
					31:leaf=0.0518797934
					32:[f0<0.105536327] yes=53,no=54,missing=53
						53:leaf=-0.0791071653
						54:leaf=-0.157198131
			8:[f6<0.00372689334] yes=17,no=18,missing=17
				17:[f0<0.0640138388] yes=33,no=34,missing=33
					33:[f0<0.0536332205] yes=55,no=56,missing=55
						55:leaf=0.0881295577
						56:leaf=-0.00864881277
					34:leaf=0.192814484
				18:[f0<0.0916955024] yes=35,no=36,missing=35
					35:[f0<0.0847750902] yes=57,no=58,missing=57
						57:leaf=0.0520815216
						58:leaf=-0.177901655
					36:[f1<0.00600334443] yes=59,no=60,missing=59
						59:leaf=0.0198150687
						60:leaf=0.131454736
		4:[f6<0.00362750934] yes=9,no=10,missing=9
			9:[f1<0.00627090316] yes=19,no=20,missing=19
				19:leaf=-0.185568571
				20:[f6<0.00342874182] yes=37,no=38,missing=37
					37:leaf=-0.154531673
					38:[f0<0.119377166] yes=61,no=62,missing=61
						61:leaf=0.13226831
						62:leaf=-0.146247968
			10:[f0<0.126297578] yes=21,no=22,missing=21
				21:leaf=0.188111737
				22:[f1<0.0062541808] yes=39,no=40,missing=39
					39:[f6<0.00372689334] yes=63,no=64,missing=63
						63:leaf=-0.180602342
						64:leaf=-0.0509148277
					40:leaf=-0.175615445
	2:[f0<0.140138417] yes=5,no=6,missing=5
		5:[f6<0.00452196412] yes=11,no=12,missing=11
			11:leaf=0.19736819
			12:[f1<0.0105518401] yes=23,no=24,missing=23
				23:[f6<0.00521765091] yes=41,no=42,missing=41
					41:leaf=0.144052327
					42:[f6<0.00541641843] yes=65,no=66,missing=65
						65:leaf=-0.0359326676
						66:leaf=0.0896128267
				24:[f0<0.10899654] yes=43,no=44,missing=43
					43:[f0<0.0951557159] yes=67,no=68,missing=67
						67:leaf=-0.0162605084
						68:leaf=-0.228618681
					44:[f6<0.00482011493] yes=69,no=70,missing=69
						69:leaf=-0.00692668045
						70:leaf=0.0891038775
		6:[f6<0.00482011493] yes=13,no=14,missing=13
			13:[f0<0.150519028] yes=25,no=26,missing=25
				25:[f6<0.0043231966] yes=45,no=46,missing=45
					45:[f1<0.0143478271] yes=71,no=72,missing=71
						71:leaf=-0.161098972
						72:leaf=0.0189470444
					46:leaf=0.17470178
				26:leaf=-0.16918385
			14:[f0<0.167820066] yes=27,no=28,missing=27
				27:leaf=0.158224449
				28:[f6<0.0053170342] yes=47,no=48,missing=47
					47:[f6<0.00511826668] yes=73,no=74,missing=73
						73:leaf=-0.163543537
						74:leaf=-0.0827665031
					48:[f0<0.185121119] yes=75,no=76,missing=75
						75:leaf=0.137247071
						76:leaf=-0.0212675314
booster[40]:
0:[f6<0.002236136] yes=1,no=2,missing=1
	1:[f0<0.0674740523] yes=3,no=4,missing=3
		3:[f6<0.00193798449] yes=7,no=8,missing=7
