booster[0]:
0:[f1<0.0213210694] yes=1,no=2,missing=1
	1:[f6<0.00273305504] yes=3,no=4,missing=3
		3:[f0<0.0778546706] yes=7,no=8,missing=7
			7:[f6<0.00134168158] yes=15,no=16,missing=15
				15:[f1<0.0192474909] yes=31,no=32,missing=31
					31:[f1<0.00944816042] yes=55,no=56,missing=55
						55:leaf=-0.0591549315
						56:leaf=0.062068969
					32:[f0<0.00519031147] yes=57,no=58,missing=57
						57:leaf=-0
						58:leaf=-0.24000001
				16:[f0<0.0570934266] yes=33,no=34,missing=33
					33:[f1<0.00682274252] yes=59,no=60,missing=59
						59:leaf=-0.28536585
						60:leaf=-0.112500004
					34:[f6<0.00193798449] yes=61,no=62,missing=61
						61:leaf=0.0545454584
						62:leaf=-0.0900000036
			8:[f0<0.0882352889] yes=17,no=18,missing=17
				17:[f0<0.0813148767] yes=35,no=36,missing=35
					35:[f1<0.0107692312] yes=63,no=64,missing=63
						63:leaf=-0.0333333351
						64:leaf=0.150000006
					36:[f3<0.0076923077] yes=65,no=66,missing=65
						65:leaf=0.225000009
						66:leaf=-0
				18:[f0<0.0916955024] yes=37,no=38,missing=37
					37:leaf=-0.0600000024
					38:[f1<0.00797658786] yes=67,no=68,missing=67
						67:leaf=0.0600000024
						68:leaf=-0
		4:[f0<0.126297578] yes=9,no=10,missing=9
			9:[f6<0.00342874182] yes=19,no=20,missing=19
				19:[f0<0.0986159146] yes=39,no=40,missing=39
					39:leaf=-0.272727281
					40:[f3<0.0384615399] yes=69,no=70,missing=69
						69:leaf=-0.115384623
						70:leaf=0.150000006
				20:leaf=-0.289285719
			10:[f1<0.0116722407] yes=21,no=22,missing=21
				21:[f1<0.0041806018] yes=41,no=42,missing=41
					41:[f0<0.216262981] yes=71,no=72,missing=71
						71:leaf=-0
						72:leaf=0.150000006
					42:[f0<0.173010379] yes=73,no=74,missing=73
						73:leaf=-0.220000014
						74:leaf=-0
				22:[f0<0.166089967] yes=43,no=44,missing=43
					43:leaf=0.200000018
					44:leaf=-0
	2:[f1<0.0477424748] yes=5,no=6,missing=5
		5:[f1<0.0235953182] yes=11,no=12,missing=11
			11:[f0<0.105536334] yes=23,no=24,missing=23
				23:[f1<0.0227424745] yes=45,no=46,missing=45
					45:[f0<0.0224913508] yes=75,no=76,missing=75
						75:leaf=-0.100000009
						76:leaf=0.200000018
					46:[f0<0.0674740523] yes=77,no=78,missing=77
						77:leaf=0.192857146
						78:leaf=0.0428571478
				24:leaf=-0.180000007
			12:[f6<0.00472073164] yes=25,no=26,missing=25
				25:[f0<0.0951557159] yes=47,no=48,missing=47
					47:[f6<0.00263367128] yes=79,no=80,missing=79
						79:leaf=-0.000845070404
						80:leaf=-0.233333349
					48:[f1<0.0308862869] yes=81,no=82,missing=81
						81:leaf=0.131999999
						82:leaf=0.0439999998
				26:[f0<0.190311432] yes=49,no=50,missing=49
					49:[f1<0.0459197313] yes=83,no=84,missing=83
						83:leaf=-0.185714304
						84:leaf=-0
					50:[f0<0.257785469] yes=85,no=86,missing=85
						85:leaf=0.0857142955
						86:leaf=-0.180000007
		6:[f6<0.00243490352] yes=13,no=14,missing=13
			13:[f1<0.0885618702] yes=27,no=28,missing=27
				27:[f1<0.0596989952] yes=51,no=52,missing=51
					51:[f1<0.0519398004] yes=87,no=88,missing=87
						87:leaf=0.10285715
						88:leaf=0.0155172423
					52:[f0<0.0294117648] yes=89,no=90,missing=89
						89:leaf=0.0833333433
						90:leaf=0.180000007
				28:leaf=-0.180000007
			14:[f0<0.256055355] yes=29,no=30,missing=29
				29:[f6<0.00536672631] yes=53,no=54,missing=53
					53:[f0<0.140138417] yes=91,no=92,missing=91
						91:leaf=-0.0230769254
						92:leaf=0.117391311
					54:[f0<0.228373706] yes=93,no=94,missing=93
						93:leaf=-0.253846169
						94:leaf=-0
				30:leaf=0.225000009
booster[1]:
0:[f1<0.0213210694] yes=1,no=2,missing=1
	1:[f6<0.00273305504] yes=3,no=4,missing=3
		3:[f0<0.0778546706] yes=7,no=8,missing=7
			7:[f6<0.00134168158] yes=15,no=16,missing=15
				15:[f1<0.0192474909] yes=31,no=32,missing=31
					31:[f1<0.00944816042] yes=55,no=56,missing=55
						55:leaf=0.0591549315
						56:leaf=-0.062068969
					32:[f0<0.00519031147] yes=57,no=58,missing=57
						57:leaf=-0
						58:leaf=0.24000001
				16:[f0<0.0570934266] yes=33,no=34,missing=33
					33:[f1<0.00682274252] yes=59,no=60,missing=59
						59:leaf=0.28536585
						60:leaf=0.112500004
					34:[f6<0.00193798449] yes=61,no=62,missing=61
						61:leaf=-0.0545454584
						62:leaf=0.0900000036
			8:[f0<0.0882352889] yes=17,no=18,missing=17
				17:[f0<0.0813148767] yes=35,no=36,missing=35
					35:[f1<0.0107692312] yes=63,no=64,missing=63
						63:leaf=0.0333333351
						64:leaf=-0.150000006
					36:[f3<0.0076923077] yes=65,no=66,missing=65
						65:leaf=-0.225000009
						66:leaf=-0
				18:[f0<0.0916955024] yes=37,no=38,missing=37
					37:leaf=0.0600000024
					38:[f1<0.00797658786] yes=67,no=68,missing=67
						67:leaf=-0.0600000024
						68:leaf=-0
		4:[f0<0.126297578] yes=9,no=10,missing=9
			9:[f6<0.00342874182] yes=19,no=20,missing=19
				19:[f0<0.0986159146] yes=39,no=40,missing=39
					39:leaf=0.272727281
					40:[f3<0.0384615399] yes=69,no=70,missing=69
						69:leaf=0.115384623
						70:leaf=-0.150000006
				20:leaf=0.289285719
			10:[f1<0.0116722407] yes=21,no=22,missing=21
				21:[f1<0.0041806018] yes=41,no=42,missing=41
					41:[f0<0.216262981] yes=71,no=72,missing=71
						71:leaf=-0
						72:leaf=-0.150000006
					42:[f0<0.173010379] yes=73,no=74,missing=73
						73:leaf=0.220000014
						74:leaf=-0
				22:[f0<0.166089967] yes=43,no=44,missing=43
					43:leaf=-0.200000018
					44:leaf=-0
	2:[f1<0.0477424748] yes=5,no=6,missing=5
		5:[f1<0.0235953182] yes=11,no=12,missing=11
			11:[f0<0.105536334] yes=23,no=24,missing=23
				23:[f1<0.0227424745] yes=45,no=46,missing=45
					45:[f0<0.0224913508] yes=75,no=76,missing=75
						75:leaf=0.100000009
						76:leaf=-0.200000018
					46:[f0<0.0674740523] yes=77,no=78,missing=77
						77:leaf=-0.192857146
						78:leaf=-0.0428571478
				24:leaf=0.180000007
			12:[f6<0.00472073164] yes=25,no=26,missing=25
				25:[f0<0.0951557159] yes=47,no=48,missing=47
					47:[f6<0.00263367128] yes=79,no=80,missing=79
						79:leaf=0.000845070404
						80:leaf=0.233333349
					48:[f1<0.0308862869] yes=81,no=82,missing=81
						81:leaf=-0.131999999
						82:leaf=-0.0439999998
				26:[f0<0.190311432] yes=49,no=50,missing=49
					49:[f1<0.0459197313] yes=83,no=84,missing=83
						83:leaf=0.185714304
						84:leaf=-0
					50:[f0<0.257785469] yes=85,no=86,missing=85
						85:leaf=-0.0857142955
						86:leaf=0.180000007
		6:[f6<0.00243490352] yes=13,no=14,missing=13
			13:[f1<0.0885618702] yes=27,no=28,missing=27
				27:[f1<0.0596989952] yes=51,no=52,missing=51
					51:[f1<0.0519398004] yes=87,no=88,missing=87
						87:leaf=-0.10285715
						88:leaf=-0.0155172423
					52:[f0<0.0294117648] yes=89,no=90,missing=89
						89:leaf=-0.0833333433
						90:leaf=-0.180000007
				28:leaf=0.180000007
			14:[f0<0.256055355] yes=29,no=30,missing=29
				29:[f6<0.00536672631] yes=53,no=54,missing=53
					53:[f0<0.140138417] yes=91,no=92,missing=91
						91:leaf=0.0230769254
						92:leaf=-0.117391311
					54:[f0<0.228373706] yes=93,no=94,missing=93
						93:leaf=0.253846169
						94:leaf=-0
				30:leaf=-0.225000009
booster[2]:
0:[f1<0.0213210694] yes=1,no=2,missing=1
	1:[f6<0.00273305504] yes=3,no=4,missing=3
		3:[f0<0.0778546706] yes=7,no=8,missing=7
			7:[f6<0.00134168158] yes=15,no=16,missing=15
				15:[f1<0.00290969899] yes=31,no=32,missing=31
					31:[f0<0.0294117648] yes=59,no=60,missing=59
						59:leaf=0.00175747997
						60:leaf=0.227514371
					32:[f1<0.00944816042] yes=61,no=62,missing=61
						61:leaf=-0.0641507208
						62:leaf=0.0107478062
				16:[f0<0.0570934266] yes=33,no=34,missing=33
					33:[f1<0.00682274252] yes=63,no=64,missing=63
						63:leaf=-0.222407013
						64:leaf=-0.0840153024
					34:[f6<0.00193798449] yes=65,no=66,missing=65
						65:leaf=0.0397915766
						66:leaf=-0.0662457347
			8:[f0<0.0882352889] yes=17,no=18,missing=17
				17:[f1<0.0107692312] yes=35,no=36,missing=35
					35:[f1<0.00598662207] yes=67,no=68,missing=67
						67:leaf=0.12920101
						68:leaf=-0.176079676
					36:leaf=0.176796705
				18:[f1<0.0058528427] yes=37,no=38,missing=37
					37:leaf=-0.0637330115
					38:[f1<0.00797658786] yes=69,no=70,missing=69
						69:leaf=0.0637330338
						70:leaf=-0
		4:[f0<0.126297578] yes=9,no=10,missing=9
			9:[f3<0.0230769236] yes=19,no=20,missing=19
				19:leaf=-0.220245913
				20:[f6<0.00342874182] yes=39,no=40,missing=39
					39:[f0<0.11072664] yes=71,no=72,missing=71
						71:leaf=-0.0489422567
						72:leaf=0.065487951
					40:leaf=-0.207582027
			10:[f1<0.0116722407] yes=21,no=22,missing=21
				21:[f1<0.0041806018] yes=41,no=42,missing=41
					41:[f3<0.0538461544] yes=73,no=74,missing=73
						73:leaf=-0.00747185526
						74:leaf=0.100000009
					42:[f0<0.173010379] yes=75,no=76,missing=75
						75:leaf=-0.170638248
						76:leaf=-0
				22:[f0<0.166089967] yes=43,no=44,missing=43
					43:leaf=0.164805159
					44:leaf=-0
	2:[f1<0.0450668894] yes=5,no=6,missing=5
		5:[f6<0.00163983298] yes=11,no=12,missing=11
			11:[f1<0.0236789305] yes=23,no=24,missing=23
				23:[f0<0.0501730107] yes=45,no=46,missing=45
					45:[f0<0.0294117648] yes=77,no=78,missing=77
						77:leaf=0.145722032
						78:leaf=-0.0446225926
					46:leaf=0.187233374
				24:[f0<0.0328719728] yes=47,no=48,missing=47
					47:[f0<0.00173010386] yes=79,no=80,missing=79
						79:leaf=0.0493352488
						80:leaf=-0.0169455577
					48:[f1<0.0295986608] yes=81,no=82,missing=81
						81:leaf=0.10932146
						82:leaf=0.0393784717
			12:[f0<0.0570934266] yes=25,no=26,missing=25
				25:leaf=-0.244671062
				26:[f3<0.0076923077] yes=49,no=50,missing=49
					49:[f1<0.027173914] yes=83,no=84,missing=83
						83:leaf=-0.0900161713
						84:leaf=0.00898954924
					50:[f1<0.0291973241] yes=85,no=86,missing=85
						85:leaf=0.0631945431
						86:leaf=-0.152935058
		6:[f6<0.000347843365] yes=13,no=14,missing=13
			13:[f3<0.0076923077] yes=27,no=28,missing=27
				27:[f1<0.0534782633] yes=51,no=52,missing=51
					51:[f1<0.0510869548] yes=87,no=88,missing=87
						87:leaf=0.0837800205
						88:leaf=0.177304387
					52:[f1<0.0545317717] yes=89,no=90,missing=89
						89:leaf=-0.228532389
						90:leaf=0.0957809538
				28:[f1<0.0588628761] yes=53,no=54,missing=53
					53:[f1<0.0501170568] yes=91,no=92,missing=91
						91:leaf=-0.0471350364
						92:leaf=-0.112203121
					54:[f1<0.0706688911] yes=93,no=94,missing=93
						93:leaf=0.184220761
						94:leaf=-0.0846118629
			14:[f0<0.0294117648] yes=29,no=30,missing=29
				29:[f6<0.000745378667] yes=55,no=56,missing=55
					55:[f0<0.0155709349] yes=95,no=96,missing=95
						95:leaf=-0.0370163396
						96:leaf=0.0296416134
					56:[f1<0.0639632121] yes=97,no=98,missing=97
						97:leaf=-0.216783091
						98:leaf=0.0452221856
				30:[f1<0.0793645531] yes=57,no=58,missing=57
					57:[f6<0.00243490352] yes=99,no=100,missing=99
						99:leaf=0.0739594921
						100:leaf=0.0200195238
					58:[f1<0.0885618702] yes=101,no=102,missing=101
						101:leaf=-0.143044651
						102:leaf=-0.0377285331
booster[3]:
0:[f1<0.0213210694] yes=1,no=2,missing=1
	1:[f6<0.00273305504] yes=3,no=4,missing=3
		3:[f0<0.0778546706] yes=7,no=8,missing=7
			7:[f6<0.00134168158] yes=15,no=16,missing=15
				15:[f1<0.00290969899] yes=31,no=32,missing=31
					31:[f0<0.0294117648] yes=59,no=60,missing=59
						59:leaf=-0.00175748859
						60:leaf=-0.227514386
					32:[f1<0.00944816042] yes=61,no=62,missing=61
						61:leaf=0.0641507134
						62:leaf=-0.0107477978
				16:[f0<0.0570934266] yes=33,no=34,missing=33
					33:[f1<0.00682274252] yes=63,no=64,missing=63
						63:leaf=0.222407013
						64:leaf=0.0840153247
					34:[f6<0.00193798449] yes=65,no=66,missing=65
						65:leaf=-0.0397915505
						66:leaf=0.0662457347
			8:[f0<0.0882352889] yes=17,no=18,missing=17
				17:[f1<0.0107692312] yes=35,no=36,missing=35
					35:[f1<0.00598662207] yes=67,no=68,missing=67
						67:leaf=-0.129201025
						68:leaf=0.176079676
					36:leaf=-0.176796705
				18:[f1<0.0058528427] yes=37,no=38,missing=37
					37:leaf=0.0637330338
					38:[f1<0.00797658786] yes=69,no=70,missing=69
						69:leaf=-0.0637330115
						70:leaf=-0
		4:[f0<0.126297578] yes=9,no=10,missing=9
			9:[f3<0.0230769236] yes=19,no=20,missing=19
				19:leaf=0.220245898
				20:[f6<0.00342874182] yes=39,no=40,missing=39
					39:[f0<0.11072664] yes=71,no=72,missing=71
						71:leaf=0.0489422567
						72:leaf=-0.065487951
					40:leaf=0.207582012
			10:[f1<0.0116722407] yes=21,no=22,missing=21
				21:[f1<0.0041806018] yes=41,no=42,missing=41
					41:[f3<0.0538461544] yes=73,no=74,missing=73
						73:leaf=0.00747185526
						74:leaf=-0.100000009
					42:[f0<0.173010379] yes=75,no=76,missing=75
						75:leaf=0.170638248
						76:leaf=-0
				22:[f0<0.166089967] yes=43,no=44,missing=43
					43:leaf=-0.164805144
					44:leaf=-0
	2:[f1<0.0450668894] yes=5,no=6,missing=5
		5:[f6<0.00163983298] yes=11,no=12,missing=11
			11:[f1<0.0236789305] yes=23,no=24,missing=23
				23:[f0<0.0501730107] yes=45,no=46,missing=45
					45:[f0<0.0294117648] yes=77,no=78,missing=77
						77:leaf=-0.145722017
						78:leaf=0.0446226224
					46:leaf=-0.187233359
				24:[f0<0.0328719728] yes=47,no=48,missing=47
					47:[f0<0.00173010386] yes=79,no=80,missing=79
						79:leaf=-0.0493352488
						80:leaf=0.0169455577
					48:[f1<0.0295986608] yes=81,no=82,missing=81
						81:leaf=-0.10932146
						82:leaf=-0.0393784717
			12:[f0<0.0570934266] yes=25,no=26,missing=25
				25:leaf=0.244671062
				26:[f3<0.0076923077] yes=49,no=50,missing=49
					49:[f1<0.027173914] yes=83,no=84,missing=83
						83:leaf=0.0900161639
						84:leaf=-0.00898955297
					50:[f1<0.0291973241] yes=85,no=86,missing=85
						85:leaf=-0.0631945431
						86:leaf=0.152935058
		6:[f6<0.000347843365] yes=13,no=14,missing=13
			13:[f3<0.0076923077] yes=27,no=28,missing=27
				27:[f1<0.0534782633] yes=51,no=52,missing=51
					51:[f1<0.0510869548] yes=87,no=88,missing=87
						87:leaf=-0.0837800056
						88:leaf=-0.177304387
					52:[f1<0.0545317717] yes=89,no=90,missing=89
						89:leaf=0.228532374
						90:leaf=-0.0957809538
				28:[f1<0.0588628761] yes=53,no=54,missing=53
					53:[f1<0.0501170568] yes=91,no=92,missing=91
						91:leaf=0.0471350439
						92:leaf=0.112203121
					54:[f1<0.0706688911] yes=93,no=94,missing=93
						93:leaf=-0.184220761
						94:leaf=0.084611848
			14:[f0<0.0294117648] yes=29,no=30,missing=29
				29:[f6<0.000745378667] yes=55,no=56,missing=55
					55:[f0<0.0155709349] yes=95,no=96,missing=95
						95:leaf=0.0370163396
						96:leaf=-0.0296416115
					56:[f1<0.0639632121] yes=97,no=98,missing=97
						97:leaf=0.216783091
						98:leaf=-0.0452221856
				30:[f1<0.0793645531] yes=57,no=58,missing=57
					57:[f6<0.00243490352] yes=99,no=100,missing=99
						99:leaf=-0.0739594921
						100:leaf=-0.0200195257
					58:[f1<0.0885618702] yes=101,no=102,missing=101
						101:leaf=0.143044621
						102:leaf=0.0377285294
booster[4]:
0:[f1<0.0213210694] yes=1,no=2,missing=1
	1:[f6<0.00253428752] yes=3,no=4,missing=3
		3:[f0<0.0813148767] yes=7,no=8,missing=7
			7:[f6<0.00104353018] yes=15,no=16,missing=15
				15:[f0<0.0294117648] yes=31,no=32,missing=31
					31:[f1<0.0181270912] yes=55,no=56,missing=55
						55:leaf=-0.0115848649
						56:leaf=-0.146655396
					32:[f1<0.00724080298] yes=57,no=58,missing=57
						57:leaf=0.238802671
						58:leaf=-0.0309848823
				16:[f0<0.0363321789] yes=33,no=34,missing=33
					33:leaf=-0.206246987
					34:[f1<0.00999999978] yes=59,no=60,missing=59
						59:leaf=-0.0629569143
						60:leaf=0.114014916
			8:[f1<0.00710702315] yes=17,no=18,missing=17
				17:leaf=0.154143006
				18:leaf=0.0386662632
		4:[f0<0.129757792] yes=9,no=10,missing=9
			9:[f6<0.00342874182] yes=19,no=20,missing=19
				19:[f0<0.0865051895] yes=35,no=36,missing=35
					35:leaf=-0.185545698
					36:[f1<0.0095317727] yes=61,no=62,missing=61
						61:leaf=-0.00570097053
						62:leaf=-0.172792092
				20:[f0<0.126297578] yes=37,no=38,missing=37
					37:leaf=-0.195334002
					38:leaf=-0.0614022762
			10:[f8<0.833333373] yes=21,no=22,missing=21
				21:leaf=-0.161712408
				22:[f0<0.15743944] yes=39,no=40,missing=39
					39:[f1<0.00290969899] yes=63,no=64,missing=63
						63:leaf=0.0858505964
						64:leaf=-0.102290906
					40:[f6<0.00641025603] yes=65,no=66,missing=65
						65:leaf=0.180816233
						66:leaf=-0.0802302733
	2:[f1<0.0383779258] yes=5,no=6,missing=5
		5:[f1<0.030050166] yes=11,no=12,missing=11
			11:[f6<0.00332935806] yes=23,no=24,missing=23
				23:[f1<0.0235953182] yes=41,no=42,missing=41
					41:[f0<0.0501730107] yes=67,no=68,missing=67
						67:leaf=0.0643936023
						68:leaf=0.141960248
					42:[f0<0.0951557159] yes=69,no=70,missing=69
						69:leaf=0.00185663777
						70:leaf=0.138009682
				24:[f0<0.126297578] yes=43,no=44,missing=43
					43:[f6<0.00342874182] yes=71,no=72,missing=71
						71:leaf=-0.0623450391
						72:leaf=-0.20532541
					44:[f0<0.164359868] yes=73,no=74,missing=73
						73:leaf=0.100576214
						74:leaf=-0.0359690674
			12:[f1<0.0321237445] yes=25,no=26,missing=25
				25:[f0<0.0916955024] yes=45,no=46,missing=45
					45:[f6<0.000745378667] yes=75,no=76,missing=75
						75:leaf=-0.0498224646
						76:leaf=-0.12531808
					46:[f0<0.126297578] yes=77,no=78,missing=77
						77:leaf=0.121100962
						78:leaf=-0.134948835
				26:[f6<0.00154044922] yes=47,no=48,missing=47
					47:[f1<0.0350334458] yes=79,no=80,missing=79
						79:leaf=0.07199049
						80:leaf=-0.108936876
					48:[f0<0.0674740523] yes=81,no=82,missing=81
						81:leaf=-0.20634596
						82:leaf=-0.019802846
		6:[f6<0.00482011493] yes=13,no=14,missing=13
			13:[f1<0.0596989952] yes=27,no=28,missing=27
				27:[f1<0.054347828] yes=49,no=50,missing=49
					49:[f0<0.0363321789] yes=83,no=84,missing=83
						83:leaf=0.00665223459
						84:leaf=0.0526018031
					50:[f0<0.129757792] yes=85,no=86,missing=85
						85:leaf=-0.0189852566
						86:leaf=-0.207013354
				28:[f1<0.0789632052] yes=51,no=52,missing=51
					51:[f0<0.0294117648] yes=87,no=88,missing=87
						87:leaf=0.0449403375
						88:leaf=0.109661452
					52:[f0<0.019031141] yes=89,no=90,missing=89
						89:leaf=0.0699559152
						90:leaf=-0.1085921
			14:[f0<0.275086522] yes=29,no=30,missing=29
				29:[f1<0.0417391285] yes=53,no=54,missing=53
					53:[f0<0.181660905] yes=91,no=92,missing=91
						91:leaf=-0.029049851
						92:leaf=0.0597424395
					54:[f0<0.223183393] yes=93,no=94,missing=93
						93:leaf=-0.144550472
						94:leaf=-0.0227108896
				30:leaf=0.17868191
booster[5]:
0:[f1<0.0213210694] yes=1,no=2,missing=1
	1:[f6<0.00253428752] yes=3,no=4,missing=3
		3:[f0<0.0813148767] yes=7,no=8,missing=7
			7:[f6<0.00104353018] yes=15,no=16,missing=15
				15:[f0<0.0294117648] yes=31,no=32,missing=31
					31:[f1<0.0181270912] yes=55,no=56,missing=55
						55:leaf=0.0115848612
						56:leaf=0.146655396
					32:[f1<0.00724080298] yes=57,no=58,missing=57
						57:leaf=-0.238802671
						58:leaf=0.0309848823
				16:[f0<0.0363321789] yes=33,no=34,missing=33
					33:leaf=0.206246987
					34:[f1<0.00999999978] yes=59,no=60,missing=59
						59:leaf=0.0629569218
						60:leaf=-0.114014916
			8:[f1<0.00710702315] yes=17,no=18,missing=17
				17:leaf=-0.154143006
				18:leaf=-0.0386662744
		4:[f0<0.129757792] yes=9,no=10,missing=9
			9:[f6<0.00342874182] yes=19,no=20,missing=19
				19:[f0<0.0865051895] yes=35,no=36,missing=35
					35:leaf=0.185545698
					36:[f1<0.0095317727] yes=61,no=62,missing=61
						61:leaf=0.00570097473
						62:leaf=0.172792092
				20:[f0<0.126297578] yes=37,no=38,missing=37
					37:leaf=0.195333987
					38:leaf=0.0614022762
			10:[f8<0.833333373] yes=21,no=22,missing=21
				21:leaf=0.161712408
				22:[f0<0.15743944] yes=39,no=40,missing=39
					39:[f1<0.00290969899] yes=63,no=64,missing=63
						63:leaf=-0.0858505964
						64:leaf=0.102290899
					40:[f6<0.00641025603] yes=65,no=66,missing=65
						65:leaf=-0.180816233
						66:leaf=0.0802302808
	2:[f1<0.0383779258] yes=5,no=6,missing=5
		5:[f1<0.030050166] yes=11,no=12,missing=11
			11:[f6<0.00332935806] yes=23,no=24,missing=23
				23:[f1<0.0235953182] yes=41,no=42,missing=41
					41:[f0<0.0501730107] yes=67,no=68,missing=67
						67:leaf=-0.0643935949
						68:leaf=-0.141960248
					42:[f0<0.0951557159] yes=69,no=70,missing=69
						69:leaf=-0.00185665069
						70:leaf=-0.138009697
				24:[f0<0.126297578] yes=43,no=44,missing=43
					43:[f6<0.00342874182] yes=71,no=72,missing=71
						71:leaf=0.0623450242
						72:leaf=0.20532541
					44:[f0<0.164359868] yes=73,no=74,missing=73
						73:leaf=-0.100576244
						74:leaf=0.0359690599
			12:[f1<0.0321237445] yes=25,no=26,missing=25
				25:[f0<0.0916955024] yes=45,no=46,missing=45
					45:[f6<0.000745378667] yes=75,no=76,missing=75
						75:leaf=0.0498224385
						76:leaf=0.12531808
					46:[f0<0.126297578] yes=77,no=78,missing=77
						77:leaf=-0.121100955
						78:leaf=0.13494885
				26:[f6<0.00154044922] yes=47,no=48,missing=47
					47:[f1<0.0350334458] yes=79,no=80,missing=79
						79:leaf=-0.0719905049
						80:leaf=0.108936861
					48:[f0<0.0674740523] yes=81,no=82,missing=81
						81:leaf=0.20634596
						82:leaf=0.0198028665
		6:[f6<0.00482011493] yes=13,no=14,missing=13
			13:[f1<0.0596989952] yes=27,no=28,missing=27
				27:[f1<0.054347828] yes=49,no=50,missing=49
					49:[f0<0.0363321789] yes=83,no=84,missing=83
						83:leaf=-0.00665224018
						84:leaf=-0.0526017994
					50:[f0<0.129757792] yes=85,no=86,missing=85
						85:leaf=0.0189852435
						86:leaf=0.207013354
				28:[f1<0.0789632052] yes=51,no=52,missing=51
					51:[f0<0.0294117648] yes=87,no=88,missing=87
						87:leaf=-0.0449403226
						88:leaf=-0.109661452
					52:[f0<0.019031141] yes=89,no=90,missing=89
						89:leaf=-0.0699559152
						90:leaf=0.108592108
			14:[f0<0.275086522] yes=29,no=30,missing=29
				29:[f1<0.0417391285] yes=53,no=54,missing=53
					53:[f0<0.181660905] yes=91,no=92,missing=91
						91:leaf=0.0290498454
						92:leaf=-0.0597424433
					54:[f0<0.223183393] yes=93,no=94,missing=93
						93:leaf=0.144550458
						94:leaf=0.0227108877
				30:leaf=-0.17868191
booster[6]:
0:[f1<0.00944816042] yes=1,no=2,missing=1
	1:[f3<0.0076923077] yes=3,no=4,missing=3
		3:[f1<0.0036454848] yes=7,no=8,missing=7
			7:[f6<0.00139137357] yes=15,no=16,missing=15
				15:[f0<0.0242214538] yes=29,no=30,missing=29
					29:[f0<0.0121107269] yes=53,no=54,missing=53
						53:leaf=0.030579919
						54:leaf=-0.0803131089
					30:leaf=0.214486614
				16:[f0<0.0692041516] yes=31,no=32,missing=31
					31:leaf=-0.180498213
					32:[f0<0.0968858153] yes=55,no=56,missing=55
						55:leaf=0.0823308378
						56:leaf=-0.0735380724
			8:[f0<0.0397923887] yes=17,no=18,missing=17
				17:[f1<0.00498327753] yes=33,no=34,missing=33
					33:leaf=-0.00775834313
					34:[f0<0.00519031147] yes=57,no=58,missing=57
						57:leaf=-0.069689475
						58:leaf=-0.189689323
				18:[f6<0.00263367128] yes=35,no=36,missing=35
					35:[f0<0.0674740523] yes=59,no=60,missing=59
						59:leaf=-0.0700661242
						60:leaf=0.0806402117
					36:[f0<0.141868502] yes=61,no=62,missing=61
						61:leaf=-0.169820487
						62:leaf=-0.0470764823
		4:[f6<0.00104353018] yes=9,no=10,missing=9
			9:[f1<0.00794314407] yes=19,no=20,missing=19
				19:[f1<0.00414715707] yes=37,no=38,missing=37
					37:[f3<0.0692307726] yes=63,no=64,missing=63
						63:leaf=-0.0308075044
						64:leaf=0.151274383
					38:[f3<0.0384615399] yes=65,no=66,missing=65
						65:leaf=0.236149877
						66:leaf=0.0326483287
				20:[f0<0.00865051895] yes=39,no=40,missing=39
					39:leaf=-0.197495177
					40:[f0<0.0224913508] yes=67,no=68,missing=67
						67:leaf=0.128353938
						68:leaf=-0.120191872
			10:[f0<0.0432525948] yes=21,no=22,missing=21
				21:leaf=-0.196564719
				22:[f1<0.00755852833] yes=41,no=42,missing=41
					41:[f0<0.0570934266] yes=69,no=70,missing=69
						69:leaf=-0.110372171
						70:leaf=-0.0193335861
					42:[f1<0.0087290965] yes=71,no=72,missing=71
						71:leaf=0.104631282
						72:leaf=0.00318240491
	2:[f6<0.00163983298] yes=5,no=6,missing=5
		5:[f0<0.0467128009] yes=11,no=12,missing=11
			11:[f1<0.00993311033] yes=23,no=24,missing=23
				23:[f3<0.0076923077] yes=43,no=44,missing=43
					43:leaf=0.194329232
					44:leaf=0.0502456315
				24:[f1<0.0484113693] yes=45,no=46,missing=45
					45:[f3<0.0076923077] yes=73,no=74,missing=73
						73:leaf=0.00402389467
						74:leaf=-0.0505533069
					46:[f1<0.0493478253] yes=75,no=76,missing=75
						75:leaf=0.129804105
						76:leaf=0.0271595735
			12:[f1<0.0547491647] yes=25,no=26,missing=25
				25:[f1<0.0392140448] yes=47,no=48,missing=47
					47:[f1<0.032541804] yes=77,no=78,missing=77
						77:leaf=0.0998305976
						78:leaf=-0.0627961606
					48:[f1<0.050568562] yes=79,no=80,missing=79
						79:leaf=0.128009051
						80:leaf=0.0545883551
				26:[f0<0.0501730107] yes=49,no=50,missing=49
					49:leaf=0.140952855
					50:[f0<0.0536332205] yes=81,no=82,missing=81
						81:leaf=-0.104981557
						82:leaf=0.0471200012
		6:[f0<0.0570934266] yes=13,no=14,missing=13
			13:leaf=-0.204381034
			14:[f0<0.275086522] yes=27,no=28,missing=27
				27:[f6<0.00511826668] yes=51,no=52,missing=51
					51:[f0<0.140138417] yes=83,no=84,missing=83
						83:leaf=-0.00463640178
						84:leaf=0.0480663292
					52:[f0<0.181660891] yes=85,no=86,missing=85
						85:leaf=-0.1767959
						86:leaf=-0.0593501627
				28:leaf=0.153402448
booster[7]:
0:[f1<0.00944816042] yes=1,no=2,missing=1
	1:[f3<0.0076923077] yes=3,no=4,missing=3
		3:[f1<0.0036454848] yes=7,no=8,missing=7
			7:[f6<0.00139137357] yes=15,no=16,missing=15
				15:[f0<0.0242214538] yes=29,no=30,missing=29
					29:[f0<0.0121107269] yes=53,no=54,missing=53
						53:leaf=-0.0305799115
						54:leaf=0.0803131163
					30:leaf=-0.214486614
				16:[f0<0.0692041516] yes=31,no=32,missing=31
					31:leaf=0.180498227
					32:[f0<0.0968858153] yes=55,no=56,missing=55
						55:leaf=-0.0823308378
						56:leaf=0.0735380575
			8:[f0<0.0397923887] yes=17,no=18,missing=17
				17:[f1<0.00498327753] yes=33,no=34,missing=33
					33:leaf=0.00775834871
					34:[f0<0.00519031147] yes=57,no=58,missing=57
						57:leaf=0.0696894825
						58:leaf=0.189689338
				18:[f6<0.00263367128] yes=35,no=36,missing=35
					35:[f0<0.0674740523] yes=59,no=60,missing=59
						59:leaf=0.0700661317
						60:leaf=-0.0806402117
					36:[f0<0.141868502] yes=61,no=62,missing=61
						61:leaf=0.169820517
						62:leaf=0.0470764898
		4:[f6<0.00104353018] yes=9,no=10,missing=9
			9:[f1<0.00794314407] yes=19,no=20,missing=19
				19:[f1<0.00414715707] yes=37,no=38,missing=37
					37:[f3<0.0692307726] yes=63,no=64,missing=63
						63:leaf=0.0308075231
						64:leaf=-0.151274353
					38:[f3<0.0384615399] yes=65,no=66,missing=65
						65:leaf=-0.236149877
						66:leaf=-0.0326483175
				20:[f0<0.00865051895] yes=39,no=40,missing=39
					39:leaf=0.197495177
					40:[f0<0.0224913508] yes=67,no=68,missing=67
						67:leaf=-0.128353938
						68:leaf=0.120191894
			10:[f0<0.0432525948] yes=21,no=22,missing=21
				21:leaf=0.196564719
				22:[f1<0.00755852833] yes=41,no=42,missing=41
					41:[f0<0.0570934266] yes=69,no=70,missing=69
						69:leaf=0.110372171
						70:leaf=0.0193335917
					42:[f1<0.0087290965] yes=71,no=72,missing=71
						71:leaf=-0.104631282
						72:leaf=-0.0031824077
	2:[f6<0.00163983298] yes=5,no=6,missing=5
		5:[f0<0.0467128009] yes=11,no=12,missing=11
			11:[f1<0.00993311033] yes=23,no=24,missing=23
				23:[f3<0.0076923077] yes=43,no=44,missing=43
					43:leaf=-0.194329232
					44:leaf=-0.0502456352
				24:[f1<0.0484113693] yes=45,no=46,missing=45
					45:[f3<0.0076923077] yes=73,no=74,missing=73
						73:leaf=-0.00402390212
						74:leaf=0.0505532995
					46:[f1<0.0493478253] yes=75,no=76,missing=75
						75:leaf=-0.129804105
						76:leaf=-0.0271595772
			12:[f1<0.0547491647] yes=25,no=26,missing=25
				25:[f1<0.0392140448] yes=47,no=48,missing=47
					47:[f1<0.032541804] yes=77,no=78,missing=77
						77:leaf=-0.0998305976
						78:leaf=0.0627961531
					48:[f1<0.050568562] yes=79,no=80,missing=79
						79:leaf=-0.128009051
						80:leaf=-0.0545883477
				26:[f0<0.0501730107] yes=49,no=50,missing=49
					49:leaf=-0.140952855
					50:[f0<0.0536332205] yes=81,no=82,missing=81
						81:leaf=0.104981564
						82:leaf=-0.0471199937
		6:[f0<0.0570934266] yes=13,no=14,missing=13
			13:leaf=0.204381034
			14:[f0<0.275086522] yes=27,no=28,missing=27
				27:[f6<0.00511826668] yes=51,no=52,missing=51
					51:[f0<0.140138417] yes=83,no=84,missing=83
						83:leaf=0.00463640131
						84:leaf=-0.0480663292
					52:[f0<0.181660891] yes=85,no=86,missing=85
						85:leaf=0.1767959
						86:leaf=0.0593501665
				28:leaf=-0.153402418
booster[8]:
0:[f1<0.00944816042] yes=1,no=2,missing=1
	1:[f3<0.0076923077] yes=3,no=4,missing=3
		3:[f1<0.0036454848] yes=7,no=8,missing=7
			7:[f6<0.00139137357] yes=15,no=16,missing=15
				15:[f0<0.0242214538] yes=29,no=30,missing=29
					29:[f0<0.0121107269] yes=53,no=54,missing=53
						53:leaf=0.0235761423
						54:leaf=-0.0654452294
					30:leaf=0.176725447
				16:[f0<0.0692041516] yes=31,no=32,missing=31
					31:leaf=-0.163039982
					32:[f0<0.0968858153] yes=55,no=56,missing=55
						55:leaf=0.0646361336
						56:leaf=-0.058274474
			8:[f0<0.0397923887] yes=17,no=18,missing=17
				17:[f1<0.00498327753] yes=33,no=34,missing=33
					33:leaf=-0.00646226713
					34:[f0<0.00519031147] yes=57,no=58,missing=57
						57:leaf=-0.05465018
						58:leaf=-0.15531227
				18:[f6<0.00263367128] yes=35,no=36,missing=35
					35:[f1<0.00581939798] yes=59,no=60,missing=59
						59:leaf=0.0824651271
						60:leaf=-0.0583662428
					36:[f0<0.141868502] yes=61,no=62,missing=61
						61:leaf=-0.153113082
						62:leaf=-0.0370864421
		4:[f6<0.00104353018] yes=9,no=10,missing=9
			9:[f1<0.00794314407] yes=19,no=20,missing=19
				19:[f1<0.00414715707] yes=37,no=38,missing=37
					37:[f3<0.0692307726] yes=63,no=64,missing=63
						63:leaf=-0.0223558061
						64:leaf=0.114769645
					38:[f3<0.0692307726] yes=65,no=66,missing=65
						65:leaf=0.15535827
						66:leaf=-0.0419213697
				20:[f0<0.00865051895] yes=39,no=40,missing=39
					39:leaf=-0.165623516
					40:[f0<0.0224913508] yes=67,no=68,missing=67
						67:leaf=0.101310186
						68:leaf=-0.097236529
			10:[f0<0.0432525948] yes=21,no=22,missing=21
				21:leaf=-0.175714523
				22:[f6<0.00332935806] yes=41,no=42,missing=41
					41:[f0<0.102076128] yes=69,no=70,missing=69
						69:leaf=0.00047792503
						70:leaf=0.191046402
					42:[f0<0.129757792] yes=71,no=72,missing=71
						71:leaf=-0.152233943
						72:leaf=0.0317894369
	2:[f6<0.00163983298] yes=5,no=6,missing=5
		5:[f0<0.0467128009] yes=11,no=12,missing=11
			11:[f1<0.00993311033] yes=23,no=24,missing=23
				23:[f3<0.0076923077] yes=43,no=44,missing=43
					43:leaf=0.153505176
					44:leaf=0.0414429531
				24:[f1<0.0563712381] yes=45,no=46,missing=45
					45:[f3<0.0076923077] yes=73,no=74,missing=73
						73:leaf=0.00669660885
						74:leaf=-0.0410357639
					46:[f1<0.0647826046] yes=75,no=76,missing=75
						75:leaf=0.0859075338
						76:leaf=-0.00102235214
			12:[f1<0.0547491647] yes=25,no=26,missing=25
				25:[f1<0.0296153836] yes=47,no=48,missing=47
					47:leaf=0.110190168
					48:[f1<0.0392140448] yes=77,no=78,missing=77
						77:leaf=-0.00686089881
						78:leaf=0.0856957734
				26:[f3<0.0076923077] yes=49,no=50,missing=49
					49:[f1<0.0580434799] yes=79,no=80,missing=79
						79:leaf=-0.0129518136
						80:leaf=0.108676702
					50:leaf=-0.102761045
		6:[f0<0.0570934266] yes=13,no=14,missing=13
			13:leaf=-0.18105039
			14:[f1<0.010802675] yes=27,no=28,missing=27
				27:leaf=-0.150675118
				28:[f0<0.275086522] yes=51,no=52,missing=51
					51:[f6<0.00601272099] yes=81,no=82,missing=81
						81:leaf=0.00255306158
						82:leaf=-0.0897154957
					52:leaf=0.135390744
booster[9]:
0:[f1<0.00944816042] yes=1,no=2,missing=1
	1:[f3<0.0076923077] yes=3,no=4,missing=3
		3:[f1<0.0036454848] yes=7,no=8,missing=7
			7:[f6<0.00139137357] yes=15,no=16,missing=15
				15:[f0<0.0242214538] yes=29,no=30,missing=29
					29:[f0<0.0121107269] yes=53,no=54,missing=53
						53:leaf=-0.0235761125
						54:leaf=0.0654452294
					30:leaf=-0.176725447
				16:[f0<0.0692041516] yes=31,no=32,missing=31
					31:leaf=0.163039953
					32:[f0<0.0968858153] yes=55,no=56,missing=55
						55:leaf=-0.0646361411
						56:leaf=0.0582744665
			8:[f0<0.0397923887] yes=17,no=18,missing=17
				17:[f1<0.00498327753] yes=33,no=34,missing=33
					33:leaf=0.00646226713
					34:[f0<0.00519031147] yes=57,no=58,missing=57
						57:leaf=0.054650154
						58:leaf=0.15531227
				18:[f6<0.00263367128] yes=35,no=36,missing=35
					35:[f1<0.00581939798] yes=59,no=60,missing=59
						59:leaf=-0.0824651197
						60:leaf=0.0583662502
					36:[f0<0.141868502] yes=61,no=62,missing=61
						61:leaf=0.153113082
						62:leaf=0.0370864458
		4:[f6<0.00104353018] yes=9,no=10,missing=9
			9:[f1<0.00794314407] yes=19,no=20,missing=19
				19:[f1<0.00414715707] yes=37,no=38,missing=37
					37:[f3<0.0692307726] yes=63,no=64,missing=63
						63:leaf=0.0223558079
						64:leaf=-0.114769652
					38:[f3<0.0692307726] yes=65,no=66,missing=65
						65:leaf=-0.15535827
						66:leaf=0.0419213921
				20:[f0<0.00865051895] yes=39,no=40,missing=39
					39:leaf=0.165623516
					40:[f0<0.0224913508] yes=67,no=68,missing=67
						67:leaf=-0.101310186
						68:leaf=0.0972365439
			10:[f0<0.0432525948] yes=21,no=22,missing=21
				21:leaf=0.175714523
				22:[f6<0.00332935806] yes=41,no=42,missing=41
					41:[f0<0.102076128] yes=69,no=70,missing=69
						69:leaf=-0.000477928115
						70:leaf=-0.191046402
					42:[f0<0.129757792] yes=71,no=72,missing=71
						71:leaf=0.152233943
						72:leaf=-0.031789422
	2:[f6<0.00163983298] yes=5,no=6,missing=5
		5:[f0<0.0467128009] yes=11,no=12,missing=11
			11:[f1<0.00993311033] yes=23,no=24,missing=23
				23:[f3<0.0076923077] yes=43,no=44,missing=43
					43:leaf=-0.153505176
					44:leaf=-0.0414429344
				24:[f1<0.0563712381] yes=45,no=46,missing=45
					45:[f3<0.0076923077] yes=73,no=74,missing=73
						73:leaf=-0.00669661304
						74:leaf=0.0410357602
					46:[f1<0.0647826046] yes=75,no=76,missing=75
						75:leaf=-0.0859075338
						76:leaf=0.00102235936
			12:[f1<0.0547491647] yes=25,no=26,missing=25
				25:[f1<0.0296153836] yes=47,no=48,missing=47
					47:leaf=-0.110190161
					48:[f1<0.0392140448] yes=77,no=78,missing=77
						77:leaf=0.00686088763
						78:leaf=-0.0856957734
				26:[f3<0.0076923077] yes=49,no=50,missing=49
					49:[f1<0.0580434799] yes=79,no=80,missing=79
						79:leaf=0.0129518136
						80:leaf=-0.108676702
					50:leaf=0.102761053
		6:[f0<0.0570934266] yes=13,no=14,missing=13
			13:leaf=0.18105039
			14:[f1<0.010802675] yes=27,no=28,missing=27
				27:leaf=0.150675118
				28:[f0<0.275086522] yes=51,no=52,missing=51
					51:[f6<0.00601272099] yes=81,no=82,missing=81
						81:leaf=-0.00255305902
						82:leaf=0.0897154883
					52:leaf=-0.135390744
booster[10]:
0:[f1<0.0213210694] yes=1,no=2,missing=1
	1:[f6<0.00253428752] yes=3,no=4,missing=3
		3:[f0<0.0570934266] yes=7,no=8,missing=7
			7:[f6<0.00144106545] yes=13,no=14,missing=13
				13:[f1<0.0192474909] yes=25,no=26,missing=25
					25:[f1<0.0183612034] yes=47,no=48,missing=47
						47:leaf=-0.0041327686
						48:leaf=0.153512329
					26:leaf=-0.13822566
				14:[f1<0.0104849497] yes=27,no=28,missing=27
					27:leaf=-0.151695862
					28:leaf=-0.00989961624
			8:[f0<0.0847750902] yes=15,no=16,missing=15
				15:[f6<0.00193798449] yes=29,no=30,missing=29
					29:[f3<0.0076923077] yes=49,no=50,missing=49
						49:leaf=-0.0271859467
						50:leaf=0.141160503
					30:[f1<0.00581939798] yes=51,no=52,missing=51
						51:leaf=0.0446386077
						52:leaf=-0.0894725621
				16:leaf=0.130076364
		4:[f0<0.129757792] yes=9,no=10,missing=9
			9:[f6<0.00342874182] yes=17,no=18,missing=17
				17:[f3<0.0230769236] yes=31,no=32,missing=31
					31:[f0<0.105536327] yes=53,no=54,missing=53
						53:leaf=-0.124884494
						54:leaf=0.0150581989
					32:[f0<0.0916955024] yes=55,no=56,missing=55
						55:leaf=-0.11005985
						56:leaf=0.0410813689
				18:[f0<0.126297578] yes=33,no=34,missing=33
					33:leaf=-0.162352294
					34:leaf=-0.0331464596
			10:[f6<0.00551580172] yes=19,no=20,missing=19
				19:[f0<0.15743944] yes=35,no=36,missing=35
					35:[f6<0.00427350402] yes=57,no=58,missing=57
						57:leaf=0.0566038117
						58:leaf=-0.118816413
					36:leaf=0.179310307
				20:[f0<0.216262981] yes=37,no=38,missing=37
					37:leaf=-0.189319044
					38:[f3<0.0076923077] yes=59,no=60,missing=59
						59:leaf=-0.0311693884
						60:leaf=0.143554077
	2:[f8<0.5] yes=5,no=6,missing=5
		5:leaf=-0.164293483
		6:[f1<0.0434280932] yes=11,no=12,missing=11
			11:[f6<4.96919092e-05] yes=21,no=22,missing=21
				21:[f1<0.0425752513] yes=39,no=40,missing=39
					39:[f1<0.0363712385] yes=61,no=62,missing=61
						61:leaf=0.0516623966
						62:leaf=0.13979131
					40:leaf=-0.213770017
				22:[f0<0.0121107269] yes=41,no=42,missing=41
					41:[f3<0.0076923077] yes=63,no=64,missing=63
						63:leaf=-0.0546547845
						64:leaf=0.096295625
					42:[f3<0.0076923077] yes=65,no=66,missing=65
						65:leaf=0.0103420271
						66:leaf=-0.0598512329
			12:[f1<0.0447157174] yes=23,no=24,missing=23
				23:[f0<0.0432525948] yes=43,no=44,missing=43
					43:[f0<0.0155709349] yes=67,no=68,missing=67
						67:leaf=0.0702060163
						68:leaf=0.230834022
					44:[f0<0.0865051895] yes=69,no=70,missing=69
						69:leaf=-0.0975175947
						70:leaf=0.079053849
				24:[f6<0.000347843365] yes=45,no=46,missing=45
					45:[f3<0.0076923077] yes=71,no=72,missing=71
						71:leaf=0.0504444316
						72:leaf=-0.0428443514
					46:[f0<0.0363321789] yes=73,no=74,missing=73
						73:leaf=-0.0250636693
						74:leaf=0.0176353659
booster[11]:
0:[f1<0.0213210694] yes=1,no=2,missing=1
	1:[f6<0.00253428752] yes=3,no=4,missing=3
		3:[f0<0.0570934266] yes=7,no=8,missing=7
			7:[f6<0.00144106545] yes=13,no=14,missing=13
				13:[f1<0.0192474909] yes=25,no=26,missing=25
					25:[f1<0.0183612034] yes=47,no=48,missing=47
						47:leaf=0.0041327686
						48:leaf=-0.153512329
					26:leaf=0.138225675
				14:[f1<0.0104849497] yes=27,no=28,missing=27
					27:leaf=0.151695862
					28:leaf=0.00989962742
			8:[f0<0.0847750902] yes=15,no=16,missing=15
				15:[f6<0.00193798449] yes=29,no=30,missing=29
					29:[f3<0.0076923077] yes=49,no=50,missing=49
						49:leaf=0.0271859579
						50:leaf=-0.141160503
					30:[f1<0.00581939798] yes=51,no=52,missing=51
						51:leaf=-0.0446386151
						52:leaf=0.0894725621
				16:leaf=-0.130076379
		4:[f0<0.129757792] yes=9,no=10,missing=9
			9:[f6<0.00342874182] yes=17,no=18,missing=17
				17:[f3<0.0230769236] yes=31,no=32,missing=31
					31:[f0<0.105536327] yes=53,no=54,missing=53
						53:leaf=0.124884509
						54:leaf=-0.0150581943
					32:[f0<0.0916955024] yes=55,no=56,missing=55
						55:leaf=0.110059857
						56:leaf=-0.0410813615
				18:[f0<0.126297578] yes=33,no=34,missing=33
					33:leaf=0.162352279
					34:leaf=0.0331464671
			10:[f6<0.00551580172] yes=19,no=20,missing=19
				19:[f0<0.15743944] yes=35,no=36,missing=35
					35:[f6<0.00427350402] yes=57,no=58,missing=57
						57:leaf=-0.056603808
						58:leaf=0.118816413
					36:leaf=-0.179310307
				20:[f0<0.216262981] yes=37,no=38,missing=37
					37:leaf=0.189319044
					38:[f3<0.0076923077] yes=59,no=60,missing=59
						59:leaf=0.0311693884
						60:leaf=-0.143554091
	2:[f8<0.5] yes=5,no=6,missing=5
		5:leaf=0.164293498
		6:[f1<0.0434280932] yes=11,no=12,missing=11
			11:[f6<4.96919092e-05] yes=21,no=22,missing=21
				21:[f1<0.0425752513] yes=39,no=40,missing=39
					39:[f1<0.0363712385] yes=61,no=62,missing=61
						61:leaf=-0.0516623929
						62:leaf=-0.139791325
					40:leaf=0.213769987
				22:[f0<0.0121107269] yes=41,no=42,missing=41
					41:[f3<0.0076923077] yes=63,no=64,missing=63
						63:leaf=0.0546547957
						64:leaf=-0.0962956175
					42:[f3<0.0076923077] yes=65,no=66,missing=65
						65:leaf=-0.0103420261
						66:leaf=0.0598512441
			12:[f1<0.0447157174] yes=23,no=24,missing=23
				23:[f0<0.0432525948] yes=43,no=44,missing=43
					43:[f0<0.0155709349] yes=67,no=68,missing=67
						67:leaf=-0.0702060163
						68:leaf=-0.230834022
					44:[f0<0.0865051895] yes=69,no=70,missing=69
						69:leaf=0.0975175947
						70:leaf=-0.0790538415
				24:[f6<0.000347843365] yes=45,no=46,missing=45
					45:[f3<0.0076923077] yes=71,no=72,missing=71
						71:leaf=-0.0504444279
						72:leaf=0.0428443626
					46:[f0<0.0363321789] yes=73,no=74,missing=73
						73:leaf=0.0250636712
						74:leaf=-0.0176353678
booster[12]:
0:[f6<0.0032299743] yes=1,no=2,missing=1
	1:[f0<0.102076128] yes=3,no=4,missing=3
		3:[f6<0.00293182256] yes=7,no=8,missing=7
			7:[f1<0.0596989952] yes=15,no=16,missing=15
				15:[f1<0.0519398004] yes=27,no=28,missing=27
					27:[f1<0.051755853] yes=43,no=44,missing=43
						43:leaf=8.91022646e-05
						44:leaf=0.198836759
					28:[f6<0.00243490352] yes=45,no=46,missing=45
						45:leaf=-0.0177342612
						46:leaf=-0.164502889
				16:[f1<0.0647826046] yes=29,no=30,missing=29
					29:[f0<0.00519031147] yes=47,no=48,missing=47
						47:leaf=-0.0590944923
						48:leaf=0.104150392
					30:[f1<0.0885618702] yes=49,no=50,missing=49
						49:leaf=0.0102201207
						50:leaf=-0.137198776
			8:leaf=-0.190336227
		4:[f1<0.0438963212] yes=9,no=10,missing=9
			9:[f1<0.0308862869] yes=17,no=18,missing=17
				17:[f1<0.027173914] yes=31,no=32,missing=31
					31:[f1<0.0124749159] yes=51,no=52,missing=51
						51:leaf=0.0906611085
						52:leaf=-0.0670032352
					32:leaf=0.163999543
				18:[f0<0.105536327] yes=33,no=34,missing=33
					33:leaf=-0.174285606
					34:[f1<0.0399665534] yes=53,no=54,missing=53
						53:leaf=-0.0173408091
						54:leaf=0.0399027504
			10:[f1<0.0576086938] yes=19,no=20,missing=19
				19:leaf=0.162363574
				20:[f1<0.0651672259] yes=35,no=36,missing=35
					35:leaf=-0.0696389303
					36:leaf=0.176437289
	2:[f0<0.115916952] yes=5,no=6,missing=5
		5:[f3<0.0076923077] yes=11,no=12,missing=11
			11:[f1<0.0404849499] yes=21,no=22,missing=21
				21:[f0<0.112456754] yes=37,no=38,missing=37
					37:leaf=-0.151485324
					38:leaf=-0.00799243432
				22:leaf=-0.237825632
			12:[f0<0.11072664] yes=23,no=24,missing=23
				23:leaf=-0.142801315
				24:leaf=0.0925648883
		6:[f0<0.275086522] yes=13,no=14,missing=13
			13:[f6<0.00670840777] yes=25,no=26,missing=25
				25:[f1<0.0476923063] yes=39,no=40,missing=39
					39:[f1<0.0417224094] yes=55,no=56,missing=55
						55:leaf=-0.0090434337
						56:leaf=0.0978296623
					40:[f0<0.119377166] yes=57,no=58,missing=57
						57:leaf=-0.199836433
						58:leaf=-0.0226807967
				26:[f0<0.247404844] yes=41,no=42,missing=41
					41:leaf=-0.184584752
					42:leaf=0.00570347626
			14:leaf=0.13796401
booster[13]:
0:[f6<0.0032299743] yes=1,no=2,missing=1
	1:[f0<0.102076128] yes=3,no=4,missing=3
		3:[f6<0.00293182256] yes=7,no=8,missing=7
			7:[f1<0.0596989952] yes=15,no=16,missing=15
				15:[f1<0.0519398004] yes=27,no=28,missing=27
					27:[f1<0.051755853] yes=43,no=44,missing=43
						43:leaf=-8.91027084e-05
						44:leaf=-0.198836759
					28:[f6<0.00243490352] yes=45,no=46,missing=45
						45:leaf=0.0177342612
						46:leaf=0.164502889
				16:[f1<0.0647826046] yes=29,no=30,missing=29
					29:[f0<0.00519031147] yes=47,no=48,missing=47
						47:leaf=0.05909447
						48:leaf=-0.104150407
					30:[f1<0.0885618702] yes=49,no=50,missing=49
						49:leaf=-0.0102201374
						50:leaf=0.137198776
			8:leaf=0.190336227
		4:[f1<0.0438963212] yes=9,no=10,missing=9
			9:[f1<0.0308862869] yes=17,no=18,missing=17
				17:[f1<0.027173914] yes=31,no=32,missing=31
					31:[f1<0.0124749159] yes=51,no=52,missing=51
						51:leaf=-0.090661101
						52:leaf=0.0670032501
					32:leaf=-0.163999543
				18:[f0<0.105536327] yes=33,no=34,missing=33
					33:leaf=0.174285606
					34:[f1<0.0399665534] yes=53,no=54,missing=53
						53:leaf=0.0173408054
						54:leaf=-0.0399027467
			10:[f1<0.0576086938] yes=19,no=20,missing=19
				19:leaf=-0.162363589
				20:[f1<0.0651672259] yes=35,no=36,missing=35
					35:leaf=0.0696389452
					36:leaf=-0.176437289
	2:[f0<0.115916952] yes=5,no=6,missing=5
		5:[f3<0.0076923077] yes=11,no=12,missing=11
			11:[f1<0.0404849499] yes=21,no=22,missing=21
				21:[f0<0.112456754] yes=37,no=38,missing=37
					37:leaf=0.151485324
					38:leaf=0.0079924427
				22:leaf=0.237825632
			12:[f0<0.11072664] yes=23,no=24,missing=23
				23:leaf=0.142801315
				24:leaf=-0.0925648808
		6:[f0<0.275086522] yes=13,no=14,missing=13
			13:[f6<0.00670840777] yes=25,no=26,missing=25
				25:[f1<0.0476923063] yes=39,no=40,missing=39
					39:[f1<0.0417224094] yes=55,no=56,missing=55
						55:leaf=0.0090434337
						56:leaf=-0.0978296697
					40:[f0<0.119377166] yes=57,no=58,missing=57
						57:leaf=0.199836433
						58:leaf=0.0226807967
				26:[f0<0.247404844] yes=41,no=42,missing=41
					41:leaf=0.184584752
					42:leaf=-0.00570347346
			14:leaf=-0.13796401
booster[14]:
0:[f1<0.00944816042] yes=1,no=2,missing=1
	1:[f1<0.00252508372] yes=3,no=4,missing=3
		3:[f6<0.000347843365] yes=7,no=8,missing=7
			7:[f3<0.0230769236] yes=15,no=16,missing=15
				15:leaf=0.0253712423
				16:leaf=0.130606607
			8:[f0<0.0294117648] yes=17,no=18,missing=17
				17:[f3<0.0230769236] yes=27,no=28,missing=27
					27:[f3<0.0076923077] yes=41,no=42,missing=41
						41:leaf=-0.125725687
						42:leaf=0.0833825395
					28:[f0<0.0155709349] yes=43,no=44,missing=43
						43:leaf=0.00704673445
						44:leaf=-0.17880334
				18:[f6<0.00203736825] yes=29,no=30,missing=29
					29:leaf=0.131933466
					30:[f0<0.129757792] yes=45,no=46,missing=45
						45:leaf=-0.075283587
						46:leaf=0.09313564
		4:[f6<0.00342874182] yes=9,no=10,missing=9
			9:[f0<0.070934251] yes=19,no=20,missing=19
				19:[f6<0.00193798449] yes=31,no=32,missing=31
					31:[f1<0.00864548422] yes=47,no=48,missing=47
						47:leaf=-0.0204690136
						48:leaf=-0.108780235
					32:leaf=-0.129920915
				20:[f3<0.0615384653] yes=33,no=34,missing=33
					33:[f3<0.0076923077] yes=49,no=50,missing=49
						49:leaf=-6.99017037e-05
						50:leaf=0.0860176682
					34:leaf=-0.155420274
			10:[f0<0.136678189] yes=21,no=22,missing=21
				21:leaf=-0.154009447
				22:[f1<0.00581939798] yes=35,no=36,missing=35
					35:[f0<0.183391005] yes=51,no=52,missing=51
						51:leaf=0.147282273
						52:leaf=-0.0408470668
					36:[f1<0.00797658786] yes=53,no=54,missing=53
						53:leaf=-0.154125318
						54:leaf=0.027057495
	2:[f1<0.0099163875] yes=5,no=6,missing=5
		5:[f3<0.0076923077] yes=11,no=12,missing=11
			11:[f0<0.0155709349] yes=23,no=24,missing=23
				23:leaf=0.15579778
				24:leaf=0.0542331748
			12:leaf=0.000465464109
		6:[f8<0.5] yes=13,no=14,missing=13
			13:leaf=-0.141575038
			14:[f6<0.00163983298] yes=25,no=26,missing=25
				25:[f0<0.0467128009] yes=37,no=38,missing=37
					37:[f3<0.0538461544] yes=55,no=56,missing=55
						55:leaf=0.00467540277
						56:leaf=-0.0939497724
					38:[f1<0.050568562] yes=57,no=58,missing=57
						57:leaf=0.0601638816
						58:leaf=0.00375068258
				26:[f0<0.0570934266] yes=39,no=40,missing=39
					39:leaf=-0.157584324
					40:[f1<0.0460033417] yes=59,no=60,missing=59
						59:leaf=-0.0151120173
						60:leaf=0.010925347
booster[15]:
0:[f1<0.00944816042] yes=1,no=2,missing=1
	1:[f1<0.00252508372] yes=3,no=4,missing=3
		3:[f6<0.000347843365] yes=7,no=8,missing=7
			7:[f3<0.0230769236] yes=15,no=16,missing=15
				15:leaf=-0.0253712423
				16:leaf=-0.130606607
			8:[f0<0.0294117648] yes=17,no=18,missing=17
				17:[f3<0.0230769236] yes=27,no=28,missing=27
					27:[f3<0.0076923077] yes=41,no=42,missing=41
						41:leaf=0.125725672
						42:leaf=-0.0833825395
					28:[f0<0.0155709349] yes=43,no=44,missing=43
						43:leaf=-0.00704675028
						44:leaf=0.17880334
				18:[f6<0.00203736825] yes=29,no=30,missing=29
					29:leaf=-0.131933451
					30:[f0<0.129757792] yes=45,no=46,missing=45
						45:leaf=0.075283587
						46:leaf=-0.0931356326
		4:[f6<0.00342874182] yes=9,no=10,missing=9
			9:[f0<0.070934251] yes=19,no=20,missing=19
				19:[f6<0.00193798449] yes=31,no=32,missing=31
					31:[f1<0.00864548422] yes=47,no=48,missing=47
						47:leaf=0.0204690192
						48:leaf=0.108780235
					32:leaf=0.129920915
				20:[f3<0.0615384653] yes=33,no=34,missing=33
					33:[f3<0.0076923077] yes=49,no=50,missing=49
						49:leaf=6.98995791e-05
						50:leaf=-0.0860176757
					34:leaf=0.155420274
			10:[f0<0.136678189] yes=21,no=22,missing=21
				21:leaf=0.154009461
				22:[f1<0.00581939798] yes=35,no=36,missing=35
					35:[f0<0.183391005] yes=51,no=52,missing=51
						51:leaf=-0.147282258
						52:leaf=0.0408470631
					36:[f1<0.00797658786] yes=53,no=54,missing=53
						53:leaf=0.154125318
						54:leaf=-0.0270574912
	2:[f1<0.0099163875] yes=5,no=6,missing=5
		5:[f3<0.0076923077] yes=11,no=12,missing=11
			11:[f0<0.0155709349] yes=23,no=24,missing=23
				23:leaf=-0.155797765
				24:leaf=-0.0542331599
			12:leaf=-0.000465451682
		6:[f8<0.5] yes=13,no=14,missing=13
			13:leaf=0.141575053
			14:[f6<0.00163983298] yes=25,no=26,missing=25
				25:[f0<0.0467128009] yes=37,no=38,missing=37
					37:[f3<0.0538461544] yes=55,no=56,missing=55
						55:leaf=-0.00467540324
						56:leaf=0.093949765
					38:[f1<0.050568562] yes=57,no=58,missing=57
						57:leaf=-0.0601638742
						58:leaf=-0.00375068048
				26:[f0<0.0570934266] yes=39,no=40,missing=39
					39:leaf=0.157584324
					40:[f1<0.0460033417] yes=59,no=60,missing=59
						59:leaf=0.0151120201
						60:leaf=-0.0109253572
booster[16]:
0:[f6<0.0032299743] yes=1,no=2,missing=1
	1:[f0<0.102076128] yes=3,no=4,missing=3
		3:[f6<0.00293182256] yes=7,no=8,missing=7
			7:[f1<0.0559364557] yes=15,no=16,missing=15
				15:[f1<0.0548662208] yes=23,no=24,missing=23
					23:[f1<0.0477424748] yes=35,no=36,missing=35
						35:leaf=-0.00386405224
						36:leaf=0.0153574413
					24:[f0<0.0121107269] yes=37,no=38,missing=37
						37:leaf=0.0687827542
						38:leaf=-0.19061406
				16:[f0<0.0294117648] yes=25,no=26,missing=25
					25:[f6<0.000645994791] yes=39,no=40,missing=39
						39:leaf=0.0189858936
						40:leaf=-0.0747773275
					26:[f1<0.0793645531] yes=41,no=42,missing=41
						41:leaf=0.0739013329
						42:leaf=-0.0928572193
			8:leaf=-0.167950943
		4:[f1<0.0438963212] yes=9,no=10,missing=9
			9:[f1<0.0308862869] yes=17,no=18,missing=17
				17:[f1<0.027173914] yes=27,no=28,missing=27
					27:[f1<0.0124749159] yes=43,no=44,missing=43
						43:leaf=0.0725942105
						44:leaf=-0.0525327884
					28:leaf=0.144037381
				18:[f0<0.105536327] yes=29,no=30,missing=29
					29:leaf=-0.145214275
					30:[f1<0.0382943153] yes=45,no=46,missing=45
						45:leaf=0.0350516289
						46:leaf=-0.0249893684
			10:[f1<0.0618060194] yes=19,no=20,missing=19
				19:[f0<0.105536327] yes=31,no=32,missing=31
					31:leaf=0.179809824
					32:[f1<0.0501170568] yes=47,no=48,missing=47
						47:leaf=0.113588721
						48:leaf=-0.0303267129
				20:leaf=0.010561781
	2:[f0<0.115916952] yes=5,no=6,missing=5
		5:[f1<0.0480602011] yes=11,no=12,missing=11
			11:leaf=-0.135117725
			12:leaf=-0.0294195656
		6:[f0<0.275086522] yes=13,no=14,missing=13
			13:[f6<0.00740409456] yes=21,no=22,missing=21
				21:[f1<0.0476923063] yes=33,no=34,missing=33
					33:[f1<0.0358695649] yes=49,no=50,missing=49
						49:leaf=-0.0161592197
						50:leaf=0.0709049255
					34:[f0<0.186851203] yes=51,no=52,missing=51
						51:leaf=-0.012110767
						52:leaf=-0.127780974
				22:leaf=-0.141376168
			14:leaf=0.120517381
booster[17]:
0:[f6<0.0032299743] yes=1,no=2,missing=1
	1:[f0<0.102076128] yes=3,no=4,missing=3
		3:[f6<0.00293182256] yes=7,no=8,missing=7
			7:[f1<0.0559364557] yes=15,no=16,missing=15
				15:[f1<0.0548662208] yes=23,no=24,missing=23
					23:[f1<0.0477424748] yes=35,no=36,missing=35
						35:leaf=0.00386405154
						36:leaf=-0.0153574375
					24:[f0<0.0121107269] yes=37,no=38,missing=37
						37:leaf=-0.0687827393
						38:leaf=0.19061406
				16:[f0<0.0294117648] yes=25,no=26,missing=25
					25:[f6<0.000645994791] yes=39,no=40,missing=39
						39:leaf=-0.018985901
						40:leaf=0.07477732
					26:[f1<0.0793645531] yes=41,no=42,missing=41
						41:leaf=-0.0739013404
						42:leaf=0.0928572044
			8:leaf=0.167950943
		4:[f1<0.0438963212] yes=9,no=10,missing=9
			9:[f1<0.0308862869] yes=17,no=18,missing=17
				17:[f1<0.027173914] yes=27,no=28,missing=27
					27:[f1<0.0124749159] yes=43,no=44,missing=43
						43:leaf=-0.0725942105
						44:leaf=0.0525327697
					28:leaf=-0.144037381
				18:[f0<0.105536327] yes=29,no=30,missing=29
					29:leaf=0.145214275
					30:[f1<0.0382943153] yes=45,no=46,missing=45
						45:leaf=-0.0350516289
						46:leaf=0.0249893758
			10:[f1<0.0618060194] yes=19,no=20,missing=19
				19:[f0<0.105536327] yes=31,no=32,missing=31
					31:leaf=-0.179809809
					32:[f1<0.0501170568] yes=47,no=48,missing=47
						47:leaf=-0.113588721
						48:leaf=0.0303267222
				20:leaf=-0.0105617596
	2:[f0<0.115916952] yes=5,no=6,missing=5
		5:[f1<0.0480602011] yes=11,no=12,missing=11
			11:leaf=0.135117725
			12:leaf=0.0294195581
		6:[f0<0.275086522] yes=13,no=14,missing=13
			13:[f6<0.00740409456] yes=21,no=22,missing=21
				21:[f1<0.0476923063] yes=33,no=34,missing=33
					33:[f1<0.0358695649] yes=49,no=50,missing=49
						49:leaf=0.0161592197
						50:leaf=-0.0709049329
					34:[f0<0.186851203] yes=51,no=52,missing=51
						51:leaf=0.0121107576
						52:leaf=0.127780974
				22:leaf=0.141376168
			14:leaf=-0.120517388
booster[18]:
0:[f3<0.084615387] yes=1,no=2,missing=1
	1:[f3<0.0692307726] yes=3,no=4,missing=3
		3:[f8<0.5] yes=7,no=8,missing=7
			7:leaf=-0.124176145
			8:[f0<0.275086522] yes=15,no=16,missing=15
				15:[f6<0.00740409456] yes=21,no=22,missing=21
					21:[f1<0.0271237455] yes=23,no=24,missing=23
						23:leaf=-0.0109286923
						24:leaf=0.00320029771
					22:leaf=-0.134554476
				16:leaf=0.109375991
		4:[f0<0.019031141] yes=9,no=10,missing=9
			9:[f1<0.00665551843] yes=17,no=18,missing=17
				17:leaf=0.168948814
				18:leaf=-0.139013886
			10:[f1<0.0041806018] yes=19,no=20,missing=19
				19:leaf=-0.202120215
				20:leaf=-0.0070702238
	2:[f3<0.15384616] yes=5,no=6,missing=5
		5:[f0<0.0259515569] yes=11,no=12,missing=11
			11:leaf=0.184834495
			12:leaf=0.0512995757
		6:[f0<0.0363321789] yes=13,no=14,missing=13
			13:leaf=0.026934728
			14:leaf=-0.0500012413
booster[19]:
0:[f3<0.084615387] yes=1,no=2,missing=1
	1:[f3<0.0692307726] yes=3,no=4,missing=3
		3:[f8<0.5] yes=7,no=8,missing=7
			7:leaf=0.124176137
			8:[f0<0.275086522] yes=15,no=16,missing=15
				15:[f6<0.00740409456] yes=21,no=22,missing=21
					21:[f1<0.0271237455] yes=23,no=24,missing=23
						23:leaf=0.0109286904
						24:leaf=-0.00320029631
					22:leaf=0.134554476
				16:leaf=-0.109375991
		4:[f0<0.019031141] yes=9,no=10,missing=9
			9:[f1<0.00665551843] yes=17,no=18,missing=17
				17:leaf=-0.168948814
				18:leaf=0.139013886
			10:[f1<0.0041806018] yes=19,no=20,missing=19
				19:leaf=0.202120215
				20:leaf=0.00707021821
	2:[f3<0.15384616] yes=5,no=6,missing=5
		5:[f0<0.0259515569] yes=11,no=12,missing=11
			11:leaf=-0.184834495
			12:leaf=-0.0512995794
		6:[f0<0.0363321789] yes=13,no=14,missing=13
			13:leaf=-0.0269347373
			14:leaf=0.050001245
booster[20]:
0:[f6<0.000546611031] yes=1,no=2,missing=1
	1:[f1<0.0525919721] yes=3,no=4,missing=3
		3:[f1<0.0510869548] yes=7,no=8,missing=7
			7:[f1<0.0477424748] yes=13,no=14,missing=13
				13:[f1<0.0467725769] yes=25,no=26,missing=25
					25:[f1<0.0316889621] yes=39,no=40,missing=39
						39:leaf=0.0182370413
						40:leaf=-0.00849206559
					26:[f0<0.00519031147] yes=41,no=42,missing=41
						41:leaf=-0.0312165264
						42:leaf=-0.12927933
				14:[f1<0.0510033444] yes=27,no=28,missing=27
					27:[f0<0.00519031147] yes=43,no=44,missing=43
						43:leaf=0.00532158464
						44:leaf=0.0837828815
					28:leaf=-0.102567993
			8:[f0<0.0121107269] yes=15,no=16,missing=15
				15:leaf=0.179036677
				16:leaf=0.0230912697
		4:[f1<0.0544314384] yes=9,no=10,missing=9
			9:[f0<0.00173010386] yes=17,no=18,missing=17
				17:leaf=-0.0340983272
				18:leaf=-0.116398722
			10:[f1<0.0570401326] yes=19,no=20,missing=19
				19:[f0<0.0121107269] yes=29,no=30,missing=29
					29:[f0<0.00519031147] yes=45,no=46,missing=45
						45:leaf=0.0348936804
						46:leaf=0.160440862
					30:leaf=0.0282092374
				20:[f1<0.0592976585] yes=31,no=32,missing=31
					31:leaf=-0.125037342
					32:[f1<0.0770903006] yes=47,no=48,missing=47
						47:leaf=0.00494834408
						48:leaf=0.112989224
	2:[f0<0.019031141] yes=5,no=6,missing=5
		5:leaf=-0.161645636
		6:[f0<0.0294117648] yes=11,no=12,missing=11
			11:[f6<0.000844762428] yes=21,no=22,missing=21
				21:[f1<0.0647826046] yes=33,no=34,missing=33
					33:[f1<0.0527759194] yes=49,no=50,missing=49
						49:leaf=-0.0203954168
						50:leaf=0.0449578166
					34:[f1<0.0673076957] yes=51,no=52,missing=51
						51:leaf=-0.200661838
						52:leaf=0.0152628683
				22:leaf=-0.16860275
			12:[f6<0.00253428752] yes=23,no=24,missing=23
				23:[f1<0.0596989952] yes=35,no=36,missing=35
					35:[f1<0.00252508372] yes=53,no=54,missing=53
						53:leaf=0.0970607772
						54:leaf=0.00288381381
					36:[f1<0.0793645531] yes=55,no=56,missing=55
						55:leaf=0.0772766471
						56:leaf=-0.0763589293
				24:[f0<0.0916955024] yes=37,no=38,missing=37
					37:[f0<0.0882352889] yes=57,no=58,missing=57
						57:leaf=-0.147296876
						58:leaf=-0.0673480332
					38:[f0<0.247404844] yes=59,no=60,missing=59
						59:leaf=-0.00435554003
						60:leaf=0.0797721967
booster[21]:
0:[f6<0.000546611031] yes=1,no=2,missing=1
	1:[f1<0.0525919721] yes=3,no=4,missing=3
		3:[f1<0.0510869548] yes=7,no=8,missing=7
			7:[f1<0.0477424748] yes=13,no=14,missing=13
				13:[f1<0.0467725769] yes=25,no=26,missing=25
					25:[f1<0.0316889621] yes=39,no=40,missing=39
						39:leaf=-0.0182370432
						40:leaf=0.0084920628
					26:[f0<0.00519031147] yes=41,no=42,missing=41
						41:leaf=0.031216545
						42:leaf=0.12927933
				14:[f1<0.0510033444] yes=27,no=28,missing=27
					27:[f0<0.00519031147] yes=43,no=44,missing=43
						43:leaf=-0.00532157486
						44:leaf=-0.0837828815
					28:leaf=0.102568001
			8:[f0<0.0121107269] yes=15,no=16,missing=15
				15:leaf=-0.179036677
				16:leaf=-0.0230912641
		4:[f1<0.0544314384] yes=9,no=10,missing=9
			9:[f0<0.00173010386] yes=17,no=18,missing=17
				17:leaf=0.034098316
				18:leaf=0.116398714
			10:[f1<0.0570401326] yes=19,no=20,missing=19
				19:[f0<0.0121107269] yes=29,no=30,missing=29
					29:[f0<0.00519031147] yes=45,no=46,missing=45
						45:leaf=-0.0348936953
						46:leaf=-0.160440877
					30:leaf=-0.0282092355
				20:[f1<0.0592976585] yes=31,no=32,missing=31
					31:leaf=0.125037327
					32:[f1<0.0770903006] yes=47,no=48,missing=47
						47:leaf=-0.00494834175
						48:leaf=-0.112989224
	2:[f0<0.019031141] yes=5,no=6,missing=5
		5:leaf=0.161645636
		6:[f0<0.0294117648] yes=11,no=12,missing=11
			11:[f6<0.000844762428] yes=21,no=22,missing=21
				21:[f1<0.0647826046] yes=33,no=34,missing=33
					33:[f1<0.0527759194] yes=49,no=50,missing=49
						49:leaf=0.0203954149
						50:leaf=-0.0449578092
					34:[f1<0.0673076957] yes=51,no=52,missing=51
						51:leaf=0.200661823
						52:leaf=-0.015262871
				22:leaf=0.16860275
			12:[f6<0.00253428752] yes=23,no=24,missing=23
				23:[f1<0.0596989952] yes=35,no=36,missing=35
					35:[f1<0.00252508372] yes=53,no=54,missing=53
						53:leaf=-0.0970607772
						54:leaf=-0.00288381311
					36:[f1<0.0793645531] yes=55,no=56,missing=55
						55:leaf=-0.0772766471
						56:leaf=0.0763589367
				24:[f0<0.0916955024] yes=37,no=38,missing=37
					37:[f0<0.0882352889] yes=57,no=58,missing=57
						57:leaf=0.147296876
						58:leaf=0.0673480332
					38:[f0<0.247404844] yes=59,no=60,missing=59
						59:leaf=0.00435554143
						60:leaf=-0.0797721967
booster[22]:
0:[f3<0.084615387] yes=1,no=2,missing=1
	1:[f3<0.0692307726] yes=3,no=4,missing=3
		3:[f8<0.5] yes=7,no=8,missing=7
			7:leaf=-0.105711319
			8:[f6<0.00372689334] yes=15,no=16,missing=15
				15:[f0<0.126297578] yes=21,no=22,missing=21
					21:[f1<0.076872915] yes=25,no=26,missing=25
						25:leaf=0.000153195244
						26:leaf=0.0695060417
					22:leaf=0.104195163
				16:[f0<0.140138417] yes=23,no=24,missing=23
					23:[f1<0.0488461554] yes=27,no=28,missing=27
						27:leaf=-0.0323622152
						28:leaf=-0.227977112
					24:[f0<0.147058815] yes=29,no=30,missing=29
						29:leaf=0.119002186
						30:leaf=-0.00848636869
		4:[f0<0.019031141] yes=9,no=10,missing=9
			9:[f1<0.00665551843] yes=17,no=18,missing=17
				17:leaf=0.142256275
				18:leaf=-0.12598902
			10:[f1<0.0041806018] yes=19,no=20,missing=19
				19:leaf=-0.169920027
				20:leaf=-0.00246942812
	2:[f3<0.15384616] yes=5,no=6,missing=5
		5:[f0<0.0259515569] yes=11,no=12,missing=11
			11:leaf=0.154732242
			12:leaf=0.041248206
		6:[f0<0.0363321789] yes=13,no=14,missing=13
			13:leaf=0.0171375703
			14:leaf=-0.0420394167
booster[23]:
0:[f3<0.084615387] yes=1,no=2,missing=1
	1:[f3<0.0692307726] yes=3,no=4,missing=3
		3:[f8<0.5] yes=7,no=8,missing=7
			7:leaf=0.105711304
			8:[f6<0.00372689334] yes=15,no=16,missing=15
				15:[f0<0.126297578] yes=21,no=22,missing=21
					21:[f1<0.076872915] yes=25,no=26,missing=25
						25:leaf=-0.000153195739
						26:leaf=-0.0695060417
					22:leaf=-0.10419517
				16:[f0<0.140138417] yes=23,no=24,missing=23
					23:[f1<0.0488461554] yes=27,no=28,missing=27
						27:leaf=0.0323622227
						28:leaf=0.227977142
					24:[f0<0.147058815] yes=29,no=30,missing=29
						29:leaf=-0.119002201
						30:leaf=0.00848636404
		4:[f0<0.019031141] yes=9,no=10,missing=9
			9:[f1<0.00665551843] yes=17,no=18,missing=17
				17:leaf=-0.142256275
				18:leaf=0.12598902
			10:[f1<0.0041806018] yes=19,no=20,missing=19
				19:leaf=0.169919997
				20:leaf=0.00246943627
	2:[f3<0.15384616] yes=5,no=6,missing=5
		5:[f0<0.0259515569] yes=11,no=12,missing=11
			11:leaf=-0.154732242
			12:leaf=-0.0412481911
		6:[f0<0.0363321789] yes=13,no=14,missing=13
			13:leaf=-0.0171375778
			14:leaf=0.0420394205
booster[24]:
0:[f6<0.00491949916] yes=1,no=2,missing=1
	1:[f0<0.160899654] yes=3,no=4,missing=3
		3:[f6<0.00422381237] yes=7,no=8,missing=7
			7:[f0<0.140138417] yes=13,no=14,missing=13
				13:[f6<0.00372689334] yes=23,no=24,missing=23
					23:[f0<0.126297578] yes=35,no=36,missing=35
						35:leaf=0.000308049202
						36:leaf=0.0819696262
					24:[f1<0.0488461554] yes=37,no=38,missing=37
						37:leaf=0.0261598155
						38:leaf=-0.188005
				14:[f1<0.0492642149] yes=25,no=26,missing=25
					25:[f1<0.0442307703] yes=39,no=40,missing=39
						39:leaf=0.126684189
						40:leaf=-0.149515092
					26:leaf=0.161614656
			8:[f3<0.0076923077] yes=15,no=16,missing=15
				15:[f1<0.0459197313] yes=27,no=28,missing=27
					27:[f1<0.0409030095] yes=41,no=42,missing=41
						41:leaf=-0.0156543478
						42:leaf=0.147939026
					28:[f0<0.150519028] yes=43,no=44,missing=43
						43:leaf=-0.150458947
						44:leaf=-0.0237961914
				16:leaf=-0.173217744
		4:leaf=0.0884673148
	2:[f0<0.217993081] yes=5,no=6,missing=5
		5:[f6<0.00601272099] yes=9,no=10,missing=9
			9:[f1<0.0296989977] yes=17,no=18,missing=17
				17:[f1<0.00789297651] yes=29,no=30,missing=29
					29:[f6<0.0053170342] yes=45,no=46,missing=45
						45:leaf=0.00551810581
						46:leaf=-0.117072217
					30:leaf=0.181356385
				18:[f1<0.049280934] yes=31,no=32,missing=31
					31:[f0<0.193771631] yes=47,no=48,missing=47
						47:leaf=-0.126009807
						48:leaf=0.0285621863
					32:leaf=0.0667150691
			10:leaf=-0.139212549
		6:[f6<0.00670840777] yes=11,no=12,missing=11
			11:[f1<0.0417391285] yes=19,no=20,missing=19
				19:leaf=0.117851101
				20:leaf=0.0126968697
			12:[f0<0.247404844] yes=21,no=22,missing=21
				21:leaf=-0.134990513
				22:[f0<0.275086522] yes=33,no=34,missing=33
					33:leaf=0.0224731155
					34:leaf=0.093555063
booster[25]:
0:[f6<0.00491949916] yes=1,no=2,missing=1
	1:[f0<0.160899654] yes=3,no=4,missing=3
		3:[f6<0.00422381237] yes=7,no=8,missing=7
			7:[f0<0.140138417] yes=13,no=14,missing=13
				13:[f6<0.00372689334] yes=23,no=24,missing=23
					23:[f0<0.126297578] yes=35,no=36,missing=35
						35:leaf=-0.000308050192
						36:leaf=-0.0819696262
					24:[f1<0.0488461554] yes=37,no=38,missing=37
						37:leaf=-0.0261598248
						38:leaf=0.188004985
				14:[f1<0.0492642149] yes=25,no=26,missing=25
					25:[f1<0.0442307703] yes=39,no=40,missing=39
						39:leaf=-0.126684204
						40:leaf=0.149515092
					26:leaf=-0.161614656
			8:[f3<0.0076923077] yes=15,no=16,missing=15
				15:[f1<0.0459197313] yes=27,no=28,missing=27
					27:[f1<0.0409030095] yes=41,no=42,missing=41
						41:leaf=0.0156543385
						42:leaf=-0.147939026
					28:[f0<0.150519028] yes=43,no=44,missing=43
						43:leaf=0.150458947
						44:leaf=0.0237961859
				16:leaf=0.173217729
		4:leaf=-0.0884673223
	2:[f0<0.217993081] yes=5,no=6,missing=5
		5:[f6<0.00601272099] yes=9,no=10,missing=9
			9:[f1<0.0296989977] yes=17,no=18,missing=17
				17:[f1<0.00789297651] yes=29,no=30,missing=29
					29:[f6<0.0053170342] yes=45,no=46,missing=45
						45:leaf=-0.00551810116
						46:leaf=0.117072217
					30:leaf=-0.18135637
				18:[f1<0.049280934] yes=31,no=32,missing=31
					31:[f0<0.193771631] yes=47,no=48,missing=47
						47:leaf=0.126009807
						48:leaf=-0.0285621826
					32:leaf=-0.0667150766
			10:leaf=0.139212534
		6:[f6<0.00670840777] yes=11,no=12,missing=11
			11:[f1<0.0417391285] yes=19,no=20,missing=19
				19:leaf=-0.117851108
				20:leaf=-0.012696865
			12:[f0<0.247404844] yes=21,no=22,missing=21
				21:leaf=0.134990528
				22:[f0<0.275086522] yes=33,no=34,missing=33
					33:leaf=-0.0224731099
					34:leaf=-0.093555063
booster[26]:
0:[f1<0.00944816042] yes=1,no=2,missing=1
	1:[f1<0.00916387979] yes=3,no=4,missing=3
		3:[f3<0.0076923077] yes=7,no=8,missing=7
			7:[f1<0.0036454848] yes=13,no=14,missing=13
				13:[f6<0.00139137357] yes=23,no=24,missing=23
					23:[f0<0.0242214538] yes=35,no=36,missing=35
						35:leaf=-0.00309753488
						36:leaf=0.153800488
					24:[f0<0.0795847774] yes=37,no=38,missing=37
						37:leaf=-0.117253542
						38:leaf=0.05480735
				14:[f0<0.0397923887] yes=25,no=26,missing=25
					25:[f6<0.000645994791] yes=39,no=40,missing=39
						39:leaf=-0.0500546433
						40:leaf=-0.148562104
					26:[f1<0.00866220705] yes=41,no=42,missing=41
						41:leaf=-0.00209929585
						42:leaf=-0.116325378
			8:[f0<0.00519031147] yes=15,no=16,missing=15
				15:[f3<0.0615384653] yes=27,no=28,missing=27
					27:[f3<0.0230769236] yes=43,no=44,missing=43
						43:leaf=-0.04094157
						44:leaf=-0.177429199
					28:leaf=0.132521093
				16:[f6<0.00104353018] yes=29,no=30,missing=29
					29:[f3<0.0538461544] yes=45,no=46,missing=45
						45:leaf=0.0784013048
						46:leaf=-0.0336462818
					30:[f0<0.0432525948] yes=47,no=48,missing=47
						47:leaf=-0.149047792
						48:leaf=0.0115822274
		4:leaf=-0.138007119
	2:[f1<0.0099163875] yes=5,no=6,missing=5
		5:[f3<0.0076923077] yes=9,no=10,missing=9
			9:[f0<0.0155709349] yes=17,no=18,missing=17
				17:leaf=0.136748895
				18:leaf=0.0450571291
			10:leaf=0.00302453735
		6:[f6<0.000248459546] yes=11,no=12,missing=11
			11:[f1<0.0140969902] yes=19,no=20,missing=19
				19:leaf=0.156093642
				20:[f3<0.0461538471] yes=31,no=32,missing=31
					31:[f1<0.0743311048] yes=49,no=50,missing=49
						49:leaf=0.00836232025
						50:leaf=0.150303617
					32:leaf=-0.0976269916
			12:[f3<0.0615384653] yes=21,no=22,missing=21
				21:[f1<0.0146321077] yes=33,no=34,missing=33
					33:[f0<0.0173010379] yes=51,no=52,missing=51
						51:leaf=-0.214705393
						52:leaf=-0.00505507551
					34:[f0<0.00865051895] yes=53,no=54,missing=53
						53:leaf=-0.122527905
						54:leaf=-0.000306483707
				22:leaf=0.154584914
booster[27]:
0:[f1<0.00944816042] yes=1,no=2,missing=1
	1:[f1<0.00916387979] yes=3,no=4,missing=3
		3:[f3<0.0076923077] yes=7,no=8,missing=7
			7:[f1<0.0036454848] yes=13,no=14,missing=13
				13:[f6<0.00139137357] yes=23,no=24,missing=23
					23:[f0<0.0242214538] yes=35,no=36,missing=35
						35:leaf=0.00309754582
						36:leaf=-0.153800458
					24:[f0<0.0795847774] yes=37,no=38,missing=37
						37:leaf=0.117253542
						38:leaf=-0.0548073538
				14:[f0<0.0397923887] yes=25,no=26,missing=25
					25:[f6<0.000645994791] yes=39,no=40,missing=39
						39:leaf=0.0500546359
						40:leaf=0.148562104
					26:[f1<0.00866220705] yes=41,no=42,missing=41
						41:leaf=0.00209930236
						42:leaf=0.116325386
			8:[f0<0.00519031147] yes=15,no=16,missing=15
				15:[f3<0.0615384653] yes=27,no=28,missing=27
					27:[f3<0.0230769236] yes=43,no=44,missing=43
						43:leaf=0.0409415737
						44:leaf=0.177429199
					28:leaf=-0.132521093
				16:[f6<0.00104353018] yes=29,no=30,missing=29
					29:[f3<0.0538461544] yes=45,no=46,missing=45
						45:leaf=-0.0784013048
						46:leaf=0.0336462781
					30:[f0<0.0432525948] yes=47,no=48,missing=47
						47:leaf=0.149047792
						48:leaf=-0.0115822256
		4:leaf=0.138007119
	2:[f1<0.0099163875] yes=5,no=6,missing=5
		5:[f3<0.0076923077] yes=9,no=10,missing=9
			9:[f0<0.0155709349] yes=17,no=18,missing=17
				17:leaf=-0.136748895
				18:leaf=-0.0450571217
			10:leaf=-0.0030245434
		6:[f6<0.000248459546] yes=11,no=12,missing=11
			11:[f1<0.0140969902] yes=19,no=20,missing=19
				19:leaf=-0.156093642
				20:[f3<0.0461538471] yes=31,no=32,missing=31
					31:[f1<0.0743311048] yes=49,no=50,missing=49
						49:leaf=-0.0083623156
						50:leaf=-0.150303617
					32:leaf=0.0976269916
			12:[f3<0.0615384653] yes=21,no=22,missing=21
				21:[f1<0.0146321077] yes=33,no=34,missing=33
					33:[f0<0.0173010379] yes=51,no=52,missing=51
						51:leaf=0.214705408
						52:leaf=0.00505508017
					34:[f0<0.00865051895] yes=53,no=54,missing=53
						53:leaf=0.12252789
						54:leaf=0.000306483736
				22:leaf=-0.154584914
booster[28]:
0:[f1<0.0730936453] yes=1,no=2,missing=1
	1:[f1<0.0718561858] yes=3,no=4,missing=3
		3:[f0<0.226643592] yes=7,no=8,missing=7
			7:[f6<0.00601272099] yes=13,no=14,missing=13
				13:[f8<0.5] yes=19,no=20,missing=19
					19:leaf=-0.0934594646
					20:[f1<0.00944816042] yes=27,no=28,missing=27
						27:leaf=-0.0114686266
						28:leaf=0.00187760196
				14:[f0<0.217993081] yes=21,no=22,missing=21
					21:leaf=-0.123870432
					22:[f1<0.0417391285] yes=29,no=30,missing=29
						29:leaf=0.0516471528
						30:leaf=-0.0580766313
			8:[f1<0.046387963] yes=15,no=16,missing=15
				15:[f0<0.257785469] yes=23,no=24,missing=23
					23:[f1<0.032541804] yes=31,no=32,missing=31
						31:leaf=0.0141098788
						32:leaf=0.0808770731
					24:leaf=-0.0766799524
				16:leaf=0.140944213
		4:leaf=0.141575456
	2:[f1<0.076872915] yes=5,no=6,missing=5
		5:[f0<0.0397923887] yes=9,no=10,missing=9
			9:leaf=-0.112910904
			10:leaf=-0.0364917964
		6:[f1<0.0789632052] yes=11,no=12,missing=11
			11:leaf=0.14982605
			12:[f0<0.019031141] yes=17,no=18,missing=17
				17:leaf=0.0555253141
				18:[f1<0.0826086998] yes=25,no=26,missing=25
					25:leaf=-0.155909106
					26:[f0<0.0449826978] yes=33,no=34,missing=33
						33:leaf=-0.0150412451
						34:leaf=-0.0028702612
booster[29]:
0:[f1<0.0730936453] yes=1,no=2,missing=1
	1:[f1<0.0718561858] yes=3,no=4,missing=3
		3:[f0<0.226643592] yes=7,no=8,missing=7
			7:[f6<0.00601272099] yes=13,no=14,missing=13
				13:[f8<0.5] yes=19,no=20,missing=19
					19:leaf=0.0934594646
					20:[f1<0.00944816042] yes=27,no=28,missing=27
						27:leaf=0.0114686266
						28:leaf=-0.00187760335
				14:[f0<0.217993081] yes=21,no=22,missing=21
					21:leaf=0.123870425
					22:[f1<0.0417391285] yes=29,no=30,missing=29
						29:leaf=-0.0516471565
						30:leaf=0.0580766276
			8:[f1<0.046387963] yes=15,no=16,missing=15
				15:[f0<0.257785469] yes=23,no=24,missing=23
					23:[f1<0.032541804] yes=31,no=32,missing=31
						31:leaf=-0.0141098816
						32:leaf=-0.0808770657
					24:leaf=0.076679945
				16:leaf=-0.140944228
		4:leaf=-0.141575456
	2:[f1<0.076872915] yes=5,no=6,missing=5
		5:[f0<0.0397923887] yes=9,no=10,missing=9
			9:leaf=0.112910904
			10:leaf=0.0364917926
		6:[f1<0.0789632052] yes=11,no=12,missing=11
			11:leaf=-0.14982605
			12:[f0<0.019031141] yes=17,no=18,missing=17
				17:leaf=-0.0555253103
				18:[f1<0.0826086998] yes=25,no=26,missing=25
					25:leaf=0.155909121
					26:[f0<0.0449826978] yes=33,no=34,missing=33
						33:leaf=0.0150412377
						34:leaf=0.00287026539
booster[30]:
0:[f3<0.130769238] yes=1,no=2,missing=1
	1:[f3<0.0692307726] yes=3,no=4,missing=3
		3:[f0<0.247404844] yes=7,no=8,missing=7
			7:[f6<0.00670840777] yes=13,no=14,missing=13
				13:[f0<0.223183393] yes=21,no=22,missing=21
					21:[f6<0.00511826668] yes=23,no=24,missing=23
						23:leaf=0.000342366489
						24:leaf=-0.0333049633
					22:leaf=0.0769092813
				14:leaf=-0.134752691
			8:[f0<0.262975782] yes=15,no=16,missing=15
				15:leaf=0.0821088254
				16:leaf=0.00672490895
		4:[f0<0.019031141] yes=9,no=10,missing=9
			9:[f1<0.00665551843] yes=17,no=18,missing=17
				17:leaf=0.128072247
				18:leaf=-0.0595573075
			10:[f1<0.00598662207] yes=19,no=20,missing=19
				19:leaf=-0.157786801
				20:leaf=0.00314682722
	2:[f3<0.15384616] yes=5,no=6,missing=5
		5:leaf=0.142447367
		6:[f0<0.0363321789] yes=11,no=12,missing=11
			11:leaf=0.0110569205
			12:leaf=-0.0402049385
booster[31]:
0:[f3<0.130769238] yes=1,no=2,missing=1
	1:[f3<0.0692307726] yes=3,no=4,missing=3
		3:[f0<0.247404844] yes=7,no=8,missing=7
			7:[f6<0.00670840777] yes=13,no=14,missing=13
				13:[f0<0.223183393] yes=21,no=22,missing=21
					21:[f6<0.00511826668] yes=23,no=24,missing=23
						23:leaf=-0.000342367042
						24:leaf=0.0333049558
					22:leaf=-0.0769092888
				14:leaf=0.134752691
			8:[f0<0.262975782] yes=15,no=16,missing=15
				15:leaf=-0.0821088254
				16:leaf=-0.00672488892
		4:[f0<0.019031141] yes=9,no=10,missing=9
			9:[f1<0.00665551843] yes=17,no=18,missing=17
				17:leaf=-0.128072247
				18:leaf=0.0595573261
			10:[f1<0.00598662207] yes=19,no=20,missing=19
				19:leaf=0.157786801
				20:leaf=-0.00314682419
	2:[f3<0.15384616] yes=5,no=6,missing=5
		5:leaf=-0.142447367
		6:[f0<0.0363321789] yes=11,no=12,missing=11
			11:leaf=-0.0110569196
			12:leaf=0.0402049385
booster[32]:
0:[f3<0.084615387] yes=1,no=2,missing=1
	1:[f3<0.0692307726] yes=3,no=4,missing=3
		3:[f1<0.00270903017] yes=7,no=8,missing=7
			7:[f0<0.131487876] yes=15,no=16,missing=15
				15:[f6<0.00313059054] yes=23,no=24,missing=23
					23:[f0<0.0294117648] yes=29,no=30,missing=29
						29:leaf=-0.0148681905
						30:leaf=0.0634920001
					24:leaf=-0.106714606
				16:leaf=0.131508604
			8:[f1<0.00426421408] yes=17,no=18,missing=17
				17:[f0<0.00519031147] yes=25,no=26,missing=25
					25:leaf=-0.156325832
					26:[f6<0.000447227183] yes=31,no=32,missing=31
						31:leaf=0.0633112043
						32:leaf=-0.0271053668
				18:[f1<0.00498327753] yes=27,no=28,missing=27
					27:[f6<0.00183860073] yes=33,no=34,missing=33
						33:leaf=0.0368907973
						34:leaf=0.124850698
					28:[f6<0.000149075728] yes=35,no=36,missing=35
						35:leaf=0.0115566459
						36:leaf=-0.00179309223
		4:[f0<0.019031141] yes=9,no=10,missing=9
			9:[f1<0.00665551843] yes=19,no=20,missing=19
				19:leaf=0.108795129
				20:leaf=-0.109121263
			10:[f0<0.0847750902] yes=21,no=22,missing=21
				21:leaf=-0.122494526
				22:leaf=-0.0396178775
	2:[f3<0.15384616] yes=5,no=6,missing=5
		5:[f3<0.130769238] yes=11,no=12,missing=11
			11:leaf=0.0229514036
			12:leaf=0.124466829
		6:[f0<0.0363321789] yes=13,no=14,missing=13
			13:leaf=0.00927663129
			14:leaf=-0.033626996
booster[33]:
0:[f3<0.084615387] yes=1,no=2,missing=1
	1:[f3<0.0692307726] yes=3,no=4,missing=3
		3:[f1<0.00270903017] yes=7,no=8,missing=7
			7:[f0<0.131487876] yes=15,no=16,missing=15
				15:[f6<0.00313059054] yes=23,no=24,missing=23
					23:[f0<0.0294117648] yes=29,no=30,missing=29
						29:leaf=0.0148681877
						30:leaf=-0.0634920076
					24:leaf=0.106714606
				16:leaf=-0.131508604
			8:[f1<0.00426421408] yes=17,no=18,missing=17
				17:[f0<0.00519031147] yes=25,no=26,missing=25
					25:leaf=0.156325832
					26:[f6<0.000447227183] yes=31,no=32,missing=31
						31:leaf=-0.0633112118
						32:leaf=0.0271053556
				18:[f1<0.00498327753] yes=27,no=28,missing=27
					27:[f6<0.00183860073] yes=33,no=34,missing=33
						33:leaf=-0.0368907973
						34:leaf=-0.124850713
					28:[f6<0.000149075728] yes=35,no=36,missing=35
						35:leaf=-0.0115566486
						36:leaf=0.00179309328
		4:[f0<0.019031141] yes=9,no=10,missing=9
			9:[f1<0.00665551843] yes=19,no=20,missing=19
				19:leaf=-0.108795129
				20:leaf=0.109121256
			10:[f0<0.0847750902] yes=21,no=22,missing=21
				21:leaf=0.122494526
				22:leaf=0.0396178663
	2:[f3<0.15384616] yes=5,no=6,missing=5
		5:[f3<0.130769238] yes=11,no=12,missing=11
			11:leaf=-0.0229514055
			12:leaf=-0.124466844
		6:[f0<0.0363321789] yes=13,no=14,missing=13
			13:leaf=-0.00927663315
			14:leaf=0.0336270072
booster[34]:
0:[f0<0.0328719728] yes=1,no=2,missing=1
	1:[f6<0.000993838185] yes=3,no=4,missing=3
		3:[f6<0.000546611031] yes=7,no=8,missing=7
			7:[f1<0.0220735781] yes=13,no=14,missing=13
				13:[f1<0.0200167224] yes=23,no=24,missing=23
					23:[f1<0.00794314407] yes=39,no=40,missing=39
						39:leaf=0.0133574158
						40:leaf=-0.0310182646
					24:leaf=-0.160550565
				14:[f1<0.0265886299] yes=25,no=26,missing=25
					25:[f0<0.00519031147] yes=41,no=42,missing=41
						41:leaf=0.185087666
						42:leaf=0.0498389155
					26:[f1<0.0525919721] yes=43,no=44,missing=43
						43:leaf=0.00769048138
						44:leaf=-0.0136031322
			8:[f1<0.00498327753] yes=15,no=16,missing=15
				15:[f1<0.00414715707] yes=27,no=28,missing=27
					27:[f0<0.0224913508] yes=45,no=46,missing=45
						45:leaf=-0.0736702681
						46:leaf=0.0602705628
					28:leaf=0.163560346
				16:[f1<0.0302842818] yes=29,no=30,missing=29
					29:[f1<0.0241806023] yes=47,no=48,missing=47
						47:leaf=-0.00408171443
						48:leaf=-0.0693070814
					30:[f1<0.0447157174] yes=49,no=50,missing=49
						49:leaf=0.0364678279
						50:leaf=-0.0222128481
		4:leaf=-0.159342796
	2:[f6<0.00163983298] yes=5,no=6,missing=5
		5:[f3<0.0384615399] yes=9,no=10,missing=9
			9:[f1<0.0432274267] yes=17,no=18,missing=17
				17:[f1<0.0391137116] yes=31,no=32,missing=31
					31:[f3<0.0076923077] yes=51,no=52,missing=51
						51:leaf=-0.0014178477
						52:leaf=0.103151552
					32:[f0<0.0501730107] yes=53,no=54,missing=53
						53:leaf=0.160697997
						54:leaf=-0.00135528226
				18:[f0<0.0363321789] yes=33,no=34,missing=33
					33:[f1<0.0534280948] yes=55,no=56,missing=55
						55:leaf=-0.134711519
						56:leaf=0.114576139
					34:[f1<0.0501170568] yes=57,no=58,missing=57
						57:leaf=0.0363897532
						58:leaf=-0.020694688
			10:[f1<0.00498327753] yes=19,no=20,missing=19
				19:leaf=-0.138304815
				20:leaf=0.0598261878
		6:[f0<0.0570934266] yes=11,no=12,missing=11
			11:leaf=-0.132757634
			12:[f0<0.0640138388] yes=21,no=22,missing=21
				21:[f1<0.030050166] yes=35,no=36,missing=35
					35:[f1<0.00710702315] yes=59,no=60,missing=59
						59:leaf=-0.0719453543
						60:leaf=0.136062652
					36:[f1<0.0651337802] yes=61,no=62,missing=61
						61:leaf=-0.0821963772
						62:leaf=0.105269983
				22:[f3<0.0384615399] yes=37,no=38,missing=37
					37:[f1<0.027173914] yes=63,no=64,missing=63
						63:leaf=-0.019336354
						64:leaf=0.00817136187
					38:[f6<0.00337904994] yes=65,no=66,missing=65
						65:leaf=0.0818600133
						66:leaf=-0.0170236994
booster[35]:
0:[f0<0.0328719728] yes=1,no=2,missing=1
	1:[f6<0.000993838185] yes=3,no=4,missing=3
		3:[f6<0.000546611031] yes=7,no=8,missing=7
			7:[f1<0.0220735781] yes=13,no=14,missing=13
				13:[f1<0.0200167224] yes=23,no=24,missing=23
					23:[f1<0.00794314407] yes=39,no=40,missing=39
						39:leaf=-0.0133574093
						40:leaf=0.0310182739
					24:leaf=0.160550565
				14:[f1<0.0265886299] yes=25,no=26,missing=25
					25:[f0<0.00519031147] yes=41,no=42,missing=41
						41:leaf=-0.185087666
						42:leaf=-0.0498389266
					26:[f1<0.0525919721] yes=43,no=44,missing=43
						43:leaf=-0.0076904865
						44:leaf=0.0136031294
			8:[f1<0.00498327753] yes=15,no=16,missing=15
				15:[f1<0.00414715707] yes=27,no=28,missing=27
					27:[f0<0.0224913508] yes=45,no=46,missing=45
						45:leaf=0.0736702606
						46:leaf=-0.0602705665
					28:leaf=-0.163560331
				16:[f1<0.0302842818] yes=29,no=30,missing=29
					29:[f1<0.0241806023] yes=47,no=48,missing=47
						47:leaf=0.00408171955
						48:leaf=0.0693070889
					30:[f1<0.0447157174] yes=49,no=50,missing=49
						49:leaf=-0.0364678279
						50:leaf=0.0222128518
		4:leaf=0.159342825
	2:[f6<0.00163983298] yes=5,no=6,missing=5
		5:[f3<0.0384615399] yes=9,no=10,missing=9
			9:[f1<0.0432274267] yes=17,no=18,missing=17
				17:[f1<0.0391137116] yes=31,no=32,missing=31
					31:[f3<0.0076923077] yes=51,no=52,missing=51
						51:leaf=0.00141785503
						52:leaf=-0.103151552
					32:[f0<0.0501730107] yes=53,no=54,missing=53
						53:leaf=-0.160697997
						54:leaf=0.00135527458
				18:[f0<0.0363321789] yes=33,no=34,missing=33
					33:[f1<0.0534280948] yes=55,no=56,missing=55
						55:leaf=0.134711504
						56:leaf=-0.114576131
					34:[f1<0.0501170568] yes=57,no=58,missing=57
						57:leaf=-0.0363897458
						58:leaf=0.020694688
			10:[f1<0.00498327753] yes=19,no=20,missing=19
				19:leaf=0.138304815
				20:leaf=-0.0598261952
		6:[f0<0.0570934266] yes=11,no=12,missing=11
			11:leaf=0.132757634
			12:[f0<0.0640138388] yes=21,no=22,missing=21
				21:[f1<0.030050166] yes=35,no=36,missing=35
					35:[f1<0.00710702315] yes=59,no=60,missing=59
						59:leaf=0.0719453543
						60:leaf=-0.136062652
					36:[f1<0.0651337802] yes=61,no=62,missing=61
						61:leaf=0.0821963698
						62:leaf=-0.105269991
				22:[f3<0.0384615399] yes=37,no=38,missing=37
					37:[f1<0.027173914] yes=63,no=64,missing=63
						63:leaf=0.0193363521
						64:leaf=-0.00817136373
					38:[f6<0.00337904994] yes=65,no=66,missing=65
						65:leaf=-0.0818600059
						66:leaf=0.0170236863
booster[36]:
0:[f1<0.0730936453] yes=1,no=2,missing=1
	1:[f1<0.0718561858] yes=3,no=4,missing=3
		3:[f1<0.0706688911] yes=7,no=8,missing=7
			7:[f1<0.0684782565] yes=11,no=12,missing=11
				11:[f1<0.0623076931] yes=17,no=18,missing=17
					17:[f1<0.0596989952] yes=23,no=24,missing=23
						23:leaf=-0.000622314226
						24:leaf=0.0449518301
					18:[f3<0.0076923077] yes=25,no=26,missing=25
						25:leaf=-0.0486158766
						26:leaf=0.0473305471
				12:[f0<0.00865051895] yes=19,no=20,missing=19
					19:leaf=0.138346121
					20:[f0<0.0259515569] yes=27,no=28,missing=27
						27:leaf=-0.0539850257
						28:leaf=0.058452636
			8:leaf=-0.0632783771
		4:leaf=0.126234591
	2:[f0<0.00173010386] yes=5,no=6,missing=5
		5:leaf=0.0819707662
		6:[f0<0.0795847774] yes=9,no=10,missing=9
			9:[f1<0.0810200721] yes=13,no=14,missing=13
				13:leaf=-0.105612084
				14:leaf=-0.0133178616
			10:[f0<0.122837365] yes=15,no=16,missing=15
				15:leaf=0.143764019
				16:[f1<0.077675581] yes=21,no=22,missing=21
					21:leaf=-0.126864612
					22:leaf=-0.0015853087
booster[37]:
0:[f1<0.0730936453] yes=1,no=2,missing=1
	1:[f1<0.0718561858] yes=3,no=4,missing=3
		3:[f1<0.0706688911] yes=7,no=8,missing=7
			7:[f1<0.0684782565] yes=11,no=12,missing=11
				11:[f1<0.0623076931] yes=17,no=18,missing=17
					17:[f1<0.0596989952] yes=23,no=24,missing=23
						23:leaf=0.000622314168
						24:leaf=-0.0449518338
					18:[f3<0.0076923077] yes=25,no=26,missing=25
						25:leaf=0.0486158766
						26:leaf=-0.0473305471
				12:[f0<0.00865051895] yes=19,no=20,missing=19
					19:leaf=-0.138346136
					20:[f0<0.0259515569] yes=27,no=28,missing=27
						27:leaf=0.0539850257
						28:leaf=-0.0584526323
			8:leaf=0.0632783845
		4:leaf=-0.126234591
	2:[f0<0.00173010386] yes=5,no=6,missing=5
		5:leaf=-0.0819707811
		6:[f0<0.0795847774] yes=9,no=10,missing=9
			9:[f1<0.0810200721] yes=13,no=14,missing=13
				13:leaf=0.105612077
				14:leaf=0.0133178635
			10:[f0<0.122837365] yes=15,no=16,missing=15
				15:leaf=-0.143764019
				16:[f1<0.077675581] yes=21,no=22,missing=21
					21:leaf=0.126864612
					22:leaf=0.0015853087
booster[38]:
0:[f1<0.0789632052] yes=1,no=2,missing=1
	1:[f1<0.076872915] yes=3,no=4,missing=3
		3:[f1<0.0730936453] yes=7,no=8,missing=7
			7:[f1<0.0718561858] yes=11,no=12,missing=11
				11:[f0<0.226643592] yes=15,no=16,missing=15
					15:[f6<0.00641025603] yes=19,no=20,missing=19
						19:leaf=4.70809355e-05
						20:leaf=-0.0755087733
					16:[f0<0.257785469] yes=21,no=22,missing=21
						21:leaf=0.0896253139
						22:leaf=-0.026265882
				12:leaf=0.112682067
			8:[f1<0.0761371255] yes=13,no=14,missing=13
				13:[f1<0.0749331117] yes=17,no=18,missing=17
					17:leaf=-0.0632982925
					18:leaf=0.0287202541
				14:leaf=-0.0814053491
		4:leaf=0.123520494
	2:[f0<0.019031141] yes=5,no=6,missing=5
		5:leaf=0.0502189621
		6:[f1<0.0826086998] yes=9,no=10,missing=9
			9:leaf=-0.122681476
			10:leaf=-0.0199785829
booster[39]:
0:[f1<0.0789632052] yes=1,no=2,missing=1
	1:[f1<0.076872915] yes=3,no=4,missing=3
		3:[f1<0.0730936453] yes=7,no=8,missing=7
			7:[f1<0.0718561858] yes=11,no=12,missing=11
				11:[f0<0.226643592] yes=15,no=16,missing=15
					15:[f6<0.00641025603] yes=19,no=20,missing=19
						19:leaf=-4.70793057e-05
						20:leaf=0.0755087808
					16:[f0<0.257785469] yes=21,no=22,missing=21
						21:leaf=-0.089625299
						22:leaf=0.026265908
				12:leaf=-0.112682067
			8:[f1<0.0761371255] yes=13,no=14,missing=13
				13:[f1<0.0749331117] yes=17,no=18,missing=17
					17:leaf=0.0632982925
					18:leaf=-0.0287202597
				14:leaf=0.0814053491
		4:leaf=-0.123520494
	2:[f0<0.019031141] yes=5,no=6,missing=5
		5:leaf=-0.0502189472
		6:[f1<0.0826086998] yes=9,no=10,missing=9
			9:leaf=0.122681461
			10:leaf=0.0199785866
booster[40]:
0:[f6<0.00253428752] yes=1,no=2,missing=1
	1:[f0<0.0813148767] yes=3,no=4,missing=3
		3:[f6<0.002236136] yes=7,no=8,missing=7
			7:[f1<0.0885618702] yes=15,no=16,missing=15
				15:[f1<0.0484113693] yes=29,no=30,missing=29
					29:[f0<0.0397923887] yes=47,no=48,missing=47
						47:leaf=-0.00679960754
						48:leaf=0.0119556151
					30:[f0<0.070934251] yes=49,no=50,missing=49
						49:leaf=0.00555324927
						50:leaf=0.112772129
				16:leaf=-0.102911994
			8:[f3<0.0384615399] yes=17,no=18,missing=17
				17:[f1<0.0107692312] yes=31,no=32,missing=31
					31:leaf=-0.128183782
					32:[f1<0.0216722414] yes=51,no=52,missing=51
						51:leaf=0.0989733934
						52:leaf=-0.0761911646
				18:leaf=0.0340747684
		4:[f1<0.0521571897] yes=9,no=10,missing=9
			9:[f1<0.032541804] yes=19,no=20,missing=19
				19:[f1<0.0199999996] yes=33,no=34,missing=33
					33:[f0<0.0847750902] yes=53,no=54,missing=53
						53:leaf=0.0330235362
						54:leaf=0.120479479
					34:[f0<0.0847750902] yes=55,no=56,missing=55
						55:leaf=0.0461382419
						56:leaf=-0.125715181
				20:[f1<0.0442307666] yes=35,no=36,missing=35
					35:[f1<0.0408862904] yes=57,no=58,missing=57
						57:leaf=0.074134998
						58:leaf=0.199999347
					36:[f1<0.0475752503] yes=59,no=60,missing=59
						59:leaf=-0.0754163265
						60:leaf=0.125947103
			10:[f1<0.0571906343] yes=21,no=22,missing=21
				21:leaf=-0.192107439
				22:leaf=0.0784728751
	2:[f0<0.0916955024] yes=5,no=6,missing=5
		5:[f0<0.0882352889] yes=11,no=12,missing=11
			11:leaf=-0.134273008
			12:[f1<0.0455016717] yes=23,no=24,missing=23
				23:[f1<0.0333946496] yes=37,no=38,missing=37
					37:[f1<0.031705685] yes=61,no=62,missing=61
						61:leaf=-0.0734881684
						62:leaf=-0.0199677609
					38:leaf=0.068793416
				24:leaf=-0.106015533
		6:[f3<0.0076923077] yes=13,no=14,missing=13
			13:[f0<0.102076128] yes=25,no=26,missing=25
				25:[f6<0.0028324388] yes=39,no=40,missing=39
					39:[f0<0.0951557159] yes=63,no=64,missing=63
						63:leaf=-0.0744260624
						64:leaf=0.0178313311
					40:[f1<0.0450836122] yes=65,no=66,missing=65
						65:leaf=-0.200871497
						66:leaf=-0.00561059546
				26:[f1<0.027173914] yes=41,no=42,missing=41
					41:[f0<0.141868502] yes=67,no=68,missing=67
						67:leaf=-0.12977396
						68:leaf=0.0192815121
					42:[f1<0.0296989977] yes=69,no=70,missing=69
						69:leaf=0.125729635
						70:leaf=0.00656692823
			14:[f6<0.00332935806] yes=27,no=28,missing=27
				27:[f1<0.0350668877] yes=43,no=44,missing=43
					43:[f1<0.0308695659] yes=71,no=72,missing=71
						71:leaf=0.0698796138
						72:leaf=-0.116683133
					44:leaf=0.18516092
				28:[f0<0.160899654] yes=45,no=46,missing=45
					45:[f6<0.00422381237] yes=73,no=74,missing=73
						73:leaf=0.0187144857
						74:leaf=-0.157574102
					46:[f6<0.00551580172] yes=75,no=76,missing=75
						75:leaf=0.0908865333
						76:leaf=-0.0119522382
booster[41]:
0:[f6<0.00253428752] yes=1,no=2,missing=1
	1:[f0<0.0813148767] yes=3,no=4,missing=3
		3:[f6<0.002236136] yes=7,no=8,missing=7
			7:[f1<0.0885618702] yes=15,no=16,missing=15
				15:[f1<0.0484113693] yes=29,no=30,missing=29
					29:[f0<0.0397923887] yes=47,no=48,missing=47
						47:leaf=0.00679960754
						48:leaf=-0.0119556142
					30:[f0<0.070934251] yes=49,no=50,missing=49
						49:leaf=-0.00555324648
						50:leaf=-0.112772129
				16:leaf=0.102911994
			8:[f3<0.0384615399] yes=17,no=18,missing=17
				17:[f1<0.0107692312] yes=31,no=32,missing=31
					31:leaf=0.128183782
					32:[f1<0.0216722414] yes=51,no=52,missing=51
						51:leaf=-0.098973386
						52:leaf=0.0761911646
				18:leaf=-0.0340747535
		4:[f1<0.0521571897] yes=9,no=10,missing=9
			9:[f1<0.032541804] yes=19,no=20,missing=19
				19:[f1<0.0199999996] yes=33,no=34,missing=33
					33:[f0<0.0847750902] yes=53,no=54,missing=53
						53:leaf=-0.0330235362
						54:leaf=-0.120479472
					34:[f0<0.0847750902] yes=55,no=56,missing=55
						55:leaf=-0.0461382419
						56:leaf=0.125715211
				20:[f1<0.0442307666] yes=35,no=36,missing=35
					35:[f1<0.0408862904] yes=57,no=58,missing=57
						57:leaf=-0.0741349831
						58:leaf=-0.199999347
					36:[f1<0.0475752503] yes=59,no=60,missing=59
						59:leaf=0.0754163116
						60:leaf=-0.125947118
			10:[f1<0.0571906343] yes=21,no=22,missing=21
				21:leaf=0.192107454
				22:leaf=-0.0784728751
	2:[f0<0.0916955024] yes=5,no=6,missing=5
		5:[f0<0.0882352889] yes=11,no=12,missing=11
			11:leaf=0.134273008
			12:[f1<0.0455016717] yes=23,no=24,missing=23
				23:[f1<0.0333946496] yes=37,no=38,missing=37
					37:[f1<0.031705685] yes=61,no=62,missing=61
						61:leaf=0.0734881684
						62:leaf=0.0199677609
					38:leaf=-0.0687934011
				24:leaf=0.106015541
		6:[f3<0.0076923077] yes=13,no=14,missing=13
			13:[f0<0.102076128] yes=25,no=26,missing=25
				25:[f6<0.0028324388] yes=39,no=40,missing=39
					39:[f0<0.0951557159] yes=63,no=64,missing=63
						63:leaf=0.0744260699
						64:leaf=-0.0178313237
					40:[f1<0.0450836122] yes=65,no=66,missing=65
						65:leaf=0.200871497
						66:leaf=0.00561059173
				26:[f1<0.027173914] yes=41,no=42,missing=41
					41:[f0<0.141868502] yes=67,no=68,missing=67
						67:leaf=0.12977396
						68:leaf=-0.019281501
					42:[f1<0.0296989977] yes=69,no=70,missing=69
						69:leaf=-0.12572962
						70:leaf=-0.00656692637
			14:[f6<0.00332935806] yes=27,no=28,missing=27
				27:[f1<0.0350668877] yes=43,no=44,missing=43
					43:[f1<0.0308695659] yes=71,no=72,missing=71
						71:leaf=-0.0698796138
						72:leaf=0.11668314
					44:leaf=-0.18516092
				28:[f0<0.160899654] yes=45,no=46,missing=45
					45:[f6<0.00422381237] yes=73,no=74,missing=73
						73:leaf=-0.0187144782
						74:leaf=0.157574102
					46:[f6<0.00551580172] yes=75,no=76,missing=75
						75:leaf=-0.0908865333
						76:leaf=0.0119522335
booster[42]:
0:[f6<0.0012422977] yes=1,no=2,missing=1
	1:[f0<0.0397923887] yes=3,no=4,missing=3
		3:[f1<0.0484113693] yes=7,no=8,missing=7
			7:[f1<0.0464214049] yes=13,no=14,missing=13
				13:[f1<0.0450668894] yes=25,no=26,missing=25
					25:[f6<0.00104353018] yes=43,no=44,missing=43
						43:leaf=0.00310953124
						44:leaf=-0.0498091877
					26:[f3<0.0076923077] yes=45,no=46,missing=45
						45:leaf=0.125041291
						46:leaf=-0.0640969723
				14:[f0<0.0363321789] yes=27,no=28,missing=27
					27:[f6<0.000944146304] yes=47,no=48,missing=47
						47:leaf=-0.037679784
						48:leaf=-0.17215994
					28:[f1<0.0472408012] yes=49,no=50,missing=49
						49:leaf=-0.0109226014
						50:leaf=0.13834016
			8:[f1<0.0510033444] yes=15,no=16,missing=15
				15:[f0<0.0259515569] yes=29,no=30,missing=29
					29:[f0<0.0155709349] yes=51,no=52,missing=51
						51:leaf=0.0355972983
						52:leaf=0.115941197
					30:[f3<0.0076923077] yes=53,no=54,missing=53
						53:leaf=0.030461954
						54:leaf=-0.0793367177
				16:[f1<0.051755853] yes=31,no=32,missing=31
					31:[f0<0.0103806229] yes=55,no=56,missing=55
						55:leaf=0.0642952397
						56:leaf=-0.183511883
					32:[f1<0.0519398004] yes=57,no=58,missing=57
						57:leaf=0.141010851
						58:leaf=0.00364112505
		4:[f1<0.0496822745] yes=9,no=10,missing=9
			9:[f1<0.0141806025] yes=17,no=18,missing=17
				17:leaf=-0.0556208603
				18:[f1<0.0366220735] yes=33,no=34,missing=33
					33:[f1<0.0325250849] yes=59,no=60,missing=59
						59:leaf=0.139445767
						60:leaf=-0.0877977014
					34:[f1<0.045568563] yes=61,no=62,missing=61
						61:leaf=0.185219988
						62:leaf=0.0745141506
			10:[f1<0.0509531796] yes=19,no=20,missing=19
				19:leaf=-0.17371054
				20:leaf=0.0284805167
	2:[f0<0.0432525948] yes=5,no=6,missing=5
		5:leaf=-0.141932905
		6:[f1<0.0308862869] yes=11,no=12,missing=11
			11:[f6<0.00193798449] yes=21,no=22,missing=21
				21:[f1<0.00680602016] yes=35,no=36,missing=35
					35:[f3<0.0384615399] yes=63,no=64,missing=63
						63:leaf=-0.00742622232
						64:leaf=-0.126514852
					36:[f1<0.00724080298] yes=65,no=66,missing=65
						65:leaf=0.196505502
						66:leaf=0.0503279679
				22:[f0<0.070934251] yes=37,no=38,missing=37
					37:[f3<0.0076923077] yes=67,no=68,missing=67
						67:leaf=0.0307223964
						68:leaf=-0.162888721
					38:[f1<0.00531772571] yes=69,no=70,missing=69
						69:leaf=0.0273691956
						70:leaf=-0.0066769137
			12:[f1<0.0460033417] yes=23,no=24,missing=23
				23:[f0<0.0467128009] yes=39,no=40,missing=39
					39:[f1<0.0417391285] yes=71,no=72,missing=71
						71:leaf=-0.0542415231
						72:leaf=-0.161336273
					40:[f3<0.0076923077] yes=73,no=74,missing=73
						73:leaf=-0.00751296617
						74:leaf=-0.0903936923
				24:[f1<0.0480769239] yes=41,no=42,missing=41
					41:[f0<0.140138403] yes=75,no=76,missing=75
						75:leaf=0.067179516
						76:leaf=-0.0350395516
					42:[f0<0.228373706] yes=77,no=78,missing=77
						77:leaf=-0.00816238299
						78:leaf=0.0866650343
booster[43]:
0:[f6<0.0012422977] yes=1,no=2,missing=1
	1:[f0<0.0397923887] yes=3,no=4,missing=3
		3:[f1<0.0484113693] yes=7,no=8,missing=7
			7:[f1<0.0464214049] yes=13,no=14,missing=13
				13:[f1<0.0450668894] yes=25,no=26,missing=25
					25:[f6<0.00104353018] yes=43,no=44,missing=43
						43:leaf=-0.00310953008
						44:leaf=0.0498091914
					26:[f3<0.0076923077] yes=45,no=46,missing=45
						45:leaf=-0.125041291
						46:leaf=0.0640969798
				14:[f0<0.0363321789] yes=27,no=28,missing=27
					27:[f6<0.000944146304] yes=47,no=48,missing=47
						47:leaf=0.0376797765
						48:leaf=0.17215991
					28:[f1<0.0472408012] yes=49,no=50,missing=49
						49:leaf=0.0109226014
						50:leaf=-0.13834016
			8:[f1<0.0510033444] yes=15,no=16,missing=15
				15:[f0<0.0259515569] yes=29,no=30,missing=29
					29:[f0<0.0155709349] yes=51,no=52,missing=51
						51:leaf=-0.035597302
						52:leaf=-0.115941204
					30:[f3<0.0076923077] yes=53,no=54,missing=53
						53:leaf=-0.0304619577
						54:leaf=0.0793367252
				16:[f1<0.051755853] yes=31,no=32,missing=31
					31:[f0<0.0103806229] yes=55,no=56,missing=55
						55:leaf=-0.0642952472
						56:leaf=0.183511883
					32:[f1<0.0519398004] yes=57,no=58,missing=57
						57:leaf=-0.141010866
						58:leaf=-0.00364112877
		4:[f1<0.0496822745] yes=9,no=10,missing=9
			9:[f1<0.0141806025] yes=17,no=18,missing=17
				17:leaf=0.055620864
				18:[f1<0.0366220735] yes=33,no=34,missing=33
					33:[f1<0.0325250849] yes=59,no=60,missing=59
						59:leaf=-0.139445752
						60:leaf=0.0877977237
					34:[f1<0.045568563] yes=61,no=62,missing=61
						61:leaf=-0.185219988
						62:leaf=-0.0745141357
			10:[f1<0.0509531796] yes=19,no=20,missing=19
				19:leaf=0.173710525
				20:leaf=-0.0284805074
	2:[f0<0.0432525948] yes=5,no=6,missing=5
		5:leaf=0.141932905
		6:[f1<0.0308862869] yes=11,no=12,missing=11
			11:[f6<0.00193798449] yes=21,no=22,missing=21
				21:[f1<0.00680602016] yes=35,no=36,missing=35
					35:[f3<0.0384615399] yes=63,no=64,missing=63
						63:leaf=0.00742621766
						64:leaf=0.126514852
					36:[f1<0.00724080298] yes=65,no=66,missing=65
						65:leaf=-0.196505502
						66:leaf=-0.0503279604
				22:[f0<0.070934251] yes=37,no=38,missing=37
					37:[f3<0.0076923077] yes=67,no=68,missing=67
						67:leaf=-0.0307223946
						68:leaf=0.162888721
					38:[f1<0.00531772571] yes=69,no=70,missing=69
						69:leaf=-0.0273691919
						70:leaf=0.00667692116
			12:[f1<0.0460033417] yes=23,no=24,missing=23
				23:[f0<0.0467128009] yes=39,no=40,missing=39
					39:[f1<0.0417391285] yes=71,no=72,missing=71
						71:leaf=0.0542415269
						72:leaf=0.161336273
					40:[f3<0.0076923077] yes=73,no=74,missing=73
						73:leaf=0.00751296477
						74:leaf=0.0903936923
				24:[f1<0.0480769239] yes=41,no=42,missing=41
					41:[f0<0.140138403] yes=75,no=76,missing=75
						75:leaf=-0.0671795234
						76:leaf=0.0350395516
					42:[f0<0.228373706] yes=77,no=78,missing=77
						77:leaf=0.00816238392
						78:leaf=-0.0866650343
booster[44]:
0:[f6<0.00670840777] yes=1,no=2,missing=1
	1:[f0<0.217993081] yes=3,no=4,missing=3
		3:[f6<0.00601272099] yes=7,no=8,missing=7
			7:[f3<0.130769238] yes=13,no=14,missing=13
				13:[f3<0.0692307726] yes=15,no=16,missing=15
					15:[f6<0.0012422977] yes=19,no=20,missing=19
						19:leaf=0.00256559532
						20:leaf=-0.00326458551
					16:[f0<0.019031141] yes=21,no=22,missing=21
						21:leaf=0.043344453
						22:leaf=-0.0981217548
				14:[f3<0.15384616] yes=17,no=18,missing=17
					17:leaf=0.111619532
					18:[f1<0.00414715707] yes=23,no=24,missing=23
						23:leaf=0.0113247409
						24:leaf=-0.0256012566
			8:leaf=-0.0899337083
		4:[f1<0.0417391285] yes=9,no=10,missing=9
			9:leaf=0.0847128779
			10:leaf=0.00482419785
	2:[f0<0.247404844] yes=5,no=6,missing=5
		5:leaf=-0.125652358
		6:[f0<0.262975782] yes=11,no=12,missing=11
			11:leaf=0.0589367561
			12:leaf=-0.000938125013
booster[45]:
0:[f6<0.00670840777] yes=1,no=2,missing=1
	1:[f0<0.217993081] yes=3,no=4,missing=3
		3:[f6<0.00601272099] yes=7,no=8,missing=7
			7:[f3<0.130769238] yes=13,no=14,missing=13
				13:[f3<0.0692307726] yes=15,no=16,missing=15
					15:[f6<0.0012422977] yes=19,no=20,missing=19
						19:leaf=-0.00256559206
						20:leaf=0.00326458737
					16:[f0<0.019031141] yes=21,no=22,missing=21
						21:leaf=-0.043344453
						22:leaf=0.0981217623
				14:[f3<0.15384616] yes=17,no=18,missing=17
					17:leaf=-0.111619532
					18:[f1<0.00414715707] yes=23,no=24,missing=23
						23:leaf=-0.0113247447
						24:leaf=0.025601266
			8:leaf=0.0899337307
		4:[f1<0.0417391285] yes=9,no=10,missing=9
			9:leaf=-0.0847128779
			10:leaf=-0.00482420158
	2:[f0<0.247404844] yes=5,no=6,missing=5
		5:leaf=0.125652358
		6:[f0<0.262975782] yes=11,no=12,missing=11
			11:leaf=-0.0589367561
			12:leaf=0.000938134908
booster[46]:
0:[f1<0.00252508372] yes=1,no=2,missing=1
	1:[f0<0.129757792] yes=3,no=4,missing=3
		3:[f6<0.00198767637] yes=7,no=8,missing=7
			7:[f3<0.0076923077] yes=15,no=16,missing=15
				15:leaf=-0.0635103583
				16:[f3<0.0384615399] yes=27,no=28,missing=27
					27:[f0<0.00519031147] yes=39,no=40,missing=39
						39:leaf=-0.0332705192
						40:leaf=0.0939248502
					28:[f3<0.0692307726] yes=41,no=42,missing=41
						41:leaf=-0.0409293212
						42:leaf=0.0528041273
			8:[f6<0.00238521164] yes=17,no=18,missing=17
				17:leaf=-0.01497884
				18:leaf=-0.0742832869
		4:[f6<0.00477042329] yes=9,no=10,missing=9
			9:leaf=0.126382083
			10:leaf=0.0129525783
	2:[f1<0.00944816042] yes=5,no=6,missing=5
		5:[f1<0.00770903006] yes=11,no=12,missing=11
			11:[f1<0.00755852833] yes=19,no=20,missing=19
				19:[f1<0.00719063543] yes=29,no=30,missing=29
					29:[f3<0.0384615399] yes=43,no=44,missing=43
						43:leaf=0.0118715027
						44:leaf=-0.0463201515
					30:leaf=-0.115175903
				20:leaf=0.141981959
			12:[f0<0.0328719728] yes=21,no=22,missing=21
				21:[f3<0.0307692308] yes=31,no=32,missing=31
					31:[f1<0.00911371224] yes=45,no=46,missing=45
						45:leaf=-0.183540329
						46:leaf=-0.0138808833
					32:leaf=0.0458357185
				22:[f6<0.00134168158] yes=33,no=34,missing=33
					33:leaf=0.130878717
					34:[f1<0.00911371224] yes=47,no=48,missing=47
						47:leaf=-0.00898427982
						48:leaf=-0.125387177
		6:[f1<0.0099163875] yes=13,no=14,missing=13
