booster[0]:
0:[f6<0.00193798449] yes=1,no=2,missing=1
	1:[f6<0.0012422977] yes=3,no=4,missing=3
		3:[f6<0.000745378667] yes=7,no=8,missing=7
			7:[f3<0.0230769236] yes=13,no=14,missing=13
				13:leaf=0.294074088
				14:[f1<0.00754180644] yes=23,no=24,missing=23
					23:[f3<0.0538461544] yes=35,no=36,missing=35
						35:leaf=0.128571436
						36:leaf=-0.150000006
					24:[f1<0.0126421405] yes=37,no=38,missing=37
						37:leaf=0.261290342
						38:leaf=-0
			8:[f0<0.0259515569] yes=15,no=16,missing=15
				15:leaf=-0.291780829
				16:leaf=0.291224867
		4:[f0<0.0432525948] yes=9,no=10,missing=9
			9:leaf=-0.29756099
			10:[f1<0.00630434789] yes=17,no=18,missing=17
				17:[f0<0.0536332205] yes=25,no=26,missing=25
					25:[f6<0.00144106545] yes=39,no=40,missing=39
						39:leaf=0.150000006
						40:leaf=-0.225000009
					26:leaf=0.200000018
				18:[f5<0.967826128] yes=27,no=28,missing=27
					27:[f5<0.955652177] yes=41,no=42,missing=41
						41:leaf=0.180000007
						42:leaf=-0.100000009
					28:[f1<0.0359866247] yes=43,no=44,missing=43
						43:leaf=0.272277236
						44:leaf=-0
	2:[f0<0.0674740523] yes=5,no=6,missing=5
		5:leaf=-0.29960081
		6:[f6<0.00352812558] yes=11,no=12,missing=11
			11:[f6<0.00253428752] yes=19,no=20,missing=19
				19:[f1<0.00538461562] yes=29,no=30,missing=29
					29:leaf=-0.180000007
					30:[f8<0.166666672] yes=45,no=46,missing=45
						45:leaf=0.277639747
						46:leaf=0.180000007
				20:[f0<0.0882352889] yes=31,no=32,missing=31
					31:leaf=-0.294339627
					32:[f0<0.0951557159] yes=47,no=48,missing=47
						47:leaf=0.0773195848
						48:leaf=0.235384628
			12:[f0<0.122837365] yes=21,no=22,missing=21
				21:leaf=-0.298876405
				22:[f6<0.00521765091] yes=33,no=34,missing=33
					33:[f6<0.00392566063] yes=49,no=50,missing=49
						49:leaf=0.282352954
						50:leaf=0.0729083717
					34:[f0<0.181660891] yes=51,no=52,missing=51
						51:leaf=-0.296363652
						52:leaf=-0.0170984454
booster[1]:
0:[f6<0.00193798449] yes=1,no=2,missing=1
	1:[f6<0.0012422977] yes=3,no=4,missing=3
		3:[f6<0.000745378667] yes=7,no=8,missing=7
			7:[f3<0.0230769236] yes=13,no=14,missing=13
				13:leaf=-0.294074088
				14:[f1<0.00754180644] yes=23,no=24,missing=23
					23:[f3<0.0538461544] yes=35,no=36,missing=35
						35:leaf=-0.128571436
						36:leaf=0.150000006
					24:[f1<0.0126421405] yes=37,no=38,missing=37
						37:leaf=-0.261290342
						38:leaf=-0
			8:[f0<0.0259515569] yes=15,no=16,missing=15
				15:leaf=0.291780829
				16:leaf=-0.291224867
		4:[f0<0.0432525948] yes=9,no=10,missing=9
			9:leaf=0.29756099
			10:[f1<0.00630434789] yes=17,no=18,missing=17
				17:[f0<0.0536332205] yes=25,no=26,missing=25
					25:[f6<0.00144106545] yes=39,no=40,missing=39
						39:leaf=-0.150000006
						40:leaf=0.225000009
					26:leaf=-0.200000018
				18:[f5<0.967826128] yes=27,no=28,missing=27
					27:[f5<0.955652177] yes=41,no=42,missing=41
						41:leaf=-0.180000007
						42:leaf=0.100000009
					28:[f1<0.0359866247] yes=43,no=44,missing=43
						43:leaf=-0.272277236
						44:leaf=-0
	2:[f0<0.0674740523] yes=5,no=6,missing=5
		5:leaf=0.29960081
		6:[f6<0.00352812558] yes=11,no=12,missing=11
			11:[f6<0.00253428752] yes=19,no=20,missing=19
				19:[f1<0.00538461562] yes=29,no=30,missing=29
					29:leaf=0.180000007
					30:[f8<0.166666672] yes=45,no=46,missing=45
						45:leaf=-0.277639747
						46:leaf=-0.180000007
				20:[f0<0.0882352889] yes=31,no=32,missing=31
					31:leaf=0.294339627
					32:[f0<0.0951557159] yes=47,no=48,missing=47
						47:leaf=-0.0773195848
						48:leaf=-0.235384628
			12:[f0<0.122837365] yes=21,no=22,missing=21
				21:leaf=0.298876405
				22:[f6<0.00521765091] yes=33,no=34,missing=33
					33:[f6<0.00392566063] yes=49,no=50,missing=49
						49:leaf=-0.282352954
						50:leaf=-0.0729083717
					34:[f0<0.181660891] yes=51,no=52,missing=51
						51:leaf=0.296363652
						52:leaf=0.0170984454
booster[2]:
0:[f6<0.00193798449] yes=1,no=2,missing=1
	1:[f6<0.00134168158] yes=3,no=4,missing=3
		3:[f6<0.000745378667] yes=7,no=8,missing=7
			7:[f3<0.0230769236] yes=13,no=14,missing=13
				13:leaf=0.22703062
				14:[f1<0.00754180644] yes=23,no=24,missing=23
					23:[f0<0.00865051895] yes=39,no=40,missing=39
						39:leaf=-0.0118768588
						40:leaf=0.0541835688
					24:[f1<0.0126421405] yes=41,no=42,missing=41
						41:leaf=0.201915845
						42:leaf=-0
			8:[f0<0.0259515569] yes=15,no=16,missing=15
				15:leaf=-0.227810606
				16:[f1<0.00603678916] yes=25,no=26,missing=25
					25:leaf=0.0823366344
					26:leaf=0.220199749
		4:[f0<0.0467128009] yes=9,no=10,missing=9
			9:leaf=-0.238647282
			10:[f5<0.970434785] yes=17,no=18,missing=17
				17:[f5<0.955652177] yes=27,no=28,missing=27
					27:leaf=0.150815114
					28:leaf=-0.0806001723
				18:[f3<0.0384615399] yes=29,no=30,missing=29
					29:[f6<0.00163983298] yes=43,no=44,missing=43
						43:leaf=0.229800522
						44:leaf=0.199101686
					30:[f1<0.00752508361] yes=45,no=46,missing=45
						45:leaf=-0.108782604
						46:leaf=0.165467083
	2:[f0<0.0674740523] yes=5,no=6,missing=5
		5:leaf=-0.232049733
		6:[f6<0.00313059031] yes=11,no=12,missing=11
			11:[f1<0.00986622088] yes=19,no=20,missing=19
				19:[f6<0.00263367128] yes=31,no=32,missing=31
					31:[f1<0.00538461562] yes=47,no=48,missing=47
						47:leaf=-0.150815114
						48:leaf=0.186997443
					32:[f0<0.0951557159] yes=49,no=50,missing=49
						49:leaf=-0.180639446
						50:leaf=0.178365231
				20:[f0<0.0847750902] yes=33,no=34,missing=33
					33:[f6<0.00243490352] yes=51,no=52,missing=51
						51:leaf=0.214271963
						52:leaf=-0.227362335
					34:[f6<0.00303120655] yes=53,no=54,missing=53
						53:leaf=0.235646039
						54:leaf=0.146511823
			12:[f0<0.10899654] yes=21,no=22,missing=21
				21:[f6<0.00352812558] yes=35,no=36,missing=35
					35:[f0<0.0882352889] yes=55,no=56,missing=55
						55:leaf=-0.222255632
						56:leaf=-0.342126608
					36:leaf=-0.23131822
				22:[f6<0.00402504485] yes=37,no=38,missing=37
					37:[f6<0.0038262771] yes=57,no=58,missing=57
						57:leaf=0.200527459
						58:leaf=0.111320935
					38:[f0<0.140138417] yes=59,no=60,missing=59
						59:leaf=-0.256637216
						60:leaf=-0.00543324463
booster[3]:
0:[f6<0.00193798449] yes=1,no=2,missing=1
	1:[f6<0.00134168158] yes=3,no=4,missing=3
		3:[f6<0.000745378667] yes=7,no=8,missing=7
			7:[f3<0.0230769236] yes=13,no=14,missing=13
				13:leaf=-0.227030605
				14:[f1<0.00754180644] yes=23,no=24,missing=23
					23:[f0<0.00865051895] yes=39,no=40,missing=39
						39:leaf=0.0118768709
						40:leaf=-0.0541835614
					24:[f1<0.0126421405] yes=41,no=42,missing=41
						41:leaf=-0.201915845
						42:leaf=-0
			8:[f0<0.0259515569] yes=15,no=16,missing=15
				15:leaf=0.227810621
				16:[f1<0.00603678916] yes=25,no=26,missing=25
					25:leaf=-0.0823366344
					26:leaf=-0.220199749
		4:[f0<0.0467128009] yes=9,no=10,missing=9
			9:leaf=0.238647282
			10:[f5<0.970434785] yes=17,no=18,missing=17
				17:[f5<0.955652177] yes=27,no=28,missing=27
					27:leaf=-0.150815114
					28:leaf=0.0806001723
				18:[f3<0.0384615399] yes=29,no=30,missing=29
					29:[f6<0.00163983298] yes=43,no=44,missing=43
						43:leaf=-0.229800522
						44:leaf=-0.199101686
					30:[f1<0.00752508361] yes=45,no=46,missing=45
						45:leaf=0.108782597
						46:leaf=-0.165467083
	2:[f0<0.0674740523] yes=5,no=6,missing=5
		5:leaf=0.232049718
		6:[f6<0.00313059031] yes=11,no=12,missing=11
			11:[f1<0.00986622088] yes=19,no=20,missing=19
				19:[f6<0.00263367128] yes=31,no=32,missing=31
					31:[f1<0.00538461562] yes=47,no=48,missing=47
						47:leaf=0.150815114
						48:leaf=-0.186997429
					32:[f0<0.0951557159] yes=49,no=50,missing=49
						49:leaf=0.180639476
						50:leaf=-0.178365186
				20:[f0<0.0847750902] yes=33,no=34,missing=33
					33:[f6<0.00243490352] yes=51,no=52,missing=51
						51:leaf=-0.214271948
						52:leaf=0.22736235
					34:[f6<0.00303120655] yes=53,no=54,missing=53
						53:leaf=-0.235646024
						54:leaf=-0.146511793
			12:[f0<0.10899654] yes=21,no=22,missing=21
				21:[f6<0.00352812558] yes=35,no=36,missing=35
					35:[f0<0.0882352889] yes=55,no=56,missing=55
						55:leaf=0.222255647
						56:leaf=0.342126638
					36:leaf=0.23131822
				22:[f6<0.00402504485] yes=37,no=38,missing=37
					37:[f6<0.0038262771] yes=57,no=58,missing=57
						57:leaf=-0.200527444
						58:leaf=-0.111320943
					38:[f0<0.140138417] yes=59,no=60,missing=59
						59:leaf=0.256637216
						60:leaf=0.00543324929
booster[4]:
0:[f6<0.00193798449] yes=1,no=2,missing=1
	1:[f6<0.0012422977] yes=3,no=4,missing=3
		3:[f6<0.000645994791] yes=7,no=8,missing=7
			7:[f3<0.0384615399] yes=13,no=14,missing=13
				13:leaf=0.19850187
				14:[f0<0.00865051895] yes=23,no=24,missing=23
					23:[f1<0.00921404734] yes=39,no=40,missing=39
						39:leaf=0.0384379923
						40:leaf=-0.0201482046
					24:[f1<0.0124916388] yes=41,no=42,missing=41
						41:leaf=0.177856073
						42:leaf=-0
			8:[f0<0.0224913508] yes=15,no=16,missing=15
				15:[f6<0.000745378667] yes=25,no=26,missing=25
					25:leaf=-0.337111473
					26:leaf=-0.195392907
				16:[f6<0.00104353018] yes=27,no=28,missing=27
					27:leaf=0.199969277
					28:[f0<0.0363321789] yes=43,no=44,missing=43
						43:leaf=-0.335658073
						44:leaf=0.201457784
		4:[f0<0.0432525948] yes=9,no=10,missing=9
			9:leaf=-0.203148231
			10:[f6<0.00154044922] yes=17,no=18,missing=17
				17:[f1<0.00630434789] yes=29,no=30,missing=29
					29:leaf=0.0545874722
					30:leaf=0.200102299
				18:[f0<0.0536332205] yes=31,no=32,missing=31
					31:leaf=-0.332621753
					32:[f0<0.0570934266] yes=45,no=46,missing=45
						45:leaf=0.149017617
						46:leaf=0.198495865
	2:[f0<0.0674740523] yes=5,no=6,missing=5
		5:leaf=-0.201445401
		6:[f6<0.00313059031] yes=11,no=12,missing=11
			11:[f6<0.0028324388] yes=19,no=20,missing=19
				19:[f0<0.0778546706] yes=33,no=34,missing=33
					33:[f6<0.002236136] yes=47,no=48,missing=47
						47:leaf=0.185635179
						48:leaf=-0.302139401
					34:[f0<0.0847750902] yes=49,no=50,missing=49
						49:leaf=0.154878587
						50:leaf=0.203257963
				20:[f0<0.0986159146] yes=35,no=36,missing=35
					35:[f0<0.0882352889] yes=51,no=52,missing=51
						51:leaf=-0.193704352
						52:leaf=-0.310552776
					36:[f1<0.00618729088] yes=53,no=54,missing=53
						53:leaf=-0.0115614096
						54:leaf=0.203805923
			12:[f0<0.10899654] yes=21,no=22,missing=21
				21:leaf=-0.206045926
				22:[f6<0.00591333769] yes=37,no=38,missing=37
					37:[f0<0.15743944] yes=55,no=56,missing=55
						55:leaf=0.0189761575
						56:leaf=0.181585282
					38:[f0<0.205882356] yes=57,no=58,missing=57
						57:leaf=-0.236087278
						58:leaf=-0.00915423594
booster[5]:
0:[f6<0.00193798449] yes=1,no=2,missing=1
	1:[f6<0.0012422977] yes=3,no=4,missing=3
		3:[f6<0.000645994791] yes=7,no=8,missing=7
			7:[f3<0.0384615399] yes=13,no=14,missing=13
				13:leaf=-0.1985019
				14:[f0<0.00865051895] yes=23,no=24,missing=23
					23:[f1<0.00921404734] yes=39,no=40,missing=39
						39:leaf=-0.0384379961
						40:leaf=0.0201482046
					24:[f1<0.0124916388] yes=41,no=42,missing=41
						41:leaf=-0.177856073
						42:leaf=-0
			8:[f0<0.0224913508] yes=15,no=16,missing=15
				15:[f6<0.000745378667] yes=25,no=26,missing=25
					25:leaf=0.337111443
					26:leaf=0.195392892
				16:[f6<0.00104353018] yes=27,no=28,missing=27
					27:leaf=-0.199969277
					28:[f0<0.0363321789] yes=43,no=44,missing=43
						43:leaf=0.335658073
						44:leaf=-0.201457784
		4:[f0<0.0432525948] yes=9,no=10,missing=9
			9:leaf=0.203148231
			10:[f6<0.00154044922] yes=17,no=18,missing=17
				17:[f1<0.00630434789] yes=29,no=30,missing=29
					29:leaf=-0.0545874722
					30:leaf=-0.200102299
				18:[f0<0.0536332205] yes=31,no=32,missing=31
					31:leaf=0.332621753
					32:[f0<0.0570934266] yes=45,no=46,missing=45
						45:leaf=-0.149017617
						46:leaf=-0.19849588
	2:[f0<0.0674740523] yes=5,no=6,missing=5
		5:leaf=0.201445401
		6:[f6<0.00313059031] yes=11,no=12,missing=11
			11:[f6<0.0028324388] yes=19,no=20,missing=19
				19:[f0<0.0778546706] yes=33,no=34,missing=33
					33:[f6<0.002236136] yes=47,no=48,missing=47
						47:leaf=-0.185635194
						48:leaf=0.302139372
					34:[f0<0.0847750902] yes=49,no=50,missing=49
						49:leaf=-0.154878601
						50:leaf=-0.203257963
				20:[f0<0.0986159146] yes=35,no=36,missing=35
					35:[f0<0.0882352889] yes=51,no=52,missing=51
						51:leaf=0.193704337
						52:leaf=0.310552746
					36:[f1<0.00618729088] yes=53,no=54,missing=53
						53:leaf=0.0115614096
						54:leaf=-0.203805923
			12:[f0<0.10899654] yes=21,no=22,missing=21
				21:leaf=0.206045941
				22:[f6<0.00591333769] yes=37,no=38,missing=37
					37:[f0<0.15743944] yes=55,no=56,missing=55
						55:leaf=-0.0189761687
						56:leaf=-0.181585282
					38:[f0<0.205882356] yes=57,no=58,missing=57
						57:leaf=0.236087278
						58:leaf=0.00915426109
booster[6]:
0:[f6<0.00193798449] yes=1,no=2,missing=1
	1:[f6<0.0012422977] yes=3,no=4,missing=3
		3:[f6<0.000546611031] yes=7,no=8,missing=7
			7:[f3<0.0384615399] yes=13,no=14,missing=13
				13:leaf=0.185006499
				14:[f6<0.000447227183] yes=23,no=24,missing=23
					23:[f3<0.0538461544] yes=41,no=42,missing=41
						41:leaf=0.156499162
						42:leaf=0.0254290942
					24:[f1<0.00909698941] yes=43,no=44,missing=43
						43:leaf=0.096762158
						44:leaf=-0.0569136478
			8:[f0<0.019031141] yes=15,no=16,missing=15
				15:[f6<0.000745378667] yes=25,no=26,missing=25
					25:leaf=-0.347942293
					26:leaf=-0.176151603
				16:[f6<0.00104353018] yes=27,no=28,missing=27
					27:leaf=0.17967917
					28:[f0<0.0363321789] yes=45,no=46,missing=45
						45:leaf=-0.237692013
						46:leaf=0.18324247
		4:[f0<0.0432525948] yes=9,no=10,missing=9
			9:leaf=-0.184798256
			10:[f6<0.00154044922] yes=17,no=18,missing=17
				17:[f1<0.00655518379] yes=29,no=30,missing=29
					29:[f6<0.00144106545] yes=47,no=48,missing=47
						47:leaf=0.149653971
						48:leaf=-0.000343151536
					30:leaf=0.182607695
				18:[f0<0.0536332205] yes=31,no=32,missing=31
					31:leaf=-0.24848251
					32:[f0<0.0605536327] yes=49,no=50,missing=49
						49:leaf=0.141336367
						50:leaf=0.186050266
	2:[f0<0.0674740523] yes=5,no=6,missing=5
		5:leaf=-0.184217647
		6:[f6<0.00412442815] yes=11,no=12,missing=11
			11:[f6<0.00293182256] yes=19,no=20,missing=19
				19:[f0<0.0847750902] yes=33,no=34,missing=33
					33:[f6<0.00243490352] yes=51,no=52,missing=51
						51:leaf=0.153571874
						52:leaf=-0.211557105
					34:[f6<0.0028324388] yes=53,no=54,missing=53
						53:leaf=0.175246552
						54:leaf=0.120807961
				20:[f0<0.102076128] yes=35,no=36,missing=35
					35:leaf=-0.198076501
					36:[f6<0.00332935806] yes=55,no=56,missing=55
						55:leaf=0.177669764
						56:leaf=0.0882828981
			12:[f0<0.143598616] yes=21,no=22,missing=21
				21:[f0<0.122837365] yes=37,no=38,missing=37
					37:leaf=-0.185565814
					38:[f6<0.00521765091] yes=57,no=58,missing=57
						57:leaf=-0.257398546
						58:leaf=-0.183542386
				22:[f6<0.00511826668] yes=39,no=40,missing=39
					39:[f1<0.00555183925] yes=59,no=60,missing=59
						59:leaf=-0.238349542
						60:leaf=0.156110063
					40:[f0<0.178200692] yes=61,no=62,missing=61
						61:leaf=-0.223019436
						62:leaf=-0.00358706084
booster[7]:
0:[f6<0.00193798449] yes=1,no=2,missing=1
	1:[f6<0.0012422977] yes=3,no=4,missing=3
		3:[f6<0.000546611031] yes=7,no=8,missing=7
			7:[f3<0.0384615399] yes=13,no=14,missing=13
				13:leaf=-0.185006514
				14:[f6<0.000447227183] yes=23,no=24,missing=23
					23:[f3<0.0538461544] yes=41,no=42,missing=41
						41:leaf=-0.156499162
						42:leaf=-0.0254291017
					24:[f1<0.00909698941] yes=43,no=44,missing=43
						43:leaf=-0.096762158
						44:leaf=0.0569136404
			8:[f0<0.019031141] yes=15,no=16,missing=15
				15:[f6<0.000745378667] yes=25,no=26,missing=25
					25:leaf=0.347942233
					26:leaf=0.176151618
				16:[f6<0.00104353018] yes=27,no=28,missing=27
					27:leaf=-0.179679185
					28:[f0<0.0363321789] yes=45,no=46,missing=45
						45:leaf=0.237692013
						46:leaf=-0.183242485
		4:[f0<0.0432525948] yes=9,no=10,missing=9
			9:leaf=0.184798256
			10:[f6<0.00154044922] yes=17,no=18,missing=17
				17:[f1<0.00655518379] yes=29,no=30,missing=29
					29:[f6<0.00144106545] yes=47,no=48,missing=47
						47:leaf=-0.149653986
						48:leaf=0.000343146094
					30:leaf=-0.18260771
				18:[f0<0.0536332205] yes=31,no=32,missing=31
					31:leaf=0.24848254
					32:[f0<0.0605536327] yes=49,no=50,missing=49
						49:leaf=-0.141336367
						50:leaf=-0.186050266
	2:[f0<0.0674740523] yes=5,no=6,missing=5
		5:leaf=0.184217662
		6:[f6<0.00412442815] yes=11,no=12,missing=11
			11:[f6<0.00293182256] yes=19,no=20,missing=19
				19:[f0<0.0847750902] yes=33,no=34,missing=33
					33:[f6<0.00243490352] yes=51,no=52,missing=51
						51:leaf=-0.153571874
						52:leaf=0.211557105
					34:[f6<0.0028324388] yes=53,no=54,missing=53
						53:leaf=-0.175246552
						54:leaf=-0.120807953
				20:[f0<0.102076128] yes=35,no=36,missing=35
					35:leaf=0.198076501
					36:[f6<0.00332935806] yes=55,no=56,missing=55
						55:leaf=-0.177669764
						56:leaf=-0.0882828981
			12:[f0<0.143598616] yes=21,no=22,missing=21
				21:[f0<0.122837365] yes=37,no=38,missing=37
					37:leaf=0.185565814
					38:[f6<0.00521765091] yes=57,no=58,missing=57
						57:leaf=0.257398546
						58:leaf=0.183542386
				22:[f6<0.00511826668] yes=39,no=40,missing=39
					39:[f1<0.00555183925] yes=59,no=60,missing=59
						59:leaf=0.238349527
						60:leaf=-0.156110078
					40:[f0<0.178200692] yes=61,no=62,missing=61
						61:leaf=0.223019436
						62:leaf=0.00358705176
booster[8]:
0:[f6<0.00173921685] yes=1,no=2,missing=1
	1:[f6<0.00104353018] yes=3,no=4,missing=3
		3:[f6<0.000546611031] yes=7,no=8,missing=7
			7:[f3<0.0384615399] yes=15,no=16,missing=15
				15:leaf=0.1737151
				16:[f0<0.00865051895] yes=27,no=28,missing=27
					27:[f1<0.00921404734] yes=37,no=38,missing=37
						37:leaf=0.0143652447
						38:leaf=-0.0308857653
					28:[f0<0.0121107269] yes=39,no=40,missing=39
						39:leaf=0.043464303
						40:leaf=0.131775618
			8:[f0<0.019031141] yes=17,no=18,missing=17
				17:leaf=-0.206733778
				18:leaf=0.166084751
		4:[f0<0.0363321789] yes=9,no=10,missing=9
			9:leaf=-0.178847641
			10:[f6<0.00154044922] yes=19,no=20,missing=19
				19:[f1<0.00630434789] yes=29,no=30,missing=29
					29:leaf=0.0307572465
					30:leaf=0.158491001
				20:[f0<0.0536332205] yes=31,no=32,missing=31
					31:leaf=-0.199930027
					32:[f1<0.00782608707] yes=41,no=42,missing=41
						41:leaf=0.0892955363
						42:leaf=0.175738573
	2:[f0<0.0605536327] yes=5,no=6,missing=5
		5:[f6<0.00193798449] yes=11,no=12,missing=11
			11:[f0<0.0536332205] yes=21,no=22,missing=21
				21:leaf=-0.172974914
				22:leaf=-0.516542971
			12:leaf=-0.173407614
		6:[f6<0.00303120655] yes=13,no=14,missing=13
			13:[f6<0.00213675201] yes=23,no=24,missing=23
				23:leaf=0.167811424
				24:[f0<0.0743944645] yes=33,no=34,missing=33
					33:[f0<0.0674740523] yes=43,no=44,missing=43
						43:leaf=-0.160682857
						44:leaf=-0.289166689
					34:[f6<0.00253428752] yes=45,no=46,missing=45
						45:leaf=0.159092307
						46:leaf=0.0882722884
			14:[f0<0.105536327] yes=25,no=26,missing=25
				25:leaf=-0.179910824
				26:[f6<0.00442257989] yes=35,no=36,missing=35
					35:[f0<0.136678189] yes=47,no=48,missing=47
						47:leaf=0.0648180544
						48:leaf=0.200807542
					36:[f0<0.15743944] yes=49,no=50,missing=49
						49:leaf=-0.202145711
						50:leaf=0.00865252875
booster[9]:
0:[f6<0.00173921685] yes=1,no=2,missing=1
	1:[f6<0.00104353018] yes=3,no=4,missing=3
		3:[f6<0.000546611031] yes=7,no=8,missing=7
			7:[f3<0.0384615399] yes=15,no=16,missing=15
				15:leaf=-0.1737151
				16:[f0<0.00865051895] yes=27,no=28,missing=27
					27:[f1<0.00921404734] yes=37,no=38,missing=37
						37:leaf=-0.0143652558
						38:leaf=0.0308857691
					28:[f0<0.0121107269] yes=39,no=40,missing=39
						39:leaf=-0.043464303
						40:leaf=-0.131775618
			8:[f0<0.019031141] yes=17,no=18,missing=17
				17:leaf=0.206733778
				18:leaf=-0.166084751
		4:[f0<0.0363321789] yes=9,no=10,missing=9
			9:leaf=0.178847671
			10:[f6<0.00154044922] yes=19,no=20,missing=19
				19:[f1<0.00630434789] yes=29,no=30,missing=29
					29:leaf=-0.030757241
					30:leaf=-0.158491001
				20:[f0<0.0536332205] yes=31,no=32,missing=31
					31:leaf=0.199930027
					32:[f1<0.00782608707] yes=41,no=42,missing=41
						41:leaf=-0.0892955437
						42:leaf=-0.175738558
	2:[f0<0.0605536327] yes=5,no=6,missing=5
		5:[f6<0.00193798449] yes=11,no=12,missing=11
			11:[f0<0.0536332205] yes=21,no=22,missing=21
				21:leaf=0.172974914
				22:leaf=0.516542912
			12:leaf=0.173407614
		6:[f6<0.00303120655] yes=13,no=14,missing=13
			13:[f6<0.00213675201] yes=23,no=24,missing=23
				23:leaf=-0.167811424
				24:[f0<0.0743944645] yes=33,no=34,missing=33
					33:[f0<0.0674740523] yes=43,no=44,missing=43
						43:leaf=0.160682857
						44:leaf=0.289166689
					34:[f6<0.00253428752] yes=45,no=46,missing=45
						45:leaf=-0.159092307
						46:leaf=-0.0882722884
			14:[f0<0.105536327] yes=25,no=26,missing=25
				25:leaf=0.179910824
				26:[f6<0.00442257989] yes=35,no=36,missing=35
					35:[f0<0.136678189] yes=47,no=48,missing=47
						47:leaf=-0.064818047
						48:leaf=-0.200807542
					36:[f0<0.15743944] yes=49,no=50,missing=49
						49:leaf=0.202145711
						50:leaf=-0.00865253154
booster[10]:
0:[f6<0.00173921685] yes=1,no=2,missing=1
	1:[f6<0.00104353018] yes=3,no=4,missing=3
		3:[f6<0.000546611031] yes=7,no=8,missing=7
			7:[f3<0.0384615399] yes=13,no=14,missing=13
				13:leaf=0.166147992
				14:[f6<0.000447227183] yes=23,no=24,missing=23
					23:[f3<0.0538461544] yes=35,no=36,missing=35
						35:leaf=0.136199057
						36:leaf=0.0154791418
					24:[f1<0.0098996656] yes=37,no=38,missing=37
						37:leaf=-0.0302494578
						38:leaf=0.0104970979
			8:[f0<0.019031141] yes=15,no=16,missing=15
				15:leaf=-0.188638717
				16:leaf=0.155213401
		4:[f0<0.0363321789] yes=9,no=10,missing=9
			9:leaf=-0.16930148
			10:[f6<0.0012422977] yes=17,no=18,missing=17
				17:leaf=0.164130479
				18:[f0<0.0432525948] yes=25,no=26,missing=25
					25:leaf=-0.166810319
					26:[f3<0.0076923077] yes=39,no=40,missing=39
						39:leaf=0.151545227
						40:leaf=0.0961067453
	2:[f0<0.0605536327] yes=5,no=6,missing=5
		5:leaf=-0.169226438
		6:[f6<0.0038262771] yes=11,no=12,missing=11
			11:[f0<0.115916952] yes=19,no=20,missing=19
				19:[f6<0.00332935806] yes=27,no=28,missing=27
					27:[f6<0.00213675201] yes=41,no=42,missing=41
						41:leaf=0.154756933
						42:leaf=0.0528133735
					28:[f0<0.10899654] yes=43,no=44,missing=43
						43:leaf=-0.170983016
						44:leaf=-0.391520858
				20:[f1<0.00807692297] yes=29,no=30,missing=29
					29:[f1<0.00759197306] yes=45,no=46,missing=45
						45:leaf=0.148645937
						46:leaf=-0.0549806729
					30:leaf=0.187501386
			12:[f0<0.13321799] yes=21,no=22,missing=21
				21:[f6<0.00412442815] yes=31,no=32,missing=31
					31:[f0<0.112456754] yes=47,no=48,missing=47
						47:leaf=-0.163673833
						48:leaf=-0.298066348
					32:leaf=-0.171003848
				22:[f6<0.00760286208] yes=33,no=34,missing=33
					33:[f1<0.00986622088] yes=49,no=50,missing=49
						49:leaf=-0.0169889461
						50:leaf=0.0952492803
					34:[f0<0.282006919] yes=51,no=52,missing=51
						51:leaf=-0.234633803
						52:leaf=-0.00372072146
booster[11]:
0:[f6<0.00173921685] yes=1,no=2,missing=1
	1:[f6<0.00104353018] yes=3,no=4,missing=3
		3:[f6<0.000546611031] yes=7,no=8,missing=7
			7:[f3<0.0384615399] yes=13,no=14,missing=13
				13:leaf=-0.166148037
				14:[f6<0.000447227183] yes=23,no=24,missing=23
					23:[f3<0.0538461544] yes=35,no=36,missing=35
						35:leaf=-0.136199057
						36:leaf=-0.0154791307
					24:[f1<0.0098996656] yes=37,no=38,missing=37
						37:leaf=0.0302494522
						38:leaf=-0.010497109
			8:[f0<0.019031141] yes=15,no=16,missing=15
				15:leaf=0.188638732
				16:leaf=-0.155213401
		4:[f0<0.0363321789] yes=9,no=10,missing=9
			9:leaf=0.16930151
			10:[f6<0.0012422977] yes=17,no=18,missing=17
				17:leaf=-0.164130494
				18:[f0<0.0432525948] yes=25,no=26,missing=25
					25:leaf=0.166810304
					26:[f3<0.0076923077] yes=39,no=40,missing=39
						39:leaf=-0.151545212
						40:leaf=-0.0961067304
	2:[f0<0.0605536327] yes=5,no=6,missing=5
		5:leaf=0.169226438
		6:[f6<0.0038262771] yes=11,no=12,missing=11
			11:[f0<0.115916952] yes=19,no=20,missing=19
				19:[f6<0.00332935806] yes=27,no=28,missing=27
					27:[f6<0.00213675201] yes=41,no=42,missing=41
						41:leaf=-0.154756963
						42:leaf=-0.0528133847
					28:[f0<0.10899654] yes=43,no=44,missing=43
						43:leaf=0.170983016
						44:leaf=0.391520888
				20:[f1<0.00807692297] yes=29,no=30,missing=29
					29:[f1<0.00759197306] yes=45,no=46,missing=45
						45:leaf=-0.148645937
						46:leaf=0.0549806766
					30:leaf=-0.187501386
			12:[f0<0.13321799] yes=21,no=22,missing=21
				21:[f6<0.00412442815] yes=31,no=32,missing=31
					31:[f0<0.112456754] yes=47,no=48,missing=47
						47:leaf=0.163673833
						48:leaf=0.298066348
					32:leaf=0.171003848
				22:[f6<0.00760286208] yes=33,no=34,missing=33
					33:[f1<0.00986622088] yes=49,no=50,missing=49
						49:leaf=0.0169889312
						50:leaf=-0.0952492952
					34:[f0<0.282006919] yes=51,no=52,missing=51
						51:leaf=0.234633803
						52:leaf=0.00372072146
booster[12]:
0:[f6<0.00173921685] yes=1,no=2,missing=1
	1:[f6<0.0012422977] yes=3,no=4,missing=3
		3:[f6<0.000546611031] yes=7,no=8,missing=7
			7:[f3<0.0384615399] yes=13,no=14,missing=13
				13:leaf=0.160792515
				14:[f0<0.00865051895] yes=23,no=24,missing=23
					23:[f1<0.00921404734] yes=37,no=38,missing=37
						37:leaf=-0.00224849791
						38:leaf=-0.0381128453
					24:[f0<0.0121107269] yes=39,no=40,missing=39
						39:leaf=0.0295371693
						40:leaf=0.118341669
			8:[f0<0.019031141] yes=15,no=16,missing=15
				15:leaf=-0.17038767
				16:[f0<0.0224913508] yes=25,no=26,missing=25
					25:[f6<0.000695686729] yes=41,no=42,missing=41
						41:leaf=0.154112309
						42:leaf=-0.16242829
					26:leaf=0.145076796
		4:[f0<0.0432525948] yes=9,no=10,missing=9
			9:leaf=-0.160558
			10:[f6<0.00144106545] yes=17,no=18,missing=17
				17:leaf=0.16030544
				18:[f0<0.0501730107] yes=27,no=28,missing=27
					27:leaf=-0.237854242
					28:[f3<0.0538461544] yes=43,no=44,missing=43
						43:leaf=0.150018781
						44:leaf=0.0244677775
	2:[f0<0.0605536327] yes=5,no=6,missing=5
		5:leaf=-0.164091319
		6:[f6<0.00392566063] yes=11,no=12,missing=11
			11:[f0<0.112456754] yes=19,no=20,missing=19
				19:[f6<0.0032299743] yes=29,no=30,missing=29
					29:[f6<0.00213675201] yes=45,no=46,missing=45
						45:leaf=0.142268151
						46:leaf=0.039571099
					30:leaf=-0.183728948
				20:[f6<0.00352812558] yes=31,no=32,missing=31
					31:leaf=0.166620597
					32:[f0<0.122837365] yes=47,no=48,missing=47
						47:leaf=-0.212191865
						48:leaf=0.159306645
			12:[f0<0.136678189] yes=21,no=22,missing=21
				21:[f0<0.122837365] yes=33,no=34,missing=33
					33:leaf=-0.163239062
					34:leaf=-0.209997788
				22:[f6<0.00631087273] yes=35,no=36,missing=35
					35:[f0<0.192041516] yes=49,no=50,missing=49
						49:leaf=0.0244742446
						50:leaf=0.201577693
					36:[f0<0.219723195] yes=51,no=52,missing=51
						51:leaf=-0.202247575
						52:leaf=-0.00943553448
booster[13]:
0:[f6<0.00173921685] yes=1,no=2,missing=1
	1:[f6<0.0012422977] yes=3,no=4,missing=3
		3:[f6<0.000546611031] yes=7,no=8,missing=7
			7:[f3<0.0384615399] yes=13,no=14,missing=13
				13:leaf=-0.16079253
				14:[f0<0.00865051895] yes=23,no=24,missing=23
					23:[f1<0.00921404734] yes=37,no=38,missing=37
						37:leaf=0.00224849978
						38:leaf=0.038112849
					24:[f0<0.0121107269] yes=39,no=40,missing=39
						39:leaf=-0.0295371581
						40:leaf=-0.118341677
			8:[f0<0.019031141] yes=15,no=16,missing=15
				15:leaf=0.17038767
				16:[f0<0.0224913508] yes=25,no=26,missing=25
					25:[f6<0.000695686729] yes=41,no=42,missing=41
						41:leaf=-0.154112309
						42:leaf=0.162428305
					26:leaf=-0.145076782
		4:[f0<0.0432525948] yes=9,no=10,missing=9
			9:leaf=0.160558015
			10:[f6<0.00144106545] yes=17,no=18,missing=17
				17:leaf=-0.16030544
				18:[f0<0.0501730107] yes=27,no=28,missing=27
					27:leaf=0.237854242
					28:[f3<0.0538461544] yes=43,no=44,missing=43
						43:leaf=-0.150018781
						44:leaf=-0.0244677849
	2:[f0<0.0605536327] yes=5,no=6,missing=5
		5:leaf=0.164091319
		6:[f6<0.00392566063] yes=11,no=12,missing=11
			11:[f0<0.112456754] yes=19,no=20,missing=19
				19:[f6<0.0032299743] yes=29,no=30,missing=29
					29:[f6<0.00213675201] yes=45,no=46,missing=45
						45:leaf=-0.142268151
						46:leaf=-0.0395711102
					30:leaf=0.183728948
				20:[f6<0.00352812558] yes=31,no=32,missing=31
					31:leaf=-0.166620597
					32:[f0<0.122837365] yes=47,no=48,missing=47
						47:leaf=0.21219185
						48:leaf=-0.15930666
			12:[f0<0.136678189] yes=21,no=22,missing=21
				21:[f0<0.122837365] yes=33,no=34,missing=33
					33:leaf=0.163239062
					34:leaf=0.209997788
				22:[f6<0.00631087273] yes=35,no=36,missing=35
					35:[f0<0.192041516] yes=49,no=50,missing=49
						49:leaf=-0.024474239
						50:leaf=-0.201577678
					36:[f0<0.219723195] yes=51,no=52,missing=51
						51:leaf=0.202247575
						52:leaf=0.00943551306
booster[14]:
0:[f6<0.00173921685] yes=1,no=2,missing=1
	1:[f6<0.00104353018] yes=3,no=4,missing=3
		3:[f6<0.000447227183] yes=7,no=8,missing=7
			7:[f3<0.0538461544] yes=13,no=14,missing=13
				13:leaf=0.157319292
				14:leaf=0.00980283413
			8:[f0<0.0155709349] yes=15,no=16,missing=15
				15:leaf=-0.182659596
				16:[f0<0.0224913508] yes=23,no=24,missing=23
					23:[f6<0.000645994791] yes=35,no=36,missing=35
						35:leaf=0.146912351
						36:leaf=-0.145022646
					24:leaf=0.145876154
		4:[f0<0.0363321789] yes=9,no=10,missing=9
			9:leaf=-0.162261561
			10:[f6<0.00144106545] yes=17,no=18,missing=17
				17:leaf=0.138839498
				18:[f0<0.0501730107] yes=25,no=26,missing=25
					25:leaf=-0.198827878
					26:[f1<0.00924749114] yes=37,no=38,missing=37
						37:leaf=0.0790324509
						38:leaf=0.155243114
	2:[f0<0.0605536327] yes=5,no=6,missing=5
		5:leaf=-0.160296217
		6:[f6<0.00462134741] yes=11,no=12,missing=11
			11:[f1<0.00986622088] yes=19,no=20,missing=19
				19:[f6<0.00213675201] yes=27,no=28,missing=27
					27:[f1<0.00979933143] yes=39,no=40,missing=39
						39:leaf=0.137235418
						40:leaf=0.0263926554
					28:[f0<0.0743944645] yes=41,no=42,missing=41
						41:leaf=-0.192982569
						42:leaf=-0.00180594239
				20:[f0<0.136678189] yes=29,no=30,missing=29
					29:[f6<0.00392566063] yes=43,no=44,missing=43
						43:leaf=0.0701269731
						44:leaf=-0.181708157
					30:leaf=0.166422874
			12:[f0<0.160899654] yes=21,no=22,missing=21
				21:[f0<0.140138417] yes=31,no=32,missing=31
					31:leaf=-0.158210963
					32:[f6<0.00521765091] yes=45,no=46,missing=45
						45:leaf=-0.267423987
						46:leaf=-0.172107056
				22:[f6<0.00571456924] yes=33,no=34,missing=33
					33:[f0<0.178200692] yes=47,no=48,missing=47
						47:leaf=0.0689605996
						48:leaf=0.199860349
					34:[f0<0.198961943] yes=49,no=50,missing=49
						49:leaf=-0.212154835
						50:leaf=0.0050333594
booster[15]:
0:[f6<0.00173921685] yes=1,no=2,missing=1
	1:[f6<0.00104353018] yes=3,no=4,missing=3
		3:[f6<0.000447227183] yes=7,no=8,missing=7
			7:[f3<0.0538461544] yes=13,no=14,missing=13
				13:leaf=-0.157319292
				14:leaf=-0.00980284531
			8:[f0<0.0155709349] yes=15,no=16,missing=15
				15:leaf=0.182659596
				16:[f0<0.0224913508] yes=23,no=24,missing=23
					23:[f6<0.000645994791] yes=35,no=36,missing=35
						35:leaf=-0.146912351
						36:leaf=0.145022646
					24:leaf=-0.145876169
		4:[f0<0.0363321789] yes=9,no=10,missing=9
			9:leaf=0.162261561
			10:[f6<0.00144106545] yes=17,no=18,missing=17
				17:leaf=-0.138839513
				18:[f0<0.0501730107] yes=25,no=26,missing=25
					25:leaf=0.198827878
					26:[f1<0.00924749114] yes=37,no=38,missing=37
						37:leaf=-0.0790324658
						38:leaf=-0.155243114
	2:[f0<0.0605536327] yes=5,no=6,missing=5
		5:leaf=0.160296217
		6:[f6<0.00462134741] yes=11,no=12,missing=11
			11:[f1<0.00986622088] yes=19,no=20,missing=19
				19:[f6<0.00213675201] yes=27,no=28,missing=27
					27:[f1<0.00979933143] yes=39,no=40,missing=39
						39:leaf=-0.137235418
						40:leaf=-0.0263926499
					28:[f0<0.0743944645] yes=41,no=42,missing=41
						41:leaf=0.192982569
						42:leaf=0.00180593797
				20:[f0<0.136678189] yes=29,no=30,missing=29
					29:[f6<0.00392566063] yes=43,no=44,missing=43
						43:leaf=-0.0701269731
						44:leaf=0.181708157
					30:leaf=-0.166422874
			12:[f0<0.160899654] yes=21,no=22,missing=21
				21:[f0<0.140138417] yes=31,no=32,missing=31
					31:leaf=0.158210963
					32:[f6<0.00521765091] yes=45,no=46,missing=45
						45:leaf=0.267424017
						46:leaf=0.172107071
				22:[f6<0.00571456924] yes=33,no=34,missing=33
					33:[f0<0.178200692] yes=47,no=48,missing=47
						47:leaf=-0.068960622
						48:leaf=-0.199860349
					34:[f0<0.198961943] yes=49,no=50,missing=49
						49:leaf=0.212154835
						50:leaf=-0.00503335474
booster[16]:
0:[f6<0.00163983298] yes=1,no=2,missing=1
	1:[f6<0.00104353018] yes=3,no=4,missing=3
		3:[f6<0.000447227183] yes=7,no=8,missing=7
			7:[f3<0.0538461544] yes=13,no=14,missing=13
				13:leaf=0.15385513
				14:leaf=0.00813626591
			8:[f0<0.0155709349] yes=15,no=16,missing=15
				15:leaf=-0.166600451
				16:leaf=0.12926814
		4:[f0<0.0363321789] yes=9,no=10,missing=9
			9:leaf=-0.156091541
			10:[f6<0.0012422977] yes=17,no=18,missing=17
				17:leaf=0.14947468
				18:[f0<0.0432525948] yes=23,no=24,missing=23
					23:leaf=-0.146703467
					24:[f1<0.00754180597] yes=31,no=32,missing=31
						31:leaf=0.027196452
						32:leaf=0.130096629
	2:[f0<0.0570934266] yes=5,no=6,missing=5
		5:leaf=-0.159212768
		6:[f6<0.00253428752] yes=11,no=12,missing=11
			11:[f0<0.0778546706] yes=19,no=20,missing=19
				19:[f6<0.002236136] yes=25,no=26,missing=25
					25:[f6<0.00193798449] yes=33,no=34,missing=33
						33:leaf=0.135755822
						34:leaf=0.0595365539
					26:[f0<0.0674740523] yes=35,no=36,missing=35
						35:leaf=-0.13588132
						36:leaf=-0.313272178
				20:[f3<0.0230769236] yes=27,no=28,missing=27
					27:leaf=0.160472438
					28:[f0<0.0813148767] yes=37,no=38,missing=37
						37:leaf=-0.0528720431
						38:leaf=0.108487882
			12:[f0<0.0882352889] yes=21,no=22,missing=21
				21:leaf=-0.172959298
				22:[f6<0.00889485143] yes=29,no=30,missing=29
					29:[f6<0.00293182256] yes=39,no=40,missing=39
						39:leaf=0.12071044
						40:leaf=0.00128047948
					30:[f0<0.321799308] yes=41,no=42,missing=41
						41:leaf=-0.216380924
						42:leaf=0.041475758
booster[17]:
0:[f6<0.00163983298] yes=1,no=2,missing=1
	1:[f6<0.00104353018] yes=3,no=4,missing=3
		3:[f6<0.000447227183] yes=7,no=8,missing=7
			7:[f3<0.0538461544] yes=13,no=14,missing=13
				13:leaf=-0.15385513
				14:leaf=-0.00813626777
			8:[f0<0.0155709349] yes=15,no=16,missing=15
				15:leaf=0.166600451
				16:leaf=-0.129268125
		4:[f0<0.0363321789] yes=9,no=10,missing=9
			9:leaf=0.156091541
			10:[f6<0.0012422977] yes=17,no=18,missing=17
				17:leaf=-0.14947468
				18:[f0<0.0432525948] yes=23,no=24,missing=23
					23:leaf=0.146703467
					24:[f1<0.00754180597] yes=31,no=32,missing=31
						31:leaf=-0.0271964557
						32:leaf=-0.130096629
	2:[f0<0.0570934266] yes=5,no=6,missing=5
		5:leaf=0.159212783
		6:[f6<0.00253428752] yes=11,no=12,missing=11
			11:[f0<0.0778546706] yes=19,no=20,missing=19
				19:[f6<0.002236136] yes=25,no=26,missing=25
					25:[f6<0.00193798449] yes=33,no=34,missing=33
						33:leaf=-0.135755792
						34:leaf=-0.0595365502
					26:[f0<0.0674740523] yes=35,no=36,missing=35
						35:leaf=0.13588132
						36:leaf=0.313272178
				20:[f3<0.0230769236] yes=27,no=28,missing=27
					27:leaf=-0.160472453
					28:[f0<0.0813148767] yes=37,no=38,missing=37
						37:leaf=0.0528720357
						38:leaf=-0.108487897
			12:[f0<0.0882352889] yes=21,no=22,missing=21
				21:leaf=0.172959298
				22:[f6<0.00889485143] yes=29,no=30,missing=29
					29:[f6<0.00293182256] yes=39,no=40,missing=39
						39:leaf=-0.12071044
						40:leaf=-0.00128048437
					30:[f0<0.321799308] yes=41,no=42,missing=41
						41:leaf=0.216380924
						42:leaf=-0.041475758
booster[18]:
0:[f6<0.00144106545] yes=1,no=2,missing=1
	1:[f6<0.000447227183] yes=3,no=4,missing=3
		3:[f3<0.0538461544] yes=7,no=8,missing=7
			7:leaf=0.150855064
			8:leaf=0.00675183861
		4:[f0<0.0155709349] yes=9,no=10,missing=9
			9:leaf=-0.153166384
			10:[f6<0.000745378667] yes=13,no=14,missing=13
				13:leaf=0.137854189
				14:[f0<0.0259515569] yes=19,no=20,missing=19
					19:leaf=-0.178153649
					20:[f0<0.0432525948] yes=27,no=28,missing=27
						27:leaf=0.100139588
						28:leaf=0.147024691
	2:[f0<0.0501730107] yes=5,no=6,missing=5
		5:leaf=-0.156701505
		6:[f6<0.00253428752] yes=11,no=12,missing=11
			11:[f0<0.0778546706] yes=15,no=16,missing=15
				15:[f6<0.002236136] yes=21,no=22,missing=21
					21:[f1<0.00928093679] yes=29,no=30,missing=29
						29:leaf=0.0204341467
						30:leaf=0.0980844423
					22:leaf=-0.208273187
				16:[f3<0.0230769236] yes=23,no=24,missing=23
					23:leaf=0.154439583
					24:[f0<0.0813148767] yes=31,no=32,missing=31
						31:leaf=-0.0425636023
						32:leaf=0.0995332748
			12:[f0<0.0882352889] yes=17,no=18,missing=17
				17:leaf=-0.165299878
				18:[f6<0.00521765091] yes=25,no=26,missing=25
					25:[f0<0.15743944] yes=33,no=34,missing=33
						33:leaf=0.0100301355
						34:leaf=0.139129296
					26:[f0<0.181660891] yes=35,no=36,missing=35
						35:leaf=-0.178835392
						36:leaf=0.00795608293
booster[19]:
0:[f6<0.00144106545] yes=1,no=2,missing=1
	1:[f6<0.000447227183] yes=3,no=4,missing=3
		3:[f3<0.0538461544] yes=7,no=8,missing=7
			7:leaf=-0.150855064
			8:leaf=-0.00675184559
		4:[f0<0.0155709349] yes=9,no=10,missing=9
			9:leaf=0.153166384
			10:[f6<0.000745378667] yes=13,no=14,missing=13
				13:leaf=-0.137854218
				14:[f0<0.0259515569] yes=19,no=20,missing=19
					19:leaf=0.178153649
					20:[f0<0.0432525948] yes=27,no=28,missing=27
						27:leaf=-0.100139573
						28:leaf=-0.147024676
	2:[f0<0.0501730107] yes=5,no=6,missing=5
		5:leaf=0.156701505
		6:[f6<0.00253428752] yes=11,no=12,missing=11
			11:[f0<0.0778546706] yes=15,no=16,missing=15
				15:[f6<0.002236136] yes=21,no=22,missing=21
					21:[f1<0.00928093679] yes=29,no=30,missing=29
						29:leaf=-0.0204341821
						30:leaf=-0.0980844349
					22:leaf=0.208273157
				16:[f3<0.0230769236] yes=23,no=24,missing=23
					23:leaf=-0.154439583
					24:[f0<0.0813148767] yes=31,no=32,missing=31
						31:leaf=0.0425636284
						32:leaf=-0.0995332748
			12:[f0<0.0882352889] yes=17,no=18,missing=17
				17:leaf=0.165299878
				18:[f6<0.00521765091] yes=25,no=26,missing=25
					25:[f0<0.15743944] yes=33,no=34,missing=33
						33:leaf=-0.0100301402
						34:leaf=-0.139129296
					26:[f0<0.181660891] yes=35,no=36,missing=35
						35:leaf=0.178835392
						36:leaf=-0.00795608945
booster[20]:
0:[f6<0.00154044922] yes=1,no=2,missing=1
	1:[f6<0.000546611031] yes=3,no=4,missing=3
		3:[f3<0.0384615399] yes=7,no=8,missing=7
			7:leaf=0.148524314
			8:[f0<0.00865051895] yes=13,no=14,missing=13
				13:leaf=-0.0525894985
				14:[f6<0.000447227183] yes=21,no=22,missing=21
					21:leaf=0.0923384652
					22:leaf=0.0176245924
		4:[f0<0.019031141] yes=9,no=10,missing=9
			9:leaf=-0.151718199
			10:[f6<0.00114291394] yes=15,no=16,missing=15
				15:[f6<0.000745378667] yes=23,no=24,missing=23
					23:leaf=0.141781643
					24:[f0<0.0259515569] yes=33,no=34,missing=33
						33:leaf=-0.172156289
						34:leaf=0.122915454
				16:[f0<0.0397923887] yes=25,no=26,missing=25
					25:leaf=-0.150120586
					26:[f0<0.0467128009] yes=35,no=36,missing=35
						35:leaf=0.0773956776
						36:leaf=0.143816575
	2:[f0<0.0536332205] yes=5,no=6,missing=5
		5:leaf=-0.154081613
		6:[f1<0.015551839] yes=11,no=12,missing=11
			11:[f6<0.00760286208] yes=17,no=18,missing=17
				17:[f0<0.240484431] yes=27,no=28,missing=27
					27:[f6<0.00670840777] yes=37,no=38,missing=37
						37:leaf=-0.0042621037
						38:leaf=-0.18109265
					28:leaf=0.256479591
				18:[f0<0.282006919] yes=29,no=30,missing=29
					29:leaf=-0.190336362
					30:[f6<0.00968992244] yes=39,no=40,missing=39
						39:leaf=0.23805292
						40:leaf=-0.136240438
			12:[f6<0.00949115492] yes=19,no=20,missing=19
				19:[f1<0.0197993312] yes=31,no=32,missing=31
					31:[f0<0.143598616] yes=41,no=42,missing=41
						41:leaf=0.0933261067
						42:leaf=0.199249744
					32:[f1<0.0260200668] yes=43,no=44,missing=43
						43:leaf=-0.0297300573
						44:leaf=0.143519804
				20:leaf=-0.155771226
booster[21]:
0:[f6<0.00154044922] yes=1,no=2,missing=1
	1:[f6<0.000546611031] yes=3,no=4,missing=3
		3:[f3<0.0384615399] yes=7,no=8,missing=7
			7:leaf=-0.148524284
			8:[f0<0.00865051895] yes=13,no=14,missing=13
				13:leaf=0.0525894761
				14:[f6<0.000447227183] yes=21,no=22,missing=21
					21:leaf=-0.0923384577
					22:leaf=-0.0176245756
		4:[f0<0.019031141] yes=9,no=10,missing=9
			9:leaf=0.151718199
			10:[f6<0.00114291394] yes=15,no=16,missing=15
				15:[f6<0.000745378667] yes=23,no=24,missing=23
					23:leaf=-0.141781613
					24:[f0<0.0259515569] yes=33,no=34,missing=33
						33:leaf=0.172156274
						34:leaf=-0.122915506
				16:[f0<0.0397923887] yes=25,no=26,missing=25
					25:leaf=0.150120556
					26:[f0<0.0467128009] yes=35,no=36,missing=35
						35:leaf=-0.0773956776
						36:leaf=-0.14381659
	2:[f0<0.0536332205] yes=5,no=6,missing=5
		5:leaf=0.154081613
		6:[f1<0.015551839] yes=11,no=12,missing=11
			11:[f6<0.00760286208] yes=17,no=18,missing=17
				17:[f0<0.240484431] yes=27,no=28,missing=27
					27:[f6<0.00670840777] yes=37,no=38,missing=37
						37:leaf=0.00426209159
						38:leaf=0.181092635
					28:leaf=-0.256479621
				18:[f0<0.282006919] yes=29,no=30,missing=29
					29:leaf=0.190336362
					30:[f6<0.00968992244] yes=39,no=40,missing=39
						39:leaf=-0.23805292
						40:leaf=0.136240453
			12:[f6<0.00949115492] yes=19,no=20,missing=19
				19:[f1<0.0197993312] yes=31,no=32,missing=31
					31:[f0<0.143598616] yes=41,no=42,missing=41
						41:leaf=-0.0933261216
						42:leaf=-0.199249744
					32:[f1<0.0260200668] yes=43,no=44,missing=43
						43:leaf=0.0297300331
						44:leaf=-0.143519804
				20:leaf=0.155771226
booster[22]:
0:[f6<0.00193798449] yes=1,no=2,missing=1
	1:[f6<0.00104353018] yes=3,no=4,missing=3
		3:[f3<0.0384615399] yes=7,no=8,missing=7
			7:[f6<0.000546611031] yes=15,no=16,missing=15
				15:leaf=0.145981327
				16:[f0<0.019031141] yes=27,no=28,missing=27
					27:leaf=-0.138822094
					28:[f1<0.0126421405] yes=39,no=40,missing=39
						39:leaf=0.12473812
						40:leaf=0.0603002682
			8:[f0<0.00865051895] yes=17,no=18,missing=17
				17:leaf=-0.0429680049
				18:[f3<0.0538461544] yes=29,no=30,missing=29
					29:leaf=0.0242177825
					30:leaf=0.0855913162
		4:[f0<0.0363321789] yes=9,no=10,missing=9
			9:leaf=-0.15136233
			10:[f0<0.0605536327] yes=19,no=20,missing=19
				19:[f6<0.00173921685] yes=31,no=32,missing=31
					31:[f3<0.0076923077] yes=41,no=42,missing=41
						41:leaf=0.10366001
						42:leaf=0.0317699574
					32:leaf=-0.179135606
				20:leaf=0.143496037
	2:[f0<0.070934251] yes=5,no=6,missing=5
		5:[f6<0.00203736825] yes=11,no=12,missing=11
			11:[f0<0.0657439455] yes=21,no=22,missing=21
				21:leaf=-0.147558376
				22:leaf=0.122211799
			12:leaf=-0.161927402
		6:[f6<0.00392566063] yes=13,no=14,missing=13
			13:[f0<0.0986159146] yes=23,no=24,missing=23
				23:[f6<0.0028324388] yes=33,no=34,missing=33
					33:[f0<0.0847750902] yes=43,no=44,missing=43
						43:leaf=0.0476370864
						44:leaf=0.114656664
					34:leaf=-0.193843275
				24:[f6<0.00332935806] yes=35,no=36,missing=35
					35:[f1<0.00576923089] yes=45,no=46,missing=45
						45:leaf=-0.0417019278
						46:leaf=0.138344005
					36:[f0<0.115916952] yes=47,no=48,missing=47
						47:leaf=-0.210363895
						48:leaf=0.122926332
			14:[f0<0.136678189] yes=25,no=26,missing=25
				25:leaf=-0.170918986
				26:[f6<0.00442257989] yes=37,no=38,missing=37
					37:[f6<0.00422381237] yes=49,no=50,missing=49
						49:leaf=0.161080942
						50:leaf=0.0681097433
					38:[f0<0.153979242] yes=51,no=52,missing=51
						51:leaf=-0.207943901
						52:leaf=0.0137744462
booster[23]:
0:[f6<0.00193798449] yes=1,no=2,missing=1
	1:[f6<0.00104353018] yes=3,no=4,missing=3
		3:[f3<0.0384615399] yes=7,no=8,missing=7
			7:[f6<0.000546611031] yes=15,no=16,missing=15
				15:leaf=-0.145981327
				16:[f0<0.019031141] yes=27,no=28,missing=27
					27:leaf=0.138822094
					28:[f1<0.0126421405] yes=39,no=40,missing=39
						39:leaf=-0.124738105
						40:leaf=-0.0603002124
			8:[f0<0.00865051895] yes=17,no=18,missing=17
				17:leaf=0.0429680049
				18:[f3<0.0538461544] yes=29,no=30,missing=29
					29:leaf=-0.024217749
					30:leaf=-0.0855913013
		4:[f0<0.0363321789] yes=9,no=10,missing=9
			9:leaf=0.15136233
			10:[f0<0.0605536327] yes=19,no=20,missing=19
				19:[f6<0.00173921685] yes=31,no=32,missing=31
					31:[f3<0.0076923077] yes=41,no=42,missing=41
						41:leaf=-0.10366004
						42:leaf=-0.0317700021
					32:leaf=0.179135621
				20:leaf=-0.143496051
	2:[f0<0.070934251] yes=5,no=6,missing=5
		5:[f6<0.00203736825] yes=11,no=12,missing=11
			11:[f0<0.0657439455] yes=21,no=22,missing=21
				21:leaf=0.147558361
				22:leaf=-0.122211806
			12:leaf=0.161927402
		6:[f6<0.00392566063] yes=13,no=14,missing=13
			13:[f0<0.0986159146] yes=23,no=24,missing=23
				23:[f6<0.0028324388] yes=33,no=34,missing=33
					33:[f0<0.0847750902] yes=43,no=44,missing=43
						43:leaf=-0.0476371124
						44:leaf=-0.114656664
					34:leaf=0.193843275
				24:[f6<0.00332935806] yes=35,no=36,missing=35
					35:[f1<0.00576923089] yes=45,no=46,missing=45
						45:leaf=0.0417019129
						46:leaf=-0.138344005
					36:[f0<0.115916952] yes=47,no=48,missing=47
						47:leaf=0.210363895
						48:leaf=-0.12292634
			14:[f0<0.136678189] yes=25,no=26,missing=25
				25:leaf=0.170918986
				26:[f6<0.00442257989] yes=37,no=38,missing=37
					37:[f6<0.00422381237] yes=49,no=50,missing=49
						49:leaf=-0.161080942
						50:leaf=-0.0681097433
					38:[f0<0.153979242] yes=51,no=52,missing=51
						51:leaf=0.207943901
						52:leaf=-0.0137744434
booster[24]:
0:[f6<0.0012422977] yes=1,no=2,missing=1
	1:[f6<0.000447227183] yes=3,no=4,missing=3
		3:[f3<0.0538461544] yes=7,no=8,missing=7
			7:leaf=0.143213853
			8:leaf=-0.00619363179
		4:[f0<0.0155709349] yes=9,no=10,missing=9
			9:leaf=-0.131197378
			10:[f0<0.0363321789] yes=13,no=14,missing=13
				13:[f6<0.00104353018] yes=19,no=20,missing=19
					19:[f0<0.0294117648] yes=29,no=30,missing=29
						29:leaf=0.0721058398
						30:leaf=0.135658503
					20:leaf=-0.131672934
				14:leaf=0.136760131
	2:[f0<0.0432525948] yes=5,no=6,missing=5
		5:leaf=-0.151037365
		6:[f1<0.00924749114] yes=11,no=12,missing=11
			11:[f1<0.00555183925] yes=15,no=16,missing=15
				15:[f1<0.0037625418] yes=21,no=22,missing=21
					21:leaf=-0.0427738316
					22:leaf=-0.189332202
				16:[f1<0.00735785952] yes=23,no=24,missing=23
					23:[f6<0.0073047108] yes=31,no=32,missing=31
						31:leaf=0.0349691398
						32:leaf=-0.081116952
					24:[f6<0.00392566063] yes=33,no=34,missing=33
						33:leaf=-0.0191227235
						34:leaf=-0.0955066383
			12:[f6<0.00760286208] yes=17,no=18,missing=17
				17:[f0<0.205882356] yes=25,no=26,missing=25
					25:[f6<0.00591333769] yes=35,no=36,missing=35
						35:leaf=0.0280489717
						36:leaf=-0.180887461
					26:[f6<0.006807792] yes=37,no=38,missing=37
						37:leaf=0.219746128
						38:leaf=0.0445941947
				18:[f0<0.292387545] yes=27,no=28,missing=27
					27:[f1<0.0186622068] yes=39,no=40,missing=39
						39:leaf=-0.173199087
						40:leaf=0.00271739252
					28:[f6<0.00949115492] yes=41,no=42,missing=41
						41:leaf=0.19193688
						42:leaf=-0.0746293068
booster[25]:
0:[f6<0.0012422977] yes=1,no=2,missing=1
	1:[f6<0.000447227183] yes=3,no=4,missing=3
		3:[f3<0.0538461544] yes=7,no=8,missing=7
			7:leaf=-0.143213838
			8:leaf=0.00619363599
		4:[f0<0.0155709349] yes=9,no=10,missing=9
			9:leaf=0.131197408
			10:[f0<0.0363321789] yes=13,no=14,missing=13
				13:[f6<0.00104353018] yes=19,no=20,missing=19
					19:[f0<0.0294117648] yes=29,no=30,missing=29
						29:leaf=-0.0721059144
						30:leaf=-0.135658488
					20:leaf=0.131672919
				14:leaf=-0.136760131
	2:[f0<0.0432525948] yes=5,no=6,missing=5
		5:leaf=0.151037365
		6:[f1<0.00924749114] yes=11,no=12,missing=11
			11:[f1<0.00555183925] yes=15,no=16,missing=15
				15:[f1<0.0037625418] yes=21,no=22,missing=21
					21:leaf=0.0427738652
					22:leaf=0.189332187
				16:[f1<0.00735785952] yes=23,no=24,missing=23
					23:[f6<0.0073047108] yes=31,no=32,missing=31
						31:leaf=-0.0349691287
						32:leaf=0.0811169669
					24:[f6<0.00392566063] yes=33,no=34,missing=33
						33:leaf=0.0191227235
						34:leaf=0.0955066457
			12:[f6<0.00760286208] yes=17,no=18,missing=17
				17:[f0<0.205882356] yes=25,no=26,missing=25
					25:[f6<0.00591333769] yes=35,no=36,missing=35
						35:leaf=-0.0280489698
						36:leaf=0.180887461
					26:[f6<0.006807792] yes=37,no=38,missing=37
						37:leaf=-0.219746128
						38:leaf=-0.044594191
				18:[f0<0.292387545] yes=27,no=28,missing=27
					27:[f1<0.0186622068] yes=39,no=40,missing=39
						39:leaf=0.173199087
						40:leaf=-0.00271739415
					28:[f6<0.00949115492] yes=41,no=42,missing=41
						41:leaf=-0.19193688
						42:leaf=0.0746293068
booster[26]:
0:[f6<0.00193798449] yes=1,no=2,missing=1
	1:[f6<0.000745378667] yes=3,no=4,missing=3
		3:[f3<0.0384615399] yes=7,no=8,missing=7
			7:[f6<0.000546611031] yes=15,no=16,missing=15
				15:leaf=0.140459672
				16:[f0<0.019031141] yes=27,no=28,missing=27
					27:leaf=-0.11976102
					28:leaf=0.129747167
			8:[f1<0.00986622088] yes=17,no=18,missing=17
				17:leaf=-0.0401006788
				18:leaf=0.0631007031
		4:[f0<0.0259515569] yes=9,no=10,missing=9
			9:leaf=-0.158842459
			10:[f0<0.0605536327] yes=19,no=20,missing=19
				19:[f6<0.00173921685] yes=29,no=30,missing=29
					29:[f6<0.0012422977] yes=37,no=38,missing=37
						37:leaf=0.098628819
						38:leaf=0.0409406908
					30:leaf=-0.160260096
				20:leaf=0.13811478
	2:[f0<0.070934251] yes=5,no=6,missing=5
		5:[f6<0.00203736825] yes=11,no=12,missing=11
			11:[f0<0.0657439455] yes=21,no=22,missing=21
				21:leaf=-0.135818109
				22:leaf=0.113016941
			12:leaf=-0.160992563
		6:[f6<0.00253428752] yes=13,no=14,missing=13
			13:[f0<0.0778546706] yes=23,no=24,missing=23
				23:[f6<0.002236136] yes=31,no=32,missing=31
					31:[f1<0.00754180597] yes=39,no=40,missing=39
						39:leaf=-0.0316178352
						40:leaf=0.145282194
					32:leaf=-0.214057341
				24:[f3<0.0230769236] yes=33,no=34,missing=33
					33:leaf=0.146197304
					34:[f0<0.0813148767] yes=41,no=42,missing=41
						41:leaf=-0.0439362302
						42:leaf=0.0861058533
			14:[f0<0.0882352889] yes=25,no=26,missing=25
				25:leaf=-0.169467643
				26:[f3<0.0076923077] yes=35,no=36,missing=35
					35:[f6<0.00273305504] yes=43,no=44,missing=43
						43:leaf=0.150843263
						44:leaf=0.0195802134
					36:[f1<0.00986622088] yes=45,no=46,missing=45
						45:leaf=-0.0664454028
						46:leaf=0.0185389481
booster[27]:
0:[f6<0.00193798449] yes=1,no=2,missing=1
	1:[f6<0.000745378667] yes=3,no=4,missing=3
		3:[f3<0.0384615399] yes=7,no=8,missing=7
			7:[f6<0.000546611031] yes=15,no=16,missing=15
				15:leaf=-0.140459657
				16:[f0<0.019031141] yes=27,no=28,missing=27
					27:leaf=0.119761027
					28:leaf=-0.129747152
			8:[f1<0.00986622088] yes=17,no=18,missing=17
				17:leaf=0.0401006676
				18:leaf=-0.0631007031
		4:[f0<0.0259515569] yes=9,no=10,missing=9
			9:leaf=0.158842444
			10:[f0<0.0605536327] yes=19,no=20,missing=19
				19:[f6<0.00173921685] yes=29,no=30,missing=29
					29:[f6<0.0012422977] yes=37,no=38,missing=37
						37:leaf=-0.0986287296
						38:leaf=-0.0409406461
					30:leaf=0.160260096
				20:leaf=-0.138114795
	2:[f0<0.070934251] yes=5,no=6,missing=5
		5:[f6<0.00203736825] yes=11,no=12,missing=11
			11:[f0<0.0657439455] yes=21,no=22,missing=21
				21:leaf=0.135818079
				22:leaf=-0.113016926
			12:leaf=0.160992533
		6:[f6<0.00253428752] yes=13,no=14,missing=13
			13:[f0<0.0778546706] yes=23,no=24,missing=23
				23:[f6<0.002236136] yes=31,no=32,missing=31
					31:[f1<0.00754180597] yes=39,no=40,missing=39
						39:leaf=0.0316178575
						40:leaf=-0.145282209
					32:leaf=0.214057341
				24:[f3<0.0230769236] yes=33,no=34,missing=33
					33:leaf=-0.146197304
					34:[f0<0.0813148767] yes=41,no=42,missing=41
						41:leaf=0.0439362302
						42:leaf=-0.0861058533
			14:[f0<0.0882352889] yes=25,no=26,missing=25
				25:leaf=0.169467643
				26:[f3<0.0076923077] yes=35,no=36,missing=35
					35:[f6<0.00273305504] yes=43,no=44,missing=43
						43:leaf=-0.150843263
						44:leaf=-0.0195802189
					36:[f1<0.00986622088] yes=45,no=46,missing=45
						45:leaf=0.0664454028
						46:leaf=-0.0185389593
booster[28]:
0:[f6<0.00144106545] yes=1,no=2,missing=1
	1:[f0<0.0432525948] yes=3,no=4,missing=3
		3:[f6<0.0012422977] yes=7,no=8,missing=7
			7:[f6<0.000447227183] yes=11,no=12,missing=11
				11:[f3<0.0538461544] yes=17,no=18,missing=17
					17:leaf=0.136257246
					18:leaf=-0.00839307904
				12:[f0<0.0155709349] yes=19,no=20,missing=19
					19:leaf=-0.116656527
					20:[f0<0.0363321789] yes=27,no=28,missing=27
						27:leaf=0.0505150296
						28:leaf=0.127822489
			8:leaf=-0.138914913
		4:leaf=0.134078458
	2:[f0<0.0501730107] yes=5,no=6,missing=5
		5:leaf=-0.158529162
		6:[f6<0.00889485143] yes=9,no=10,missing=9
			9:[f0<0.250865042] yes=13,no=14,missing=13
				13:[f6<0.00720532704] yes=21,no=22,missing=21
					21:[f0<0.202422142] yes=29,no=30,missing=29
						29:leaf=-0.00375092844
						30:leaf=0.124428093
					22:leaf=-0.176424146
				14:[f6<0.00780163007] yes=23,no=24,missing=23
					23:leaf=0.208710298
					24:[f0<0.282006919] yes=31,no=32,missing=31
						31:leaf=-0.116390221
						32:leaf=0.184320867
			10:[f0<0.321799308] yes=15,no=16,missing=15
				15:leaf=-0.170296282
				16:[f6<0.00998807326] yes=25,no=26,missing=25
					25:leaf=0.162117153
					26:leaf=-0.0584981591
booster[29]:
0:[f6<0.00144106545] yes=1,no=2,missing=1
	1:[f0<0.0432525948] yes=3,no=4,missing=3
		3:[f6<0.0012422977] yes=7,no=8,missing=7
			7:[f6<0.000447227183] yes=11,no=12,missing=11
				11:[f3<0.0538461544] yes=17,no=18,missing=17
					17:leaf=-0.136257231
					18:leaf=0.00839307904
				12:[f0<0.0155709349] yes=19,no=20,missing=19
					19:leaf=0.116656587
					20:[f0<0.0363321789] yes=27,no=28,missing=27
						27:leaf=-0.0505151637
						28:leaf=-0.127822489
			8:leaf=0.138914928
		4:leaf=-0.134078443
	2:[f0<0.0501730107] yes=5,no=6,missing=5
		5:leaf=0.158529148
		6:[f6<0.00889485143] yes=9,no=10,missing=9
			9:[f0<0.250865042] yes=13,no=14,missing=13
				13:[f6<0.00720532704] yes=21,no=22,missing=21
					21:[f0<0.202422142] yes=29,no=30,missing=29
						29:leaf=0.00375093031
						30:leaf=-0.124428093
					22:leaf=0.176424146
				14:[f6<0.00780163007] yes=23,no=24,missing=23
					23:leaf=-0.208710298
					24:[f0<0.282006919] yes=31,no=32,missing=31
						31:leaf=0.116390221
						32:leaf=-0.184320867
			10:[f0<0.321799308] yes=15,no=16,missing=15
				15:leaf=0.170296282
				16:[f6<0.00998807326] yes=25,no=26,missing=25
					25:leaf=-0.162117168
					26:leaf=0.0584981628
booster[30]:
0:[f1<0.015551839] yes=1,no=2,missing=1
	1:[f6<0.00213675201] yes=3,no=4,missing=3
		3:[f0<0.0570934266] yes=7,no=8,missing=7
			7:[f6<0.00163983298] yes=13,no=14,missing=13
				13:[f6<0.000844762428] yes=23,no=24,missing=23
					23:[f1<0.0127926422] yes=35,no=36,missing=35
						35:leaf=0.0965384915
						36:leaf=-0.0136074377
					24:[f0<0.0294117648] yes=37,no=38,missing=37
						37:leaf=-0.20032227
						38:leaf=0.0444924794
				14:leaf=-0.177750513
			8:[f6<0.00193798449] yes=15,no=16,missing=15
				15:leaf=0.119297609
				16:[f0<0.0674740523] yes=25,no=26,missing=25
					25:leaf=-0.143220097
					26:leaf=0.128868595
		4:[f0<0.0743944645] yes=9,no=10,missing=9
			9:leaf=-0.163832977
			10:[f6<0.00253428752] yes=17,no=18,missing=17
				17:[f0<0.0778546706] yes=27,no=28,missing=27
					27:[f6<0.002236136] yes=39,no=40,missing=39
						39:leaf=0.130244136
						40:leaf=-0.173893392
					28:[f3<0.0230769236] yes=41,no=42,missing=41
						41:leaf=0.139005214
						42:leaf=0.0219551884
				18:[f0<0.0951557159] yes=29,no=30,missing=29
					29:[f6<0.00273305504] yes=43,no=44,missing=43
						43:leaf=0.0198346525
						44:leaf=-0.190672621
					30:[f6<0.00332935806] yes=45,no=46,missing=45
						45:leaf=0.0841387808
						46:leaf=-0.0144111915
	2:[f6<0.00949115492] yes=5,no=6,missing=5
		5:[f1<0.0197658874] yes=11,no=12,missing=11
			11:[f1<0.019464884] yes=19,no=20,missing=19
				19:[f1<0.0182608701] yes=31,no=32,missing=31
					31:[f0<0.0674740523] yes=47,no=48,missing=47
						47:leaf=0.00948017184
						48:leaf=0.122446679
					32:[f6<0.00352812558] yes=49,no=50,missing=49
						49:leaf=0.0621352568
						50:leaf=-0.100612901
				20:leaf=0.145282641
			12:[f1<0.0261036791] yes=21,no=22,missing=21
				21:[f6<0.00362750934] yes=33,no=34,missing=33
					33:[f0<0.0916955024] yes=51,no=52,missing=51
						51:leaf=-0.0140245259
						52:leaf=0.102675751
					34:[f1<0.0251839459] yes=53,no=54,missing=53
						53:leaf=-0.129947931
						54:leaf=-0.0235160645
				22:leaf=0.118640304
		6:leaf=-0.113108546
booster[31]:
0:[f1<0.015551839] yes=1,no=2,missing=1
	1:[f6<0.00213675201] yes=3,no=4,missing=3
		3:[f0<0.0570934266] yes=7,no=8,missing=7
			7:[f6<0.00163983298] yes=13,no=14,missing=13
				13:[f6<0.000844762428] yes=23,no=24,missing=23
					23:[f1<0.0127926422] yes=35,no=36,missing=35
						35:leaf=-0.0965385363
						36:leaf=0.0136073986
					24:[f0<0.0294117648] yes=37,no=38,missing=37
						37:leaf=0.200322196
						38:leaf=-0.0444925427
				14:leaf=0.177750498
			8:[f6<0.00193798449] yes=15,no=16,missing=15
				15:leaf=-0.119297616
				16:[f0<0.0674740523] yes=25,no=26,missing=25
					25:leaf=0.143220112
					26:leaf=-0.12886861
		4:[f0<0.0743944645] yes=9,no=10,missing=9
			9:leaf=0.163832992
			10:[f6<0.00253428752] yes=17,no=18,missing=17
				17:[f0<0.0778546706] yes=27,no=28,missing=27
					27:[f6<0.002236136] yes=39,no=40,missing=39
						39:leaf=-0.130244106
						40:leaf=0.173893407
					28:[f3<0.0230769236] yes=41,no=42,missing=41
						41:leaf=-0.139005214
						42:leaf=-0.0219552144
				18:[f0<0.0951557159] yes=29,no=30,missing=29
					29:[f6<0.00273305504] yes=43,no=44,missing=43
						43:leaf=-0.0198346544
						44:leaf=0.190672621
					30:[f6<0.00332935806] yes=45,no=46,missing=45
						45:leaf=-0.0841387808
						46:leaf=0.0144111924
	2:[f6<0.00949115492] yes=5,no=6,missing=5
		5:[f1<0.0197658874] yes=11,no=12,missing=11
			11:[f1<0.019464884] yes=19,no=20,missing=19
				19:[f1<0.0182608701] yes=31,no=32,missing=31
					31:[f0<0.0674740523] yes=47,no=48,missing=47
						47:leaf=-0.00948021933
						48:leaf=-0.122446679
					32:[f6<0.00352812558] yes=49,no=50,missing=49
						49:leaf=-0.0621353015
						50:leaf=0.100612916
				20:leaf=-0.145282641
			12:[f1<0.0261036791] yes=21,no=22,missing=21
				21:[f6<0.00362750934] yes=33,no=34,missing=33
					33:[f0<0.0916955024] yes=51,no=52,missing=51
						51:leaf=0.0140244486
						52:leaf=-0.102675773
					34:[f1<0.0251839459] yes=53,no=54,missing=53
						53:leaf=0.129947931
						54:leaf=0.0235160645
				22:leaf=-0.118640326
		6:leaf=0.113108546
booster[32]:
0:[f1<0.00558528397] yes=1,no=2,missing=1
	1:[f1<0.00413043471] yes=3,no=4,missing=3
		3:leaf=-0.0358813703
		4:leaf=-0.171106219
	2:[f6<0.00511826668] yes=5,no=6,missing=5
		5:[f0<0.153979242] yes=7,no=8,missing=7
			7:[f6<0.00442257989] yes=11,no=12,missing=11
				11:[f0<0.129757792] yes=17,no=18,missing=17
					17:[f6<0.00372689334] yes=23,no=24,missing=23
						23:leaf=0.0173300896
						24:leaf=-0.186070323
					18:[f6<0.00422381237] yes=25,no=26,missing=25
						25:leaf=0.115341328
						26:leaf=0.0257862397
				12:leaf=-0.174264342
			8:[f6<0.00491949916] yes=13,no=14,missing=13
				13:leaf=0.174146071
				14:[f0<0.16955018] yes=19,no=20,missing=19
					19:leaf=-0.273242533
					20:[f1<0.0084949825] yes=27,no=28,missing=27
						27:leaf=-0.00706084166
						28:leaf=0.159756616
		6:[f0<0.178200692] yes=9,no=10,missing=9
			9:leaf=-0.175750732
			10:[f6<0.00571456924] yes=15,no=16,missing=15
				15:leaf=0.164153948
				16:[f0<0.198961943] yes=21,no=22,missing=21
					21:leaf=-0.195886433
					22:[f6<0.00670840777] yes=29,no=30,missing=29
						29:leaf=0.124595053
						30:leaf=-0.0319007449
booster[33]:
0:[f1<0.00558528397] yes=1,no=2,missing=1
	1:[f1<0.00413043471] yes=3,no=4,missing=3
		3:leaf=0.0358812585
		4:leaf=0.171106234
	2:[f6<0.00511826668] yes=5,no=6,missing=5
		5:[f0<0.153979242] yes=7,no=8,missing=7
			7:[f6<0.00442257989] yes=11,no=12,missing=11
				11:[f0<0.129757792] yes=17,no=18,missing=17
					17:[f6<0.00372689334] yes=23,no=24,missing=23
						23:leaf=-0.0173301548
						24:leaf=0.186070353
					18:[f6<0.00422381237] yes=25,no=26,missing=25
						25:leaf=-0.115341328
						26:leaf=-0.0257862359
				12:leaf=0.174264342
			8:[f6<0.00491949916] yes=13,no=14,missing=13
				13:leaf=-0.174146071
				14:[f0<0.16955018] yes=19,no=20,missing=19
					19:leaf=0.273242563
					20:[f1<0.0084949825] yes=27,no=28,missing=27
						27:leaf=0.00706085283
						28:leaf=-0.159756601
		6:[f0<0.178200692] yes=9,no=10,missing=9
			9:leaf=0.175750762
			10:[f6<0.00571456924] yes=15,no=16,missing=15
				15:leaf=-0.164153948
				16:[f0<0.198961943] yes=21,no=22,missing=21
					21:leaf=0.195886433
					22:[f6<0.00670840777] yes=29,no=30,missing=29
						29:leaf=-0.124595061
						30:leaf=0.0319007412
booster[34]:
0:[f1<0.010217391] yes=1,no=2,missing=1
	1:[f1<0.00558528397] yes=3,no=4,missing=3
		3:[f1<0.00413043471] yes=7,no=8,missing=7
			7:leaf=-0.0292012598
			8:leaf=-0.157666847
		4:[f0<0.0986159146] yes=9,no=10,missing=9
			9:[f6<0.0028324388] yes=13,no=14,missing=13
				13:[f6<0.000844762428] yes=21,no=22,missing=21
					21:[f3<0.0384615399] yes=35,no=36,missing=35
						35:leaf=0.0946877077
						36:leaf=-0.0143185295
					22:[f0<0.0294117648] yes=37,no=38,missing=37
						37:leaf=-0.188872948
						38:leaf=0.00405503856
				14:leaf=-0.167405233
			10:[f6<0.0032299743] yes=15,no=16,missing=15
				15:[f0<0.105536327] yes=23,no=24,missing=23
					23:[f6<0.00293182256] yes=39,no=40,missing=39
						39:leaf=0.119807765
						40:leaf=0.0280040652
					24:leaf=0.144574046
				16:[f0<0.112456754] yes=25,no=26,missing=25
					25:leaf=-0.18406345
					26:[f6<0.00372689334] yes=41,no=42,missing=41
						41:leaf=0.10272184
						42:leaf=-0.00724036712
	2:[f1<0.010568562] yes=5,no=6,missing=5
		5:leaf=0.136250108
		6:[f1<0.015551839] yes=11,no=12,missing=11
			11:[f1<0.0149331111] yes=17,no=18,missing=17
				17:[f6<0.00521765091] yes=27,no=28,missing=27
					27:[f0<0.136678189] yes=43,no=44,missing=43
						43:leaf=0.000366589433
						44:leaf=0.130028993
					28:[f0<0.230103806] yes=45,no=46,missing=45
						45:leaf=-0.101580717
						46:leaf=0.0868050158
				18:[f6<0.0032299743] yes=29,no=30,missing=29
					29:leaf=0.0104639605
					30:leaf=-0.14787896
			12:[f3<0.0076923077] yes=19,no=20,missing=19
				19:[f6<0.00884515978] yes=31,no=32,missing=31
					31:[f0<0.160899654] yes=47,no=48,missing=47
						47:leaf=0.0479426235
						48:leaf=0.136637241
					32:leaf=-0.056463778
				20:[f6<0.00516795833] yes=33,no=34,missing=33
					33:leaf=0.0557312109
					34:leaf=-0.138548598
booster[35]:
0:[f1<0.010217391] yes=1,no=2,missing=1
	1:[f1<0.00558528397] yes=3,no=4,missing=3
		3:[f1<0.00413043471] yes=7,no=8,missing=7
			7:leaf=0.0292012021
			8:leaf=0.157666847
		4:[f0<0.0986159146] yes=9,no=10,missing=9
			9:[f6<0.0028324388] yes=13,no=14,missing=13
				13:[f6<0.000844762428] yes=21,no=22,missing=21
					21:[f3<0.0384615399] yes=35,no=36,missing=35
						35:leaf=-0.0946881622
						36:leaf=0.0143185575
					22:[f0<0.0294117648] yes=37,no=38,missing=37
						37:leaf=0.188872993
						38:leaf=-0.00405498687
				14:leaf=0.167405233
			10:[f6<0.0032299743] yes=15,no=16,missing=15
				15:[f0<0.105536327] yes=23,no=24,missing=23
					23:[f6<0.00293182256] yes=39,no=40,missing=39
						39:leaf=-0.11980778
						40:leaf=-0.0280040875
					24:leaf=-0.144574046
				16:[f0<0.112456754] yes=25,no=26,missing=25
					25:leaf=0.18406345
					26:[f6<0.00372689334] yes=41,no=42,missing=41
						41:leaf=-0.102721848
						42:leaf=0.00724036712
	2:[f1<0.010568562] yes=5,no=6,missing=5
		5:leaf=-0.136250138
		6:[f1<0.015551839] yes=11,no=12,missing=11
			11:[f1<0.0149331111] yes=17,no=18,missing=17
				17:[f6<0.00521765091] yes=27,no=28,missing=27
					27:[f0<0.136678189] yes=43,no=44,missing=43
						43:leaf=-0.000366605032
						44:leaf=-0.130028993
					28:[f0<0.230103806] yes=45,no=46,missing=45
						45:leaf=0.101580702
						46:leaf=-0.0868050009
				18:[f6<0.0032299743] yes=29,no=30,missing=29
					29:leaf=-0.0104639884
					30:leaf=0.14787896
			12:[f3<0.0076923077] yes=19,no=20,missing=19
				19:[f6<0.00884515978] yes=31,no=32,missing=31
					31:[f0<0.160899654] yes=47,no=48,missing=47
						47:leaf=-0.0479426011
						48:leaf=-0.136637226
					32:leaf=0.0564637706
				20:[f6<0.00516795833] yes=33,no=34,missing=33
					33:leaf=-0.0557311997
					34:leaf=0.138548598
booster[36]:
0:[f6<0.00998807326] yes=1,no=2,missing=1
	1:[f0<0.250865042] yes=3,no=4,missing=3
		3:[f6<0.00720532704] yes=7,no=8,missing=7
			7:[f0<0.192041516] yes=11,no=12,missing=11
				11:[f6<0.0053170342] yes=15,no=16,missing=15
					15:[f0<0.150519028] yes=21,no=22,missing=21
						21:leaf=-0.00589445699
						22:leaf=0.0833840072
					16:[f0<0.185121119] yes=23,no=24,missing=23
						23:leaf=-0.168916434
						24:leaf=-0.0404565856
				12:[f6<0.00601272099] yes=17,no=18,missing=17
					17:[f6<0.00591333769] yes=25,no=26,missing=25
						25:leaf=0.164706126
						26:leaf=0.0597969256
					18:[f0<0.207612455] yes=27,no=28,missing=27
						27:leaf=-0.176286533
						28:leaf=0.0776024163
			8:leaf=-0.157469407
		4:[f6<0.00780163007] yes=9,no=10,missing=9
			9:leaf=0.176016182
			10:[f0<0.282006919] yes=13,no=14,missing=13
				13:leaf=-0.116133153
				14:[f6<0.00949115492] yes=19,no=20,missing=19
					19:leaf=0.163131744
					20:leaf=0.0303255431
	2:[f0<0.340830445] yes=5,no=6,missing=5
		5:leaf=-0.150366917
		6:leaf=0.00311388937
booster[37]:
0:[f6<0.00998807326] yes=1,no=2,missing=1
	1:[f0<0.250865042] yes=3,no=4,missing=3
		3:[f6<0.00720532704] yes=7,no=8,missing=7
			7:[f0<0.192041516] yes=11,no=12,missing=11
				11:[f6<0.0053170342] yes=15,no=16,missing=15
					15:[f0<0.150519028] yes=21,no=22,missing=21
						21:leaf=0.00589445001
						22:leaf=-0.0833840072
					16:[f0<0.185121119] yes=23,no=24,missing=23
						23:leaf=0.168916434
						24:leaf=0.0404565856
				12:[f6<0.00601272099] yes=17,no=18,missing=17
					17:[f6<0.00591333769] yes=25,no=26,missing=25
						25:leaf=-0.164706126
						26:leaf=-0.0597969145
					18:[f0<0.207612455] yes=27,no=28,missing=27
						27:leaf=0.176286533
						28:leaf=-0.0776024163
			8:leaf=0.157469407
		4:[f6<0.00780163007] yes=9,no=10,missing=9
			9:leaf=-0.176016167
			10:[f0<0.282006919] yes=13,no=14,missing=13
				13:leaf=0.116133139
				14:[f6<0.00949115492] yes=19,no=20,missing=19
					19:leaf=-0.163131744
					20:leaf=-0.0303255338
	2:[f0<0.340830445] yes=5,no=6,missing=5
		5:leaf=0.150366917
		6:leaf=-0.00311390101
booster[38]:
0:[f6<0.00472073164] yes=1,no=2,missing=1
	1:[f0<0.147058815] yes=3,no=4,missing=3
		3:[f6<0.00422381237] yes=7,no=8,missing=7
			7:[f0<0.140138417] yes=13,no=14,missing=13
				13:[f6<0.00402504485] yes=21,no=22,missing=21
					21:[f0<0.115916952] yes=29,no=30,missing=29
						29:leaf=-0.0032768019
						30:leaf=0.078148745
					22:leaf=-0.173417822
				14:leaf=0.160839632
			8:leaf=-0.190167919
		4:[f6<0.00452196412] yes=9,no=10,missing=9
			9:leaf=0.153655425
			10:[f0<0.15743944] yes=15,no=16,missing=15
				15:leaf=-0.153472632
				16:leaf=0.14834559
	2:[f0<0.164359868] yes=5,no=6,missing=5
		5:leaf=-0.172588423
		6:[f6<0.00561518595] yes=11,no=12,missing=11
			11:[f0<0.174740493] yes=17,no=18,missing=17
				17:[f6<0.00501888292] yes=23,no=24,missing=23
					23:[f3<0.0076923077] yes=31,no=32,missing=31
						31:leaf=0.139989883
						32:leaf=-0.00809454452
					24:leaf=-0.202424303
				18:[f0<0.181660891] yes=25,no=26,missing=25
					25:[f6<0.00521765091] yes=33,no=34,missing=33
						33:leaf=0.147907302
						34:leaf=-0.138274029
					26:leaf=0.156871647
			12:[f0<0.19550173] yes=19,no=20,missing=19
				19:leaf=-0.162577897
				20:[f6<0.00631087273] yes=27,no=28,missing=27
					27:[f0<0.205882356] yes=35,no=36,missing=35
						35:leaf=0.0375501886
						36:leaf=0.157632321
					28:[f0<0.219723195] yes=37,no=38,missing=37
						37:leaf=-0.17786397
						38:leaf=0.0144884801
booster[39]:
0:[f6<0.00472073164] yes=1,no=2,missing=1
	1:[f0<0.147058815] yes=3,no=4,missing=3
		3:[f6<0.00422381237] yes=7,no=8,missing=7
			7:[f0<0.140138417] yes=13,no=14,missing=13
				13:[f6<0.00402504485] yes=21,no=22,missing=21
					21:[f0<0.115916952] yes=29,no=30,missing=29
						29:leaf=0.00327681727
						30:leaf=-0.0781487375
					22:leaf=0.173417807
				14:leaf=-0.160839632
			8:leaf=0.190167919
		4:[f6<0.00452196412] yes=9,no=10,missing=9
			9:leaf=-0.153655425
			10:[f0<0.15743944] yes=15,no=16,missing=15
				15:leaf=0.153472632
				16:leaf=-0.148345575
	2:[f0<0.164359868] yes=5,no=6,missing=5
		5:leaf=0.172588423
		6:[f6<0.00561518595] yes=11,no=12,missing=11
			11:[f0<0.174740493] yes=17,no=18,missing=17
				17:[f6<0.00501888292] yes=23,no=24,missing=23
					23:[f3<0.0076923077] yes=31,no=32,missing=31
						31:leaf=-0.139989883
						32:leaf=0.00809456315
					24:leaf=0.202424288
				18:[f0<0.181660891] yes=25,no=26,missing=25
					25:[f6<0.00521765091] yes=33,no=34,missing=33
						33:leaf=-0.147907317
						34:leaf=0.138274029
					26:leaf=-0.156871662
			12:[f0<0.19550173] yes=19,no=20,missing=19
				19:leaf=0.162577897
				20:[f6<0.00631087273] yes=27,no=28,missing=27
					27:[f0<0.205882356] yes=35,no=36,missing=35
						35:leaf=-0.0375502072
						36:leaf=-0.157632306
					28:[f0<0.219723195] yes=37,no=38,missing=37
						37:leaf=0.17786397
						38:leaf=-0.0144884726
booster[40]:
0:[f6<0.00233551976] yes=1,no=2,missing=1
	1:[f0<0.0743944645] yes=3,no=4,missing=3
		3:[f6<0.00213675201] yes=7,no=8,missing=7
			7:[f0<0.0674740523] yes=11,no=12,missing=11
				11:[f6<0.00193798449] yes=17,no=18,missing=17
					17:[f0<0.0605536327] yes=23,no=24,missing=23
						23:leaf=0.0201198086
						24:leaf=0.127651826
					18:leaf=-0.142301008
				12:leaf=0.126399621
			8:leaf=-0.185402021
		4:leaf=0.119853683
	2:[f0<0.0813148767] yes=5,no=6,missing=5
		5:leaf=-0.164089754
		6:[f6<0.00263367128] yes=9,no=10,missing=9
			9:[f1<0.0128762536] yes=13,no=14,missing=13
				13:leaf=0.140635937
				14:[f6<0.00253428752] yes=19,no=20,missing=19
					19:leaf=0.0912330002
					20:leaf=-0.0594757125
			10:[f0<0.0916955024] yes=15,no=16,missing=15
				15:leaf=-0.173298299
				16:[f6<0.0038262771] yes=21,no=22,missing=21
					21:[f0<0.115916952] yes=25,no=26,missing=25
						25:leaf=0.00801463425
						26:leaf=0.11419519
					22:[f0<0.13321799] yes=27,no=28,missing=27
						27:leaf=-0.180786833
						28:leaf=0.00627028337
booster[41]:
0:[f6<0.00233551976] yes=1,no=2,missing=1
	1:[f0<0.0743944645] yes=3,no=4,missing=3
		3:[f6<0.00213675201] yes=7,no=8,missing=7
			7:[f0<0.0674740523] yes=11,no=12,missing=11
				11:[f6<0.00193798449] yes=17,no=18,missing=17
					17:[f0<0.0605536327] yes=23,no=24,missing=23
						23:leaf=-0.0201197304
						24:leaf=-0.127651855
					18:leaf=0.142301008
				12:leaf=-0.126399621
			8:leaf=0.185402006
		4:leaf=-0.119853683
	2:[f0<0.0813148767] yes=5,no=6,missing=5
		5:leaf=0.164089739
		6:[f6<0.00263367128] yes=9,no=10,missing=9
			9:[f1<0.0128762536] yes=13,no=14,missing=13
				13:leaf=-0.140635937
				14:[f6<0.00253428752] yes=19,no=20,missing=19
					19:leaf=-0.09123303
					20:leaf=0.0594756752
			10:[f0<0.0916955024] yes=15,no=16,missing=15
				15:leaf=0.173298299
				16:[f6<0.0038262771] yes=21,no=22,missing=21
					21:[f0<0.115916952] yes=25,no=26,missing=25
						25:leaf=-0.00801463332
						26:leaf=-0.114195175
					22:[f0<0.13321799] yes=27,no=28,missing=27
						27:leaf=0.180786833
						28:leaf=-0.00627028756
booster[42]:
0:[f3<0.0076923077] yes=1,no=2,missing=1
	1:[f6<0.000546611031] yes=3,no=4,missing=3
		3:leaf=0.122530602
		4:[f0<0.019031141] yes=7,no=8,missing=7
			7:leaf=-0.137520239
			8:[f0<0.0986159146] yes=13,no=14,missing=13
				13:[f6<0.0028324388] yes=21,no=22,missing=21
					21:[f0<0.0882352889] yes=35,no=36,missing=35
						35:leaf=0.00759837637
						36:leaf=0.0919811577
					22:leaf=-0.164363444
				14:[f6<0.00332935806] yes=23,no=24,missing=23
					23:[f6<0.00313059031] yes=37,no=38,missing=37
						37:leaf=0.144048616
						38:leaf=0.0645550713
					24:[f0<0.115916952] yes=39,no=40,missing=39
						39:leaf=-0.16291061
						40:leaf=0.0206263438
	2:[f1<0.00986622088] yes=5,no=6,missing=5
		5:[f1<0.0097826086] yes=9,no=10,missing=9
			9:[f1<0.00640468206] yes=15,no=16,missing=15
				15:[f3<0.0230769236] yes=25,no=26,missing=25
					25:[f1<0.00499999989] yes=41,no=42,missing=41
						41:leaf=-0.0447941646
						42:leaf=-0.160339937
					26:[f3<0.0384615399] yes=43,no=44,missing=43
						43:leaf=0.0481519476
						44:leaf=-0.091725938
				16:[f1<0.00744147133] yes=27,no=28,missing=27
					27:[f6<0.0069071753] yes=45,no=46,missing=45
						45:leaf=0.0984861776
						46:leaf=-0.0952644721
					28:[f1<0.00754180597] yes=47,no=48,missing=47
						47:leaf=-0.178138003
						48:leaf=-0.0289456565
			10:leaf=-0.152562767
		6:[f6<0.00491949916] yes=11,no=12,missing=11
			11:[f1<0.0110535119] yes=17,no=18,missing=17
				17:[f0<0.112456754] yes=29,no=30,missing=29
					29:[f6<0.00327966595] yes=49,no=50,missing=49
						49:leaf=0.0868753195
						50:leaf=-0.0985960066
					30:leaf=0.112726644
				18:[f1<0.0116889626] yes=31,no=32,missing=31
					31:leaf=-0.0586776845
					32:[f1<0.0131438132] yes=51,no=52,missing=51
						51:leaf=0.0786196366
						52:leaf=-0.000215352411
			12:[f0<0.17128028] yes=19,no=20,missing=19
				19:leaf=-0.163593084
				20:[f6<0.00566487759] yes=33,no=34,missing=33
					33:leaf=0.113229379
					34:[f1<0.0103010032] yes=53,no=54,missing=53
						53:leaf=-0.0126923034
						54:leaf=-0.129926875
booster[43]:
0:[f3<0.0076923077] yes=1,no=2,missing=1
	1:[f6<0.000546611031] yes=3,no=4,missing=3
		3:leaf=-0.122530557
		4:[f0<0.019031141] yes=7,no=8,missing=7
			7:leaf=0.137520254
			8:[f0<0.0986159146] yes=13,no=14,missing=13
				13:[f6<0.0028324388] yes=21,no=22,missing=21
					21:[f0<0.0882352889] yes=35,no=36,missing=35
						35:leaf=-0.00759836193
						36:leaf=-0.0919811428
					22:leaf=0.164363444
				14:[f6<0.00332935806] yes=23,no=24,missing=23
					23:[f6<0.00313059031] yes=37,no=38,missing=37
						37:leaf=-0.144048616
						38:leaf=-0.0645550713
					24:[f0<0.115916952] yes=39,no=40,missing=39
						39:leaf=0.16291061
						40:leaf=-0.0206263512
	2:[f1<0.00986622088] yes=5,no=6,missing=5
		5:[f1<0.0097826086] yes=9,no=10,missing=9
			9:[f1<0.00640468206] yes=15,no=16,missing=15
				15:[f3<0.0230769236] yes=25,no=26,missing=25
					25:[f1<0.00499999989] yes=41,no=42,missing=41
						41:leaf=0.0447941497
						42:leaf=0.160339937
					26:[f3<0.0384615399] yes=43,no=44,missing=43
						43:leaf=-0.0481519699
						44:leaf=0.0917259306
				16:[f1<0.00744147133] yes=27,no=28,missing=27
					27:[f6<0.0069071753] yes=45,no=46,missing=45
						45:leaf=-0.0984861776
						46:leaf=0.0952644721
					28:[f1<0.00754180597] yes=47,no=48,missing=47
						47:leaf=0.178138018
						48:leaf=0.0289456882
			10:leaf=0.152562767
		6:[f6<0.00491949916] yes=11,no=12,missing=11
			11:[f1<0.0110535119] yes=17,no=18,missing=17
				17:[f0<0.112456754] yes=29,no=30,missing=29
					29:[f6<0.00327966595] yes=49,no=50,missing=49
						49:leaf=-0.0868752971
						50:leaf=0.0985960141
					30:leaf=-0.112726621
				18:[f1<0.0116889626] yes=31,no=32,missing=31
					31:leaf=0.0586776957
					32:[f1<0.0131438132] yes=51,no=52,missing=51
						51:leaf=-0.078619644
						52:leaf=0.000215312481
			12:[f0<0.17128028] yes=19,no=20,missing=19
				19:leaf=0.163593069
				20:[f6<0.00566487759] yes=33,no=34,missing=33
					33:leaf=-0.113229379
					34:[f1<0.0103010032] yes=53,no=54,missing=53
						53:leaf=0.0126923211
						54:leaf=0.12992686
booster[44]:
0:[f6<0.00998807326] yes=1,no=2,missing=1
	1:[f0<0.250865042] yes=3,no=4,missing=3
		3:[f6<0.00720532704] yes=7,no=8,missing=7
			7:[f0<0.237024218] yes=11,no=12,missing=11
				11:[f6<0.006807792] yes=17,no=18,missing=17
					17:[f0<0.205882356] yes=21,no=22,missing=21
						21:leaf=-0.00328369043
						22:leaf=0.117489465
					18:leaf=-0.186360464
				12:leaf=0.149575219
			8:leaf=-0.143516406
		4:[f6<0.00889485143] yes=9,no=10,missing=9
			9:[f6<0.00780163007] yes=13,no=14,missing=13
				13:leaf=0.151839465
				14:[f0<0.282006919] yes=19,no=20,missing=19
					19:leaf=-0.0910855606
					20:leaf=0.141027585
			10:[f0<0.321799308] yes=15,no=16,missing=15
				15:leaf=-0.102716818
				16:leaf=0.126653999
	2:[f0<0.340830445] yes=5,no=6,missing=5
		5:leaf=-0.139371872
		6:leaf=0.00620710151
booster[45]:
0:[f6<0.00998807326] yes=1,no=2,missing=1
	1:[f0<0.250865042] yes=3,no=4,missing=3
		3:[f6<0.00720532704] yes=7,no=8,missing=7
			7:[f0<0.237024218] yes=11,no=12,missing=11
				11:[f6<0.006807792] yes=17,no=18,missing=17
					17:[f0<0.205882356] yes=21,no=22,missing=21
						21:leaf=0.00328369928
						22:leaf=-0.117489457
					18:leaf=0.186360478
				12:leaf=-0.149575219
			8:leaf=0.143516406
		4:[f6<0.00889485143] yes=9,no=10,missing=9
			9:[f6<0.00780163007] yes=13,no=14,missing=13
				13:leaf=-0.151839465
				14:[f0<0.282006919] yes=19,no=20,missing=19
					19:leaf=0.0910855681
					20:leaf=-0.141027585
			10:[f0<0.321799308] yes=15,no=16,missing=15
				15:leaf=0.102716818
				16:leaf=-0.126653999
	2:[f0<0.340830445] yes=5,no=6,missing=5
		5:leaf=0.139371872
		6:leaf=-0.00620710524
booster[46]:
0:[f6<0.000745378667] yes=1,no=2,missing=1
	1:[f3<0.0384615399] yes=3,no=4,missing=3
		3:[f6<0.000546611031] yes=7,no=8,missing=7
			7:leaf=0.122807838
			8:[f0<0.019031141] yes=13,no=14,missing=13
				13:leaf=-0.116035648
				14:leaf=0.111765243
		4:[f1<0.00986622088] yes=9,no=10,missing=9
			9:leaf=-0.0409311093
			10:leaf=0.0353920907
	2:[f0<0.0259515569] yes=5,no=6,missing=5
		5:leaf=-0.152654588
		6:[f1<0.010217391] yes=11,no=12,missing=11
			11:[f1<0.00555183925] yes=15,no=16,missing=15
				15:[f1<0.00413043471] yes=19,no=20,missing=19
					19:leaf=-0.00551851047
					20:leaf=-0.132123724
				16:[f1<0.00735785952] yes=21,no=22,missing=21
					21:[f0<0.0986159146] yes=27,no=28,missing=27
						27:leaf=-0.0223677065
						28:leaf=0.0567007624
					22:[f1<0.00754180597] yes=29,no=30,missing=29
						29:leaf=-0.125658318
						30:leaf=-0.012840827
			12:[f6<0.0038262771] yes=17,no=18,missing=17
				17:[f0<0.115916952] yes=23,no=24,missing=23
					23:[f6<0.00332935806] yes=31,no=32,missing=31
						31:leaf=0.046620179
						32:leaf=-0.129870608
					24:leaf=0.13218455
				18:[f0<0.136678189] yes=25,no=26,missing=25
					25:leaf=-0.145436063
					26:[f6<0.00521765091] yes=33,no=34,missing=33
						33:leaf=0.0763067752
						34:leaf=-0.0159074888
booster[47]:
0:[f6<0.000745378667] yes=1,no=2,missing=1
	1:[f3<0.0384615399] yes=3,no=4,missing=3
		3:[f6<0.000546611031] yes=7,no=8,missing=7
			7:leaf=-0.122807994
			8:[f0<0.019031141] yes=13,no=14,missing=13
				13:leaf=0.116035648
				14:leaf=-0.111765273
		4:[f1<0.00986622088] yes=9,no=10,missing=9
			9:leaf=0.0409311205
			10:leaf=-0.0353921279
	2:[f0<0.0259515569] yes=5,no=6,missing=5
		5:leaf=0.152654588
		6:[f1<0.010217391] yes=11,no=12,missing=11
			11:[f1<0.00555183925] yes=15,no=16,missing=15
				15:[f1<0.00413043471] yes=19,no=20,missing=19
					19:leaf=0.00551856682
					20:leaf=0.132123724
				16:[f1<0.00735785952] yes=21,no=22,missing=21
					21:[f0<0.0986159146] yes=27,no=28,missing=27
						27:leaf=0.0223677009
						28:leaf=-0.0567007735
					22:[f1<0.00754180597] yes=29,no=30,missing=29
						29:leaf=0.125658289
						30:leaf=0.0128408168
			12:[f6<0.0038262771] yes=17,no=18,missing=17
				17:[f0<0.115916952] yes=23,no=24,missing=23
					23:[f6<0.00332935806] yes=31,no=32,missing=31
						31:leaf=-0.0466201752
						32:leaf=0.129870608
					24:leaf=-0.132184535
				18:[f0<0.136678189] yes=25,no=26,missing=25
					25:leaf=0.145436063
					26:[f6<0.00521765091] yes=33,no=34,missing=33
						33:leaf=-0.0763067678
						34:leaf=0.0159074776
booster[48]:
0:[f6<0.00104353018] yes=1,no=2,missing=1
	1:[f0<0.0294117648] yes=3,no=4,missing=3
		3:[f6<0.000745378667] yes=7,no=8,missing=7
			7:[f3<0.0384615399] yes=11,no=12,missing=11
				11:[f6<0.000546611031] yes=17,no=18,missing=17
					17:leaf=0.116751976
					18:[f0<0.0224913508] yes=23,no=24,missing=23
						23:leaf=-0.0102186985
						24:leaf=0.0804521665
				12:[f0<0.00865051895] yes=19,no=20,missing=19
					19:leaf=-0.0399474315
					20:leaf=0.0258821193
			8:[f0<0.0259515569] yes=13,no=14,missing=13
				13:leaf=-0.139284328
				14:leaf=0.00785599742
		4:leaf=0.118852772
	2:[f0<0.0363321789] yes=5,no=6,missing=5
		5:leaf=-0.146457389
		6:[f6<0.0012422977] yes=9,no=10,missing=9
			9:leaf=0.116441257
			10:[f0<0.0432525948] yes=15,no=16,missing=15
				15:leaf=-0.136382669
				16:[f6<0.00144106545] yes=21,no=22,missing=21
					21:leaf=0.123871394
					22:[f0<0.0501730107] yes=25,no=26,missing=25
						25:leaf=-0.166673452
						26:leaf=-0.000151519605
booster[49]:
0:[f6<0.00104353018] yes=1,no=2,missing=1
	1:[f0<0.0294117648] yes=3,no=4,missing=3
		3:[f6<0.000745378667] yes=7,no=8,missing=7
			7:[f3<0.0384615399] yes=11,no=12,missing=11
				11:[f6<0.000546611031] yes=17,no=18,missing=17
					17:leaf=-0.116751745
					18:[f0<0.0224913508] yes=23,no=24,missing=23
						23:leaf=0.0102191409
						24:leaf=-0.0804522112
				12:[f0<0.00865051895] yes=19,no=20,missing=19
					19:leaf=0.0399474315
					20:leaf=-0.0258821528
			8:[f0<0.0259515569] yes=13,no=14,missing=13
				13:leaf=0.139284328
				14:leaf=-0.00785623584
		4:leaf=-0.118852817
	2:[f0<0.0363321789] yes=5,no=6,missing=5
		5:leaf=0.146457389
		6:[f6<0.0012422977] yes=9,no=10,missing=9
			9:leaf=-0.116441198
			10:[f0<0.0432525948] yes=15,no=16,missing=15
				15:leaf=0.136382684
				16:[f6<0.00144106545] yes=21,no=22,missing=21
					21:leaf=-0.123871423
					22:[f0<0.0501730107] yes=25,no=26,missing=25
						25:leaf=0.166673452
						26:leaf=0.000151519009
booster[50]:
0:[f6<0.00998807326] yes=1,no=2,missing=1
	1:[f0<0.240484431] yes=3,no=4,missing=3
		3:[f6<0.0069071753] yes=7,no=8,missing=7
			7:[f0<0.192041516] yes=11,no=12,missing=11
				11:[f6<0.00551580172] yes=15,no=16,missing=15
					15:[f0<0.174740493] yes=21,no=22,missing=21
						21:leaf=-0.00202679401
						22:leaf=0.09884464
					16:leaf=-0.1503793
				12:[f6<0.00591333769] yes=17,no=18,missing=17
					17:leaf=0.144871339
					18:[f0<0.205882356] yes=23,no=24,missing=23
						23:leaf=-0.152774066
						24:leaf=0.0759162828
			8:leaf=-0.150644302
		4:[f6<0.00760286208] yes=9,no=10,missing=9
			9:leaf=0.150740713
			10:[f0<0.282006919] yes=13,no=14,missing=13
				13:leaf=-0.0967432782
				14:[f6<0.00949115492] yes=19,no=20,missing=19
					19:leaf=0.131519884
					20:leaf=0.0218746644
	2:[f6<0.0130689722] yes=5,no=6,missing=5
		5:leaf=-0.133181542
		6:leaf=0.0152919283
booster[51]:
0:[f6<0.00998807326] yes=1,no=2,missing=1
	1:[f0<0.240484431] yes=3,no=4,missing=3
		3:[f6<0.0069071753] yes=7,no=8,missing=7
			7:[f0<0.192041516] yes=11,no=12,missing=11
				11:[f6<0.00551580172] yes=15,no=16,missing=15
					15:[f0<0.174740493] yes=21,no=22,missing=21
						21:leaf=0.00202682405
						22:leaf=-0.0988446474
					16:leaf=0.1503793
				12:[f6<0.00591333769] yes=17,no=18,missing=17
					17:leaf=-0.144871354
					18:[f0<0.205882356] yes=23,no=24,missing=23
						23:leaf=0.152774066
						24:leaf=-0.0759162828
			8:leaf=0.150644332
		4:[f6<0.00760286208] yes=9,no=10,missing=9
			9:leaf=-0.150740713
			10:[f0<0.282006919] yes=13,no=14,missing=13
				13:leaf=0.0967432857
				14:[f6<0.00949115492] yes=19,no=20,missing=19
					19:leaf=-0.131519884
					20:leaf=-0.0218746699
	2:[f6<0.0130689722] yes=5,no=6,missing=5
		5:leaf=0.133181542
		6:leaf=-0.0152920317
booster[52]:
0:[f6<0.00472073164] yes=1,no=2,missing=1
	1:[f0<0.147058815] yes=3,no=4,missing=3
		3:[f6<0.00422381237] yes=7,no=8,missing=7
			7:[f0<0.136678189] yes=13,no=14,missing=13
				13:[f6<0.00392566063] yes=21,no=22,missing=21
					21:[f0<0.129757792] yes=29,no=30,missing=29
						29:leaf=0.0015998485
						30:leaf=0.140675306
					22:leaf=-0.169562995
				14:[f0<0.140138417] yes=23,no=24,missing=23
					23:[f3<0.0076923077] yes=31,no=32,missing=31
						31:leaf=0.108305484
						32:leaf=-0.0060718446
					24:leaf=0.146377712
			8:leaf=-0.180159643
		4:[f6<0.00452196412] yes=9,no=10,missing=9
			9:leaf=0.13586612
			10:[f0<0.15743944] yes=15,no=16,missing=15
				15:leaf=-0.132009655
				16:leaf=0.136235997
	2:[f0<0.164359868] yes=5,no=6,missing=5
		5:leaf=-0.169124156
		6:[f6<0.00571456924] yes=11,no=12,missing=11
			11:[f0<0.181660891] yes=17,no=18,missing=17
				17:[f6<0.00521765091] yes=25,no=26,missing=25
					25:[f1<0.0084949825] yes=33,no=34,missing=33
						33:leaf=-0.0196309388
						34:leaf=0.106594056
					26:leaf=-0.148837596
				18:leaf=0.137470946
			12:[f0<0.198961943] yes=19,no=20,missing=19
				19:leaf=-0.143200681
				20:[f6<0.00631087273] yes=27,no=28,missing=27
					27:[f0<0.202422142] yes=35,no=36,missing=35
						35:leaf=0.01867342
						36:leaf=0.113381103
					28:[f0<0.219723195] yes=37,no=38,missing=37
						37:leaf=-0.156376138
						38:leaf=0.0133972466
booster[53]:
0:[f6<0.00472073164] yes=1,no=2,missing=1
	1:[f0<0.147058815] yes=3,no=4,missing=3
		3:[f6<0.00422381237] yes=7,no=8,missing=7
			7:[f0<0.136678189] yes=13,no=14,missing=13
				13:[f6<0.00392566063] yes=21,no=22,missing=21
					21:[f0<0.129757792] yes=29,no=30,missing=29
						29:leaf=-0.00159988576
						30:leaf=-0.140675306
					22:leaf=0.169562995
				14:[f0<0.140138417] yes=23,no=24,missing=23
					23:[f3<0.0076923077] yes=31,no=32,missing=31
						31:leaf=-0.108305484
						32:leaf=0.00607186276
					24:leaf=-0.146377698
			8:leaf=0.180159643
		4:[f6<0.00452196412] yes=9,no=10,missing=9
			9:leaf=-0.13586612
			10:[f0<0.15743944] yes=15,no=16,missing=15
				15:leaf=0.132009655
				16:leaf=-0.136235997
	2:[f0<0.164359868] yes=5,no=6,missing=5
		5:leaf=0.169124156
		6:[f6<0.00571456924] yes=11,no=12,missing=11
			11:[f0<0.181660891] yes=17,no=18,missing=17
				17:[f6<0.00521765091] yes=25,no=26,missing=25
					25:[f1<0.0084949825] yes=33,no=34,missing=33
						33:leaf=0.0196309369
						34:leaf=-0.106594056
					26:leaf=0.148837596
				18:leaf=-0.137470946
			12:[f0<0.198961943] yes=19,no=20,missing=19
				19:leaf=0.143200681
				20:[f6<0.00631087273] yes=27,no=28,missing=27
					27:[f0<0.202422142] yes=35,no=36,missing=35
						35:leaf=-0.0186734106
						36:leaf=-0.113381103
					28:[f0<0.219723195] yes=37,no=38,missing=37
						37:leaf=0.156376138
						38:leaf=-0.0133972308
booster[54]:
0:[f6<0.00233551976] yes=1,no=2,missing=1
	1:[f0<0.0743944645] yes=3,no=4,missing=3
		3:[f6<0.00213675201] yes=7,no=8,missing=7
			7:[f0<0.0640138388] yes=11,no=12,missing=11
				11:[f6<0.00183860073] yes=17,no=18,missing=17
					17:[f0<0.0467128009] yes=27,no=28,missing=27
						27:leaf=0.000702621182
						28:leaf=0.0558062047
					18:leaf=-0.132203341
				12:[f0<0.0674740523] yes=19,no=20,missing=19
					19:leaf=0.049429629
					20:leaf=0.118873253
			8:leaf=-0.158882022
		4:leaf=0.107542388
	2:[f0<0.0813148767] yes=5,no=6,missing=5
		5:leaf=-0.161935508
		6:[f6<0.00263367128] yes=9,no=10,missing=9
			9:[f1<0.0128762536] yes=13,no=14,missing=13
				13:leaf=0.133410841
				14:[f6<0.00253428752] yes=21,no=22,missing=21
					21:leaf=0.0796817839
					22:leaf=-0.0662208647
			10:[f0<0.0951557159] yes=15,no=16,missing=15
				15:[f6<0.00273305504] yes=23,no=24,missing=23
					23:[f0<0.0916955024] yes=29,no=30,missing=29
						29:leaf=-0.159073129
						30:leaf=0.129832059
					24:[f6<0.00293182256] yes=31,no=32,missing=31
						31:leaf=-0.272072315
						32:leaf=-0.131697163
				16:[f6<0.00303120655] yes=25,no=26,missing=25
					25:[f3<0.0230769236] yes=33,no=34,missing=33
						33:leaf=0.142724171
						34:leaf=-0.0420195609
					26:[f0<0.105536327] yes=35,no=36,missing=35
						35:leaf=-0.191064492
						36:leaf=0.00735737896
booster[55]:
0:[f6<0.00233551976] yes=1,no=2,missing=1
	1:[f0<0.0743944645] yes=3,no=4,missing=3
		3:[f6<0.00213675201] yes=7,no=8,missing=7
			7:[f0<0.0640138388] yes=11,no=12,missing=11
				11:[f6<0.00183860073] yes=17,no=18,missing=17
					17:[f0<0.0467128009] yes=27,no=28,missing=27
						27:leaf=-0.000702404883
						28:leaf=-0.0558062457
					18:leaf=0.132203355
				12:[f0<0.0674740523] yes=19,no=20,missing=19
					19:leaf=-0.0494297072
					20:leaf=-0.118873276
			8:leaf=0.158881992
		4:leaf=-0.107542388
	2:[f0<0.0813148767] yes=5,no=6,missing=5
		5:leaf=0.161935508
		6:[f6<0.00263367128] yes=9,no=10,missing=9
			9:[f1<0.0128762536] yes=13,no=14,missing=13
				13:leaf=-0.133410841
				14:[f6<0.00253428752] yes=21,no=22,missing=21
					21:leaf=-0.0796818286
					22:leaf=0.0662208721
			10:[f0<0.0951557159] yes=15,no=16,missing=15
				15:[f6<0.00273305504] yes=23,no=24,missing=23
					23:[f0<0.0916955024] yes=29,no=30,missing=29
						29:leaf=0.159073129
						30:leaf=-0.129832059
					24:[f6<0.00293182256] yes=31,no=32,missing=31
						31:leaf=0.272072315
						32:leaf=0.131697163
				16:[f6<0.00303120655] yes=25,no=26,missing=25
					25:[f3<0.0230769236] yes=33,no=34,missing=33
						33:leaf=-0.142724171
						34:leaf=0.0420195758
					26:[f0<0.105536327] yes=35,no=36,missing=35
						35:leaf=0.191064507
						36:leaf=-0.00735737709
booster[56]:
0:[f6<0.00472073164] yes=1,no=2,missing=1
	1:[f0<0.147058815] yes=3,no=4,missing=3
		3:[f6<0.00422381237] yes=7,no=8,missing=7
			7:[f0<0.136678189] yes=13,no=14,missing=13
				13:[f6<0.00392566063] yes=23,no=24,missing=23
					23:[f0<0.129757792] yes=33,no=34,missing=33
						33:leaf=0.00140281883
						34:leaf=0.132473186
					24:leaf=-0.156787932
				14:[f0<0.140138417] yes=25,no=26,missing=25
					25:[f3<0.0076923077] yes=35,no=36,missing=35
						35:leaf=0.0987263173
						36:leaf=-0.00634184154
					26:leaf=0.135807842
			8:leaf=-0.167087451
		4:[f1<0.00903009996] yes=9,no=10,missing=9
			9:[f1<0.0080936458] yes=15,no=16,missing=15
				15:[f1<0.00747491606] yes=27,no=28,missing=27
					27:leaf=0.112961605
					28:leaf=0.0202272031
				16:leaf=-0.0553263873
			10:[f6<0.00462134741] yes=17,no=18,missing=17
				17:leaf=0.133681342
				18:leaf=0.0380813964
	2:[f0<0.164359868] yes=5,no=6,missing=5
		5:leaf=-0.160802841
		6:[f6<0.00591333769] yes=11,no=12,missing=11
			11:[f0<0.188581318] yes=19,no=20,missing=19
				19:[f6<0.00521765091] yes=29,no=30,missing=29
					29:[f0<0.174740493] yes=37,no=38,missing=37
						37:leaf=0.00853021536
						38:leaf=0.122537278
					30:[f0<0.181660891] yes=39,no=40,missing=39
						39:leaf=-0.136663958
						40:leaf=0.0137064448
				20:leaf=0.119549736
			12:[f0<0.205882356] yes=21,no=22,missing=21
				21:leaf=-0.142442524
				22:[f6<0.006807792] yes=31,no=32,missing=31
					31:[f1<0.00913043506] yes=41,no=42,missing=41
						41:leaf=0.0103169996
						42:leaf=0.125151858
					32:[f0<0.237024218] yes=43,no=44,missing=43
						43:leaf=-0.155644238
						44:leaf=0.021975223
booster[57]:
0:[f6<0.00472073164] yes=1,no=2,missing=1
	1:[f0<0.147058815] yes=3,no=4,missing=3
		3:[f6<0.00422381237] yes=7,no=8,missing=7
			7:[f0<0.136678189] yes=13,no=14,missing=13
				13:[f6<0.00392566063] yes=23,no=24,missing=23
					23:[f0<0.129757792] yes=33,no=34,missing=33
						33:leaf=-0.00140283839
						34:leaf=-0.132473171
					24:leaf=0.156787902
				14:[f0<0.140138417] yes=25,no=26,missing=25
					25:[f3<0.0076923077] yes=35,no=36,missing=35
						35:leaf=-0.0987263173
						36:leaf=0.00634186016
					26:leaf=-0.135807842
			8:leaf=0.167087436
		4:[f1<0.00903009996] yes=9,no=10,missing=9
			9:[f1<0.0080936458] yes=15,no=16,missing=15
				15:[f1<0.00747491606] yes=27,no=28,missing=27
					27:leaf=-0.112961605
					28:leaf=-0.0202271976
				16:leaf=0.0553263761
			10:[f6<0.00462134741] yes=17,no=18,missing=17
				17:leaf=-0.133681357
				18:leaf=-0.0380813926
	2:[f0<0.164359868] yes=5,no=6,missing=5
		5:leaf=0.160802841
		6:[f6<0.00591333769] yes=11,no=12,missing=11
			11:[f0<0.188581318] yes=19,no=20,missing=19
				19:[f6<0.00521765091] yes=29,no=30,missing=29
					29:[f0<0.174740493] yes=37,no=38,missing=37
						37:leaf=-0.00853023957
						38:leaf=-0.122537278
					30:[f0<0.181660891] yes=39,no=40,missing=39
						39:leaf=0.136663958
						40:leaf=-0.0137064364
				20:leaf=-0.119549729
			12:[f0<0.205882356] yes=21,no=22,missing=21
				21:leaf=0.14244251
				22:[f6<0.006807792] yes=31,no=32,missing=31
					31:[f1<0.00913043506] yes=41,no=42,missing=41
						41:leaf=-0.0103169931
						42:leaf=-0.125151843
					32:[f0<0.237024218] yes=43,no=44,missing=43
						43:leaf=0.155644238
						44:leaf=-0.0219752137
booster[58]:
0:[f6<0.00332935806] yes=1,no=2,missing=1
	1:[f0<0.105536327] yes=3,no=4,missing=3
		3:[f6<0.00303120655] yes=7,no=8,missing=7
			7:[f0<0.0986159146] yes=11,no=12,missing=11
				11:[f6<0.0028324388] yes=15,no=16,missing=15
					15:[f0<0.0951557159] yes=19,no=20,missing=19
						19:leaf=0.00404261472
						20:leaf=0.116951384
					16:leaf=-0.159814596
				12:leaf=0.132926971
			8:leaf=-0.173815176
		4:leaf=0.129269466
	2:[f0<0.115916952] yes=5,no=6,missing=5
		5:leaf=-0.167129099
		6:[f6<0.00352812558] yes=9,no=10,missing=9
			9:leaf=0.132927552
			10:[f0<0.122837365] yes=13,no=14,missing=13
				13:leaf=-0.184565172
				14:[f6<0.0038262771] yes=17,no=18,missing=17
					17:leaf=0.129915699
					18:[f0<0.13321799] yes=21,no=22,missing=21
						21:leaf=-0.182747424
						22:leaf=0.00175945181
booster[59]:
0:[f6<0.00332935806] yes=1,no=2,missing=1
	1:[f0<0.105536327] yes=3,no=4,missing=3
		3:[f6<0.00303120655] yes=7,no=8,missing=7
			7:[f0<0.0986159146] yes=11,no=12,missing=11
				11:[f6<0.0028324388] yes=15,no=16,missing=15
					15:[f0<0.0951557159] yes=19,no=20,missing=19
						19:leaf=-0.00404264638
						20:leaf=-0.116951391
					16:leaf=0.159814581
				12:leaf=-0.132926971
			8:leaf=0.173815176
		4:leaf=-0.129269466
	2:[f0<0.115916952] yes=5,no=6,missing=5
		5:leaf=0.167129099
		6:[f6<0.00352812558] yes=9,no=10,missing=9
			9:leaf=-0.132927537
			10:[f0<0.122837365] yes=13,no=14,missing=13
				13:leaf=0.184565172
				14:[f6<0.0038262771] yes=17,no=18,missing=17
					17:leaf=-0.129915699
					18:[f0<0.13321799] yes=21,no=22,missing=21
						21:leaf=0.182747424
						22:leaf=-0.00175945309
booster[60]:
0:[f6<0.00998807326] yes=1,no=2,missing=1
	1:[f0<0.261245668] yes=3,no=4,missing=3
		3:[f6<0.00750347879] yes=7,no=8,missing=7
			7:[f0<0.237024218] yes=11,no=12,missing=11
				11:[f6<0.006807792] yes=15,no=16,missing=15
					15:[f1<0.015551839] yes=17,no=18,missing=17
						17:leaf=-0.00336569222
						18:leaf=0.0473404117
					16:leaf=-0.139494926
				12:leaf=0.13225776
			8:leaf=-0.1235791
		4:[f6<0.00899423566] yes=9,no=10,missing=9
			9:leaf=0.109251142
			10:[f1<0.0098996656] yes=13,no=14,missing=13
				13:leaf=-0.0257844683
				14:leaf=0.0322793238
	2:[f0<0.340830445] yes=5,no=6,missing=5
		5:leaf=-0.123669356
		6:leaf=0.0183452833
booster[61]:
0:[f6<0.00998807326] yes=1,no=2,missing=1
	1:[f0<0.261245668] yes=3,no=4,missing=3
		3:[f6<0.00750347879] yes=7,no=8,missing=7
			7:[f0<0.237024218] yes=11,no=12,missing=11
				11:[f6<0.006807792] yes=15,no=16,missing=15
					15:[f1<0.015551839] yes=17,no=18,missing=17
						17:leaf=0.00336569943
						18:leaf=-0.0473404378
					16:leaf=0.139494926
				12:leaf=-0.13225776
			8:leaf=0.123579107
		4:[f6<0.00899423566] yes=9,no=10,missing=9
			9:leaf=-0.109251149
			10:[f1<0.0098996656] yes=13,no=14,missing=13
				13:leaf=0.0257844795
				14:leaf=-0.0322793163
	2:[f0<0.340830445] yes=5,no=6,missing=5
		5:leaf=0.123669356
		6:leaf=-0.0183452759
booster[62]:
0:[f6<0.000447227183] yes=1,no=2,missing=1
	1:[f1<0.00832775887] yes=3,no=4,missing=3
		3:leaf=-0.00530031044
		4:leaf=0.109170415
	2:[f0<0.0155709349] yes=5,no=6,missing=5
		5:leaf=-0.107767083
		6:[f6<0.000844762428] yes=7,no=8,missing=7
			7:[f0<0.019031141] yes=9,no=10,missing=9
				9:leaf=-0.00550081907
				10:[f1<0.0126421405] yes=13,no=14,missing=13
					13:leaf=0.113994293
					14:leaf=-0.00390463532
			8:[f0<0.0294117648] yes=11,no=12,missing=11
				11:leaf=-0.214329362
				12:[f6<0.00104353018] yes=15,no=16,missing=15
					15:leaf=0.111731201
					16:[f0<0.0363321789] yes=17,no=18,missing=17
						17:leaf=-0.131624982
						18:leaf=-0.000862343877
booster[63]:
0:[f6<0.000447227183] yes=1,no=2,missing=1
	1:[f1<0.00832775887] yes=3,no=4,missing=3
		3:leaf=0.00530052278
		4:leaf=-0.109170444
	2:[f0<0.0155709349] yes=5,no=6,missing=5
		5:leaf=0.107767157
		6:[f6<0.000844762428] yes=7,no=8,missing=7
			7:[f0<0.019031141] yes=9,no=10,missing=9
				9:leaf=0.00550059555
				10:[f1<0.0126421405] yes=13,no=14,missing=13
					13:leaf=-0.113994338
					14:leaf=0.00390464091
			8:[f0<0.0294117648] yes=11,no=12,missing=11
				11:leaf=0.214329213
				12:[f6<0.00104353018] yes=15,no=16,missing=15
					15:leaf=-0.111731052
					16:[f0<0.0363321789] yes=17,no=18,missing=17
						17:leaf=0.131624997
						18:leaf=0.000862339919
booster[64]:
0:[f5<0.99326086] yes=1,no=2,missing=1
	1:[f5<0.977608681] yes=3,no=4,missing=3
		3:leaf=-0.0045214761
		4:[f1<0.00924749114] yes=7,no=8,missing=7
			7:[f3<0.0076923077] yes=13,no=14,missing=13
				13:leaf=-0.00255930237
				14:leaf=0.0500407033
			8:leaf=0.0884286165
	2:[f3<0.0076923077] yes=5,no=6,missing=5
		5:[f1<0.00993311033] yes=9,no=10,missing=9
			9:[f1<0.00946488325] yes=15,no=16,missing=15
				15:[f6<0.00491949916] yes=23,no=24,missing=23
					23:[f0<0.105536327] yes=39,no=40,missing=39
						39:leaf=-0.00293847825
						40:leaf=0.0742089674
					24:[f0<0.174740493] yes=41,no=42,missing=41
						41:leaf=-0.183015972
						42:leaf=0.0330514424
				16:[f0<0.126297578] yes=25,no=26,missing=25
					25:[f6<0.00233551976] yes=43,no=44,missing=43
						43:leaf=0.078711167
						44:leaf=0.0133122075
					26:leaf=0.140287697
			10:[f1<0.0102006691] yes=17,no=18,missing=17
				17:[f6<0.00645994861] yes=27,no=28,missing=27
					27:[f0<0.164359868] yes=45,no=46,missing=45
						45:leaf=-0.0451524034
						46:leaf=0.0692563206
					28:leaf=-0.106325284
				18:[f1<0.011036789] yes=29,no=30,missing=29
					29:leaf=0.0847213864
					30:[f1<0.0132775921] yes=47,no=48,missing=47
						47:leaf=-0.0222101621
						48:leaf=0.0313707776
		6:[f1<0.00986622088] yes=11,no=12,missing=11
			11:[f1<0.0076923077] yes=19,no=20,missing=19
				19:[f3<0.0230769236] yes=31,no=32,missing=31
					31:[f1<0.00640468206] yes=49,no=50,missing=49
						49:leaf=-0.0984889567
						50:leaf=0.0742460862
					32:[f6<0.00362750934] yes=51,no=52,missing=51
						51:leaf=-0.0044728783
						52:leaf=-0.0945892036
				20:[f1<0.0078093647] yes=33,no=34,missing=33
					33:leaf=-0.186403766
					34:[f1<0.00869565271] yes=53,no=54,missing=53
						53:leaf=0.0208721533
						54:leaf=-0.0678486824
			12:[f6<0.00491949916] yes=21,no=22,missing=21
				21:[f0<0.0674740523] yes=35,no=36,missing=35
					35:[f6<0.00154044922] yes=55,no=56,missing=55
						55:leaf=0.0409628674
						56:leaf=-0.0393361934
					36:[f1<0.0131438132] yes=57,no=58,missing=57
						57:leaf=0.0853360221
						58:leaf=-0.00915303919
				22:[f0<0.174740493] yes=37,no=38,missing=37
					37:leaf=-0.120414235
					38:[f6<0.006807792] yes=59,no=60,missing=59
						59:leaf=0.0298769176
						60:leaf=-0.0542652346
booster[65]:
0:[f5<0.99326086] yes=1,no=2,missing=1
	1:[f5<0.977608681] yes=3,no=4,missing=3
		3:leaf=0.00452150824
		4:[f1<0.00924749114] yes=7,no=8,missing=7
			7:[f3<0.0076923077] yes=13,no=14,missing=13
				13:leaf=0.00255928119
				14:leaf=-0.0500406809
			8:leaf=-0.0884285793
	2:[f3<0.0076923077] yes=5,no=6,missing=5
		5:[f1<0.00993311033] yes=9,no=10,missing=9
			9:[f1<0.00946488325] yes=15,no=16,missing=15
				15:[f6<0.00491949916] yes=23,no=24,missing=23
					23:[f0<0.105536327] yes=39,no=40,missing=39
						39:leaf=0.00293838768
						40:leaf=-0.0742089674
					24:[f0<0.174740493] yes=41,no=42,missing=41
						41:leaf=0.183015972
