booster[0]:
0:[f6<0.00183860073] yes=1,no=2,missing=1
	1:[f6<0.000745378667] yes=3,no=4,missing=3
		3:[f3<0.0076923077] yes=7,no=8,missing=7
			7:leaf=0.291868359
			8:[f6<0.000546611031] yes=13,no=14,missing=13
				13:[f3<0.0615384653] yes=21,no=22,missing=21
					21:[f5<0.958260894] yes=35,no=36,missing=35
						35:leaf=-0
						36:leaf=0.248571441
					22:leaf=-0
				14:[f0<0.0173010379] yes=23,no=24,missing=23
					23:leaf=-0.268421054
					24:leaf=0.272727281
		4:[f0<0.0259515569] yes=9,no=10,missing=9
			9:leaf=-0.298230082
			10:[f3<0.0076923077] yes=15,no=16,missing=15
				15:[f6<0.00114291394] yes=25,no=26,missing=25
					25:[f1<0.0383946486] yes=37,no=38,missing=37
						37:leaf=0.282969445
						38:leaf=-0
					26:[f0<0.0397923887] yes=39,no=40,missing=39
						39:leaf=-0.29130435
						40:leaf=0.264814824
				16:[f6<0.0012422977] yes=27,no=28,missing=27
					27:[f6<0.00114291394] yes=41,no=42,missing=41
						41:leaf=0.25555557
						42:leaf=0.110526316
					28:[f0<0.0432525948] yes=43,no=44,missing=43
						43:leaf=-0.284615397
						44:leaf=0.114084512
	2:[f0<0.0640138388] yes=5,no=6,missing=5
		5:leaf=-0.299649149
		6:[f6<0.0032299743] yes=11,no=12,missing=11
			11:[f6<0.00243490352] yes=17,no=18,missing=17
				17:[f1<0.00491638808] yes=29,no=30,missing=29
					29:[f0<0.0778546706] yes=45,no=46,missing=45
						45:leaf=-0.0600000024
						46:leaf=0.214285731
					30:[f0<0.070934251] yes=47,no=48,missing=47
						47:leaf=0.208235309
						48:leaf=0.275903612
				18:[f0<0.0847750902] yes=31,no=32,missing=31
					31:leaf=-0.294545472
					32:[f6<0.0028324388] yes=49,no=50,missing=49
						49:leaf=0.26901409
						50:leaf=0.143617034
			12:[f0<0.112456754] yes=19,no=20,missing=19
				19:leaf=-0.298918933
				20:[f6<0.00402504485] yes=33,no=34,missing=33
					33:[f6<0.00362750934] yes=51,no=52,missing=51
						51:leaf=0.274647892
						52:leaf=0.157142878
					34:[f0<0.140138417] yes=53,no=54,missing=53
						53:leaf=-0.29662922
						54:leaf=-0.00113207556
booster[1]:
0:[f6<0.00183860073] yes=1,no=2,missing=1
	1:[f6<0.000745378667] yes=3,no=4,missing=3
		3:[f3<0.0076923077] yes=7,no=8,missing=7
			7:leaf=-0.291868359
			8:[f6<0.000546611031] yes=13,no=14,missing=13
				13:[f3<0.0615384653] yes=21,no=22,missing=21
					21:[f5<0.958260894] yes=35,no=36,missing=35
						35:leaf=-0
						36:leaf=-0.248571441
					22:leaf=-0
				14:[f0<0.0173010379] yes=23,no=24,missing=23
					23:leaf=0.268421054
					24:leaf=-0.272727281
		4:[f0<0.0259515569] yes=9,no=10,missing=9
			9:leaf=0.298230082
			10:[f3<0.0076923077] yes=15,no=16,missing=15
				15:[f6<0.00114291394] yes=25,no=26,missing=25
					25:[f1<0.0383946486] yes=37,no=38,missing=37
						37:leaf=-0.282969445
						38:leaf=-0
					26:[f0<0.0397923887] yes=39,no=40,missing=39
						39:leaf=0.29130435
						40:leaf=-0.264814824
				16:[f6<0.0012422977] yes=27,no=28,missing=27
					27:[f6<0.00114291394] yes=41,no=42,missing=41
						41:leaf=-0.25555557
						42:leaf=-0.110526316
					28:[f0<0.0432525948] yes=43,no=44,missing=43
						43:leaf=0.284615397
						44:leaf=-0.114084512
	2:[f0<0.0640138388] yes=5,no=6,missing=5
		5:leaf=0.299649149
		6:[f6<0.0032299743] yes=11,no=12,missing=11
			11:[f6<0.00243490352] yes=17,no=18,missing=17
				17:[f1<0.00491638808] yes=29,no=30,missing=29
					29:[f0<0.0778546706] yes=45,no=46,missing=45
						45:leaf=0.0600000024
						46:leaf=-0.214285731
					30:[f0<0.070934251] yes=47,no=48,missing=47
						47:leaf=-0.208235309
						48:leaf=-0.275903612
				18:[f0<0.0847750902] yes=31,no=32,missing=31
					31:leaf=0.294545472
					32:[f6<0.0028324388] yes=49,no=50,missing=49
						49:leaf=-0.26901409
						50:leaf=-0.143617034
			12:[f0<0.112456754] yes=19,no=20,missing=19
				19:leaf=0.298918933
				20:[f6<0.00402504485] yes=33,no=34,missing=33
					33:[f6<0.00362750934] yes=51,no=52,missing=51
						51:leaf=-0.274647892
						52:leaf=-0.157142878
					34:[f0<0.140138417] yes=53,no=54,missing=53
						53:leaf=0.29662922
						54:leaf=0.00113207556
booster[2]:
0:[f6<0.00213675201] yes=1,no=2,missing=1
	1:[f6<0.00104353018] yes=3,no=4,missing=3
		3:[f3<0.0076923077] yes=7,no=8,missing=7
			7:[f6<0.000745378667] yes=13,no=14,missing=13
				13:[f6<0.000546611031] yes=23,no=24,missing=23
					23:leaf=0.231353059
					24:[f0<0.019031141] yes=41,no=42,missing=41
						41:leaf=-0.349745929
						42:leaf=0.231572643
				14:[f0<0.0259515569] yes=25,no=26,missing=25
					25:leaf=-0.224576011
					26:[f1<0.0383946486] yes=43,no=44,missing=43
						43:leaf=0.224832371
						44:leaf=-0
			8:[f6<0.000546611031] yes=15,no=16,missing=15
				15:[f0<0.00173010386] yes=27,no=28,missing=27
					27:[f6<9.93838185e-005] yes=45,no=46,missing=45
						45:leaf=0.204930633
						46:leaf=-0.243767545
					28:[f5<0.958260894] yes=47,no=48,missing=47
						47:leaf=-0
						48:leaf=0.210519984
				16:[f0<0.019031141] yes=29,no=30,missing=29
					29:leaf=-0.222230956
					30:[f0<0.0259515569] yes=49,no=50,missing=49
						49:leaf=0.0763890296
						50:leaf=0.212631986
		4:[f0<0.0363321789] yes=9,no=10,missing=9
			9:leaf=-0.23641555
			10:[f3<0.0076923077] yes=17,no=18,missing=17
				17:[f0<0.0467128009] yes=31,no=32,missing=31
					31:[f6<0.00134168158] yes=51,no=52,missing=51
						51:leaf=0.212470099
						52:leaf=-0.305835307
					32:[f6<0.00183860073] yes=53,no=54,missing=53
						53:leaf=0.220649615
						54:leaf=0.167537734
				18:[f6<0.00154044922] yes=33,no=34,missing=33
					33:[f1<0.0056020068] yes=55,no=56,missing=55
						55:leaf=-0.00249328185
						56:leaf=0.189025566
					34:[f0<0.0570934266] yes=57,no=58,missing=57
						57:leaf=-0.220568821
						58:leaf=0.148346588
	2:[f0<0.0743944645] yes=5,no=6,missing=5
		5:leaf=-0.23413904
		6:[f6<0.00362750934] yes=11,no=12,missing=11
			11:[f3<0.0076923077] yes=19,no=20,missing=19
				19:[f6<0.0028324388] yes=35,no=36,missing=35
					35:[f0<0.0847750902] yes=59,no=60,missing=59
						59:leaf=0.155360237
						60:leaf=0.215154305
					36:[f0<0.0986159146] yes=61,no=62,missing=61
						61:leaf=-0.268172026
						62:leaf=0.183773339
				20:[f6<0.00243490352] yes=37,no=38,missing=37
					37:[f0<0.0778546706] yes=63,no=64,missing=63
						63:leaf=-0.0387981199
						64:leaf=0.204424098
					38:[f0<0.115916952] yes=65,no=66,missing=65
						65:leaf=-0.111727066
						66:leaf=0.190899998
			12:[f0<0.126297578] yes=21,no=22,missing=21
				21:leaf=-0.237827525
				22:[f6<0.00452196412] yes=39,no=40,missing=39
					39:[f3<0.0076923077] yes=67,no=68,missing=67
						67:leaf=0.205119208
						68:leaf=-0.0124834795
					40:[f0<0.15743944] yes=69,no=70,missing=69
						69:leaf=-0.267776102
						70:leaf=-0.00381740741
booster[3]:
0:[f6<0.00213675201] yes=1,no=2,missing=1
	1:[f6<0.00104353018] yes=3,no=4,missing=3
		3:[f3<0.0076923077] yes=7,no=8,missing=7
			7:[f6<0.000745378667] yes=13,no=14,missing=13
				13:[f6<0.000546611031] yes=23,no=24,missing=23
					23:leaf=-0.23135303
					24:[f0<0.019031141] yes=41,no=42,missing=41
						41:leaf=0.349745899
						42:leaf=-0.231572643
				14:[f0<0.0259515569] yes=25,no=26,missing=25
					25:leaf=0.224576026
					26:[f1<0.0383946486] yes=43,no=44,missing=43
						43:leaf=-0.224832356
						44:leaf=-0
			8:[f6<0.000546611031] yes=15,no=16,missing=15
				15:[f0<0.00173010386] yes=27,no=28,missing=27
					27:[f6<9.93838185e-005] yes=45,no=46,missing=45
						45:leaf=-0.204930633
						46:leaf=0.243767545
					28:[f5<0.958260894] yes=47,no=48,missing=47
						47:leaf=-0
						48:leaf=-0.210519984
				16:[f0<0.019031141] yes=29,no=30,missing=29
					29:leaf=0.222230956
					30:[f0<0.0259515569] yes=49,no=50,missing=49
						49:leaf=-0.0763890222
						50:leaf=-0.212632
		4:[f0<0.0363321789] yes=9,no=10,missing=9
			9:leaf=0.236415565
			10:[f3<0.0076923077] yes=17,no=18,missing=17
				17:[f0<0.0467128009] yes=31,no=32,missing=31
					31:[f6<0.00134168158] yes=51,no=52,missing=51
						51:leaf=-0.212470099
						52:leaf=0.305835366
					32:[f6<0.00183860073] yes=53,no=54,missing=53
						53:leaf=-0.220649615
						54:leaf=-0.167537734
				18:[f6<0.00154044922] yes=33,no=34,missing=33
					33:[f1<0.0056020068] yes=55,no=56,missing=55
						55:leaf=0.00249328464
						56:leaf=-0.189025566
					34:[f0<0.0570934266] yes=57,no=58,missing=57
						57:leaf=0.220568821
						58:leaf=-0.148346573
	2:[f0<0.0743944645] yes=5,no=6,missing=5
		5:leaf=0.23413907
		6:[f6<0.00362750934] yes=11,no=12,missing=11
			11:[f3<0.0076923077] yes=19,no=20,missing=19
				19:[f6<0.0028324388] yes=35,no=36,missing=35
					35:[f0<0.0847750902] yes=59,no=60,missing=59
						59:leaf=-0.155360237
						60:leaf=-0.215154305
					36:[f0<0.0986159146] yes=61,no=62,missing=61
						61:leaf=0.268172026
						62:leaf=-0.183773369
				20:[f6<0.00243490352] yes=37,no=38,missing=37
					37:[f0<0.0778546706] yes=63,no=64,missing=63
						63:leaf=0.038798131
						64:leaf=-0.204424098
					38:[f0<0.115916952] yes=65,no=66,missing=65
						65:leaf=0.111727066
						66:leaf=-0.190899998
			12:[f0<0.126297578] yes=21,no=22,missing=21
				21:leaf=0.237827525
				22:[f6<0.00452196412] yes=39,no=40,missing=39
					39:[f3<0.0076923077] yes=67,no=68,missing=67
						67:leaf=-0.205119222
						68:leaf=0.0124834729
					40:[f0<0.15743944] yes=69,no=70,missing=69
						69:leaf=0.267776102
						70:leaf=0.00381737226
booster[4]:
0:[f6<0.00203736825] yes=1,no=2,missing=1
	1:[f6<0.000944146304] yes=3,no=4,missing=3
		3:[f3<0.0076923077] yes=7,no=8,missing=7
			7:[f6<0.000745378667] yes=13,no=14,missing=13
				13:[f6<0.000546611031] yes=25,no=26,missing=25
					25:leaf=0.200011685
					26:[f0<0.019031141] yes=47,no=48,missing=47
						47:leaf=-0.239848867
						48:leaf=0.200482801
				14:[f0<0.0259515569] yes=27,no=28,missing=27
					27:leaf=-0.190910891
					28:leaf=0.202683598
			8:[f0<0.0121107269] yes=15,no=16,missing=15
				15:[f6<0.000347843365] yes=29,no=30,missing=29
					29:[f3<0.0230769236] yes=49,no=50,missing=49
						49:leaf=0.198742643
						50:leaf=0.0676913112
					30:leaf=-0.217552558
				16:[f6<0.000745378667] yes=31,no=32,missing=31
					31:[f1<0.00488294289] yes=51,no=52,missing=51
						51:leaf=0.075462386
						52:leaf=0.196467564
					32:[f0<0.0259515569] yes=53,no=54,missing=53
						53:leaf=-0.19297941
						54:leaf=0.191297039
		4:[f0<0.0328719728] yes=9,no=10,missing=9
			9:[f6<0.00114291394] yes=17,no=18,missing=17
				17:[f0<0.0259515569] yes=33,no=34,missing=33
					33:leaf=-0.195001081
					34:leaf=-0.346347123
				18:leaf=-0.20056051
			10:[f3<0.0076923077] yes=19,no=20,missing=19
				19:[f0<0.0570934266] yes=35,no=36,missing=35
					35:[f6<0.00163983298] yes=55,no=56,missing=55
						55:leaf=0.166848093
						56:leaf=-0.272744328
					36:[f0<0.0640138388] yes=57,no=58,missing=57
						57:leaf=0.176967472
						58:leaf=0.217782259
				20:[f1<0.00894648768] yes=37,no=38,missing=37
					37:[f6<0.00134168158] yes=59,no=60,missing=59
						59:leaf=0.120299101
						60:leaf=-0.106566705
					38:[f1<0.0177257527] yes=61,no=62,missing=61
						61:leaf=0.14491114
						62:leaf=-0.0406863764
	2:[f0<0.070934251] yes=5,no=6,missing=5
		5:leaf=-0.204195753
		6:[f6<0.00313059031] yes=11,no=12,missing=11
			11:[f6<0.00243490352] yes=21,no=22,missing=21
				21:[f1<0.00491638808] yes=39,no=40,missing=39
					39:[f1<0.00349498307] yes=63,no=64,missing=63
						63:leaf=0.13747564
						64:leaf=-0.165975317
					40:[f0<0.0778546706] yes=65,no=66,missing=65
						65:leaf=0.164133102
						66:leaf=0.208368227
				22:[f0<0.0847750902] yes=41,no=42,missing=41
					41:leaf=-0.221757606
					42:[f0<0.0986159146] yes=67,no=68,missing=67
						67:leaf=0.117254004
						68:leaf=0.206719384
			12:[f0<0.10899654] yes=23,no=24,missing=23
				23:[f6<0.0032299743] yes=43,no=44,missing=43
					43:leaf=-0.289657116
					44:leaf=-0.204198673
				24:[f6<0.00561518595] yes=45,no=46,missing=45
					45:[f3<0.0076923077] yes=69,no=70,missing=69
						69:leaf=0.107194878
						70:leaf=-0.110271089
					46:[f0<0.19550173] yes=71,no=72,missing=71
						71:leaf=-0.24870728
						72:leaf=-0.0106713176
booster[5]:
0:[f6<0.00203736825] yes=1,no=2,missing=1
	1:[f6<0.000944146304] yes=3,no=4,missing=3
		3:[f3<0.0076923077] yes=7,no=8,missing=7
			7:[f6<0.000745378667] yes=13,no=14,missing=13
				13:[f6<0.000546611031] yes=25,no=26,missing=25
					25:leaf=-0.200011715
					26:[f0<0.019031141] yes=47,no=48,missing=47
						47:leaf=0.239848867
						48:leaf=-0.200482801
				14:[f0<0.0259515569] yes=27,no=28,missing=27
					27:leaf=0.190910906
					28:leaf=-0.202683598
			8:[f0<0.0121107269] yes=15,no=16,missing=15
				15:[f6<0.000347843365] yes=29,no=30,missing=29
					29:[f3<0.0230769236] yes=49,no=50,missing=49
						49:leaf=-0.198742643
						50:leaf=-0.0676913112
					30:leaf=0.217552572
				16:[f6<0.000745378667] yes=31,no=32,missing=31
					31:[f1<0.00488294289] yes=51,no=52,missing=51
						51:leaf=-0.075462386
						52:leaf=-0.196467564
					32:[f0<0.0259515569] yes=53,no=54,missing=53
						53:leaf=0.19297941
						54:leaf=-0.191297039
		4:[f0<0.0328719728] yes=9,no=10,missing=9
			9:[f6<0.00114291394] yes=17,no=18,missing=17
				17:[f0<0.0259515569] yes=33,no=34,missing=33
					33:leaf=0.195001081
					34:leaf=0.346347094
				18:leaf=0.20056051
			10:[f3<0.0076923077] yes=19,no=20,missing=19
				19:[f0<0.0570934266] yes=35,no=36,missing=35
					35:[f6<0.00163983298] yes=55,no=56,missing=55
						55:leaf=-0.166848108
						56:leaf=0.272744328
					36:[f0<0.0640138388] yes=57,no=58,missing=57
						57:leaf=-0.176967487
						58:leaf=-0.217782274
				20:[f1<0.00894648768] yes=37,no=38,missing=37
					37:[f6<0.00134168158] yes=59,no=60,missing=59
						59:leaf=-0.120299101
						60:leaf=0.106566705
					38:[f1<0.0177257527] yes=61,no=62,missing=61
						61:leaf=-0.144911155
						62:leaf=0.0406863727
	2:[f0<0.070934251] yes=5,no=6,missing=5
		5:leaf=0.204195753
		6:[f6<0.00313059031] yes=11,no=12,missing=11
			11:[f6<0.00243490352] yes=21,no=22,missing=21
				21:[f1<0.00491638808] yes=39,no=40,missing=39
					39:[f1<0.00349498307] yes=63,no=64,missing=63
						63:leaf=-0.137475625
						64:leaf=0.165975317
					40:[f0<0.0778546706] yes=65,no=66,missing=65
						65:leaf=-0.164133087
						66:leaf=-0.208368197
				22:[f0<0.0847750902] yes=41,no=42,missing=41
					41:leaf=0.221757606
					42:[f0<0.0986159146] yes=67,no=68,missing=67
						67:leaf=-0.117254011
						68:leaf=-0.206719354
			12:[f0<0.10899654] yes=23,no=24,missing=23
				23:[f6<0.0032299743] yes=43,no=44,missing=43
					43:leaf=0.289657116
					44:leaf=0.204198673
				24:[f6<0.00561518595] yes=45,no=46,missing=45
					45:[f3<0.0076923077] yes=69,no=70,missing=69
						69:leaf=-0.107194878
						70:leaf=0.110271096
					46:[f0<0.19550173] yes=71,no=72,missing=71
						71:leaf=0.248707309
						72:leaf=0.010671353
booster[6]:
0:[f6<0.00154044922] yes=1,no=2,missing=1
	1:[f6<0.000745378667] yes=3,no=4,missing=3
		3:[f3<0.0076923077] yes=7,no=8,missing=7
			7:[f6<0.000546611031] yes=15,no=16,missing=15
				15:leaf=0.182059824
				16:[f0<0.019031141] yes=27,no=28,missing=27
					27:leaf=-0.194170326
					28:leaf=0.182790264
			8:[f0<0.0121107269] yes=17,no=18,missing=17
				17:[f6<0.000347843365] yes=29,no=30,missing=29
					29:[f3<0.0230769236] yes=45,no=46,missing=45
						45:leaf=0.177121684
						46:leaf=0.053648144
					30:leaf=-0.196007192
				18:[f0<0.0155709349] yes=31,no=32,missing=31
					31:[f1<0.00693979952] yes=47,no=48,missing=47
						47:leaf=0.0230575688
						48:leaf=0.115506209
					32:leaf=0.182261914
		4:[f0<0.0259515569] yes=9,no=10,missing=9
			9:leaf=-0.184194431
			10:[f6<0.00114291394] yes=19,no=20,missing=19
				19:[f1<0.0281939805] yes=33,no=34,missing=33
					33:[f0<0.0294117648] yes=49,no=50,missing=49
						49:leaf=0.140359372
						50:leaf=0.17829302
					34:[f1<0.031705685] yes=51,no=52,missing=51
						51:leaf=-0.0333119817
						52:leaf=0.112152666
				20:[f0<0.0397923887] yes=35,no=36,missing=35
					35:leaf=-0.233629286
					36:[f0<0.0467128009] yes=53,no=54,missing=53
						53:leaf=0.13112697
						54:leaf=0.18854402
	2:[f0<0.0536332205] yes=5,no=6,missing=5
		5:[f6<0.00183860073] yes=11,no=12,missing=11
			11:[f0<0.0432525948] yes=21,no=22,missing=21
				21:leaf=-0.185149878
				22:leaf=-0.288467973
			12:leaf=-0.184428573
		6:[f6<0.0028324388] yes=13,no=14,missing=13
			13:[f6<0.00203736825] yes=23,no=24,missing=23
				23:[f0<0.0640138388] yes=37,no=38,missing=37
					37:[f6<0.00183860073] yes=55,no=56,missing=55
						55:leaf=0.172655314
						56:leaf=-0.233990073
					38:[f3<0.0230769236] yes=57,no=58,missing=57
						57:leaf=0.196642339
						58:leaf=0.00301220967
				24:[f0<0.070934251] yes=39,no=40,missing=39
					39:leaf=-0.210904717
					40:[f3<0.0076923077] yes=59,no=60,missing=59
						59:leaf=0.136252269
						60:leaf=0.0159651339
			14:[f0<0.0986159146] yes=25,no=26,missing=25
				25:[f6<0.0032299743] yes=41,no=42,missing=41
					41:[f0<0.0847750902] yes=61,no=62,missing=61
						61:leaf=-0.175936952
						62:leaf=-0.272342831
					42:leaf=-0.183316737
				26:[f6<0.00402504485] yes=43,no=44,missing=43
					43:[f0<0.119377166] yes=63,no=64,missing=63
						63:leaf=0.0517330728
						64:leaf=0.166297913
					44:[f0<0.140138417] yes=65,no=66,missing=65
						65:leaf=-0.204365864
						66:leaf=0.0061844592
booster[7]:
0:[f6<0.00154044922] yes=1,no=2,missing=1
	1:[f6<0.000745378667] yes=3,no=4,missing=3
		3:[f3<0.0076923077] yes=7,no=8,missing=7
			7:[f6<0.000546611031] yes=15,no=16,missing=15
				15:leaf=-0.18205981
				16:[f0<0.019031141] yes=27,no=28,missing=27
					27:leaf=0.194170326
					28:leaf=-0.182790264
			8:[f0<0.0121107269] yes=17,no=18,missing=17
				17:[f6<0.000347843365] yes=29,no=30,missing=29
					29:[f3<0.0230769236] yes=45,no=46,missing=45
						45:leaf=-0.177121684
						46:leaf=-0.0536481477
					30:leaf=0.196007192
				18:[f0<0.0155709349] yes=31,no=32,missing=31
					31:[f1<0.00693979952] yes=47,no=48,missing=47
						47:leaf=-0.0230575614
						48:leaf=-0.115506209
					32:leaf=-0.182261914
		4:[f0<0.0259515569] yes=9,no=10,missing=9
			9:leaf=0.184194446
			10:[f6<0.00114291394] yes=19,no=20,missing=19
				19:[f1<0.0281939805] yes=33,no=34,missing=33
					33:[f0<0.0294117648] yes=49,no=50,missing=49
						49:leaf=-0.140359387
						50:leaf=-0.178293034
					34:[f1<0.031705685] yes=51,no=52,missing=51
						51:leaf=0.0333119743
						52:leaf=-0.112152673
				20:[f0<0.0397923887] yes=35,no=36,missing=35
					35:leaf=0.233629286
					36:[f0<0.0467128009] yes=53,no=54,missing=53
						53:leaf=-0.131126955
						54:leaf=-0.18854402
	2:[f0<0.0536332205] yes=5,no=6,missing=5
		5:[f6<0.00183860073] yes=11,no=12,missing=11
			11:[f0<0.0432525948] yes=21,no=22,missing=21
				21:leaf=0.185149893
				22:leaf=0.288467944
			12:leaf=0.184428558
		6:[f6<0.0028324388] yes=13,no=14,missing=13
			13:[f6<0.00203736825] yes=23,no=24,missing=23
				23:[f0<0.0640138388] yes=37,no=38,missing=37
					37:[f6<0.00183860073] yes=55,no=56,missing=55
						55:leaf=-0.172655314
						56:leaf=0.233990088
					38:[f3<0.0230769236] yes=57,no=58,missing=57
						57:leaf=-0.196642339
						58:leaf=-0.00301220198
				24:[f0<0.070934251] yes=39,no=40,missing=39
					39:leaf=0.210904717
					40:[f3<0.0076923077] yes=59,no=60,missing=59
						59:leaf=-0.136252284
						60:leaf=-0.0159651469
			14:[f0<0.0986159146] yes=25,no=26,missing=25
				25:[f6<0.0032299743] yes=41,no=42,missing=41
					41:[f0<0.0847750902] yes=61,no=62,missing=61
						61:leaf=0.175936952
						62:leaf=0.272342831
					42:leaf=0.183316737
				26:[f6<0.00402504485] yes=43,no=44,missing=43
					43:[f0<0.119377166] yes=63,no=64,missing=63
						63:leaf=-0.0517330915
						64:leaf=-0.166297927
					44:[f0<0.140138417] yes=65,no=66,missing=65
						65:leaf=0.204365864
						66:leaf=-0.00618445175
booster[8]:
0:[f6<0.00134168158] yes=1,no=2,missing=1
	1:[f3<0.0076923077] yes=3,no=4,missing=3
		3:[f6<0.000745378667] yes=7,no=8,missing=7
			7:[f6<0.000546611031] yes=15,no=16,missing=15
				15:leaf=0.170445651
				16:[f0<0.019031141] yes=29,no=30,missing=29
					29:leaf=-0.16761899
					30:leaf=0.171500534
			8:[f0<0.0259515569] yes=17,no=18,missing=17
				17:leaf=-0.167831182
				18:[f6<0.000944146304] yes=31,no=32,missing=31
					31:leaf=0.174015716
					32:[f0<0.0328719728] yes=45,no=46,missing=45
						45:leaf=-0.252219856
						46:leaf=0.147841439
		4:[f6<0.000645994791] yes=9,no=10,missing=9
			9:[f0<0.00865051895] yes=19,no=20,missing=19
				19:[f6<0.000248459546] yes=33,no=34,missing=33
					33:[f6<0.000149075728] yes=47,no=48,missing=47
						47:leaf=0.161224514
						48:leaf=0.0596680753
					34:leaf=-0.17865701
				20:leaf=0.141329885
			10:[f0<0.0224913508] yes=21,no=22,missing=21
				21:leaf=-0.165817201
				22:[f6<0.000944146304] yes=35,no=36,missing=35
					35:[f0<0.0259515569] yes=49,no=50,missing=49
						49:leaf=0.0467220433
						50:leaf=0.157290623
					36:[f0<0.0328719728] yes=51,no=52,missing=51
						51:leaf=-0.177460179
						52:leaf=0.076914221
	2:[f0<0.0467128009] yes=5,no=6,missing=5
		5:[f6<0.00154044922] yes=11,no=12,missing=11
			11:[f0<0.0397923887] yes=23,no=24,missing=23
				23:leaf=-0.169831559
				24:leaf=-0.339569241
			12:leaf=-0.174586803
		6:[f6<0.00303120655] yes=13,no=14,missing=13
			13:[f6<0.00173921685] yes=25,no=26,missing=25
				25:[f5<0.99326086] yes=37,no=38,missing=37
					37:[f6<0.00163983298] yes=53,no=54,missing=53
						53:leaf=0.113939546
						54:leaf=-0.0721174031
					38:[f3<0.0384615399] yes=55,no=56,missing=55
						55:leaf=0.160412937
						56:leaf=0.0369375944
				26:[f0<0.0605536327] yes=39,no=40,missing=39
					39:[f6<0.00183860073] yes=57,no=58,missing=57
						57:leaf=-0.292458504
						58:leaf=-0.17803961
					40:[f6<0.00203736825] yes=59,no=60,missing=59
						59:leaf=0.16079998
						60:leaf=0.0616746955
			14:[f0<0.105536327] yes=27,no=28,missing=27
				27:[f6<0.0032299743] yes=41,no=42,missing=41
					41:[f0<0.0986159146] yes=61,no=62,missing=61
						61:leaf=-0.180903018
						62:leaf=-0.334738433
					42:leaf=-0.175603718
				28:[f6<0.00710594282] yes=43,no=44,missing=43
					43:[f3<0.0076923077] yes=63,no=64,missing=63
						63:leaf=0.0604256801
						64:leaf=-0.101588704
					44:[f0<0.247404844] yes=65,no=66,missing=65
						65:leaf=-0.240627021
						66:leaf=-0.0861702934
booster[9]:
0:[f6<0.00134168158] yes=1,no=2,missing=1
	1:[f3<0.0076923077] yes=3,no=4,missing=3
		3:[f6<0.000745378667] yes=7,no=8,missing=7
			7:[f6<0.000546611031] yes=15,no=16,missing=15
				15:leaf=-0.170445651
				16:[f0<0.019031141] yes=29,no=30,missing=29
					29:leaf=0.16761899
					30:leaf=-0.171500534
			8:[f0<0.0259515569] yes=17,no=18,missing=17
				17:leaf=0.167831182
				18:[f6<0.000944146304] yes=31,no=32,missing=31
					31:leaf=-0.174015716
					32:[f0<0.0328719728] yes=45,no=46,missing=45
						45:leaf=0.252219886
						46:leaf=-0.147841439
		4:[f6<0.000645994791] yes=9,no=10,missing=9
			9:[f0<0.00865051895] yes=19,no=20,missing=19
				19:[f6<0.000248459546] yes=33,no=34,missing=33
					33:[f6<0.000149075728] yes=47,no=48,missing=47
						47:leaf=-0.161224514
						48:leaf=-0.0596680604
					34:leaf=0.17865701
				20:leaf=-0.141329885
			10:[f0<0.0224913508] yes=21,no=22,missing=21
				21:leaf=0.165817186
				22:[f6<0.000944146304] yes=35,no=36,missing=35
					35:[f0<0.0259515569] yes=49,no=50,missing=49
						49:leaf=-0.0467220247
						50:leaf=-0.157290637
					36:[f0<0.0328719728] yes=51,no=52,missing=51
						51:leaf=0.177460164
						52:leaf=-0.076914221
	2:[f0<0.0467128009] yes=5,no=6,missing=5
		5:[f6<0.00154044922] yes=11,no=12,missing=11
			11:[f0<0.0397923887] yes=23,no=24,missing=23
				23:leaf=0.169831559
				24:leaf=0.339569211
			12:leaf=0.174586773
		6:[f6<0.00303120655] yes=13,no=14,missing=13
			13:[f6<0.00173921685] yes=25,no=26,missing=25
				25:[f5<0.99326086] yes=37,no=38,missing=37
					37:[f6<0.00163983298] yes=53,no=54,missing=53
						53:leaf=-0.113939546
						54:leaf=0.0721174031
					38:[f3<0.0384615399] yes=55,no=56,missing=55
						55:leaf=-0.160412937
						56:leaf=-0.0369375944
				26:[f0<0.0605536327] yes=39,no=40,missing=39
					39:[f6<0.00183860073] yes=57,no=58,missing=57
						57:leaf=0.292458504
						58:leaf=0.17803961
					40:[f6<0.00203736825] yes=59,no=60,missing=59
						59:leaf=-0.16079998
						60:leaf=-0.0616746955
			14:[f0<0.105536327] yes=27,no=28,missing=27
				27:[f6<0.0032299743] yes=41,no=42,missing=41
					41:[f0<0.0986159146] yes=61,no=62,missing=61
						61:leaf=0.180903003
						62:leaf=0.334738433
					42:leaf=0.175603718
				28:[f6<0.00710594282] yes=43,no=44,missing=43
					43:[f3<0.0076923077] yes=63,no=64,missing=63
						63:leaf=-0.0604256801
						64:leaf=0.101588719
					44:[f0<0.247404844] yes=65,no=66,missing=65
						65:leaf=0.240627035
						66:leaf=0.0861703232
booster[10]:
0:[f6<0.00134168158] yes=1,no=2,missing=1
	1:[f6<0.000844762428] yes=3,no=4,missing=3
		3:[f3<0.0076923077] yes=7,no=8,missing=7
			7:[f6<0.000546611031] yes=13,no=14,missing=13
				13:leaf=0.162212074
				14:[f0<0.019031141] yes=23,no=24,missing=23
					23:leaf=-0.156613171
					24:leaf=0.160529256
			8:[f0<0.0155709349] yes=15,no=16,missing=15
				15:[f6<0.000447227183] yes=25,no=26,missing=25
					25:[f5<0.980434775] yes=41,no=42,missing=41
						41:leaf=-0.0127542103
						42:leaf=0.121410079
					26:leaf=-0.163878083
				16:[f8<0.166666672] yes=27,no=28,missing=27
					27:leaf=0.158938125
					28:leaf=0.041008085
		4:[f0<0.0294117648] yes=9,no=10,missing=9
			9:leaf=-0.177885473
			10:[f6<0.00114291394] yes=17,no=18,missing=17
				17:[f1<0.0299665555] yes=29,no=30,missing=29
					29:leaf=0.155000955
					30:leaf=0.0268025585
				18:[f0<0.0397923887] yes=31,no=32,missing=31
					31:leaf=-0.244323879
					32:[f1<0.0278595313] yes=43,no=44,missing=43
						43:leaf=0.152627438
						44:leaf=0.0432223976
	2:[f0<0.0467128009] yes=5,no=6,missing=5
		5:leaf=-0.169964224
		6:[f6<0.00233551976] yes=11,no=12,missing=11
			11:[f6<0.00173921685] yes=19,no=20,missing=19
				19:[f5<0.99326086] yes=33,no=34,missing=33
					33:[f6<0.00163983298] yes=45,no=46,missing=45
						45:leaf=0.10301093
						46:leaf=-0.0580095574
					34:[f3<0.0076923077] yes=47,no=48,missing=47
						47:leaf=0.152464673
						48:leaf=0.0923157632
				20:[f0<0.0605536327] yes=35,no=36,missing=35
					35:leaf=-0.194937006
					36:[f0<0.070934251] yes=49,no=50,missing=49
						49:leaf=0.0732481554
						50:leaf=0.149849311
			12:[f0<0.0813148767] yes=21,no=22,missing=21
				21:[f6<0.0028324388] yes=37,no=38,missing=37
					37:[f0<0.070934251] yes=51,no=52,missing=51
						51:leaf=-0.163173795
						52:leaf=-0.254615635
					38:leaf=-0.165835619
				22:[f6<0.00362750934] yes=39,no=40,missing=39
					39:[f0<0.10899654] yes=53,no=54,missing=53
						53:leaf=0.0494319536
						54:leaf=0.143843785
					40:[f0<0.126297578] yes=55,no=56,missing=55
						55:leaf=-0.1940929
						56:leaf=0.00371127925
booster[11]:
0:[f6<0.00134168158] yes=1,no=2,missing=1
	1:[f6<0.000844762428] yes=3,no=4,missing=3
		3:[f3<0.0076923077] yes=7,no=8,missing=7
			7:[f6<0.000546611031] yes=13,no=14,missing=13
				13:leaf=-0.162212074
				14:[f0<0.019031141] yes=23,no=24,missing=23
					23:leaf=0.156613186
					24:leaf=-0.160529256
			8:[f0<0.0155709349] yes=15,no=16,missing=15
				15:[f6<0.000447227183] yes=25,no=26,missing=25
					25:[f5<0.980434775] yes=41,no=42,missing=41
						41:leaf=0.0127542149
						42:leaf=-0.121410072
					26:leaf=0.163878083
				16:[f8<0.166666672] yes=27,no=28,missing=27
					27:leaf=-0.158938125
					28:leaf=-0.0410080925
		4:[f0<0.0294117648] yes=9,no=10,missing=9
			9:leaf=0.177885473
			10:[f6<0.00114291394] yes=17,no=18,missing=17
				17:[f1<0.0299665555] yes=29,no=30,missing=29
					29:leaf=-0.155000955
					30:leaf=-0.026802551
				18:[f0<0.0397923887] yes=31,no=32,missing=31
					31:leaf=0.244323879
					32:[f1<0.0278595313] yes=43,no=44,missing=43
						43:leaf=-0.152627438
						44:leaf=-0.0432223864
	2:[f0<0.0467128009] yes=5,no=6,missing=5
		5:leaf=0.169964224
		6:[f6<0.00233551976] yes=11,no=12,missing=11
			11:[f6<0.00173921685] yes=19,no=20,missing=19
				19:[f5<0.99326086] yes=33,no=34,missing=33
					33:[f6<0.00163983298] yes=45,no=46,missing=45
						45:leaf=-0.10301093
						46:leaf=0.05800955
					34:[f3<0.0076923077] yes=47,no=48,missing=47
						47:leaf=-0.152464673
						48:leaf=-0.0923157632
				20:[f0<0.0605536327] yes=35,no=36,missing=35
					35:leaf=0.194937006
					36:[f0<0.070934251] yes=49,no=50,missing=49
						49:leaf=-0.073248148
						50:leaf=-0.149849296
			12:[f0<0.0813148767] yes=21,no=22,missing=21
				21:[f6<0.0028324388] yes=37,no=38,missing=37
					37:[f0<0.070934251] yes=51,no=52,missing=51
						51:leaf=0.163173795
						52:leaf=0.254615635
					38:leaf=0.165835649
				22:[f6<0.00362750934] yes=39,no=40,missing=39
					39:[f0<0.10899654] yes=53,no=54,missing=53
						53:leaf=-0.049431961
						54:leaf=-0.143843785
					40:[f0<0.126297578] yes=55,no=56,missing=55
						55:leaf=0.1940929
						56:leaf=-0.00371127669
booster[12]:
0:[f6<0.00134168158] yes=1,no=2,missing=1
	1:[f3<0.0076923077] yes=3,no=4,missing=3
		3:[f6<0.000944146304] yes=7,no=8,missing=7
			7:[f6<0.000546611031] yes=13,no=14,missing=13
				13:leaf=0.155841261
				14:[f0<0.019031141] yes=25,no=26,missing=25
					25:leaf=-0.149450615
					26:leaf=0.151389137
			8:[f0<0.0328719728] yes=15,no=16,missing=15
				15:leaf=-0.178419858
				16:[f6<0.00114291394] yes=27,no=28,missing=27
					27:leaf=0.160666943
					28:[f0<0.0397923887] yes=43,no=44,missing=43
						43:leaf=-0.203717425
						44:leaf=0.147321045
		4:[f6<0.000645994791] yes=9,no=10,missing=9
			9:[f0<0.00519031147] yes=17,no=18,missing=17
				17:[f6<0.000149075728] yes=29,no=30,missing=29
					29:leaf=0.14022851
					30:leaf=-0.181590721
				18:[f6<0.000546611031] yes=31,no=32,missing=31
					31:leaf=0.125479802
					32:[f1<0.0131270904] yes=45,no=46,missing=45
						45:leaf=0.0725010112
						46:leaf=-0.0087034069
			10:[f0<0.0224913508] yes=19,no=20,missing=19
				19:leaf=-0.147797033
				20:[f6<0.0012422977] yes=33,no=34,missing=33
					33:[f0<0.0363321789] yes=47,no=48,missing=47
						47:leaf=0.0299231224
						48:leaf=0.119686626
					34:[f0<0.0432525948] yes=49,no=50,missing=49
						49:leaf=-0.235319912
						50:leaf=0.140615076
	2:[f0<0.0467128009] yes=5,no=6,missing=5
		5:leaf=-0.164438277
		6:[f6<0.0032299743] yes=11,no=12,missing=11
			11:[f6<0.00203736825] yes=21,no=22,missing=21
				21:[f3<0.0076923077] yes=35,no=36,missing=35
					35:[f0<0.0640138388] yes=51,no=52,missing=51
						51:leaf=0.105012976
						52:leaf=0.163474962
					36:[f6<0.00154044922] yes=53,no=54,missing=53
						53:leaf=0.158404261
						54:leaf=-0.004444174
				22:[f0<0.070934251] yes=37,no=38,missing=37
					37:[f6<0.00233551976] yes=55,no=56,missing=55
						55:leaf=-0.215244696
						56:leaf=-0.1586207
					38:[f0<0.0916955024] yes=57,no=58,missing=57
						57:leaf=0.0275006313
						58:leaf=0.115056835
			12:[f0<0.112456754] yes=23,no=24,missing=23
				23:[f0<0.0986159146] yes=39,no=40,missing=39
					39:leaf=-0.160807237
					40:[f6<0.00362750934] yes=59,no=60,missing=59
						59:leaf=-0.228645846
						60:leaf=-0.163215265
				24:[f6<0.00611210521] yes=41,no=42,missing=41
					41:[f0<0.164359868] yes=61,no=62,missing=61
						61:leaf=0.0056336578
						62:leaf=0.148106098
					42:[f0<0.212802768] yes=63,no=64,missing=63
						63:leaf=-0.220322207
						64:leaf=0.000809678109
booster[13]:
0:[f6<0.00134168158] yes=1,no=2,missing=1
	1:[f3<0.0076923077] yes=3,no=4,missing=3
		3:[f6<0.000944146304] yes=7,no=8,missing=7
			7:[f6<0.000546611031] yes=13,no=14,missing=13
				13:leaf=-0.155841261
				14:[f0<0.019031141] yes=25,no=26,missing=25
					25:leaf=0.149450615
					26:leaf=-0.151389137
			8:[f0<0.0328719728] yes=15,no=16,missing=15
				15:leaf=0.178419858
				16:[f6<0.00114291394] yes=27,no=28,missing=27
					27:leaf=-0.160666943
					28:[f0<0.0397923887] yes=43,no=44,missing=43
						43:leaf=0.203717411
						44:leaf=-0.14732106
		4:[f6<0.000645994791] yes=9,no=10,missing=9
			9:[f0<0.00519031147] yes=17,no=18,missing=17
				17:[f6<0.000149075728] yes=29,no=30,missing=29
					29:leaf=-0.140228525
					30:leaf=0.181590736
				18:[f6<0.000546611031] yes=31,no=32,missing=31
					31:leaf=-0.125479802
					32:[f1<0.0131270904] yes=45,no=46,missing=45
						45:leaf=-0.0725010037
						46:leaf=0.00870339666
			10:[f0<0.0224913508] yes=19,no=20,missing=19
				19:leaf=0.147797033
				20:[f6<0.0012422977] yes=33,no=34,missing=33
					33:[f0<0.0363321789] yes=47,no=48,missing=47
						47:leaf=-0.0299231056
						48:leaf=-0.119686626
					34:[f0<0.0432525948] yes=49,no=50,missing=49
						49:leaf=0.235319927
						50:leaf=-0.140615076
	2:[f0<0.0467128009] yes=5,no=6,missing=5
		5:leaf=0.164438277
		6:[f6<0.0032299743] yes=11,no=12,missing=11
			11:[f6<0.00203736825] yes=21,no=22,missing=21
				21:[f3<0.0076923077] yes=35,no=36,missing=35
					35:[f0<0.0640138388] yes=51,no=52,missing=51
						51:leaf=-0.105012968
						52:leaf=-0.163474962
					36:[f6<0.00154044922] yes=53,no=54,missing=53
						53:leaf=-0.158404261
						54:leaf=0.0044441605
				22:[f0<0.070934251] yes=37,no=38,missing=37
					37:[f6<0.00233551976] yes=55,no=56,missing=55
						55:leaf=0.215244666
						56:leaf=0.1586207
					38:[f0<0.0916955024] yes=57,no=58,missing=57
						57:leaf=-0.0275006462
						58:leaf=-0.115056835
			12:[f0<0.112456754] yes=23,no=24,missing=23
				23:[f0<0.0986159146] yes=39,no=40,missing=39
					39:leaf=0.160807237
					40:[f6<0.00362750934] yes=59,no=60,missing=59
						59:leaf=0.228645846
						60:leaf=0.163215265
				24:[f6<0.00611210521] yes=41,no=42,missing=41
					41:[f0<0.164359868] yes=61,no=62,missing=61
						61:leaf=-0.00563365454
						62:leaf=-0.148106113
					42:[f0<0.212802768] yes=63,no=64,missing=63
						63:leaf=0.220322207
						64:leaf=-0.000809695222
booster[14]:
0:[f6<0.00144106545] yes=1,no=2,missing=1
	1:[f6<0.000745378667] yes=3,no=4,missing=3
		3:[f3<0.0076923077] yes=7,no=8,missing=7
			7:leaf=0.145653576
			8:[f0<0.0155709349] yes=15,no=16,missing=15
				15:[f6<0.000447227183] yes=25,no=26,missing=25
					25:[f3<0.0230769236] yes=39,no=40,missing=39
						39:leaf=0.109673277
						40:leaf=0.0154842427
					26:leaf=-0.140202552
				16:leaf=0.143722415
		4:[f0<0.0259515569] yes=9,no=10,missing=9
			9:leaf=-0.156663656
			10:[f6<0.000944146304] yes=17,no=18,missing=17
				17:leaf=0.156124383
				18:[f0<0.0328719728] yes=27,no=28,missing=27
					27:leaf=-0.188001513
					28:[f0<0.0432525948] yes=41,no=42,missing=41
						41:leaf=0.0668642074
						42:leaf=0.146599814
	2:[f0<0.0501730107] yes=5,no=6,missing=5
		5:[f6<0.00163983298] yes=11,no=12,missing=11
			11:[f0<0.0432525948] yes=19,no=20,missing=19
				19:leaf=-0.152771875
				20:[f1<0.0142307691] yes=29,no=30,missing=29
					29:leaf=-0.16652824
					30:leaf=-0.405317873
			12:leaf=-0.158150643
		6:[f3<0.0076923077] yes=13,no=14,missing=13
			13:[f6<0.00243490352] yes=21,no=22,missing=21
				21:[f0<0.0778546706] yes=31,no=32,missing=31
					31:[f6<0.002236136] yes=43,no=44,missing=43
						43:leaf=0.0984114856
						44:leaf=-0.31419909
					32:leaf=0.165217578
				22:[f0<0.0847750902] yes=33,no=34,missing=33
					33:leaf=-0.174825847
					34:[f6<0.00929238647] yes=45,no=46,missing=45
						45:leaf=0.0318824798
						46:leaf=-0.18155849
			14:[f6<0.00501888292] yes=23,no=24,missing=23
				23:[f1<0.00844481587] yes=35,no=36,missing=35
					35:[f0<0.162629753] yes=47,no=48,missing=47
						47:leaf=-0.105465151
						48:leaf=0.190968499
					36:[f6<0.0032299743] yes=49,no=50,missing=49
						49:leaf=0.0628535673
						50:leaf=-0.0618111603
				24:[f1<0.00326086953] yes=37,no=38,missing=37
					37:[f6<0.00581395347] yes=51,no=52,missing=51
						51:leaf=0.039778363
						52:leaf=-0.168962985
					38:[f1<0.0192474909] yes=53,no=54,missing=53
						53:leaf=-0.188971743
						54:leaf=-0.0111495703
booster[15]:
0:[f6<0.00144106545] yes=1,no=2,missing=1
	1:[f6<0.000745378667] yes=3,no=4,missing=3
		3:[f3<0.0076923077] yes=7,no=8,missing=7
			7:leaf=-0.145653561
			8:[f0<0.0155709349] yes=15,no=16,missing=15
				15:[f6<0.000447227183] yes=25,no=26,missing=25
					25:[f3<0.0230769236] yes=39,no=40,missing=39
						39:leaf=-0.109673284
						40:leaf=-0.0154842613
					26:leaf=0.140202537
				16:leaf=-0.143722415
		4:[f0<0.0259515569] yes=9,no=10,missing=9
			9:leaf=0.156663626
			10:[f6<0.000944146304] yes=17,no=18,missing=17
				17:leaf=-0.156124368
				18:[f0<0.0328719728] yes=27,no=28,missing=27
					27:leaf=0.188001499
					28:[f0<0.0432525948] yes=41,no=42,missing=41
						41:leaf=-0.0668642074
						42:leaf=-0.146599799
	2:[f0<0.0501730107] yes=5,no=6,missing=5
		5:[f6<0.00163983298] yes=11,no=12,missing=11
			11:[f0<0.0432525948] yes=19,no=20,missing=19
				19:leaf=0.15277186
				20:[f1<0.0142307691] yes=29,no=30,missing=29
					29:leaf=0.16652824
					30:leaf=0.405317873
			12:leaf=0.158150643
		6:[f3<0.0076923077] yes=13,no=14,missing=13
			13:[f6<0.00243490352] yes=21,no=22,missing=21
				21:[f0<0.0778546706] yes=31,no=32,missing=31
					31:[f6<0.002236136] yes=43,no=44,missing=43
						43:leaf=-0.0984114781
						44:leaf=0.31419909
					32:leaf=-0.165217549
				22:[f0<0.0847750902] yes=33,no=34,missing=33
					33:leaf=0.174825847
					34:[f6<0.00929238647] yes=45,no=46,missing=45
						45:leaf=-0.0318824761
						46:leaf=0.18155849
			14:[f6<0.00501888292] yes=23,no=24,missing=23
				23:[f1<0.00844481587] yes=35,no=36,missing=35
					35:[f0<0.162629753] yes=47,no=48,missing=47
						47:leaf=0.105465151
						48:leaf=-0.190968513
					36:[f6<0.0032299743] yes=49,no=50,missing=49
						49:leaf=-0.0628535673
						50:leaf=0.0618111566
				24:[f1<0.00326086953] yes=37,no=38,missing=37
					37:[f6<0.00581395347] yes=51,no=52,missing=51
						51:leaf=-0.0397783667
						52:leaf=0.168962985
					38:[f1<0.0192474909] yes=53,no=54,missing=53
						53:leaf=0.188971743
						54:leaf=0.0111495666
booster[16]:
0:[f6<0.00114291394] yes=1,no=2,missing=1
	1:[f3<0.0076923077] yes=3,no=4,missing=3
		3:[f6<0.000546611031] yes=7,no=8,missing=7
			7:[f8<0.166666672] yes=13,no=14,missing=13
				13:leaf=0.14946866
				14:[f6<0.000347843365] yes=23,no=24,missing=23
					23:leaf=0.123522103
					24:leaf=-0.0311427061
			8:[f0<0.019031141] yes=15,no=16,missing=15
				15:leaf=-0.146157548
				16:[f0<0.0328719728] yes=25,no=26,missing=25
					25:[f6<0.000944146304] yes=37,no=38,missing=37
						37:leaf=0.138204396
						38:leaf=-0.155814752
					26:leaf=0.153164551
		4:[f6<0.000149075728] yes=9,no=10,missing=9
			9:leaf=0.125163466
			10:[f0<0.00519031147] yes=17,no=18,missing=17
				17:leaf=-0.156793237
				18:[f6<0.000745378667] yes=27,no=28,missing=27
					27:[f0<0.0155709349] yes=39,no=40,missing=39
						39:leaf=0.0305177867
						40:leaf=0.134702146
					28:[f0<0.0259515569] yes=41,no=42,missing=41
						41:leaf=-0.131906167
						42:leaf=0.0768080801
	2:[f0<0.0397923887] yes=5,no=6,missing=5
		5:leaf=-0.159749478
		6:[f6<0.00452196412] yes=11,no=12,missing=11
			11:[f0<0.140138417] yes=19,no=20,missing=19
				19:[f6<0.00402504485] yes=29,no=30,missing=29
					29:[f0<0.119377166] yes=43,no=44,missing=43
						43:leaf=0.0116813462
						44:leaf=0.132834896
					30:[f0<0.126297578] yes=45,no=46,missing=45
						45:leaf=-0.156937659
						46:leaf=-0.238993257
				20:[f1<0.0272575244] yes=31,no=32,missing=31
					31:[f0<0.143598616] yes=47,no=48,missing=47
						47:leaf=0.0903533995
						48:leaf=0.199898452
					32:leaf=-0.0124729518
			12:[f0<0.15743944] yes=21,no=22,missing=21
				21:[f0<0.140138417] yes=33,no=34,missing=33
					33:leaf=-0.162630871
					34:leaf=-0.232245445
				22:[f6<0.00501888292] yes=35,no=36,missing=35
					35:[f0<0.160899654] yes=49,no=50,missing=49
						49:leaf=0.0888774469
						50:leaf=0.210445061
					36:[f0<0.178200692] yes=51,no=52,missing=51
						51:leaf=-0.19531782
						52:leaf=0.0207051337
booster[17]:
0:[f6<0.00114291394] yes=1,no=2,missing=1
	1:[f3<0.0076923077] yes=3,no=4,missing=3
		3:[f6<0.000546611031] yes=7,no=8,missing=7
			7:[f8<0.166666672] yes=13,no=14,missing=13
				13:leaf=-0.149468645
				14:[f6<0.000347843365] yes=23,no=24,missing=23
					23:leaf=-0.12352208
					24:leaf=0.0311427675
			8:[f0<0.019031141] yes=15,no=16,missing=15
				15:leaf=0.146157548
				16:[f0<0.0328719728] yes=25,no=26,missing=25
					25:[f6<0.000944146304] yes=37,no=38,missing=37
						37:leaf=-0.138204396
						38:leaf=0.155814752
					26:leaf=-0.153164551
		4:[f6<0.000149075728] yes=9,no=10,missing=9
			9:leaf=-0.125163466
			10:[f0<0.00519031147] yes=17,no=18,missing=17
				17:leaf=0.156793237
				18:[f6<0.000745378667] yes=27,no=28,missing=27
					27:[f0<0.0155709349] yes=39,no=40,missing=39
						39:leaf=-0.0305177886
						40:leaf=-0.134702161
					28:[f0<0.0259515569] yes=41,no=42,missing=41
						41:leaf=0.131906167
						42:leaf=-0.0768080875
	2:[f0<0.0397923887] yes=5,no=6,missing=5
		5:leaf=0.159749478
		6:[f6<0.00452196412] yes=11,no=12,missing=11
			11:[f0<0.140138417] yes=19,no=20,missing=19
				19:[f6<0.00402504485] yes=29,no=30,missing=29
					29:[f0<0.119377166] yes=43,no=44,missing=43
						43:leaf=-0.0116813499
						44:leaf=-0.132834911
					30:[f0<0.126297578] yes=45,no=46,missing=45
						45:leaf=0.156937659
						46:leaf=0.238993257
				20:[f1<0.0272575244] yes=31,no=32,missing=31
					31:[f0<0.143598616] yes=47,no=48,missing=47
						47:leaf=-0.0903534144
						48:leaf=-0.199898452
					32:leaf=0.0124729276
			12:[f0<0.15743944] yes=21,no=22,missing=21
				21:[f0<0.140138417] yes=33,no=34,missing=33
					33:leaf=0.162630871
					34:leaf=0.23224546
				22:[f6<0.00501888292] yes=35,no=36,missing=35
					35:[f0<0.160899654] yes=49,no=50,missing=49
						49:leaf=-0.0888774395
						50:leaf=-0.210445061
					36:[f0<0.178200692] yes=51,no=52,missing=51
						51:leaf=0.19531782
						52:leaf=-0.0207051374
booster[18]:
0:[f6<0.0012422977] yes=1,no=2,missing=1
	1:[f3<0.0076923077] yes=3,no=4,missing=3
		3:[f6<0.000745378667] yes=7,no=8,missing=7
			7:[f6<0.000347843365] yes=15,no=16,missing=15
				15:leaf=0.150493205
				16:[f0<0.0121107269] yes=27,no=28,missing=27
					27:leaf=-0.20172891
					28:leaf=0.1401501
			8:[f0<0.0259515569] yes=17,no=18,missing=17
				17:leaf=-0.143419132
				18:[f6<0.000944146304] yes=29,no=30,missing=29
					29:leaf=0.146964177
					30:[f0<0.0328719728] yes=43,no=44,missing=43
						43:leaf=-0.141372681
						44:leaf=0.122449495
		4:[f0<0.0397923887] yes=9,no=10,missing=9
			9:[f6<0.00104353018] yes=19,no=20,missing=19
				19:[f0<0.0121107269] yes=31,no=32,missing=31
					31:[f6<0.000347843365] yes=45,no=46,missing=45
						45:leaf=0.0836562887
						46:leaf=-0.162561327
					32:[f6<0.000844762428] yes=47,no=48,missing=47
						47:leaf=0.101810999
						48:leaf=0.0188534427
				20:[f0<0.0363321789] yes=33,no=34,missing=33
					33:leaf=-0.182929248
					34:leaf=0.0278922282
			10:leaf=0.124182411
	2:[f0<0.0432525948] yes=5,no=6,missing=5
		5:[f6<0.00134168158] yes=11,no=12,missing=11
			11:[f0<0.0397923887] yes=21,no=22,missing=21
				21:leaf=-0.146998703
				22:leaf=-0.414612681
			12:leaf=-0.154588193
		6:[f6<0.00263367128] yes=13,no=14,missing=13
			13:[f0<0.0813148767] yes=23,no=24,missing=23
				23:[f6<0.00233551976] yes=35,no=36,missing=35
					35:[f6<0.00154044922] yes=49,no=50,missing=49
						49:leaf=0.118500166
						50:leaf=0.0371729396
					36:leaf=-0.191546962
				24:[f5<0.995869577] yes=37,no=38,missing=37
					37:leaf=-0.0558532104
					38:[f1<0.0275919735] yes=51,no=52,missing=51
						51:leaf=0.146049082
						52:leaf=-0.0180122051
			14:[f0<0.0916955024] yes=25,no=26,missing=25
				25:[f0<0.0847750902] yes=39,no=40,missing=39
					39:leaf=-0.161137193
					40:[f6<0.0028324388] yes=53,no=54,missing=53
						53:leaf=-0.462092966
						54:leaf=-0.193903923
				26:[f6<0.00303120655] yes=41,no=42,missing=41
					41:[f8<0.166666672] yes=55,no=56,missing=55
						55:leaf=0.139168754
						56:leaf=-0.00864211377
					42:[f0<0.105536327] yes=57,no=58,missing=57
						57:leaf=-0.202091277
						58:leaf=0.000508110854
booster[19]:
0:[f6<0.0012422977] yes=1,no=2,missing=1
	1:[f3<0.0076923077] yes=3,no=4,missing=3
		3:[f6<0.000745378667] yes=7,no=8,missing=7
			7:[f6<0.000347843365] yes=15,no=16,missing=15
				15:leaf=-0.15049319
				16:[f0<0.0121107269] yes=27,no=28,missing=27
					27:leaf=0.20172891
					28:leaf=-0.1401501
			8:[f0<0.0259515569] yes=17,no=18,missing=17
				17:leaf=0.143419117
				18:[f6<0.000944146304] yes=29,no=30,missing=29
					29:leaf=-0.146964163
					30:[f0<0.0328719728] yes=43,no=44,missing=43
						43:leaf=0.141372696
						44:leaf=-0.122449487
		4:[f0<0.0397923887] yes=9,no=10,missing=9
			9:[f6<0.00104353018] yes=19,no=20,missing=19
				19:[f0<0.0121107269] yes=31,no=32,missing=31
					31:[f6<0.000347843365] yes=45,no=46,missing=45
						45:leaf=-0.0836562961
						46:leaf=0.162561327
					32:[f6<0.000844762428] yes=47,no=48,missing=47
						47:leaf=-0.101810999
						48:leaf=-0.018853398
				20:[f0<0.0363321789] yes=33,no=34,missing=33
					33:leaf=0.182929277
					34:leaf=-0.0278922096
			10:leaf=-0.124182411
	2:[f0<0.0432525948] yes=5,no=6,missing=5
		5:[f6<0.00134168158] yes=11,no=12,missing=11
			11:[f0<0.0397923887] yes=21,no=22,missing=21
				21:leaf=0.146998703
				22:leaf=0.41461271
			12:leaf=0.154588193
		6:[f6<0.00263367128] yes=13,no=14,missing=13
			13:[f0<0.0813148767] yes=23,no=24,missing=23
				23:[f6<0.00233551976] yes=35,no=36,missing=35
					35:[f6<0.00154044922] yes=49,no=50,missing=49
						49:leaf=-0.118500188
						50:leaf=-0.0371729694
					36:leaf=0.191546962
				24:[f5<0.995869577] yes=37,no=38,missing=37
					37:leaf=0.0558532365
					38:[f1<0.0275919735] yes=51,no=52,missing=51
						51:leaf=-0.146049067
						52:leaf=0.0180122331
			14:[f0<0.0916955024] yes=25,no=26,missing=25
				25:[f0<0.0847750902] yes=39,no=40,missing=39
					39:leaf=0.161137193
					40:[f6<0.0028324388] yes=53,no=54,missing=53
						53:leaf=0.462092966
						54:leaf=0.193903923
				26:[f6<0.00303120655] yes=41,no=42,missing=41
					41:[f8<0.166666672] yes=55,no=56,missing=55
						55:leaf=-0.139168739
						56:leaf=0.00864212215
					42:[f0<0.105536327] yes=57,no=58,missing=57
						57:leaf=0.202091262
						58:leaf=-0.000508112076
booster[20]:
0:[f6<0.00114291394] yes=1,no=2,missing=1
	1:[f3<0.0076923077] yes=3,no=4,missing=3
		3:[f6<0.000347843365] yes=7,no=8,missing=7
			7:leaf=0.147744119
			8:[f0<0.0121107269] yes=13,no=14,missing=13
				13:leaf=-0.180445865
				14:[f6<0.000745378667] yes=21,no=22,missing=21
					21:[f1<0.0141471568] yes=33,no=34,missing=33
						33:leaf=0.146011427
						34:leaf=0.092431426
					22:[f0<0.0259515569] yes=35,no=36,missing=35
						35:leaf=-0.125285983
						36:leaf=0.119497798
		4:[f6<0.000149075728] yes=9,no=10,missing=9
			9:leaf=0.110370249
			10:[f0<0.00519031147] yes=15,no=16,missing=15
				15:leaf=-0.144170433
				16:[f6<0.000546611031] yes=23,no=24,missing=23
					23:[f1<0.0101839472] yes=37,no=38,missing=37
						37:leaf=0.117431261
						38:leaf=0.0244016927
					24:[f0<0.019031141] yes=39,no=40,missing=39
						39:leaf=-0.126554787
						40:leaf=0.0453225709
	2:[f0<0.0397923887] yes=5,no=6,missing=5
		5:leaf=-0.156475484
		6:[f3<0.0076923077] yes=11,no=12,missing=11
			11:[f6<0.00929238647] yes=17,no=18,missing=17
				17:[f0<0.226643592] yes=25,no=26,missing=25
					25:[f6<0.00650964025] yes=41,no=42,missing=41
						41:leaf=0.0233855024
						42:leaf=-0.198855385
					26:[f6<0.00725501869] yes=43,no=44,missing=43
						43:leaf=0.211456105
						44:leaf=0.070553869
				18:[f0<0.325259507] yes=27,no=28,missing=27
					27:leaf=-0.194408625
					28:[f6<0.0104849935] yes=45,no=46,missing=45
						45:leaf=0.108266942
						46:leaf=-0.11461132
			12:[f6<0.00452196412] yes=19,no=20,missing=19
				19:[f0<0.143598616] yes=29,no=30,missing=29
					29:[f1<0.00844481587] yes=47,no=48,missing=47
						47:leaf=-0.0773342475
						48:leaf=-0.00217929389
					30:[f6<0.0043231966] yes=49,no=50,missing=49
						49:leaf=0.219905928
						50:leaf=0.0193846859
				20:[f6<0.00650964025] yes=31,no=32,missing=31
					31:[f0<0.190311432] yes=51,no=52,missing=51
						51:leaf=-0.147328466
						52:leaf=0.127869204
					32:leaf=-0.18249771
booster[21]:
0:[f6<0.00114291394] yes=1,no=2,missing=1
	1:[f3<0.0076923077] yes=3,no=4,missing=3
		3:[f6<0.000347843365] yes=7,no=8,missing=7
			7:leaf=-0.147744089
			8:[f0<0.0121107269] yes=13,no=14,missing=13
				13:leaf=0.180445865
				14:[f6<0.000745378667] yes=21,no=22,missing=21
					21:[f1<0.0141471568] yes=33,no=34,missing=33
						33:leaf=-0.146011442
						34:leaf=-0.092431508
					22:[f0<0.0259515569] yes=35,no=36,missing=35
						35:leaf=0.125286013
						36:leaf=-0.119497813
		4:[f6<0.000149075728] yes=9,no=10,missing=9
			9:leaf=-0.110370241
			10:[f0<0.00519031147] yes=15,no=16,missing=15
				15:leaf=0.144170433
				16:[f6<0.000546611031] yes=23,no=24,missing=23
					23:[f1<0.0101839472] yes=37,no=38,missing=37
						37:leaf=-0.117431283
						38:leaf=-0.0244017132
					24:[f0<0.019031141] yes=39,no=40,missing=39
						39:leaf=0.126554802
						40:leaf=-0.0453225672
	2:[f0<0.0397923887] yes=5,no=6,missing=5
		5:leaf=0.156475484
		6:[f3<0.0076923077] yes=11,no=12,missing=11
			11:[f6<0.00929238647] yes=17,no=18,missing=17
				17:[f0<0.226643592] yes=25,no=26,missing=25
					25:[f6<0.00650964025] yes=41,no=42,missing=41
						41:leaf=-0.0233855024
						42:leaf=0.198855385
					26:[f6<0.00725501869] yes=43,no=44,missing=43
						43:leaf=-0.211456105
						44:leaf=-0.070553869
				18:[f0<0.325259507] yes=27,no=28,missing=27
					27:leaf=0.194408625
					28:[f6<0.0104849935] yes=45,no=46,missing=45
						45:leaf=-0.108266942
						46:leaf=0.11461132
			12:[f6<0.00452196412] yes=19,no=20,missing=19
				19:[f0<0.143598616] yes=29,no=30,missing=29
					29:[f1<0.00844481587] yes=47,no=48,missing=47
						47:leaf=0.0773342475
						48:leaf=0.00217929319
					30:[f6<0.0043231966] yes=49,no=50,missing=49
						49:leaf=-0.219905928
						50:leaf=-0.0193846785
				20:[f6<0.00650964025] yes=31,no=32,missing=31
					31:[f0<0.190311432] yes=51,no=52,missing=51
						51:leaf=0.147328466
						52:leaf=-0.127869204
					32:leaf=0.18249771
booster[22]:
0:[f6<0.00173921685] yes=1,no=2,missing=1
	1:[f6<0.000745378667] yes=3,no=4,missing=3
		3:[f3<0.0076923077] yes=7,no=8,missing=7
			7:[f8<0.166666672] yes=13,no=14,missing=13
				13:[f6<0.000447227183] yes=23,no=24,missing=23
					23:leaf=0.146087527
					24:[f0<0.0155709349] yes=37,no=38,missing=37
						37:leaf=-0.220412821
						38:leaf=0.135978937
				14:[f1<0.0131103676] yes=25,no=26,missing=25
					25:leaf=0.0996330604
					26:leaf=-0.0291361846
			8:[f0<0.0155709349] yes=15,no=16,missing=15
				15:[f6<0.000447227183] yes=27,no=28,missing=27
					27:[f1<0.0101839472] yes=39,no=40,missing=39
						39:leaf=0.0853777081
						40:leaf=-0.00178665749
					28:leaf=-0.112701535
				16:leaf=0.115998991
		4:[f0<0.0259515569] yes=9,no=10,missing=9
			9:leaf=-0.145722687
			10:[f0<0.0536332205] yes=17,no=18,missing=17
				17:[f6<0.00154044922] yes=29,no=30,missing=29
					29:[f0<0.0467128009] yes=41,no=42,missing=41
						41:leaf=0.0440970659
						42:leaf=0.136547402
					30:[f0<0.0467128009] yes=43,no=44,missing=43
						43:leaf=-0.134761989
						44:leaf=-0.277298719
				18:[f3<0.0076923077] yes=31,no=32,missing=31
					31:leaf=0.150690645
					32:[f0<0.0570934266] yes=45,no=46,missing=45
						45:leaf=-0.0604652278
						46:leaf=0.136846915
	2:[f0<0.0605536327] yes=5,no=6,missing=5
		5:leaf=-0.162370905
		6:[f6<0.00213675201] yes=11,no=12,missing=11
			11:[f0<0.070934251] yes=19,no=20,missing=19
				19:[f6<0.00203736825] yes=33,no=34,missing=33
					33:[f0<0.0640138388] yes=47,no=48,missing=47
						47:leaf=0.0556473993
						48:leaf=0.147180006
					34:leaf=-0.226837158
				20:leaf=0.155928403
			12:[f0<0.0743944645] yes=21,no=22,missing=21
				21:leaf=-0.180111721
				22:[f6<0.00740409456] yes=35,no=36,missing=35
					35:[f0<0.205882356] yes=49,no=50,missing=49
						49:leaf=-0.00126441533
						50:leaf=0.127753019
					36:[f0<0.271626294] yes=51,no=52,missing=51
						51:leaf=-0.182820678
						52:leaf=-0.00233401288
booster[23]:
0:[f6<0.00173921685] yes=1,no=2,missing=1
	1:[f6<0.000745378667] yes=3,no=4,missing=3
		3:[f3<0.0076923077] yes=7,no=8,missing=7
			7:[f8<0.166666672] yes=13,no=14,missing=13
				13:[f6<0.000447227183] yes=23,no=24,missing=23
					23:leaf=-0.146087527
					24:[f0<0.0155709349] yes=37,no=38,missing=37
						37:leaf=0.220412835
						38:leaf=-0.135978952
				14:[f1<0.0131103676] yes=25,no=26,missing=25
					25:leaf=-0.0996330157
					26:leaf=0.0291363746
			8:[f0<0.0155709349] yes=15,no=16,missing=15
				15:[f6<0.000447227183] yes=27,no=28,missing=27
					27:[f1<0.0101839472] yes=39,no=40,missing=39
						39:leaf=-0.0853777304
						40:leaf=0.00178663502
					28:leaf=0.112701543
				16:leaf=-0.115998983
		4:[f0<0.0259515569] yes=9,no=10,missing=9
			9:leaf=0.145722687
			10:[f0<0.0536332205] yes=17,no=18,missing=17
				17:[f6<0.00154044922] yes=29,no=30,missing=29
					29:[f0<0.0467128009] yes=41,no=42,missing=41
						41:leaf=-0.0440970883
						42:leaf=-0.136547387
					30:[f0<0.0467128009] yes=43,no=44,missing=43
						43:leaf=0.134762004
						44:leaf=0.277298748
				18:[f3<0.0076923077] yes=31,no=32,missing=31
					31:leaf=-0.150690645
					32:[f0<0.0570934266] yes=45,no=46,missing=45
						45:leaf=0.0604652502
						46:leaf=-0.136846915
	2:[f0<0.0605536327] yes=5,no=6,missing=5
		5:leaf=0.162370905
		6:[f6<0.00213675201] yes=11,no=12,missing=11
			11:[f0<0.070934251] yes=19,no=20,missing=19
				19:[f6<0.00203736825] yes=33,no=34,missing=33
					33:[f0<0.0640138388] yes=47,no=48,missing=47
						47:leaf=-0.0556473993
						48:leaf=-0.147179991
					34:leaf=0.226837158
				20:leaf=-0.155928418
			12:[f0<0.0743944645] yes=21,no=22,missing=21
				21:leaf=0.180111721
				22:[f6<0.00740409456] yes=35,no=36,missing=35
					35:[f0<0.205882356] yes=49,no=50,missing=49
						49:leaf=0.00126440299
						50:leaf=-0.127753019
					36:[f0<0.271626294] yes=51,no=52,missing=51
						51:leaf=0.182820678
						52:leaf=0.00233402289
booster[24]:
0:[f6<0.0012422977] yes=1,no=2,missing=1
	1:[f3<0.0076923077] yes=3,no=4,missing=3
		3:[f6<0.000944146304] yes=7,no=8,missing=7
			7:[f6<0.000347843365] yes=15,no=16,missing=15
				15:leaf=0.1421379
				16:[f0<0.0121107269] yes=27,no=28,missing=27
					27:leaf=-0.187857017
					28:[f1<0.0141471568] yes=43,no=44,missing=43
						43:leaf=0.128042385
						44:leaf=0.076901406
			8:[f0<0.0328719728] yes=17,no=18,missing=17
				17:leaf=-0.145022213
				18:[f1<0.00526755862] yes=29,no=30,missing=29
					29:leaf=-0.00666747009
					30:[f6<0.00114291394] yes=45,no=46,missing=45
						45:leaf=0.139766678
						46:leaf=0.0794648603
		4:[f0<0.0397923887] yes=9,no=10,missing=9
			9:[f6<0.00104353018] yes=19,no=20,missing=19
				19:[f1<0.0124080274] yes=31,no=32,missing=31
					31:[f1<0.0101672243] yes=47,no=48,missing=47
						47:leaf=0.0251902398
						48:leaf=-0.100333735
					32:[f1<0.013294315] yes=49,no=50,missing=49
						49:leaf=0.0343833603
						50:leaf=0.102677301
				20:[f0<0.0363321789] yes=33,no=34,missing=33
					33:leaf=-0.174349353
					34:leaf=0.0177962482
			10:leaf=0.113574415
	2:[f0<0.0432525948] yes=5,no=6,missing=5
		5:[f6<0.00134168158] yes=11,no=12,missing=11
			11:[f0<0.0397923887] yes=21,no=22,missing=21
				21:leaf=-0.125328764
				22:leaf=-0.307090163
			12:leaf=-0.150673002
		6:[f6<0.00472073164] yes=13,no=14,missing=13
			13:[f0<0.143598616] yes=23,no=24,missing=23
				23:[f6<0.00412442815] yes=35,no=36,missing=35
					35:[f0<0.126297578] yes=51,no=52,missing=51
						51:leaf=0.00555487117
						52:leaf=0.133955836
					36:leaf=-0.196752474
				24:[f0<0.150519028] yes=37,no=38,missing=37
					37:[f6<0.0043231966] yes=53,no=54,missing=53
						53:leaf=0.18917574
						54:leaf=-0.243064329
					38:leaf=0.173073381
			14:[f0<0.164359868] yes=25,no=26,missing=25
				25:[f0<0.140138417] yes=39,no=40,missing=39
					39:leaf=-0.157362774
					40:leaf=-0.210175723
				26:[f6<0.00561518595] yes=41,no=42,missing=41
					41:[f3<0.0076923077] yes=55,no=56,missing=55
						55:leaf=0.148856923
						56:leaf=-0.00219547679
					42:[f0<0.19550173] yes=57,no=58,missing=57
						57:leaf=-0.202221796
						58:leaf=0.00961237587
booster[25]:
0:[f6<0.0012422977] yes=1,no=2,missing=1
	1:[f3<0.0076923077] yes=3,no=4,missing=3
		3:[f6<0.000944146304] yes=7,no=8,missing=7
			7:[f6<0.000347843365] yes=15,no=16,missing=15
				15:leaf=-0.14213784
				16:[f0<0.0121107269] yes=27,no=28,missing=27
					27:leaf=0.187856972
					28:[f1<0.0141471568] yes=43,no=44,missing=43
						43:leaf=-0.128042385
						44:leaf=-0.076901406
			8:[f0<0.0328719728] yes=17,no=18,missing=17
				17:leaf=0.145022213
				18:[f1<0.00526755862] yes=29,no=30,missing=29
					29:leaf=0.00666741608
					30:[f6<0.00114291394] yes=45,no=46,missing=45
						45:leaf=-0.139766678
						46:leaf=-0.0794649348
		4:[f0<0.0397923887] yes=9,no=10,missing=9
			9:[f6<0.00104353018] yes=19,no=20,missing=19
				19:[f1<0.0124080274] yes=31,no=32,missing=31
					31:[f1<0.0101672243] yes=47,no=48,missing=47
						47:leaf=-0.0251902416
						48:leaf=0.100333728
					32:[f1<0.013294315] yes=49,no=50,missing=49
						49:leaf=-0.0343833789
						50:leaf=-0.102677315
				20:[f0<0.0363321789] yes=33,no=34,missing=33
					33:leaf=0.174349353
					34:leaf=-0.0177962556
			10:leaf=-0.113574415
	2:[f0<0.0432525948] yes=5,no=6,missing=5
		5:[f6<0.00134168158] yes=11,no=12,missing=11
			11:[f0<0.0397923887] yes=21,no=22,missing=21
				21:leaf=0.125328794
				22:leaf=0.307090163
			12:leaf=0.150673002
		6:[f6<0.00472073164] yes=13,no=14,missing=13
			13:[f0<0.143598616] yes=23,no=24,missing=23
				23:[f6<0.00412442815] yes=35,no=36,missing=35
					35:[f0<0.126297578] yes=51,no=52,missing=51
						51:leaf=-0.00555487163
						52:leaf=-0.133955821
					36:leaf=0.196752474
				24:[f0<0.150519028] yes=37,no=38,missing=37
					37:[f6<0.0043231966] yes=53,no=54,missing=53
						53:leaf=-0.18917577
						54:leaf=0.243064344
					38:leaf=-0.173073381
			14:[f0<0.164359868] yes=25,no=26,missing=25
				25:[f0<0.140138417] yes=39,no=40,missing=39
					39:leaf=0.157362774
					40:leaf=0.210175723
				26:[f6<0.00561518595] yes=41,no=42,missing=41
					41:[f3<0.0076923077] yes=55,no=56,missing=55
						55:leaf=-0.148856938
						56:leaf=0.00219547655
					42:[f0<0.19550173] yes=57,no=58,missing=57
						57:leaf=0.202221781
						58:leaf=-0.0096123768
booster[26]:
0:[f6<0.00253428752] yes=1,no=2,missing=1
	1:[f0<0.0778546706] yes=3,no=4,missing=3
		3:[f6<0.002236136] yes=7,no=8,missing=7
			7:[f0<0.070934251] yes=15,no=16,missing=15
				15:[f6<0.00203736825] yes=27,no=28,missing=27
					27:[f0<0.0640138388] yes=39,no=40,missing=39
						39:leaf=0.0256546829
						40:leaf=0.137265921
					28:leaf=-0.182954222
				16:leaf=0.143222228
			8:[f0<0.0743944645] yes=17,no=18,missing=17
				17:leaf=-0.152938336
				18:[f6<0.00243490352] yes=29,no=30,missing=29
					29:leaf=-0.325593829
					30:leaf=-0.0992878005
		4:[f6<0.00243490352] yes=9,no=10,missing=9
			9:leaf=0.155941799
			10:[f0<0.0847750902] yes=19,no=20,missing=19
				19:leaf=-0.149439216
				20:leaf=0.155478597
	2:[f0<0.0882352889] yes=5,no=6,missing=5
		5:[f0<0.0813148767] yes=11,no=12,missing=11
			11:leaf=-0.152207837
			12:[f6<0.00313059031] yes=21,no=22,missing=21
				21:leaf=-0.252359629
				22:leaf=-0.130070537
		6:[f6<0.00362750934] yes=13,no=14,missing=13
			13:[f0<0.112456754] yes=23,no=24,missing=23
				23:[f6<0.0032299743] yes=31,no=32,missing=31
					31:[f0<0.105536327] yes=41,no=42,missing=41
						41:leaf=0.0362539552
						42:leaf=0.157340318
					32:leaf=-0.193163231
				24:[f6<0.00342874182] yes=33,no=34,missing=33
					33:leaf=0.158277303
					34:[f0<0.119377166] yes=43,no=44,missing=43
						43:leaf=-0.421285838
						44:leaf=0.159091905
			14:[f0<0.126297578] yes=25,no=26,missing=25
				25:[f6<0.00402504485] yes=35,no=36,missing=35
					35:[f0<0.112456754] yes=45,no=46,missing=45
						45:leaf=-0.14637877
						46:leaf=-0.2800726
					36:leaf=-0.153560206
				26:[f6<0.0043231966] yes=37,no=38,missing=37
					37:[f0<0.140138417] yes=47,no=48,missing=47
						47:leaf=0.0442927033
						48:leaf=0.157379374
					38:[f0<0.150519028] yes=49,no=50,missing=49
						49:leaf=-0.193561956
						50:leaf=0.0118381903
booster[27]:
0:[f6<0.00253428752] yes=1,no=2,missing=1
	1:[f0<0.0778546706] yes=3,no=4,missing=3
		3:[f6<0.002236136] yes=7,no=8,missing=7
			7:[f0<0.070934251] yes=15,no=16,missing=15
				15:[f6<0.00203736825] yes=27,no=28,missing=27
					27:[f0<0.0640138388] yes=39,no=40,missing=39
						39:leaf=-0.025654722
						40:leaf=-0.137265906
					28:leaf=0.182954222
				16:leaf=-0.143222228
			8:[f0<0.0743944645] yes=17,no=18,missing=17
				17:leaf=0.152938336
				18:[f6<0.00243490352] yes=29,no=30,missing=29
					29:leaf=0.325593829
					30:leaf=0.0992878154
		4:[f6<0.00243490352] yes=9,no=10,missing=9
			9:leaf=-0.155941799
			10:[f0<0.0847750902] yes=19,no=20,missing=19
				19:leaf=0.149439216
				20:leaf=-0.155478597
	2:[f0<0.0882352889] yes=5,no=6,missing=5
		5:[f0<0.0813148767] yes=11,no=12,missing=11
			11:leaf=0.152207837
			12:[f6<0.00313059031] yes=21,no=22,missing=21
				21:leaf=0.252359629
				22:leaf=0.130070552
		6:[f6<0.00362750934] yes=13,no=14,missing=13
			13:[f0<0.112456754] yes=23,no=24,missing=23
				23:[f6<0.0032299743] yes=31,no=32,missing=31
					31:[f0<0.105536327] yes=41,no=42,missing=41
						41:leaf=-0.036253918
						42:leaf=-0.157340303
					32:leaf=0.193163231
				24:[f6<0.00342874182] yes=33,no=34,missing=33
					33:leaf=-0.158277303
					34:[f0<0.119377166] yes=43,no=44,missing=43
						43:leaf=0.421285838
						44:leaf=-0.159091905
			14:[f0<0.126297578] yes=25,no=26,missing=25
				25:[f6<0.00402504485] yes=35,no=36,missing=35
					35:[f0<0.112456754] yes=45,no=46,missing=45
						45:leaf=0.146378785
						46:leaf=0.2800726
					36:leaf=0.153560206
				26:[f6<0.0043231966] yes=37,no=38,missing=37
					37:[f0<0.140138417] yes=47,no=48,missing=47
						47:leaf=-0.0442927107
						48:leaf=-0.157379359
					38:[f0<0.150519028] yes=49,no=50,missing=49
						49:leaf=0.193561941
						50:leaf=-0.0118381903
booster[28]:
0:[f6<0.00929238647] yes=1,no=2,missing=1
	1:[f3<0.0076923077] yes=3,no=4,missing=3
		3:[f6<0.000944146304] yes=7,no=8,missing=7
			7:[f6<0.000347843365] yes=13,no=14,missing=13
				13:leaf=0.13802737
				14:[f0<0.0121107269] yes=21,no=22,missing=21
					21:leaf=-0.18427597
					22:[f0<0.0259515569] yes=29,no=30,missing=29
						29:leaf=0.0727667063
						30:leaf=0.133710384
			8:[f0<0.0328719728] yes=15,no=16,missing=15
				15:leaf=-0.146532834
				16:[f1<0.0331772566] yes=23,no=24,missing=23
					23:[f0<0.271626294] yes=31,no=32,missing=31
						31:leaf=0.00465829717
						32:leaf=0.201468661
					24:leaf=0.162405133
		4:[f6<0.00501888292] yes=9,no=10,missing=9
			9:[f0<0.160899654] yes=17,no=18,missing=17
				17:[f1<0.00844481587] yes=25,no=26,missing=25
					25:[f1<0.00663879607] yes=33,no=34,missing=33
						33:leaf=-0.0239553414
						34:leaf=-0.115564659
					26:[f1<0.00973244198] yes=35,no=36,missing=35
						35:leaf=0.0835854486
						36:leaf=-0.0170402694
				18:leaf=0.174122527
			10:[f0<0.190311432] yes=19,no=20,missing=19
				19:leaf=-0.161466777
				20:[f6<0.00650964025] yes=27,no=28,missing=27
					27:[f0<0.207612455] yes=37,no=38,missing=37
						37:leaf=0.0101421326
						38:leaf=0.17148529
					28:[f0<0.254325271] yes=39,no=40,missing=39
						39:leaf=-0.168851793
						40:leaf=-0.00671437429
	2:[f0<0.401384085] yes=5,no=6,missing=5
		5:[f1<0.0213043485] yes=11,no=12,missing=11
			11:leaf=-0.170003101
			12:leaf=-0.0151788369
		6:leaf=0.00429351768
booster[29]:
0:[f6<0.00929238647] yes=1,no=2,missing=1
	1:[f3<0.0076923077] yes=3,no=4,missing=3
		3:[f6<0.000944146304] yes=7,no=8,missing=7
			7:[f6<0.000347843365] yes=13,no=14,missing=13
				13:leaf=-0.138027355
				14:[f0<0.0121107269] yes=21,no=22,missing=21
					21:leaf=0.18427597
					22:[f0<0.0259515569] yes=29,no=30,missing=29
						29:leaf=-0.0727665797
						30:leaf=-0.133710399
			8:[f0<0.0328719728] yes=15,no=16,missing=15
				15:leaf=0.146532848
				16:[f1<0.0331772566] yes=23,no=24,missing=23
					23:[f0<0.271626294] yes=31,no=32,missing=31
						31:leaf=-0.00465830229
						32:leaf=-0.201468661
					24:leaf=-0.162405133
		4:[f6<0.00501888292] yes=9,no=10,missing=9
			9:[f0<0.160899654] yes=17,no=18,missing=17
				17:[f1<0.00844481587] yes=25,no=26,missing=25
					25:[f1<0.00663879607] yes=33,no=34,missing=33
						33:leaf=0.0239553545
						34:leaf=0.115564659
					26:[f1<0.00973244198] yes=35,no=36,missing=35
						35:leaf=-0.083585456
						36:leaf=0.0170402694
				18:leaf=-0.174122542
			10:[f0<0.190311432] yes=19,no=20,missing=19
				19:leaf=0.161466792
				20:[f6<0.00650964025] yes=27,no=28,missing=27
					27:[f0<0.207612455] yes=37,no=38,missing=37
						37:leaf=-0.0101421298
						38:leaf=-0.17148529
					28:[f0<0.254325271] yes=39,no=40,missing=39
						39:leaf=0.168851793
						40:leaf=0.00671438081
	2:[f0<0.401384085] yes=5,no=6,missing=5
		5:[f1<0.0213043485] yes=11,no=12,missing=11
			11:leaf=0.170003116
			12:leaf=0.0151788509
		6:leaf=-0.00429350976
booster[30]:
0:[f6<0.0028324388] yes=1,no=2,missing=1
	1:[f0<0.0916955024] yes=3,no=4,missing=3
		3:[f6<0.00263367128] yes=7,no=8,missing=7
			7:[f0<0.0778546706] yes=13,no=14,missing=13
				13:[f6<0.002236136] yes=19,no=20,missing=19
					19:[f0<0.070934251] yes=27,no=28,missing=27
						27:leaf=0.0143038454
						28:leaf=0.133824915
					20:leaf=-0.190905765
				14:[f6<0.00243490352] yes=21,no=22,missing=21
					21:leaf=0.149935842
					22:[f0<0.0847750902] yes=29,no=30,missing=29
						29:leaf=-0.157563761
						30:leaf=0.127623662
			8:leaf=-0.206641793
		4:leaf=0.142045349
	2:[f0<0.0986159146] yes=5,no=6,missing=5
		5:[f6<0.00313059031] yes=9,no=10,missing=9
			9:[f0<0.0847750902] yes=15,no=16,missing=15
				15:leaf=-0.131855682
				16:leaf=-0.239240482
			10:leaf=-0.148867786
		6:[f6<0.00303120655] yes=11,no=12,missing=11
			11:leaf=0.16315192
			12:[f0<0.105536327] yes=17,no=18,missing=17
				17:[f6<0.0032299743] yes=23,no=24,missing=23
					23:leaf=-0.26097697
					24:leaf=-0.139625013
				18:[f6<0.00362750934] yes=25,no=26,missing=25
					25:[f6<0.00332935806] yes=31,no=32,missing=31
						31:leaf=0.127859905
						32:leaf=0.0485503338
					26:[f0<0.126297578] yes=33,no=34,missing=33
						33:leaf=-0.189099476
						34:leaf=0.00493118959
booster[31]:
0:[f6<0.0028324388] yes=1,no=2,missing=1
	1:[f0<0.0916955024] yes=3,no=4,missing=3
		3:[f6<0.00263367128] yes=7,no=8,missing=7
			7:[f0<0.0778546706] yes=13,no=14,missing=13
				13:[f6<0.002236136] yes=19,no=20,missing=19
					19:[f0<0.070934251] yes=27,no=28,missing=27
						27:leaf=-0.0143038789
						28:leaf=-0.13382493
					20:leaf=0.19090575
				14:[f6<0.00243490352] yes=21,no=22,missing=21
					21:leaf=-0.149935842
					22:[f0<0.0847750902] yes=29,no=30,missing=29
						29:leaf=0.157563761
						30:leaf=-0.127623662
			8:leaf=0.206641793
		4:leaf=-0.142045319
	2:[f0<0.0986159146] yes=5,no=6,missing=5
		5:[f6<0.00313059031] yes=9,no=10,missing=9
			9:[f0<0.0847750902] yes=15,no=16,missing=15
				15:leaf=0.131855682
				16:leaf=0.239240468
			10:leaf=0.148867786
		6:[f6<0.00303120655] yes=11,no=12,missing=11
			11:leaf=-0.163151935
			12:[f0<0.105536327] yes=17,no=18,missing=17
				17:[f6<0.0032299743] yes=23,no=24,missing=23
					23:leaf=0.26097694
					24:leaf=0.139625028
				18:[f6<0.00362750934] yes=25,no=26,missing=25
					25:[f6<0.00332935806] yes=31,no=32,missing=31
						31:leaf=-0.127859876
						32:leaf=-0.0485503227
					26:[f0<0.126297578] yes=33,no=34,missing=33
						33:leaf=0.189099476
						34:leaf=-0.00493118959
booster[32]:
0:[f6<0.00660902448] yes=1,no=2,missing=1
	1:[f0<0.202422142] yes=3,no=4,missing=3
		3:[f6<0.00581395347] yes=7,no=8,missing=7
			7:[f0<0.181660891] yes=13,no=14,missing=13
				13:[f6<0.00521765091] yes=23,no=24,missing=23
					23:[f0<0.160899654] yes=31,no=32,missing=31
						31:leaf=0.000425594946
						32:leaf=0.141745925
					24:leaf=-0.21264185
				14:leaf=0.151367456
			8:leaf=-0.19167988
		4:[f6<0.00641025603] yes=9,no=10,missing=9
			9:[f3<0.0076923077] yes=15,no=16,missing=15
				15:leaf=0.184932292
				16:leaf=0.0521049351
			10:[f0<0.223183393] yes=17,no=18,missing=17
				17:leaf=-0.185066655
				18:leaf=0.17805995
	2:[f0<0.230103806] yes=5,no=6,missing=5
		5:leaf=-0.188386261
		6:[f6<0.00849731639] yes=11,no=12,missing=11
			11:[f0<0.271626294] yes=19,no=20,missing=19
				19:[f6<0.00770224631] yes=25,no=26,missing=25
					25:[f0<0.240484431] yes=33,no=34,missing=33
						33:leaf=0.010690731
						34:leaf=0.203677997
					26:leaf=-0.167121112
				20:leaf=0.189042255
			12:[f0<0.304498255] yes=21,no=22,missing=21
				21:[f8<0.166666672] yes=27,no=28,missing=27
					27:leaf=-0.180402786
					28:leaf=0.00037224812
				22:[f6<0.0102365334] yes=29,no=30,missing=29
					29:[f0<0.316608995] yes=35,no=36,missing=35
						35:leaf=-0.0130465506
						36:leaf=0.19604063
					30:[f0<0.401384085] yes=37,no=38,missing=37
						37:leaf=-0.166823149
						38:leaf=0.00270948024
booster[33]:
0:[f6<0.00660902448] yes=1,no=2,missing=1
	1:[f0<0.202422142] yes=3,no=4,missing=3
		3:[f6<0.00581395347] yes=7,no=8,missing=7
			7:[f0<0.181660891] yes=13,no=14,missing=13
				13:[f6<0.00521765091] yes=23,no=24,missing=23
					23:[f0<0.160899654] yes=31,no=32,missing=31
						31:leaf=-0.000425589649
						32:leaf=-0.14174591
					24:leaf=0.21264185
				14:leaf=-0.151367456
			8:leaf=0.19167988
		4:[f6<0.00641025603] yes=9,no=10,missing=9
			9:[f3<0.0076923077] yes=15,no=16,missing=15
				15:leaf=-0.184932277
				16:leaf=-0.0521049164
			10:[f0<0.223183393] yes=17,no=18,missing=17
				17:leaf=0.185066655
				18:leaf=-0.178059936
	2:[f0<0.230103806] yes=5,no=6,missing=5
		5:leaf=0.188386261
		6:[f6<0.00849731639] yes=11,no=12,missing=11
			11:[f0<0.271626294] yes=19,no=20,missing=19
				19:[f6<0.00770224631] yes=25,no=26,missing=25
					25:[f0<0.240484431] yes=33,no=34,missing=33
						33:leaf=-0.0106907301
						34:leaf=-0.203678027
					26:leaf=0.167121112
				20:leaf=-0.18904224
			12:[f0<0.304498255] yes=21,no=22,missing=21
				21:[f8<0.166666672] yes=27,no=28,missing=27
					27:leaf=0.180402786
					28:leaf=-0.000372237293
				22:[f6<0.0102365334] yes=29,no=30,missing=29
					29:[f0<0.316608995] yes=35,no=36,missing=35
						35:leaf=0.0130465515
						36:leaf=-0.19604063
					30:[f0<0.401384085] yes=37,no=38,missing=37
						37:leaf=0.166823149
						38:leaf=-0.00270946068
booster[34]:
0:[f6<0.00134168158] yes=1,no=2,missing=1
	1:[f0<0.0432525948] yes=3,no=4,missing=3
		3:[f6<0.0012422977] yes=7,no=8,missing=7
			7:[f0<0.0397923887] yes=11,no=12,missing=11
				11:[f6<0.00114291394] yes=17,no=18,missing=17
					17:[f3<0.0076923077] yes=25,no=26,missing=25
						25:leaf=0.0781800896
						26:leaf=0.00948802847
					18:leaf=-0.169633359
				12:leaf=0.140409172
			8:leaf=-0.215046421
		4:leaf=0.14207156
	2:[f0<0.0467128009] yes=5,no=6,missing=5
		5:leaf=-0.164401889
		6:[f6<0.00163983298] yes=9,no=10,missing=9
			9:[f1<0.01506689] yes=13,no=14,missing=13
				13:[f3<0.0230769236] yes=19,no=20,missing=19
					19:leaf=0.150588453
					20:leaf=0.0116897989
				14:[f0<0.0501730107] yes=21,no=22,missing=21
					21:[f6<0.00144106545] yes=27,no=28,missing=27
						27:leaf=0.100841239
						28:leaf=-0.303987354
					22:leaf=0.123966508
			10:[f0<0.0570934266] yes=15,no=16,missing=15
				15:leaf=-0.19195725
				16:[f6<0.00183860073] yes=23,no=24,missing=23
					23:[f1<0.0231103674] yes=29,no=30,missing=29
						29:leaf=0.138937742
						30:leaf=-0.0504835621
					24:[f0<0.0640138388] yes=31,no=32,missing=31
						31:leaf=-0.218010694
						32:leaf=-0.000526617339
booster[35]:
0:[f6<0.00134168158] yes=1,no=2,missing=1
	1:[f0<0.0432525948] yes=3,no=4,missing=3
		3:[f6<0.0012422977] yes=7,no=8,missing=7
			7:[f0<0.0397923887] yes=11,no=12,missing=11
				11:[f6<0.00114291394] yes=17,no=18,missing=17
					17:[f3<0.0076923077] yes=25,no=26,missing=25
						25:leaf=-0.0781801566
						26:leaf=-0.00948802102
					18:leaf=0.169633389
				12:leaf=-0.140409186
			8:leaf=0.215046421
		4:leaf=-0.142071545
	2:[f0<0.0467128009] yes=5,no=6,missing=5
		5:leaf=0.164401889
		6:[f6<0.00163983298] yes=9,no=10,missing=9
			9:[f1<0.01506689] yes=13,no=14,missing=13
				13:[f3<0.0230769236] yes=19,no=20,missing=19
					19:leaf=-0.150588423
					20:leaf=-0.011689798
				14:[f0<0.0501730107] yes=21,no=22,missing=21
					21:[f6<0.00144106545] yes=27,no=28,missing=27
						27:leaf=-0.100841194
						28:leaf=0.303987354
					22:leaf=-0.123966508
			10:[f0<0.0570934266] yes=15,no=16,missing=15
				15:leaf=0.19195725
				16:[f6<0.00183860073] yes=23,no=24,missing=23
					23:[f1<0.0231103674] yes=29,no=30,missing=29
						29:leaf=-0.138937712
						30:leaf=0.0504835173
					24:[f0<0.0640138388] yes=31,no=32,missing=31
						31:leaf=0.218010679
						32:leaf=0.000526614429
booster[36]:
0:[f6<0.006807792] yes=1,no=2,missing=1
	1:[f0<0.202422142] yes=3,no=4,missing=3
		3:[f6<0.00581395347] yes=7,no=8,missing=7
			7:[f0<0.181660891] yes=13,no=14,missing=13
				13:[f6<0.00521765091] yes=23,no=24,missing=23
					23:[f0<0.150519028] yes=35,no=36,missing=35
						35:leaf=-0.00218381034
						36:leaf=0.0863127932
					24:leaf=-0.194114983
				14:[f6<0.00561518595] yes=25,no=26,missing=25
					25:[f0<0.185121119] yes=37,no=38,missing=37
						37:leaf=0.0578441061
						38:leaf=0.166183233
					26:[f0<0.198961943] yes=39,no=40,missing=39
						39:leaf=0.00156372809
						40:leaf=0.131364167
			8:leaf=-0.176110029
		4:[f6<0.00641025603] yes=9,no=10,missing=9
			9:[f3<0.0076923077] yes=15,no=16,missing=15
				15:leaf=0.157826304
				16:leaf=0.0433672965
			10:[f0<0.223183393] yes=17,no=18,missing=17
				17:leaf=-0.169608265
				18:[f0<0.226643592] yes=27,no=28,missing=27
					27:[f6<0.0065593319] yes=41,no=42,missing=41
						41:leaf=0.132598311
						42:leaf=-0.141170949
					28:leaf=0.163031191
	2:[f0<0.237024218] yes=5,no=6,missing=5
		5:leaf=-0.193706661
		6:[f6<0.00849731639] yes=11,no=12,missing=11
			11:[f6<0.00745378667] yes=19,no=20,missing=19
				19:leaf=0.174398795
				20:[f0<0.271626294] yes=29,no=30,missing=29
					29:[f6<0.00790101383] yes=43,no=44,missing=43
						43:leaf=-0.0338392332
						44:leaf=-0.131890655
					30:leaf=0.162209406
			12:[f6<0.0100874584] yes=21,no=22,missing=21
				21:[f0<0.316608995] yes=31,no=32,missing=31
					31:[f1<0.0108193979] yes=45,no=46,missing=45
						45:leaf=-0.0291592535
						46:leaf=-0.153722256
					32:leaf=0.162719697
				22:[f0<0.401384085] yes=33,no=34,missing=33
					33:leaf=-0.157600403
					34:leaf=0.00233489228
booster[37]:
0:[f6<0.006807792] yes=1,no=2,missing=1
	1:[f0<0.202422142] yes=3,no=4,missing=3
		3:[f6<0.00581395347] yes=7,no=8,missing=7
			7:[f0<0.181660891] yes=13,no=14,missing=13
				13:[f6<0.00521765091] yes=23,no=24,missing=23
					23:[f0<0.150519028] yes=35,no=36,missing=35
						35:leaf=0.00218382222
						36:leaf=-0.0863127932
					24:leaf=0.194114983
				14:[f6<0.00561518595] yes=25,no=26,missing=25
					25:[f0<0.185121119] yes=37,no=38,missing=37
						37:leaf=-0.0578441247
						38:leaf=-0.166183263
					26:[f0<0.198961943] yes=39,no=40,missing=39
						39:leaf=-0.00156370841
						40:leaf=-0.131364167
			8:leaf=0.176110029
		4:[f6<0.00641025603] yes=9,no=10,missing=9
			9:[f3<0.0076923077] yes=15,no=16,missing=15
				15:leaf=-0.157826304
				16:leaf=-0.0433672927
			10:[f0<0.223183393] yes=17,no=18,missing=17
				17:leaf=0.169608265
				18:[f0<0.226643592] yes=27,no=28,missing=27
					27:[f6<0.0065593319] yes=41,no=42,missing=41
						41:leaf=-0.132598311
						42:leaf=0.141170919
					28:leaf=-0.163031191
	2:[f0<0.237024218] yes=5,no=6,missing=5
		5:leaf=0.193706647
		6:[f6<0.00849731639] yes=11,no=12,missing=11
			11:[f6<0.00745378667] yes=19,no=20,missing=19
				19:leaf=-0.174398795
				20:[f0<0.271626294] yes=29,no=30,missing=29
					29:[f6<0.00790101383] yes=43,no=44,missing=43
						43:leaf=0.0338392295
						44:leaf=0.131890669
					30:leaf=-0.162209406
			12:[f6<0.0100874584] yes=21,no=22,missing=21
				21:[f0<0.316608995] yes=31,no=32,missing=31
					31:[f1<0.0108193979] yes=45,no=46,missing=45
						45:leaf=0.0291592535
						46:leaf=0.153722271
					32:leaf=-0.162719697
				22:[f0<0.401384085] yes=33,no=34,missing=33
					33:leaf=0.157600403
					34:leaf=-0.0023348846
booster[38]:
0:[f6<0.0028324388] yes=1,no=2,missing=1
	1:[f0<0.0916955024] yes=3,no=4,missing=3
		3:[f6<0.00263367128] yes=7,no=8,missing=7
			7:[f0<0.0778546706] yes=13,no=14,missing=13
				13:[f6<0.002236136] yes=19,no=20,missing=19
					19:[f0<0.070934251] yes=25,no=26,missing=25
						25:leaf=0.00825440139
						26:leaf=0.124694295
					20:leaf=-0.1833487
				14:[f6<0.00243490352] yes=21,no=22,missing=21
					21:leaf=0.144459799
					22:[f0<0.0847750902] yes=27,no=28,missing=27
						27:leaf=-0.143667519
						28:leaf=0.11511486
			8:leaf=-0.192057118
		4:[f1<0.0137458192] yes=9,no=10,missing=9
			9:leaf=0.149789691
			10:[f1<0.0173745826] yes=15,no=16,missing=15
				15:leaf=-0.028496312
				16:leaf=0.116775498
	2:[f0<0.0986159146] yes=5,no=6,missing=5
		5:leaf=-0.17093046
		6:[f6<0.00303120655] yes=11,no=12,missing=11
			11:leaf=0.154762536
			12:[f0<0.105536327] yes=17,no=18,missing=17
				17:leaf=-0.189654008
				18:[f6<0.00362750934] yes=23,no=24,missing=23
					23:[f0<0.115916952] yes=29,no=30,missing=29
						29:leaf=0.0299766455
						30:leaf=0.126152992
					24:[f0<0.126297578] yes=31,no=32,missing=31
						31:leaf=-0.177149296
						32:leaf=0.0029608747
booster[39]:
0:[f6<0.0028324388] yes=1,no=2,missing=1
	1:[f0<0.0916955024] yes=3,no=4,missing=3
		3:[f6<0.00263367128] yes=7,no=8,missing=7
			7:[f0<0.0778546706] yes=13,no=14,missing=13
				13:[f6<0.002236136] yes=19,no=20,missing=19
					19:[f0<0.070934251] yes=25,no=26,missing=25
						25:leaf=-0.00825442374
						26:leaf=-0.12469428
					20:leaf=0.183348715
				14:[f6<0.00243490352] yes=21,no=22,missing=21
					21:leaf=-0.144459799
					22:[f0<0.0847750902] yes=27,no=28,missing=27
						27:leaf=0.143667519
						28:leaf=-0.115114853
			8:leaf=0.192057148
		4:[f1<0.0137458192] yes=9,no=10,missing=9
			9:leaf=-0.149789691
			10:[f1<0.0173745826] yes=15,no=16,missing=15
				15:leaf=0.0284963157
				16:leaf=-0.116775498
	2:[f0<0.0986159146] yes=5,no=6,missing=5
		5:leaf=0.170930475
		6:[f6<0.00303120655] yes=11,no=12,missing=11
			11:leaf=-0.154762536
			12:[f0<0.105536327] yes=17,no=18,missing=17
				17:leaf=0.189653978
				18:[f6<0.00362750934] yes=23,no=24,missing=23
					23:[f0<0.115916952] yes=29,no=30,missing=29
						29:leaf=-0.0299766436
						30:leaf=-0.126152992
					24:[f0<0.126297578] yes=31,no=32,missing=31
						31:leaf=0.177149296
						32:leaf=-0.00296087423
booster[40]:
0:[f6<0.000347843365] yes=1,no=2,missing=1
	1:[f3<0.0230769236] yes=3,no=4,missing=3
		3:leaf=0.136365816
		4:leaf=-0.026153842
	2:[f0<0.0121107269] yes=5,no=6,missing=5
		5:leaf=-0.178793073
		6:[f6<0.00472073164] yes=7,no=8,missing=7
			7:[f0<0.143598616] yes=9,no=10,missing=9
				9:[f6<0.00412442815] yes=13,no=14,missing=13
					13:[f0<0.13321799] yes=19,no=20,missing=19
						19:leaf=0.0025814625
						20:leaf=0.145486578
					14:leaf=-0.187058672
				10:[f6<0.0043231966] yes=15,no=16,missing=15
					15:leaf=0.159213141
					16:[f0<0.150519028] yes=21,no=22,missing=21
						21:leaf=-0.178562582
						22:leaf=0.124842934
			8:[f0<0.164359868] yes=11,no=12,missing=11
				11:leaf=-0.173867539
				12:[f6<0.00611210521] yes=17,no=18,missing=17
					17:[f0<0.188581318] yes=23,no=24,missing=23
						23:leaf=0.026148539
						24:leaf=0.130568683
					18:[f0<0.212802768] yes=25,no=26,missing=25
						25:leaf=-0.180740193
						26:leaf=0.00346935447
booster[41]:
0:[f6<0.000347843365] yes=1,no=2,missing=1
	1:[f3<0.0230769236] yes=3,no=4,missing=3
		3:leaf=-0.136365891
		4:leaf=0.0261538271
	2:[f0<0.0121107269] yes=5,no=6,missing=5
		5:leaf=0.178793147
		6:[f6<0.00472073164] yes=7,no=8,missing=7
			7:[f0<0.143598616] yes=9,no=10,missing=9
				9:[f6<0.00412442815] yes=13,no=14,missing=13
					13:[f0<0.13321799] yes=19,no=20,missing=19
						19:leaf=-0.00258145994
						20:leaf=-0.145486593
					14:leaf=0.187058687
				10:[f6<0.0043231966] yes=15,no=16,missing=15
					15:leaf=-0.159213141
					16:[f0<0.150519028] yes=21,no=22,missing=21
						21:leaf=0.178562596
						22:leaf=-0.124842934
			8:[f0<0.164359868] yes=11,no=12,missing=11
				11:leaf=0.173867539
				12:[f6<0.00611210521] yes=17,no=18,missing=17
					17:[f0<0.188581318] yes=23,no=24,missing=23
						23:leaf=-0.0261485334
						24:leaf=-0.130568668
					18:[f0<0.212802768] yes=25,no=26,missing=25
						25:leaf=0.180740178
						26:leaf=-0.00346934539
booster[42]:
0:[f1<0.0332943127] yes=1,no=2,missing=1
	1:[f6<0.00134168158] yes=3,no=4,missing=3
		3:[f0<0.0432525948] yes=7,no=8,missing=7
			7:[f6<0.0012422977] yes=11,no=12,missing=11
				11:[f0<0.0397923887] yes=15,no=16,missing=15
					15:[f6<0.00114291394] yes=21,no=22,missing=21
						21:leaf=0.0408065803
						22:leaf=-0.15388234
					16:leaf=0.133786812
				12:leaf=-0.197372884
			8:leaf=0.135440186
		4:[f0<0.0467128009] yes=9,no=10,missing=9
			9:leaf=-0.161139384
			10:[f6<0.00163983298] yes=13,no=14,missing=13
				13:[f1<0.0180601999] yes=17,no=18,missing=17
					17:[f3<0.0230769236] yes=23,no=24,missing=23
						23:leaf=0.130953893
						24:leaf=0.00809411425
					18:[f0<0.0501730107] yes=25,no=26,missing=25
						25:leaf=-0.107440792
						26:leaf=0.0840474367
				14:[f0<0.0570934266] yes=19,no=20,missing=19
					19:leaf=-0.182728246
					20:[f6<0.00183860073] yes=27,no=28,missing=27
						27:leaf=0.112812757
						28:leaf=-0.00756760221
	2:[f0<0.0536332205] yes=5,no=6,missing=5
		5:leaf=0.0476087891
		6:leaf=0.137208715
booster[43]:
0:[f1<0.0332943127] yes=1,no=2,missing=1
	1:[f6<0.00134168158] yes=3,no=4,missing=3
		3:[f0<0.0432525948] yes=7,no=8,missing=7
			7:[f6<0.0012422977] yes=11,no=12,missing=11
				11:[f0<0.0397923887] yes=15,no=16,missing=15
					15:[f6<0.00114291394] yes=21,no=22,missing=21
						21:leaf=-0.0408065021
						22:leaf=0.15388234
					16:leaf=-0.133786812
				12:leaf=0.197372869
			8:leaf=-0.135440201
		4:[f0<0.0467128009] yes=9,no=10,missing=9
			9:leaf=0.161139369
			10:[f6<0.00163983298] yes=13,no=14,missing=13
				13:[f1<0.0180601999] yes=17,no=18,missing=17
					17:[f3<0.0230769236] yes=23,no=24,missing=23
						23:leaf=-0.130953908
						24:leaf=-0.00809412077
					18:[f0<0.0501730107] yes=25,no=26,missing=25
						25:leaf=0.10744074
						26:leaf=-0.0840474069
				14:[f0<0.0570934266] yes=19,no=20,missing=19
					19:leaf=0.182728246
					20:[f6<0.00183860073] yes=27,no=28,missing=27
						27:leaf=-0.112812735
						28:leaf=0.00756761199
	2:[f0<0.0536332205] yes=5,no=6,missing=5
		5:leaf=-0.0476087481
		6:leaf=-0.137208715
booster[44]:
0:[f6<0.0100874584] yes=1,no=2,missing=1
	1:[f1<0.0331270918] yes=3,no=4,missing=3
		3:[f6<0.000347843365] yes=7,no=8,missing=7
			7:[f3<0.0230769236] yes=11,no=12,missing=11
				11:leaf=0.129366949
				12:leaf=-0.0291497875
			8:[f0<0.0121107269] yes=13,no=14,missing=13
				13:leaf=-0.180440471
				14:[f6<0.000745378667] yes=15,no=16,missing=15
					15:[f1<0.0141471568] yes=17,no=18,missing=17
						17:leaf=0.112231925
						18:leaf=-0.00277008698
					16:[f0<0.0259515569] yes=19,no=20,missing=19
						19:leaf=-0.14230454
						20:leaf=-0.000142517398
		4:[f0<0.0536332205] yes=9,no=10,missing=9
			9:leaf=0.0403655097
			10:leaf=0.12840578
	2:[f0<0.401384085] yes=5,no=6,missing=5
		5:leaf=-0.145434439
		6:leaf=0.00212943228
booster[45]:
0:[f6<0.0100874584] yes=1,no=2,missing=1
	1:[f1<0.0331270918] yes=3,no=4,missing=3
		3:[f6<0.000347843365] yes=7,no=8,missing=7
			7:[f3<0.0230769236] yes=11,no=12,missing=11
				11:leaf=-0.12936683
				12:leaf=0.0291497819
			8:[f0<0.0121107269] yes=13,no=14,missing=13
				13:leaf=0.180440515
				14:[f6<0.000745378667] yes=15,no=16,missing=15
					15:[f1<0.0141471568] yes=17,no=18,missing=17
						17:leaf=-0.112231925
						18:leaf=0.00277064554
					16:[f0<0.0259515569] yes=19,no=20,missing=19
						19:leaf=0.14230454
						20:leaf=0.000142507008
		4:[f0<0.0536332205] yes=9,no=10,missing=9
			9:leaf=-0.0403654128
			10:leaf=-0.128405765
	2:[f0<0.401384085] yes=5,no=6,missing=5
		5:leaf=0.145434424
		6:leaf=-0.00212941295
booster[46]:
0:[f6<0.006807792] yes=1,no=2,missing=1
	1:[f0<0.216262966] yes=3,no=4,missing=3
		3:[f6<0.00621148851] yes=7,no=8,missing=7
			7:[f0<0.188581318] yes=13,no=14,missing=13
				13:[f6<0.00541641843] yes=19,no=20,missing=19
					19:[f0<0.160899654] yes=27,no=28,missing=27
						27:leaf=-0.00159142737
						28:leaf=0.0899381787
					20:leaf=-0.195268229
				14:[f3<0.0076923077] yes=21,no=22,missing=21
					21:[f6<0.00601272099] yes=29,no=30,missing=29
						29:leaf=0.154802516
						30:leaf=0.0290815365
					22:[f6<0.00571456924] yes=31,no=32,missing=31
						31:leaf=0.106608696
						32:leaf=-0.0521809161
			8:leaf=-0.172632426
		4:[f6<0.00660902448] yes=9,no=10,missing=9
			9:leaf=0.15111354
			10:[f0<0.228373706] yes=15,no=16,missing=15
				15:leaf=-0.123427011
				16:leaf=0.129875153
	2:[f0<0.237024218] yes=5,no=6,missing=5
		5:leaf=-0.184905231
		6:[f6<0.00745378667] yes=11,no=12,missing=11
			11:leaf=0.155783892
			12:[f0<0.271626294] yes=17,no=18,missing=17
				17:[f6<0.00790101383] yes=23,no=24,missing=23
					23:leaf=-0.0278675277
					24:leaf=-0.144854248
				18:[f6<0.00864639319] yes=25,no=26,missing=25
					25:leaf=0.154851466
					26:[f0<0.304498255] yes=33,no=34,missing=33
						33:leaf=-0.135446742
						34:leaf=-0.00993026886
booster[47]:
0:[f6<0.006807792] yes=1,no=2,missing=1
	1:[f0<0.216262966] yes=3,no=4,missing=3
		3:[f6<0.00621148851] yes=7,no=8,missing=7
			7:[f0<0.188581318] yes=13,no=14,missing=13
				13:[f6<0.00541641843] yes=19,no=20,missing=19
					19:[f0<0.160899654] yes=27,no=28,missing=27
						27:leaf=0.00159144378
						28:leaf=-0.0899381638
					20:leaf=0.195268199
				14:[f3<0.0076923077] yes=21,no=22,missing=21
					21:[f6<0.00601272099] yes=29,no=30,missing=29
						29:leaf=-0.154802531
						30:leaf=-0.0290815346
					22:[f6<0.00571456924] yes=31,no=32,missing=31
						31:leaf=-0.106608704
						32:leaf=0.0521809123
			8:leaf=0.172632426
		4:[f6<0.00660902448] yes=9,no=10,missing=9
			9:leaf=-0.15111354
			10:[f0<0.228373706] yes=15,no=16,missing=15
				15:leaf=0.123427011
				16:leaf=-0.129875153
	2:[f0<0.237024218] yes=5,no=6,missing=5
		5:leaf=0.184905231
		6:[f6<0.00745378667] yes=11,no=12,missing=11
			11:leaf=-0.155783892
			12:[f0<0.271626294] yes=17,no=18,missing=17
				17:[f6<0.00790101383] yes=23,no=24,missing=23
					23:leaf=0.0278675277
					24:leaf=0.144854248
				18:[f6<0.00864639319] yes=25,no=26,missing=25
					25:leaf=-0.154851481
					26:[f0<0.304498255] yes=33,no=34,missing=33
						33:leaf=0.135446727
						34:leaf=0.00993025489
booster[48]:
0:[f6<0.00472073164] yes=1,no=2,missing=1
	1:[f0<0.143598616] yes=3,no=4,missing=3
		3:[f6<0.00412442815] yes=7,no=8,missing=7
			7:[f0<0.119377166] yes=13,no=14,missing=13
				13:[f6<0.00342874182] yes=21,no=22,missing=21
					21:[f0<0.112456754] yes=29,no=30,missing=29
						29:leaf=0.00408032257
						30:leaf=0.133279666
					22:[f0<0.10899654] yes=31,no=32,missing=31
						31:leaf=-0.13310726
						32:leaf=-0.234231442
				14:[f6<0.00392566063] yes=23,no=24,missing=23
					23:[f0<0.126297578] yes=33,no=34,missing=33
						33:leaf=0.0578412451
						34:leaf=0.163588464
					24:[f0<0.134948105] yes=35,no=36,missing=35
						35:leaf=-0.257405698
						36:leaf=0.123593427
			8:leaf=-0.174005255
		4:[f6<0.0043231966] yes=9,no=10,missing=9
			9:leaf=0.149323016
			10:[f0<0.150519028] yes=15,no=16,missing=15
				15:leaf=-0.156312749
				16:[f3<0.0076923077] yes=25,no=26,missing=25
					25:[f1<0.00603678916] yes=37,no=38,missing=37
						37:leaf=0.0563861616
						38:leaf=0.153065026
					26:[f1<0.0108528426] yes=39,no=40,missing=39
						39:leaf=0.0620494746
						40:leaf=-0.0663810894
	2:[f0<0.164359868] yes=5,no=6,missing=5
		5:leaf=-0.165105417
		6:[f6<0.00511826668] yes=11,no=12,missing=11
			11:[f1<0.02242475] yes=17,no=18,missing=17
				17:leaf=0.150179952
				18:leaf=-0.0511402413
			12:[f0<0.178200692] yes=19,no=20,missing=19
				19:leaf=-0.213735461
				20:[f6<0.00561518595] yes=27,no=28,missing=27
					27:[f1<0.0100334454] yes=41,no=42,missing=41
						41:leaf=0.0129749253
						42:leaf=0.146405324
					28:[f0<0.19550173] yes=43,no=44,missing=43
						43:leaf=-0.147819817
						44:leaf=0.00323709077
booster[49]:
0:[f6<0.00472073164] yes=1,no=2,missing=1
	1:[f0<0.143598616] yes=3,no=4,missing=3
		3:[f6<0.00412442815] yes=7,no=8,missing=7
			7:[f0<0.119377166] yes=13,no=14,missing=13
				13:[f6<0.00342874182] yes=21,no=22,missing=21
					21:[f0<0.112456754] yes=29,no=30,missing=29
						29:leaf=-0.00408037612
						30:leaf=-0.133279651
					22:[f0<0.10899654] yes=31,no=32,missing=31
						31:leaf=0.13310726
						32:leaf=0.234231442
				14:[f6<0.00392566063] yes=23,no=24,missing=23
					23:[f0<0.126297578] yes=33,no=34,missing=33
						33:leaf=-0.057841327
						34:leaf=-0.163588464
					24:[f0<0.134948105] yes=35,no=36,missing=35
						35:leaf=0.257405698
						36:leaf=-0.123593405
			8:leaf=0.17400527
		4:[f6<0.0043231966] yes=9,no=10,missing=9
			9:leaf=-0.149323031
			10:[f0<0.150519028] yes=15,no=16,missing=15
				15:leaf=0.156312749
				16:[f3<0.0076923077] yes=25,no=26,missing=25
					25:[f1<0.00603678916] yes=37,no=38,missing=37
						37:leaf=-0.0563861765
						38:leaf=-0.153065026
					26:[f1<0.0108528426] yes=39,no=40,missing=39
						39:leaf=-0.0620494671
						40:leaf=0.0663811043
	2:[f0<0.164359868] yes=5,no=6,missing=5
		5:leaf=0.165105417
		6:[f6<0.00511826668] yes=11,no=12,missing=11
			11:[f1<0.02242475] yes=17,no=18,missing=17
				17:leaf=-0.150179952
				18:leaf=0.0511402301
			12:[f0<0.178200692] yes=19,no=20,missing=19
				19:leaf=0.213735461
				20:[f6<0.00561518595] yes=27,no=28,missing=27
					27:[f1<0.0100334454] yes=41,no=42,missing=41
						41:leaf=-0.0129749253
						42:leaf=-0.146405324
					28:[f0<0.19550173] yes=43,no=44,missing=43
						43:leaf=0.147819832
						44:leaf=-0.00323708635
booster[50]:
0:[f6<0.0028324388] yes=1,no=2,missing=1
	1:[f0<0.0882352889] yes=3,no=4,missing=3
		3:[f6<0.00253428752] yes=7,no=8,missing=7
			7:[f0<0.0778546706] yes=13,no=14,missing=13
				13:[f6<0.002236136] yes=21,no=22,missing=21
					21:[f0<0.070934251] yes=27,no=28,missing=27
						27:leaf=0.000596622296
						28:leaf=0.115073726
					22:leaf=-0.173903316
				14:[f6<0.00243490352] yes=23,no=24,missing=23
					23:leaf=0.139012292
					24:[f0<0.0847750902] yes=29,no=30,missing=29
						29:leaf=-0.105386578
						30:leaf=0.133614108
			8:[f0<0.0847750902] yes=15,no=16,missing=15
				15:leaf=-0.138072103
				16:leaf=-0.316517591
		4:[f6<0.00273305504] yes=9,no=10,missing=9
			9:leaf=0.121106669
			10:[f0<0.0951557159] yes=17,no=18,missing=17
				17:leaf=-0.252201229
				18:leaf=0.13962163
	2:[f0<0.0986159146] yes=5,no=6,missing=5
		5:leaf=-0.167180896
		6:[f6<0.00303120655] yes=11,no=12,missing=11
			11:leaf=0.147577181
			12:[f0<0.105536327] yes=19,no=20,missing=19
				19:leaf=-0.174270317
				20:[f6<0.0032299743] yes=25,no=26,missing=25
					25:leaf=0.129876032
					26:[f0<0.112456754] yes=31,no=32,missing=31
						31:leaf=-0.188554987
						32:leaf=0.00255157356
booster[51]:
0:[f6<0.0028324388] yes=1,no=2,missing=1
	1:[f0<0.0882352889] yes=3,no=4,missing=3
		3:[f6<0.00253428752] yes=7,no=8,missing=7
			7:[f0<0.0778546706] yes=13,no=14,missing=13
				13:[f6<0.002236136] yes=21,no=22,missing=21
					21:[f0<0.070934251] yes=27,no=28,missing=27
						27:leaf=-0.000596597907
						28:leaf=-0.115073703
					22:leaf=0.173903301
				14:[f6<0.00243490352] yes=23,no=24,missing=23
					23:leaf=-0.139012277
					24:[f0<0.0847750902] yes=29,no=30,missing=29
						29:leaf=0.10538657
						30:leaf=-0.133614123
			8:[f0<0.0847750902] yes=15,no=16,missing=15
				15:leaf=0.138072103
				16:leaf=0.316517591
		4:[f6<0.00273305504] yes=9,no=10,missing=9
			9:leaf=-0.121106647
			10:[f0<0.0951557159] yes=17,no=18,missing=17
				17:leaf=0.252201229
				18:leaf=-0.13962163
	2:[f0<0.0986159146] yes=5,no=6,missing=5
		5:leaf=0.167180881
		6:[f6<0.00303120655] yes=11,no=12,missing=11
			11:leaf=-0.147577181
			12:[f0<0.105536327] yes=19,no=20,missing=19
				19:leaf=0.174270317
				20:[f6<0.0032299743] yes=25,no=26,missing=25
					25:leaf=-0.129876018
					26:[f0<0.112456754] yes=31,no=32,missing=31
						31:leaf=0.188554987
						32:leaf=-0.00255155936
booster[52]:
0:[f6<0.0100874584] yes=1,no=2,missing=1
	1:[f6<0.000944146304] yes=3,no=4,missing=3
		3:[f0<0.0259515569] yes=7,no=8,missing=7
			7:[f6<0.000745378667] yes=11,no=12,missing=11
				11:[f0<0.0155709349] yes=15,no=16,missing=15
					15:[f6<0.000447227183] yes=21,no=22,missing=21
						21:leaf=0.0589944422
						22:leaf=-0.22456567
					16:leaf=0.110242248
				12:leaf=-0.128956974
			8:leaf=0.130509615
		4:[f0<0.0328719728] yes=9,no=10,missing=9
			9:leaf=-0.158169687
			10:[f6<0.00114291394] yes=13,no=14,missing=13
				13:[f1<0.015551839] yes=17,no=18,missing=17
					17:leaf=0.132853955
					18:[f1<0.0182274245] yes=23,no=24,missing=23
						23:leaf=-0.0615512691
						24:leaf=0.0817797855
				14:[f0<0.0397923887] yes=19,no=20,missing=19
					19:leaf=-0.144968122
					20:[f6<0.0012422977] yes=25,no=26,missing=25
						25:leaf=0.127765402
						26:leaf=-0.00175806833
	2:[f0<0.401384085] yes=5,no=6,missing=5
		5:leaf=-0.131630987
		6:leaf=0.00247467496
booster[53]:
0:[f6<0.0100874584] yes=1,no=2,missing=1
	1:[f6<0.000944146304] yes=3,no=4,missing=3
		3:[f0<0.0259515569] yes=7,no=8,missing=7
			7:[f6<0.000745378667] yes=11,no=12,missing=11
				11:[f0<0.0155709349] yes=15,no=16,missing=15
					15:[f6<0.000447227183] yes=21,no=22,missing=21
						21:leaf=-0.0589948893
						22:leaf=0.22456567
					16:leaf=-0.110242225
				12:leaf=0.128956974
			8:leaf=-0.130509615
		4:[f0<0.0328719728] yes=9,no=10,missing=9
			9:leaf=0.158169717
			10:[f6<0.00114291394] yes=13,no=14,missing=13
				13:[f1<0.015551839] yes=17,no=18,missing=17
					17:leaf=-0.13285391
					18:[f1<0.0182274245] yes=23,no=24,missing=23
						23:leaf=0.0615515225
						24:leaf=-0.0817796737
				14:[f0<0.0397923887] yes=19,no=20,missing=19
					19:leaf=0.144968122
					20:[f6<0.0012422977] yes=25,no=26,missing=25
						25:leaf=-0.127765343
						26:leaf=0.00175805867
	2:[f0<0.401384085] yes=5,no=6,missing=5
		5:leaf=0.131630987
		6:leaf=-0.0024746866
booster[54]:
0:[f1<0.00290969899] yes=1,no=2,missing=1
	1:leaf=-0.122710899
	2:[f1<0.00329431426] yes=3,no=4,missing=3
		3:[f3<0.0230769236] yes=5,no=6,missing=5
			5:[f0<0.141868502] yes=9,no=10,missing=9
				9:[f6<0.00203736825] yes=13,no=14,missing=13
					13:leaf=0.100537322
					14:[f0<0.0847750902] yes=19,no=20,missing=19
						19:leaf=-0.0346374623
						20:leaf=0.0269643646
				10:leaf=0.114533015
			6:leaf=0.0118650552
		4:[f1<0.00484949816] yes=7,no=8,missing=7
			7:leaf=-0.142904297
			8:[f1<0.00516722398] yes=11,no=12,missing=11
				11:[f6<0.00650964025] yes=15,no=16,missing=15
					15:[f0<0.0882352889] yes=21,no=22,missing=21
						21:leaf=0.0307163596
						22:leaf=0.109137572
					16:leaf=-0.112440579
				12:[f1<0.0332943127] yes=17,no=18,missing=17
					17:[f6<0.00183860073] yes=23,no=24,missing=23
						23:leaf=0.0155996149
						24:leaf=-0.0127911316
					18:[f0<0.0536332205] yes=25,no=26,missing=25
						25:leaf=0.032678131
						26:leaf=0.113109529
booster[55]:
0:[f1<0.00290969899] yes=1,no=2,missing=1
	1:leaf=0.122710913
	2:[f1<0.00329431426] yes=3,no=4,missing=3
		3:[f3<0.0230769236] yes=5,no=6,missing=5
			5:[f0<0.141868502] yes=9,no=10,missing=9
				9:[f6<0.00203736825] yes=13,no=14,missing=13
					13:leaf=-0.100537337
					14:[f0<0.0847750902] yes=19,no=20,missing=19
						19:leaf=0.0346374884
						20:leaf=-0.0269643459
				10:leaf=-0.114533022
			6:leaf=-0.0118649872
		4:[f1<0.00484949816] yes=7,no=8,missing=7
			7:leaf=0.142904297
			8:[f1<0.00516722398] yes=11,no=12,missing=11
				11:[f6<0.00650964025] yes=15,no=16,missing=15
					15:[f0<0.0882352889] yes=21,no=22,missing=21
						21:leaf=-0.0307163354
						22:leaf=-0.10913755
					16:leaf=0.112440594
				12:[f1<0.0332943127] yes=17,no=18,missing=17
					17:[f6<0.00183860073] yes=23,no=24,missing=23
						23:leaf=-0.0155995954
						24:leaf=0.0127911316
					18:[f0<0.0536332205] yes=25,no=26,missing=25
						25:leaf=-0.032678131
						26:leaf=-0.113109529
booster[56]:
0:[f3<0.0076923077] yes=1,no=2,missing=1
	1:[f6<0.000347843365] yes=3,no=4,missing=3
		3:leaf=0.112670474
		4:[f0<0.0121107269] yes=7,no=8,missing=7
			7:leaf=-0.162911698
			8:[f8<0.166666672] yes=13,no=14,missing=13
				13:[f6<0.00183860073] yes=23,no=24,missing=23
					23:[f0<0.0536332205] yes=35,no=36,missing=35
						35:leaf=0.00176081166
						36:leaf=0.107481554
					24:[f0<0.0640138388] yes=37,no=38,missing=37
						37:leaf=-0.179353625
						38:leaf=0.00330054271
				14:[f0<0.0640138388] yes=25,no=26,missing=25
					25:[f6<0.00154044922] yes=39,no=40,missing=39
						39:leaf=0.0531790555
						40:leaf=-0.0926481038
					26:[f1<0.01506689] yes=41,no=42,missing=41
						41:leaf=0.103731044
						42:leaf=0.00649334909
	2:[f6<0.00452196412] yes=5,no=6,missing=5
		5:[f0<0.0674740523] yes=9,no=10,missing=9
			9:[f6<0.00193798449] yes=15,no=16,missing=15
				15:[f0<0.0640138388] yes=27,no=28,missing=27
					27:[f6<0.00163983298] yes=43,no=44,missing=43
						43:leaf=-0.00723069161
						44:leaf=-0.088864699
					28:leaf=0.0991413221
				16:leaf=-0.159520626
			10:[f6<0.00213675201] yes=17,no=18,missing=17
				17:leaf=0.126147404
				18:[f0<0.0951557159] yes=29,no=30,missing=29
					29:[f6<0.00263367128] yes=45,no=46,missing=45
						45:leaf=0.0307408702
						46:leaf=-0.129340261
					30:[f1<0.0153678935] yes=47,no=48,missing=47
						47:leaf=0.0488231257
						48:leaf=-0.0417272486
		6:[f1<0.00326086953] yes=11,no=12,missing=11
			11:[f3<0.0230769236] yes=19,no=20,missing=19
				19:leaf=0.0345228389
				20:leaf=-0.0266322922
			12:[f0<0.209342569] yes=21,no=22,missing=21
				21:[f6<0.00491949916] yes=31,no=32,missing=31
					31:leaf=-0.0403076485
					32:leaf=-0.146423891
				22:[f6<0.00650964025] yes=33,no=34,missing=33
					33:leaf=0.120346196
					34:[f1<0.00842809305] yes=49,no=50,missing=49
						49:leaf=-0.124537751
						50:leaf=-0.0108014587
booster[57]:
0:[f3<0.0076923077] yes=1,no=2,missing=1
	1:[f6<0.000347843365] yes=3,no=4,missing=3
		3:leaf=-0.112670504
		4:[f0<0.0121107269] yes=7,no=8,missing=7
			7:leaf=0.162911713
			8:[f8<0.166666672] yes=13,no=14,missing=13
				13:[f6<0.00183860073] yes=23,no=24,missing=23
					23:[f0<0.0536332205] yes=35,no=36,missing=35
						35:leaf=-0.00176078733
						36:leaf=-0.107481509
					24:[f0<0.0640138388] yes=37,no=38,missing=37
						37:leaf=0.179353654
						38:leaf=-0.00330052897
				14:[f0<0.0640138388] yes=25,no=26,missing=25
					25:[f6<0.00154044922] yes=39,no=40,missing=39
						39:leaf=-0.0531789623
						40:leaf=0.0926481411
					26:[f1<0.01506689] yes=41,no=42,missing=41
						41:leaf=-0.103731044
						42:leaf=-0.00649333885
	2:[f6<0.00452196412] yes=5,no=6,missing=5
		5:[f0<0.0674740523] yes=9,no=10,missing=9
			9:[f6<0.00193798449] yes=15,no=16,missing=15
				15:[f0<0.0640138388] yes=27,no=28,missing=27
					27:[f6<0.00163983298] yes=43,no=44,missing=43
						43:leaf=0.00723068137
						44:leaf=0.088864699
					28:leaf=-0.0991413072
				16:leaf=0.159520626
			10:[f6<0.00213675201] yes=17,no=18,missing=17
				17:leaf=-0.126147389
				18:[f0<0.0951557159] yes=29,no=30,missing=29
					29:[f6<0.00263367128] yes=45,no=46,missing=45
						45:leaf=-0.0307408608
						46:leaf=0.129340261
					30:[f1<0.0153678935] yes=47,no=48,missing=47
						47:leaf=-0.0488231294
						48:leaf=0.041727256
		6:[f1<0.00326086953] yes=11,no=12,missing=11
			11:[f3<0.0230769236] yes=19,no=20,missing=19
				19:leaf=-0.0345228128
				20:leaf=0.0266323201
			12:[f0<0.209342569] yes=21,no=22,missing=21
				21:[f6<0.00491949916] yes=31,no=32,missing=31
					31:leaf=0.0403076112
					32:leaf=0.146423891
				22:[f6<0.00650964025] yes=33,no=34,missing=33
					33:leaf=-0.120346181
