booster[0]:
0:[f6<0.00233551976] yes=1,no=2,missing=1
	1:[f6<0.00154044922] yes=3,no=4,missing=3
		3:[f0<0.00519031147] yes=7,no=8,missing=7
			7:[f6<0.000347843365] yes=13,no=14,missing=13
				13:[f0<0.00173010386] yes=23,no=24,missing=23
					23:[f1<0.0166387968] yes=41,no=42,missing=41
						41:leaf=0.0600000024
						42:leaf=0.200000018
					24:[f1<0.0176254176] yes=43,no=44,missing=43
						43:leaf=0.180000007
						44:leaf=0.0230769254
				14:leaf=-0.180000007
			8:[f8<0.833333373] yes=15,no=16,missing=15
				15:[f1<0.0176254176] yes=25,no=26,missing=25
					25:leaf=0.233333349
					26:[f0<0.041522488] yes=45,no=46,missing=45
						45:leaf=-0
						46:leaf=-0.0600000024
				16:[f0<0.0397923887] yes=27,no=28,missing=27
					27:[f6<0.0012422977] yes=47,no=48,missing=47
						47:leaf=0.182681575
						48:leaf=-0.180000007
					28:leaf=0.227272734
		4:[f0<0.0536332205] yes=9,no=10,missing=9
			9:leaf=-0.280645162
			10:[f1<0.0187792629] yes=17,no=18,missing=17
				17:[f0<0.0743944645] yes=29,no=30,missing=29
					29:[f6<0.00193798449] yes=49,no=50,missing=49
						49:leaf=0.154545456
						50:leaf=-0.0157894753
					30:[f1<0.00866220705] yes=51,no=52,missing=51
						51:leaf=-0
						52:leaf=0.26000002
				18:[f0<0.0570934266] yes=31,no=32,missing=31
					31:[f1<0.0249832775] yes=53,no=54,missing=53
						53:leaf=0.0600000024
						54:leaf=-0
					32:[f8<0.833333373] yes=55,no=56,missing=55
						55:leaf=0.100000009
						56:leaf=0.253846169
	2:[f0<0.0813148767] yes=5,no=6,missing=5
		5:leaf=-0.297000021
		6:[f6<0.00342874182] yes=11,no=12,missing=11
			11:[f0<0.0986159146] yes=19,no=20,missing=19
				19:[f6<0.00293182256] yes=33,no=34,missing=33
					33:[f6<0.00273305504] yes=57,no=58,missing=57
						57:leaf=0.183333337
						58:leaf=0.0428571478
					34:leaf=-0.233333349
				20:[f8<0.833333373] yes=35,no=36,missing=35
					35:[f0<0.105536327] yes=59,no=60,missing=59
						59:leaf=-0.150000006
						60:leaf=0.200000018
					36:leaf=0.248571441
			12:[f0<0.126297578] yes=21,no=22,missing=21
				21:[f6<0.00362750934] yes=37,no=38,missing=37
					37:[f0<0.122837365] yes=61,no=62,missing=61
						61:leaf=-0.200000018
						62:leaf=-0
					38:leaf=-0.287755132
				22:[f1<0.0264046825] yes=39,no=40,missing=39
					39:[f6<0.00462134741] yes=63,no=64,missing=63
						63:leaf=0.0777777806
						64:leaf=-0.144827589
					40:[f0<0.16955018] yes=65,no=66,missing=65
						65:leaf=0.0428571478
						66:leaf=0.25
booster[1]:
0:[f6<0.00233551976] yes=1,no=2,missing=1
	1:[f6<0.00154044922] yes=3,no=4,missing=3
		3:[f0<0.00519031147] yes=7,no=8,missing=7
			7:[f6<0.000347843365] yes=13,no=14,missing=13
				13:[f0<0.00173010386] yes=23,no=24,missing=23
					23:[f1<0.0166387968] yes=41,no=42,missing=41
						41:leaf=-0.0600000024
						42:leaf=-0.200000018
					24:[f1<0.0176254176] yes=43,no=44,missing=43
						43:leaf=-0.180000007
						44:leaf=-0.0230769254
				14:leaf=0.180000007
			8:[f8<0.833333373] yes=15,no=16,missing=15
				15:[f1<0.0176254176] yes=25,no=26,missing=25
					25:leaf=-0.233333349
					26:[f0<0.041522488] yes=45,no=46,missing=45
						45:leaf=-0
						46:leaf=0.0600000024
				16:[f0<0.0397923887] yes=27,no=28,missing=27
					27:[f6<0.0012422977] yes=47,no=48,missing=47
						47:leaf=-0.182681575
						48:leaf=0.180000007
					28:leaf=-0.227272734
		4:[f0<0.0536332205] yes=9,no=10,missing=9
			9:leaf=0.280645162
			10:[f1<0.0187792629] yes=17,no=18,missing=17
				17:[f0<0.0743944645] yes=29,no=30,missing=29
					29:[f6<0.00193798449] yes=49,no=50,missing=49
						49:leaf=-0.154545456
						50:leaf=0.0157894753
					30:[f1<0.00866220705] yes=51,no=52,missing=51
						51:leaf=-0
						52:leaf=-0.26000002
				18:[f0<0.0570934266] yes=31,no=32,missing=31
					31:[f1<0.0249832775] yes=53,no=54,missing=53
						53:leaf=-0.0600000024
						54:leaf=-0
					32:[f8<0.833333373] yes=55,no=56,missing=55
						55:leaf=-0.100000009
						56:leaf=-0.253846169
	2:[f0<0.0813148767] yes=5,no=6,missing=5
		5:leaf=0.297000021
		6:[f6<0.00342874182] yes=11,no=12,missing=11
			11:[f0<0.0986159146] yes=19,no=20,missing=19
				19:[f6<0.00293182256] yes=33,no=34,missing=33
					33:[f6<0.00273305504] yes=57,no=58,missing=57
						57:leaf=-0.183333337
						58:leaf=-0.0428571478
					34:leaf=0.233333349
				20:[f8<0.833333373] yes=35,no=36,missing=35
					35:[f0<0.105536327] yes=59,no=60,missing=59
						59:leaf=0.150000006
						60:leaf=-0.200000018
					36:leaf=-0.248571441
			12:[f0<0.126297578] yes=21,no=22,missing=21
				21:[f6<0.00362750934] yes=37,no=38,missing=37
					37:[f0<0.122837365] yes=61,no=62,missing=61
						61:leaf=0.200000018
						62:leaf=-0
					38:leaf=0.287755132
				22:[f1<0.0264046825] yes=39,no=40,missing=39
					39:[f6<0.00462134741] yes=63,no=64,missing=63
						63:leaf=-0.0777777806
						64:leaf=0.144827589
					40:[f0<0.16955018] yes=65,no=66,missing=65
						65:leaf=-0.0428571478
						66:leaf=-0.25
booster[2]:
0:[f6<0.00233551976] yes=1,no=2,missing=1
	1:[f6<0.00154044922] yes=3,no=4,missing=3
		3:[f0<0.00865051895] yes=7,no=8,missing=7
			7:[f6<0.000397535274] yes=13,no=14,missing=13
				13:[f0<0.00173010386] yes=23,no=24,missing=23
					23:[f1<0.0166387968] yes=39,no=40,missing=39
						39:leaf=0.0493192226
						40:leaf=0.155711219
					24:[f1<0.0184615385] yes=41,no=42,missing=41
						41:leaf=0.127829045
						42:leaf=0.0558248274
				14:leaf=-0.150815114
			8:[f1<0.0156354513] yes=15,no=16,missing=15
				15:[f3<0.0076923077] yes=25,no=26,missing=25
					25:[f1<0.0101337787] yes=43,no=44,missing=43
						43:leaf=0.0816642568
						44:leaf=0.226948068
					26:leaf=0.0587112904
				16:[f8<0.833333373] yes=27,no=28,missing=27
					27:[f1<0.0176254176] yes=45,no=46,missing=45
						45:leaf=0.159756616
						46:leaf=-0.0223914478
					28:[f0<0.0501730107] yes=47,no=48,missing=47
						47:leaf=0.126327783
						48:leaf=0.193289354
		4:[f0<0.0536332205] yes=9,no=10,missing=9
			9:leaf=-0.219229221
			10:[f0<0.070934251] yes=17,no=18,missing=17
				17:[f6<0.00203736825] yes=29,no=30,missing=29
					29:[f0<0.0674740523] yes=49,no=50,missing=49
						49:leaf=0.13694939
						50:leaf=0.0437854417
					30:leaf=-0.19687508
				18:[f1<0.00842809305] yes=31,no=32,missing=31
					31:leaf=-0
					32:leaf=0.19458285
	2:[f0<0.0813148767] yes=5,no=6,missing=5
		5:leaf=-0.230279818
		6:[f6<0.00342874182] yes=11,no=12,missing=11
			11:[f8<0.833333373] yes=19,no=20,missing=19
				19:[f0<0.105536327] yes=33,no=34,missing=33
					33:[f1<0.0192976594] yes=51,no=52,missing=51
						51:leaf=-0.171891928
						52:leaf=-0.0492535643
					34:leaf=0.164805159
				20:[f0<0.0986159146] yes=35,no=36,missing=35
					35:[f6<0.00293182256] yes=53,no=54,missing=53
						53:leaf=0.134300351
						54:leaf=-0.17161265
					36:leaf=0.190320715
			12:[f0<0.122837365] yes=21,no=22,missing=21
				21:leaf=-0.216540262
				22:[f0<0.202422142] yes=37,no=38,missing=37
					37:[f6<0.00571456971] yes=55,no=56,missing=55
						55:leaf=0.0126548121
						56:leaf=-0.241362408
					38:[f6<0.00700655952] yes=57,no=58,missing=57
						57:leaf=0.246028244
						58:leaf=0.0233331714
booster[3]:
0:[f6<0.00233551976] yes=1,no=2,missing=1
	1:[f6<0.00154044922] yes=3,no=4,missing=3
		3:[f0<0.00865051895] yes=7,no=8,missing=7
			7:[f6<0.000397535274] yes=13,no=14,missing=13
				13:[f0<0.00173010386] yes=23,no=24,missing=23
					23:[f1<0.0166387968] yes=39,no=40,missing=39
						39:leaf=-0.0493192114
						40:leaf=-0.155711204
					24:[f1<0.0184615385] yes=41,no=42,missing=41
						41:leaf=-0.12782903
						42:leaf=-0.0558248125
				14:leaf=0.150815114
			8:[f1<0.0156354513] yes=15,no=16,missing=15
				15:[f3<0.0076923077] yes=25,no=26,missing=25
					25:[f1<0.0101337787] yes=43,no=44,missing=43
						43:leaf=-0.0816642568
						44:leaf=-0.226948068
					26:leaf=-0.0587112941
				16:[f8<0.833333373] yes=27,no=28,missing=27
					27:[f1<0.0176254176] yes=45,no=46,missing=45
						45:leaf=-0.159756631
						46:leaf=0.0223914552
					28:[f0<0.0501730107] yes=47,no=48,missing=47
						47:leaf=-0.126327783
						48:leaf=-0.193289399
		4:[f0<0.0536332205] yes=9,no=10,missing=9
			9:leaf=0.219229221
			10:[f0<0.070934251] yes=17,no=18,missing=17
				17:[f6<0.00203736825] yes=29,no=30,missing=29
					29:[f0<0.0674740523] yes=49,no=50,missing=49
						49:leaf=-0.136949375
						50:leaf=-0.0437854305
					30:leaf=0.19687511
				18:[f1<0.00842809305] yes=31,no=32,missing=31
					31:leaf=-0
					32:leaf=-0.194582835
	2:[f0<0.0813148767] yes=5,no=6,missing=5
		5:leaf=0.230279833
		6:[f6<0.00342874182] yes=11,no=12,missing=11
			11:[f8<0.833333373] yes=19,no=20,missing=19
				19:[f0<0.105536327] yes=33,no=34,missing=33
					33:[f1<0.0192976594] yes=51,no=52,missing=51
						51:leaf=0.171891913
						52:leaf=0.0492535643
					34:leaf=-0.164805144
				20:[f0<0.0986159146] yes=35,no=36,missing=35
					35:[f6<0.00293182256] yes=53,no=54,missing=53
						53:leaf=-0.134300351
						54:leaf=0.171612635
					36:leaf=-0.190320715
			12:[f0<0.122837365] yes=21,no=22,missing=21
				21:leaf=0.216540247
				22:[f0<0.202422142] yes=37,no=38,missing=37
					37:[f6<0.00571456971] yes=55,no=56,missing=55
						55:leaf=-0.0126548233
						56:leaf=0.241362393
					38:[f6<0.00700655952] yes=57,no=58,missing=57
						57:leaf=-0.246028259
						58:leaf=-0.0233331993
booster[4]:
0:[f6<0.00263367128] yes=1,no=2,missing=1
	1:[f6<0.00154044922] yes=3,no=4,missing=3
		3:[f1<0.032541804] yes=7,no=8,missing=7
			7:[f1<0.012943144] yes=13,no=14,missing=13
				13:[f6<0.00144106545] yes=21,no=22,missing=21
					21:leaf=0.162152573
					22:leaf=0.0668571815
				14:[f1<0.0159197338] yes=23,no=24,missing=23
					23:leaf=-0.09619762
					24:[f6<0.000546611031] yes=37,no=38,missing=37
						37:leaf=0.111635439
						38:leaf=0.0782788247
			8:leaf=0.189464331
		4:[f0<0.0536332205] yes=9,no=10,missing=9
			9:leaf=-0.193847045
			10:[f1<0.0187792629] yes=15,no=16,missing=15
				15:[f0<0.0743944645] yes=25,no=26,missing=25
					25:[f6<0.00213675201] yes=39,no=40,missing=39
						39:leaf=0.054587394
						40:leaf=-0.134505436
					26:[f1<0.00826086942] yes=41,no=42,missing=41
						41:leaf=-0
						42:leaf=0.138499588
				16:[f0<0.0570934266] yes=27,no=28,missing=27
					27:leaf=0.00632782606
					28:[f3<0.0076923077] yes=43,no=44,missing=43
						43:leaf=0.15970023
						44:leaf=0.0541772097
	2:[f0<0.0916955024] yes=5,no=6,missing=5
		5:leaf=-0.201023921
		6:[f6<0.00392566063] yes=11,no=12,missing=11
			11:[f8<0.833333373] yes=17,no=18,missing=17
				17:[f0<0.105536327] yes=29,no=30,missing=29
					29:leaf=-0.165518254
					30:[f6<0.00332935806] yes=45,no=46,missing=45
						45:leaf=0.126358524
						46:leaf=-0.057708323
				18:[f0<0.0986159146] yes=31,no=32,missing=31
					31:[f6<0.00293182256] yes=47,no=48,missing=47
						47:leaf=0.0916296095
						48:leaf=-0.135899916
					32:[f1<0.025986623] yes=49,no=50,missing=49
						49:leaf=0.107178733
						50:leaf=0.194319054
			12:[f0<0.147058815] yes=19,no=20,missing=19
				19:[f6<0.00402504485] yes=33,no=34,missing=33
					33:leaf=-0.0139684444
					34:leaf=-0.215852246
				20:[f1<0.0275083613] yes=35,no=36,missing=35
					35:[f6<0.00472073164] yes=51,no=52,missing=51
						51:leaf=0.16623655
						52:leaf=-0.0569484495
					36:[f1<0.032541804] yes=53,no=54,missing=53
						53:leaf=0.210415706
						54:leaf=0.00174202304
booster[5]:
0:[f6<0.00263367128] yes=1,no=2,missing=1
	1:[f6<0.00154044922] yes=3,no=4,missing=3
		3:[f1<0.032541804] yes=7,no=8,missing=7
			7:[f1<0.012943144] yes=13,no=14,missing=13
				13:[f6<0.00144106545] yes=21,no=22,missing=21
					21:leaf=-0.162152588
					22:leaf=-0.0668571815
				14:[f1<0.0159197338] yes=23,no=24,missing=23
					23:leaf=0.0961976126
					24:[f6<0.000546611031] yes=37,no=38,missing=37
						37:leaf=-0.111635439
						38:leaf=-0.0782788247
			8:leaf=-0.189464331
		4:[f0<0.0536332205] yes=9,no=10,missing=9
			9:leaf=0.193847045
			10:[f1<0.0187792629] yes=15,no=16,missing=15
				15:[f0<0.0743944645] yes=25,no=26,missing=25
					25:[f6<0.00213675201] yes=39,no=40,missing=39
						39:leaf=-0.054587394
						40:leaf=0.134505451
					26:[f1<0.00826086942] yes=41,no=42,missing=41
						41:leaf=-0
						42:leaf=-0.138499603
				16:[f0<0.0570934266] yes=27,no=28,missing=27
					27:leaf=-0.00632782886
					28:[f3<0.0076923077] yes=43,no=44,missing=43
						43:leaf=-0.159700245
						44:leaf=-0.0541772172
	2:[f0<0.0916955024] yes=5,no=6,missing=5
		5:leaf=0.201023936
		6:[f6<0.00392566063] yes=11,no=12,missing=11
			11:[f8<0.833333373] yes=17,no=18,missing=17
				17:[f0<0.105536327] yes=29,no=30,missing=29
					29:leaf=0.165518254
					30:[f6<0.00332935806] yes=45,no=46,missing=45
						45:leaf=-0.126358509
						46:leaf=0.0577083379
				18:[f0<0.0986159146] yes=31,no=32,missing=31
					31:[f6<0.00293182256] yes=47,no=48,missing=47
						47:leaf=-0.0916296095
						48:leaf=0.135899901
					32:[f1<0.025986623] yes=49,no=50,missing=49
						49:leaf=-0.107178755
						50:leaf=-0.194319084
			12:[f0<0.147058815] yes=19,no=20,missing=19
				19:[f6<0.00402504485] yes=33,no=34,missing=33
					33:leaf=0.0139684333
					34:leaf=0.215852246
				20:[f1<0.0275083613] yes=35,no=36,missing=35
					35:[f6<0.00472073164] yes=51,no=52,missing=51
						51:leaf=-0.166236565
						52:leaf=0.0569484495
					36:[f1<0.032541804] yes=53,no=54,missing=53
						53:leaf=-0.210415736
						54:leaf=-0.00174203084
booster[6]:
0:[f6<0.00233551976] yes=1,no=2,missing=1
	1:[f0<0.070934251] yes=3,no=4,missing=3
		3:[f6<0.00203736825] yes=7,no=8,missing=7
			7:[f6<0.00183860073] yes=13,no=14,missing=13
				13:[f0<0.0397923887] yes=21,no=22,missing=21
					21:[f6<0.0012422977] yes=35,no=36,missing=35
						35:leaf=0.0729905739
						36:leaf=-0.184834853
					22:[f8<0.833333373] yes=37,no=38,missing=37
						37:leaf=0.010758589
						38:leaf=0.110767424
				14:[f0<0.0553633198] yes=23,no=24,missing=23
					23:leaf=-0.139118582
					24:[f1<0.0291471574] yes=39,no=40,missing=39
						39:leaf=0.0269515868
						40:leaf=0.109172843
			8:leaf=-0.172817439
		4:[f1<0.00842809305] yes=9,no=10,missing=9
			9:leaf=-0
			10:[f1<0.0166387968] yes=15,no=16,missing=15
				15:[f1<0.0163043477] yes=25,no=26,missing=25
					25:leaf=0.15941681
					26:leaf=-0.00477372576
				16:leaf=0.154646292
	2:[f0<0.0813148767] yes=5,no=6,missing=5
		5:leaf=-0.182037205
		6:[f6<0.00342874182] yes=11,no=12,missing=11
			11:[f0<0.0986159146] yes=17,no=18,missing=17
				17:[f6<0.00293182256] yes=27,no=28,missing=27
					27:[f1<0.0202341136] yes=41,no=42,missing=41
						41:leaf=0.0843012854
						42:leaf=-0.0208651833
					28:leaf=-0.144043267
				18:[f1<0.0245150514] yes=29,no=30,missing=29
					29:leaf=0.147210121
					30:[f1<0.0291471574] yes=43,no=44,missing=43
						43:leaf=-0.0437152386
						44:leaf=0.12146306
			12:[f0<0.126297578] yes=19,no=20,missing=19
				19:[f0<0.119377166] yes=31,no=32,missing=31
					31:leaf=-0.17874606
					32:[f6<0.00382627686] yes=45,no=46,missing=45
						45:leaf=-0.0348077193
						46:leaf=-0.142475739
				20:[f0<0.202422142] yes=33,no=34,missing=33
					33:[f6<0.00442257989] yes=47,no=48,missing=47
						47:leaf=0.0859063193
						48:leaf=-0.100916214
					34:[f6<0.00700655952] yes=49,no=50,missing=49
						49:leaf=0.204579666
						50:leaf=0.024637986
booster[7]:
0:[f6<0.00233551976] yes=1,no=2,missing=1
	1:[f0<0.070934251] yes=3,no=4,missing=3
		3:[f6<0.00203736825] yes=7,no=8,missing=7
			7:[f6<0.00183860073] yes=13,no=14,missing=13
				13:[f0<0.0397923887] yes=21,no=22,missing=21
					21:[f6<0.0012422977] yes=35,no=36,missing=35
						35:leaf=-0.0729905739
						36:leaf=0.184834853
					22:[f8<0.833333373] yes=37,no=38,missing=37
						37:leaf=-0.0107585862
						38:leaf=-0.110767402
				14:[f0<0.0553633198] yes=23,no=24,missing=23
					23:leaf=0.139118612
					24:[f1<0.0291471574] yes=39,no=40,missing=39
						39:leaf=-0.026951598
						40:leaf=-0.109172843
			8:leaf=0.172817439
		4:[f1<0.00842809305] yes=9,no=10,missing=9
			9:leaf=-0
			10:[f1<0.0166387968] yes=15,no=16,missing=15
				15:[f1<0.0163043477] yes=25,no=26,missing=25
					25:leaf=-0.159416795
					26:leaf=0.004773736
				16:leaf=-0.154646277
	2:[f0<0.0813148767] yes=5,no=6,missing=5
		5:leaf=0.18203719
		6:[f6<0.00342874182] yes=11,no=12,missing=11
			11:[f0<0.0986159146] yes=17,no=18,missing=17
				17:[f6<0.00293182256] yes=27,no=28,missing=27
					27:[f1<0.0202341136] yes=41,no=42,missing=41
						41:leaf=-0.0843012854
						42:leaf=0.0208651908
					28:leaf=0.144043252
				18:[f1<0.0245150514] yes=29,no=30,missing=29
					29:leaf=-0.147210121
					30:[f1<0.0291471574] yes=43,no=44,missing=43
						43:leaf=0.0437152386
						44:leaf=-0.121463068
			12:[f0<0.126297578] yes=19,no=20,missing=19
				19:[f0<0.119377166] yes=31,no=32,missing=31
					31:leaf=0.17874606
					32:[f6<0.00382627686] yes=45,no=46,missing=45
						45:leaf=0.0348077267
						46:leaf=0.142475739
				20:[f0<0.202422142] yes=33,no=34,missing=33
					33:[f6<0.00442257989] yes=47,no=48,missing=47
						47:leaf=-0.0859063193
						48:leaf=0.100916214
					34:[f6<0.00700655952] yes=49,no=50,missing=49
						49:leaf=-0.204579696
						50:leaf=-0.024637986
booster[8]:
0:[f6<0.00233551976] yes=1,no=2,missing=1
	1:[f1<0.032541804] yes=3,no=4,missing=3
		3:[f0<0.070934251] yes=7,no=8,missing=7
			7:[f6<0.00203736825] yes=11,no=12,missing=11
				11:[f5<0.994565248] yes=19,no=20,missing=19
					19:leaf=0.143137112
					20:[f0<0.0121107269] yes=29,no=30,missing=29
						29:leaf=0.00784265716
						30:leaf=0.0515676104
				12:leaf=-0.154293388
			8:[f1<0.00842809305] yes=13,no=14,missing=13
				13:leaf=-0
				14:leaf=0.116023563
		4:leaf=0.160661235
	2:[f0<0.0813148767] yes=5,no=6,missing=5
		5:leaf=-0.170752496
		6:[f6<0.00392566063] yes=9,no=10,missing=9
			9:[f8<0.833333373] yes=15,no=16,missing=15
				15:[f0<0.105536327] yes=21,no=22,missing=21
					21:[f1<0.0192976594] yes=31,no=32,missing=31
						31:leaf=-0.157209873
						32:leaf=-0.0478058569
					22:[f6<0.00332935806] yes=33,no=34,missing=33
						33:leaf=0.0970210806
						34:leaf=-0.0486481376
				16:[f0<0.0986159146] yes=23,no=24,missing=23
					23:[f6<0.00273305504] yes=35,no=36,missing=35
						35:leaf=0.0749766976
						36:leaf=-0.0898364261
					24:[f1<0.025986623] yes=37,no=38,missing=37
						37:leaf=0.0661340505
						38:leaf=0.160577893
			10:[f0<0.147058815] yes=17,no=18,missing=17
				17:[f6<0.00402504485] yes=25,no=26,missing=25
					25:[f0<0.121107265] yes=39,no=40,missing=39
						39:leaf=-0.0968207046
						40:leaf=0.0335344262
					26:leaf=-0.178627506
				18:[f6<0.00621148851] yes=27,no=28,missing=27
					27:[f8<0.833333373] yes=41,no=42,missing=41
						41:leaf=-0.0872188434
						42:leaf=0.099258706
					28:[f0<0.223183393] yes=43,no=44,missing=43
						43:leaf=-0.157708928
						44:leaf=0.0882923082
booster[9]:
0:[f6<0.00233551976] yes=1,no=2,missing=1
	1:[f1<0.032541804] yes=3,no=4,missing=3
		3:[f0<0.070934251] yes=7,no=8,missing=7
			7:[f6<0.00203736825] yes=11,no=12,missing=11
				11:[f5<0.994565248] yes=19,no=20,missing=19
					19:leaf=-0.143137127
					20:[f0<0.0121107269] yes=29,no=30,missing=29
						29:leaf=-0.0078426525
						30:leaf=-0.0515676066
				12:leaf=0.154293388
			8:[f1<0.00842809305] yes=13,no=14,missing=13
				13:leaf=-0
				14:leaf=-0.116023563
		4:leaf=-0.16066125
	2:[f0<0.0813148767] yes=5,no=6,missing=5
		5:leaf=0.170752496
		6:[f6<0.00392566063] yes=9,no=10,missing=9
			9:[f8<0.833333373] yes=15,no=16,missing=15
				15:[f0<0.105536327] yes=21,no=22,missing=21
					21:[f1<0.0192976594] yes=31,no=32,missing=31
						31:leaf=0.157209873
						32:leaf=0.0478058681
					22:[f6<0.00332935806] yes=33,no=34,missing=33
						33:leaf=-0.0970210731
						34:leaf=0.0486481376
				16:[f0<0.0986159146] yes=23,no=24,missing=23
					23:[f6<0.00273305504] yes=35,no=36,missing=35
						35:leaf=-0.0749766976
						36:leaf=0.0898364186
					24:[f1<0.025986623] yes=37,no=38,missing=37
						37:leaf=-0.0661340281
						38:leaf=-0.160577863
			10:[f0<0.147058815] yes=17,no=18,missing=17
				17:[f6<0.00402504485] yes=25,no=26,missing=25
					25:[f0<0.121107265] yes=39,no=40,missing=39
						39:leaf=0.0968207046
						40:leaf=-0.0335344188
					26:leaf=0.178627491
				18:[f6<0.00621148851] yes=27,no=28,missing=27
					27:[f8<0.833333373] yes=41,no=42,missing=41
						41:leaf=0.0872188359
						42:leaf=-0.0992587283
					28:[f0<0.223183393] yes=43,no=44,missing=43
						43:leaf=0.157708928
						44:leaf=-0.0882923007
booster[10]:
0:[f6<0.00263367128] yes=1,no=2,missing=1
	1:[f1<0.032541804] yes=3,no=4,missing=3
		3:[f0<0.0501730107] yes=7,no=8,missing=7
			7:[f6<0.00144106545] yes=11,no=12,missing=11
				11:[f1<0.0117391311] yes=19,no=20,missing=19
					19:[f3<0.0076923077] yes=33,no=34,missing=33
						33:leaf=0.157141596
						34:leaf=0.0225754268
					20:[f1<0.024581939] yes=35,no=36,missing=35
						35:leaf=0.0462754145
						36:leaf=-0.00372158806
				12:leaf=-0.176744565
			8:[f1<0.0187792629] yes=13,no=14,missing=13
				13:[f0<0.0743944645] yes=21,no=22,missing=21
					21:[f6<0.00193798449] yes=37,no=38,missing=37
						37:leaf=0.0474294201
						38:leaf=-0.0581577681
					22:[f0<0.0813148767] yes=39,no=40,missing=39
						39:leaf=0.116606869
						40:leaf=0.0293684136
				14:[f8<0.833333373] yes=23,no=24,missing=23
					23:[f0<0.0743944645] yes=41,no=42,missing=41
						41:leaf=-0.13584055
						42:leaf=0.104703084
					24:[f0<0.0743944645] yes=43,no=44,missing=43
						43:leaf=0.123969175
						44:leaf=0.0460835695
		4:leaf=0.14542453
	2:[f0<0.0916955024] yes=5,no=6,missing=5
		5:leaf=-0.164812714
		6:[f6<0.00342874182] yes=9,no=10,missing=9
			9:[f0<0.0986159146] yes=15,no=16,missing=15
				15:[f6<0.00293182256] yes=25,no=26,missing=25
					25:[f1<0.0183110368] yes=45,no=46,missing=45
						45:leaf=0.0841047466
						46:leaf=-0.0125059178
					26:leaf=-0.0990050137
				16:[f1<0.0245150514] yes=27,no=28,missing=27
					27:leaf=0.119609855
					28:[f1<0.0291471574] yes=47,no=48,missing=47
						47:leaf=-0.0557448156
						48:leaf=0.094605878
			10:[f1<0.0199832767] yes=17,no=18,missing=17
				17:[f0<0.164359868] yes=29,no=30,missing=29
					29:[f6<0.00402504485] yes=49,no=50,missing=49
						49:leaf=-0.0449005663
						50:leaf=-0.151951313
					30:[f6<0.00631087273] yes=51,no=52,missing=51
						51:leaf=0.118910469
						52:leaf=-0.061940182
				18:[f6<0.00442257989] yes=31,no=32,missing=31
					31:[f0<0.124567471] yes=53,no=54,missing=53
						53:leaf=-0.0246408246
						54:leaf=0.151851118
					32:[f0<0.15743944] yes=55,no=56,missing=55
						55:leaf=-0.156337276
						56:leaf=0.0586398803
booster[11]:
0:[f6<0.00263367128] yes=1,no=2,missing=1
	1:[f1<0.032541804] yes=3,no=4,missing=3
		3:[f0<0.0501730107] yes=7,no=8,missing=7
			7:[f6<0.00144106545] yes=11,no=12,missing=11
				11:[f1<0.0117391311] yes=19,no=20,missing=19
					19:[f3<0.0076923077] yes=33,no=34,missing=33
						33:leaf=-0.157141596
						34:leaf=-0.022575425
					20:[f1<0.024581939] yes=35,no=36,missing=35
						35:leaf=-0.0462754332
						36:leaf=0.00372156547
				12:leaf=0.176744565
			8:[f1<0.0187792629] yes=13,no=14,missing=13
				13:[f0<0.0743944645] yes=21,no=22,missing=21
					21:[f6<0.00193798449] yes=37,no=38,missing=37
						37:leaf=-0.0474294238
						38:leaf=0.0581577681
					22:[f0<0.0813148767] yes=39,no=40,missing=39
						39:leaf=-0.116606876
						40:leaf=-0.0293684136
				14:[f8<0.833333373] yes=23,no=24,missing=23
					23:[f0<0.0743944645] yes=41,no=42,missing=41
						41:leaf=0.13584055
						42:leaf=-0.104703084
					24:[f0<0.0743944645] yes=43,no=44,missing=43
						43:leaf=-0.123969167
						44:leaf=-0.0460835546
		4:leaf=-0.145424545
	2:[f0<0.0916955024] yes=5,no=6,missing=5
		5:leaf=0.164812714
		6:[f6<0.00342874182] yes=9,no=10,missing=9
			9:[f0<0.0986159146] yes=15,no=16,missing=15
				15:[f6<0.00293182256] yes=25,no=26,missing=25
					25:[f1<0.0183110368] yes=45,no=46,missing=45
						45:leaf=-0.0841047317
						46:leaf=0.0125059318
					26:leaf=0.0990050212
				16:[f1<0.0245150514] yes=27,no=28,missing=27
					27:leaf=-0.119609855
					28:[f1<0.0291471574] yes=47,no=48,missing=47
						47:leaf=0.0557448305
						48:leaf=-0.0946059003
			10:[f1<0.0199832767] yes=17,no=18,missing=17
				17:[f0<0.164359868] yes=29,no=30,missing=29
					29:[f6<0.00402504485] yes=49,no=50,missing=49
						49:leaf=0.0449005738
						50:leaf=0.151951313
					30:[f6<0.00631087273] yes=51,no=52,missing=51
						51:leaf=-0.118910454
						52:leaf=0.0619401932
				18:[f6<0.00442257989] yes=31,no=32,missing=31
					31:[f0<0.124567471] yes=53,no=54,missing=53
						53:leaf=0.0246408433
						54:leaf=-0.151851103
					32:[f0<0.15743944] yes=55,no=56,missing=55
						55:leaf=0.156337276
						56:leaf=-0.0586398728
booster[12]:
0:[f6<0.00293182256] yes=1,no=2,missing=1
	1:[f6<0.000546611031] yes=3,no=4,missing=3
		3:[f0<0.0121107269] yes=7,no=8,missing=7
			7:[f1<0.0184615385] yes=13,no=14,missing=13
				13:[f0<0.00865051895] yes=25,no=26,missing=25
					25:[f3<0.0076923077] yes=41,no=42,missing=41
						41:leaf=0.0253627319
						42:leaf=0.101828605
					26:leaf=0.132854715
				14:[f0<0.00173010386] yes=27,no=28,missing=27
					27:leaf=0.0792053416
					28:[f3<0.0076923077] yes=43,no=44,missing=43
						43:leaf=-0.0492306389
						44:leaf=0.106042035
			8:[f1<0.0275083613] yes=15,no=16,missing=15
				15:[f1<0.0183110368] yes=29,no=30,missing=29
					29:[f1<0.0159197338] yes=45,no=46,missing=45
						45:leaf=0.0190339386
						46:leaf=0.115857095
					30:[f3<0.0076923077] yes=47,no=48,missing=47
						47:leaf=-0.0155732594
						48:leaf=0.101615876
				16:leaf=0.162509322
		4:[f0<0.0224913508] yes=9,no=10,missing=9
			9:[f6<0.000745378667] yes=17,no=18,missing=17
				17:[f1<0.0291471574] yes=31,no=32,missing=31
					31:[f1<0.0142307691] yes=49,no=50,missing=49
						49:leaf=0.0241933838
						50:leaf=0.0928845182
					32:leaf=-0.216281906
				18:leaf=-0.198326871
			10:[f1<0.0187792629] yes=19,no=20,missing=19
				19:[f0<0.0363321789] yes=33,no=34,missing=33
					33:[f6<0.000745378667] yes=51,no=52,missing=51
						51:leaf=-0.00928185973
						52:leaf=-0.158348277
					34:[f6<0.0012422977] yes=53,no=54,missing=53
						53:leaf=0.118937939
						54:leaf=0.0171793159
				20:[f6<0.000944146304] yes=35,no=36,missing=35
					35:[f1<0.0262541808] yes=55,no=56,missing=55
						55:leaf=0.0819694176
						56:leaf=0.167554319
					36:[f0<0.0432525948] yes=57,no=58,missing=57
						57:leaf=-0.0037175396
						58:leaf=0.0596728511
	2:[f0<0.102076128] yes=5,no=6,missing=5
		5:leaf=-0.159803554
		6:[f6<0.00442257989] yes=11,no=12,missing=11
			11:[f0<0.147058815] yes=21,no=22,missing=21
				21:[f6<0.00402504485] yes=37,no=38,missing=37
					37:[f6<0.00342874182] yes=59,no=60,missing=59
						59:leaf=0.0804505199
						60:leaf=0.0168969221
					38:[f0<0.143598616] yes=61,no=62,missing=61
						61:leaf=-0.137238324
						62:leaf=-0.0142677492
				22:leaf=0.160862058
			12:[f0<0.15743944] yes=23,no=24,missing=23
				23:leaf=-0.166519105
				24:[f1<0.0275083613] yes=39,no=40,missing=39
					39:[f0<0.202422142] yes=63,no=64,missing=63
						63:leaf=-0.0525353365
						64:leaf=0.0746669918
					40:leaf=0.148944125
booster[13]:
0:[f6<0.00293182256] yes=1,no=2,missing=1
	1:[f6<0.000546611031] yes=3,no=4,missing=3
		3:[f0<0.0121107269] yes=7,no=8,missing=7
			7:[f1<0.0184615385] yes=13,no=14,missing=13
				13:[f0<0.00865051895] yes=25,no=26,missing=25
					25:[f3<0.0076923077] yes=41,no=42,missing=41
						41:leaf=-0.025362717
						42:leaf=-0.101828605
					26:leaf=-0.1328547
				14:[f0<0.00173010386] yes=27,no=28,missing=27
					27:leaf=-0.0792053416
					28:[f3<0.0076923077] yes=43,no=44,missing=43
						43:leaf=0.0492306426
						44:leaf=-0.10604202
			8:[f1<0.0275083613] yes=15,no=16,missing=15
				15:[f1<0.0183110368] yes=29,no=30,missing=29
					29:[f1<0.0159197338] yes=45,no=46,missing=45
						45:leaf=-0.0190339275
						46:leaf=-0.115857087
					30:[f3<0.0076923077] yes=47,no=48,missing=47
						47:leaf=0.0155732865
						48:leaf=-0.101615869
				16:leaf=-0.162509367
		4:[f0<0.0224913508] yes=9,no=10,missing=9
			9:[f6<0.000745378667] yes=17,no=18,missing=17
				17:[f1<0.0291471574] yes=31,no=32,missing=31
					31:[f1<0.0142307691] yes=49,no=50,missing=49
						49:leaf=-0.0241933782
						50:leaf=-0.0928845331
					32:leaf=0.216281906
				18:leaf=0.198326856
			10:[f1<0.0187792629] yes=19,no=20,missing=19
				19:[f0<0.0363321789] yes=33,no=34,missing=33
					33:[f6<0.000745378667] yes=51,no=52,missing=51
						51:leaf=0.00928183552
						52:leaf=0.158348233
					34:[f6<0.0012422977] yes=53,no=54,missing=53
						53:leaf=-0.118937947
						54:leaf=-0.0171793066
				20:[f6<0.000944146304] yes=35,no=36,missing=35
					35:[f1<0.0262541808] yes=55,no=56,missing=55
						55:leaf=-0.08196944
						56:leaf=-0.167554319
					36:[f0<0.0432525948] yes=57,no=58,missing=57
						57:leaf=0.00371753401
						58:leaf=-0.0596728586
	2:[f0<0.102076128] yes=5,no=6,missing=5
		5:leaf=0.159803569
		6:[f6<0.00442257989] yes=11,no=12,missing=11
			11:[f0<0.147058815] yes=21,no=22,missing=21
				21:[f6<0.00402504485] yes=37,no=38,missing=37
					37:[f6<0.00342874182] yes=59,no=60,missing=59
						59:leaf=-0.0804505199
						60:leaf=-0.0168969147
					38:[f0<0.143598616] yes=61,no=62,missing=61
						61:leaf=0.137238324
						62:leaf=0.0142677408
				22:leaf=-0.160862058
			12:[f0<0.15743944] yes=23,no=24,missing=23
				23:leaf=0.166519105
				24:[f1<0.0275083613] yes=39,no=40,missing=39
					39:[f0<0.202422142] yes=63,no=64,missing=63
						63:leaf=0.0525353365
						64:leaf=-0.0746669844
					40:leaf=-0.148944125
booster[14]:
0:[f6<0.00263367128] yes=1,no=2,missing=1
	1:[f1<0.032541804] yes=3,no=4,missing=3
		3:[f1<0.0117056854] yes=7,no=8,missing=7
			7:[f6<0.000894454366] yes=11,no=12,missing=11
				11:leaf=0.142638266
				12:[f0<0.0397923887] yes=19,no=20,missing=19
					19:leaf=-0.118006542
					20:[f1<0.00961538404] yes=31,no=32,missing=31
						31:leaf=-0.0362924449
						32:leaf=0.152618706
			8:[f1<0.0157525092] yes=13,no=14,missing=13
				13:[f1<0.0132107027] yes=21,no=22,missing=21
					21:[f1<0.0119063547] yes=33,no=34,missing=33
						33:leaf=-0.103345275
						34:leaf=0.0678364858
					22:leaf=-0.132484391
				14:[f6<0.000546611031] yes=23,no=24,missing=23
					23:[f0<0.0121107269] yes=35,no=36,missing=35
						35:leaf=0.0151039734
						36:leaf=0.0933430642
					24:[f0<0.0224913508] yes=37,no=38,missing=37
						37:leaf=-0.109733745
						38:leaf=0.0221460927
		4:leaf=0.133408472
	2:[f0<0.0916955024] yes=5,no=6,missing=5
		5:leaf=-0.15485017
		6:[f1<0.0270234123] yes=9,no=10,missing=9
			9:[f6<0.00482011493] yes=15,no=16,missing=15
				15:[f0<0.147058815] yes=25,no=26,missing=25
					25:[f6<0.00402504485] yes=39,no=40,missing=39
						39:leaf=0.0226244889
						40:leaf=-0.116009064
					26:leaf=0.121643826
				16:[f0<0.17128028] yes=27,no=28,missing=27
					27:leaf=-0.168875262
					28:[f1<0.0166387968] yes=41,no=42,missing=41
						41:leaf=-0.081765376
						42:leaf=0.0633618385
			10:[f0<0.15743944] yes=17,no=18,missing=17
				17:[f6<0.00392566063] yes=29,no=30,missing=29
					29:leaf=0.0961559117
					30:leaf=-0.0609472282
				18:leaf=0.133761048
booster[15]:
0:[f6<0.00263367128] yes=1,no=2,missing=1
	1:[f1<0.032541804] yes=3,no=4,missing=3
		3:[f1<0.0117056854] yes=7,no=8,missing=7
			7:[f6<0.000894454366] yes=11,no=12,missing=11
				11:leaf=-0.142638281
				12:[f0<0.0397923887] yes=19,no=20,missing=19
					19:leaf=0.118006535
					20:[f1<0.00961538404] yes=31,no=32,missing=31
						31:leaf=0.0362924412
						32:leaf=-0.152618706
			8:[f1<0.0157525092] yes=13,no=14,missing=13
				13:[f1<0.0132107027] yes=21,no=22,missing=21
					21:[f1<0.0119063547] yes=33,no=34,missing=33
						33:leaf=0.103345267
						34:leaf=-0.0678364858
					22:leaf=0.132484362
				14:[f6<0.000546611031] yes=23,no=24,missing=23
					23:[f0<0.0121107269] yes=35,no=36,missing=35
						35:leaf=-0.0151039632
						36:leaf=-0.0933430642
					24:[f0<0.0224913508] yes=37,no=38,missing=37
						37:leaf=0.109733745
						38:leaf=-0.0221460927
		4:leaf=-0.133408472
	2:[f0<0.0916955024] yes=5,no=6,missing=5
		5:leaf=0.15485017
		6:[f1<0.0270234123] yes=9,no=10,missing=9
			9:[f6<0.00482011493] yes=15,no=16,missing=15
				15:[f0<0.147058815] yes=25,no=26,missing=25
					25:[f6<0.00402504485] yes=39,no=40,missing=39
						39:leaf=-0.0226244889
						40:leaf=0.116009064
					26:leaf=-0.121643826
				16:[f0<0.17128028] yes=27,no=28,missing=27
					27:leaf=0.168875262
					28:[f1<0.0166387968] yes=41,no=42,missing=41
						41:leaf=0.081765376
						42:leaf=-0.0633618385
			10:[f0<0.15743944] yes=17,no=18,missing=17
				17:[f6<0.00392566063] yes=29,no=30,missing=29
					29:leaf=-0.0961559117
					30:leaf=0.0609472245
				18:leaf=-0.133761033
booster[16]:
0:[f6<0.00233551976] yes=1,no=2,missing=1
	1:[f0<0.0778546706] yes=3,no=4,missing=3
		3:[f1<0.032541804] yes=7,no=8,missing=7
			7:[f5<0.994565248] yes=11,no=12,missing=11
				11:leaf=0.11662548
				12:[f1<0.0117056854] yes=17,no=18,missing=17
					17:[f6<0.000894454366] yes=25,no=26,missing=25
						25:leaf=0.130010217
						26:leaf=0.01923614
					18:[f1<0.0157525092] yes=27,no=28,missing=27
						27:leaf=-0.0542226247
						28:leaf=0.0100177303
			8:leaf=0.120628946
		4:leaf=0.125157103
	2:[f0<0.0813148767] yes=5,no=6,missing=5
		5:leaf=-0.148690075
		6:[f8<0.833333373] yes=9,no=10,missing=9
			9:[f1<0.0169230774] yes=13,no=14,missing=13
				13:leaf=-0.138312936
				14:[f1<0.022909699] yes=19,no=20,missing=19
					19:[f6<0.0034784337] yes=29,no=30,missing=29
						29:leaf=0.0817564577
						30:leaf=-0.0179169923
					20:leaf=-0.117494665
			10:[f6<0.00621148851] yes=15,no=16,missing=15
				15:[f0<0.178200692] yes=21,no=22,missing=21
					21:[f6<0.00501888292] yes=31,no=32,missing=31
						31:leaf=0.0209034607
						32:leaf=-0.120017558
					22:[f6<0.00596302934] yes=33,no=34,missing=33
						33:leaf=0.169087574
						34:leaf=0.0194133632
				16:[f0<0.237024218] yes=23,no=24,missing=23
					23:[f1<0.0221739132] yes=35,no=36,missing=35
						35:leaf=-0.161238283
						36:leaf=0.0392810144
					24:[f1<0.0176254176] yes=37,no=38,missing=37
						37:leaf=-0.0449074619
						38:leaf=0.144304529
booster[17]:
0:[f6<0.00233551976] yes=1,no=2,missing=1
	1:[f0<0.0778546706] yes=3,no=4,missing=3
		3:[f1<0.032541804] yes=7,no=8,missing=7
			7:[f5<0.994565248] yes=11,no=12,missing=11
				11:leaf=-0.116625495
				12:[f1<0.0117056854] yes=17,no=18,missing=17
					17:[f6<0.000894454366] yes=25,no=26,missing=25
						25:leaf=-0.130010203
						26:leaf=-0.0192361418
					18:[f1<0.0157525092] yes=27,no=28,missing=27
						27:leaf=0.0542226285
						28:leaf=-0.0100177312
			8:leaf=-0.120628938
		4:leaf=-0.125157103
	2:[f0<0.0813148767] yes=5,no=6,missing=5
		5:leaf=0.14869009
		6:[f8<0.833333373] yes=9,no=10,missing=9
			9:[f1<0.0169230774] yes=13,no=14,missing=13
				13:leaf=0.138312921
				14:[f1<0.022909699] yes=19,no=20,missing=19
					19:[f6<0.0034784337] yes=29,no=30,missing=29
						29:leaf=-0.0817564577
						30:leaf=0.0179169904
					20:leaf=0.117494665
			10:[f6<0.00621148851] yes=15,no=16,missing=15
				15:[f0<0.178200692] yes=21,no=22,missing=21
					21:[f6<0.00501888292] yes=31,no=32,missing=31
						31:leaf=-0.0209034607
						32:leaf=0.120017551
					22:[f6<0.00596302934] yes=33,no=34,missing=33
						33:leaf=-0.169087589
						34:leaf=-0.0194133762
				16:[f0<0.237024218] yes=23,no=24,missing=23
					23:[f1<0.0221739132] yes=35,no=36,missing=35
						35:leaf=0.161238283
						36:leaf=-0.0392810181
					24:[f1<0.0176254176] yes=37,no=38,missing=37
						37:leaf=0.0449074544
						38:leaf=-0.144304529
booster[18]:
0:[f6<0.00293182256] yes=1,no=2,missing=1
	1:[f1<0.032541804] yes=3,no=4,missing=3
		3:[f0<0.070934251] yes=7,no=8,missing=7
			7:[f6<0.00193798449] yes=11,no=12,missing=11
				11:[f1<0.0117056854] yes=19,no=20,missing=19
					19:[f0<0.0397923887] yes=29,no=30,missing=29
						29:leaf=0.0284155104
						30:leaf=0.131549373
					20:[f5<0.994565248] yes=31,no=32,missing=31
						31:leaf=0.0944968015
						32:leaf=0.00733752409
				12:[f6<0.00203736825] yes=21,no=22,missing=21
					21:[f1<0.0166387968] yes=33,no=34,missing=33
						33:leaf=0.0731605813
						34:leaf=-0.119852059
					22:leaf=-0.140962631
			8:[f1<0.0163043477] yes=13,no=14,missing=13
				13:[f1<0.0101337787] yes=23,no=24,missing=23
					23:leaf=0.00560503732
					24:leaf=0.143184647
				14:[f1<0.0166387968] yes=25,no=26,missing=25
					25:[f0<0.0882352889] yes=35,no=36,missing=35
						35:leaf=-0.102351718
						36:leaf=0.0474361368
					26:[f1<0.019816054] yes=37,no=38,missing=37
						37:leaf=0.104199536
						38:leaf=0.0145958932
		4:leaf=0.108336724
	2:[f0<0.102076128] yes=5,no=6,missing=5
		5:leaf=-0.148564175
		6:[f6<0.00720532704] yes=9,no=10,missing=9
			9:[f0<0.202422142] yes=15,no=16,missing=15
				15:[f6<0.00561518595] yes=27,no=28,missing=27
					27:[f0<0.178200692] yes=39,no=40,missing=39
						39:leaf=0.00205581007
						40:leaf=0.104622178
					28:leaf=-0.133252189
				16:leaf=0.131732345
			10:[f1<0.0176254176] yes=17,no=18,missing=17
				17:leaf=-0.146801382
				18:leaf=0.0219572186
booster[19]:
0:[f6<0.00293182256] yes=1,no=2,missing=1
	1:[f1<0.032541804] yes=3,no=4,missing=3
		3:[f0<0.070934251] yes=7,no=8,missing=7
			7:[f6<0.00193798449] yes=11,no=12,missing=11
				11:[f1<0.0117056854] yes=19,no=20,missing=19
					19:[f0<0.0397923887] yes=29,no=30,missing=29
						29:leaf=-0.0284155086
						30:leaf=-0.131549388
					20:[f5<0.994565248] yes=31,no=32,missing=31
						31:leaf=-0.0944968015
						32:leaf=-0.00733752782
				12:[f6<0.00203736825] yes=21,no=22,missing=21
					21:[f1<0.0166387968] yes=33,no=34,missing=33
						33:leaf=-0.0731605813
						34:leaf=0.119852044
					22:leaf=0.140962631
			8:[f1<0.0163043477] yes=13,no=14,missing=13
				13:[f1<0.0101337787] yes=23,no=24,missing=23
					23:leaf=-0.00560503732
					24:leaf=-0.143184647
				14:[f1<0.0166387968] yes=25,no=26,missing=25
					25:[f0<0.0882352889] yes=35,no=36,missing=35
						35:leaf=0.10235174
						36:leaf=-0.0474361144
					26:[f1<0.019816054] yes=37,no=38,missing=37
						37:leaf=-0.104199514
						38:leaf=-0.0145958923
		4:leaf=-0.108336717
	2:[f0<0.102076128] yes=5,no=6,missing=5
		5:leaf=0.14856419
		6:[f6<0.00720532704] yes=9,no=10,missing=9
			9:[f0<0.202422142] yes=15,no=16,missing=15
				15:[f6<0.00561518595] yes=27,no=28,missing=27
					27:[f0<0.178200692] yes=39,no=40,missing=39
						39:leaf=-0.00205579377
						40:leaf=-0.104622208
					28:leaf=0.133252189
				16:leaf=-0.131732345
			10:[f1<0.0176254176] yes=17,no=18,missing=17
				17:leaf=0.146801382
				18:leaf=-0.0219572056
booster[20]:
0:[f6<0.00342874182] yes=1,no=2,missing=1
	1:[f0<0.0986159146] yes=3,no=4,missing=3
		3:[f6<0.0028324388] yes=7,no=8,missing=7
			7:[f1<0.032541804] yes=15,no=16,missing=15
				15:[f5<0.994565248] yes=25,no=26,missing=25
					25:[f6<0.00154044922] yes=37,no=38,missing=37
						37:leaf=0.105139188
						38:leaf=0.0212236829
					26:[f6<0.00134168158] yes=39,no=40,missing=39
						39:leaf=0.0159187205
						40:leaf=-0.00850929972
				16:leaf=0.104547933
			8:leaf=-0.122129627
		4:[f1<0.0199832767] yes=9,no=10,missing=9
			9:leaf=0.117101744
			10:[f1<0.025986623] yes=17,no=18,missing=17
				17:[f0<0.112456754] yes=27,no=28,missing=27
					27:leaf=-0.00916639529
					28:leaf=-0.060132809
				18:leaf=0.0600409433
	2:[f0<0.122837365] yes=5,no=6,missing=5
		5:[f1<0.0199832767] yes=11,no=12,missing=11
			11:leaf=-0.151253432
			12:[f0<0.119377166] yes=19,no=20,missing=19
				19:leaf=-0.108121537
				20:leaf=0.0298023913
		6:[f1<0.0199832767] yes=13,no=14,missing=13
			13:[f0<0.164359868] yes=21,no=22,missing=21
				21:[f6<0.00402504485] yes=29,no=30,missing=29
					29:[f1<0.0174749158] yes=41,no=42,missing=41
						41:leaf=0.0846472904
						42:leaf=-0.0432118848
					30:[f0<0.147058815] yes=43,no=44,missing=43
						43:leaf=-0.143908843
						44:leaf=-0.040621154
				22:[f6<0.00720532704] yes=31,no=32,missing=31
					31:[f1<0.0140802674] yes=45,no=46,missing=45
						45:leaf=0.123832054
						46:leaf=0.0306475163
					32:leaf=-0.0681973696
			14:[f6<0.00501888292] yes=23,no=24,missing=23
				23:[f1<0.0265886299] yes=33,no=34,missing=33
					33:leaf=0.167811856
					34:[f0<0.14532873] yes=47,no=48,missing=47
						47:leaf=-0.058949694
						48:leaf=0.0483320281
				24:[f1<0.0265050158] yes=35,no=36,missing=35
					35:[f0<0.211072654] yes=49,no=50,missing=49
						49:leaf=-0.149292812
						50:leaf=0.00737333251
					36:[f0<0.178200692] yes=51,no=52,missing=51
						51:leaf=-0.00308127468
						52:leaf=0.0987373367
booster[21]:
0:[f6<0.00342874182] yes=1,no=2,missing=1
	1:[f0<0.0986159146] yes=3,no=4,missing=3
		3:[f6<0.0028324388] yes=7,no=8,missing=7
			7:[f1<0.032541804] yes=15,no=16,missing=15
				15:[f5<0.994565248] yes=25,no=26,missing=25
					25:[f6<0.00154044922] yes=37,no=38,missing=37
						37:leaf=-0.105139203
						38:leaf=-0.021223709
					26:[f6<0.00134168158] yes=39,no=40,missing=39
						39:leaf=-0.0159187205
						40:leaf=0.00850929972
				16:leaf=-0.104547955
			8:leaf=0.122129634
		4:[f1<0.0199832767] yes=9,no=10,missing=9
			9:leaf=-0.117101736
			10:[f1<0.025986623] yes=17,no=18,missing=17
				17:[f0<0.112456754] yes=27,no=28,missing=27
					27:leaf=0.0091663925
					28:leaf=0.060132809
				18:leaf=-0.0600409321
	2:[f0<0.122837365] yes=5,no=6,missing=5
		5:[f1<0.0199832767] yes=11,no=12,missing=11
			11:leaf=0.151253432
			12:[f0<0.119377166] yes=19,no=20,missing=19
				19:leaf=0.108121566
				20:leaf=-0.0298023876
		6:[f1<0.0199832767] yes=13,no=14,missing=13
			13:[f0<0.164359868] yes=21,no=22,missing=21
				21:[f6<0.00402504485] yes=29,no=30,missing=29
					29:[f1<0.0174749158] yes=41,no=42,missing=41
						41:leaf=-0.084647283
						42:leaf=0.043211896
					30:[f0<0.147058815] yes=43,no=44,missing=43
						43:leaf=0.143908843
						44:leaf=0.0406211577
				22:[f6<0.00720532704] yes=31,no=32,missing=31
					31:[f1<0.0140802674] yes=45,no=46,missing=45
						45:leaf=-0.123832062
						46:leaf=-0.03064752
					32:leaf=0.068197377
			14:[f6<0.00501888292] yes=23,no=24,missing=23
				23:[f1<0.0265886299] yes=33,no=34,missing=33
					33:leaf=-0.167811871
					34:[f0<0.14532873] yes=47,no=48,missing=47
						47:leaf=0.0589497089
						48:leaf=-0.0483320169
				24:[f1<0.0265050158] yes=35,no=36,missing=35
					35:[f0<0.211072654] yes=49,no=50,missing=49
						49:leaf=0.149292797
						50:leaf=-0.00737333251
					36:[f0<0.178200692] yes=51,no=52,missing=51
						51:leaf=0.00308127515
						52:leaf=-0.0987373218
booster[22]:
0:[f6<0.00342874182] yes=1,no=2,missing=1
	1:[f0<0.0605536327] yes=3,no=4,missing=3
		3:[f6<0.00154044922] yes=7,no=8,missing=7
			7:[f0<0.0501730107] yes=15,no=16,missing=15
				15:[f6<0.00134168158] yes=27,no=28,missing=27
					27:[f1<0.024581939] yes=43,no=44,missing=43
						43:leaf=0.0270348303
						44:leaf=-0.0214424469
					28:[f0<0.0467128009] yes=45,no=46,missing=45
						45:leaf=-0.212561354
						46:leaf=0.00768954074
				16:[f1<0.0169230774] yes=29,no=30,missing=29
					29:leaf=0.126092672
					30:[f1<0.0241638795] yes=47,no=48,missing=47
						47:leaf=-0.0483810641
						48:leaf=0.111575037
			8:[f0<0.0570934266] yes=17,no=18,missing=17
				17:[f1<0.00804347824] yes=31,no=32,missing=31
					31:leaf=-0.0251559447
					32:leaf=-0.142309412
				18:[f1<0.0169063546] yes=33,no=34,missing=33
					33:leaf=-0.0683743283
					34:leaf=0.109585501
		4:[f6<0.00183860073] yes=9,no=10,missing=9
			9:leaf=0.0965232551
			10:[f0<0.070934251] yes=19,no=20,missing=19
				19:[f3<0.0076923077] yes=35,no=36,missing=35
					35:[f1<0.014247492] yes=49,no=50,missing=49
						49:leaf=-0.0833648443
						50:leaf=0.0295184571
					36:leaf=-0.151743859
				20:[f1<0.0156354513] yes=37,no=38,missing=37
					37:[f1<0.00961538404] yes=51,no=52,missing=51
						51:leaf=-0.00242950907
						52:leaf=0.111058578
					38:[f6<0.00233551976] yes=53,no=54,missing=53
						53:leaf=0.0573494248
						54:leaf=0.00459281309
	2:[f0<0.122837365] yes=5,no=6,missing=5
		5:[f1<0.0199832767] yes=11,no=12,missing=11
			11:leaf=-0.14399007
			12:[f0<0.119377166] yes=21,no=22,missing=21
				21:leaf=-0.0999760851
				22:leaf=0.0250606481
		6:[f6<0.00442257989] yes=13,no=14,missing=13
			13:[f0<0.147058815] yes=23,no=24,missing=23
				23:[f1<0.0111371242] yes=39,no=40,missing=39
					39:leaf=-0.101048544
					40:[f1<0.0166387968] yes=55,no=56,missing=55
						55:leaf=0.125116885
						56:leaf=0.000454170076
				24:leaf=0.131656349
			14:[f0<0.15743944] yes=25,no=26,missing=25
				25:leaf=-0.143220991
				26:[f6<0.00482011493] yes=41,no=42,missing=41
					41:leaf=0.0913165361
					42:[f0<0.17128028] yes=57,no=58,missing=57
						57:leaf=-0.135769665
						58:leaf=0.0256385859
booster[23]:
0:[f6<0.00342874182] yes=1,no=2,missing=1
	1:[f0<0.0605536327] yes=3,no=4,missing=3
		3:[f6<0.00154044922] yes=7,no=8,missing=7
			7:[f0<0.0501730107] yes=15,no=16,missing=15
				15:[f6<0.00134168158] yes=27,no=28,missing=27
					27:[f1<0.024581939] yes=43,no=44,missing=43
						43:leaf=-0.0270348359
						44:leaf=0.0214424543
					28:[f0<0.0467128009] yes=45,no=46,missing=45
						45:leaf=0.212561354
						46:leaf=-0.00768955424
				16:[f1<0.0169230774] yes=29,no=30,missing=29
					29:leaf=-0.126092672
					30:[f1<0.0241638795] yes=47,no=48,missing=47
						47:leaf=0.0483810902
						48:leaf=-0.111575007
			8:[f0<0.0570934266] yes=17,no=18,missing=17
				17:[f1<0.00804347824] yes=31,no=32,missing=31
					31:leaf=0.0251559671
					32:leaf=0.142309412
				18:[f1<0.0169063546] yes=33,no=34,missing=33
					33:leaf=0.0683743283
					34:leaf=-0.109585509
		4:[f6<0.00183860073] yes=9,no=10,missing=9
			9:leaf=-0.0965232551
			10:[f0<0.070934251] yes=19,no=20,missing=19
				19:[f3<0.0076923077] yes=35,no=36,missing=35
					35:[f1<0.014247492] yes=49,no=50,missing=49
						49:leaf=0.0833648667
						50:leaf=-0.0295184422
					36:leaf=0.151743859
				20:[f1<0.0156354513] yes=37,no=38,missing=37
					37:[f1<0.00961538404] yes=51,no=52,missing=51
						51:leaf=0.00242950581
						52:leaf=-0.111058578
					38:[f6<0.00233551976] yes=53,no=54,missing=53
						53:leaf=-0.057349436
						54:leaf=-0.00459281635
	2:[f0<0.122837365] yes=5,no=6,missing=5
		5:[f1<0.0199832767] yes=11,no=12,missing=11
			11:leaf=0.143990085
			12:[f0<0.119377166] yes=21,no=22,missing=21
				21:leaf=0.0999760851
				22:leaf=-0.0250606537
		6:[f6<0.00442257989] yes=13,no=14,missing=13
			13:[f0<0.147058815] yes=23,no=24,missing=23
				23:[f1<0.0111371242] yes=39,no=40,missing=39
					39:leaf=0.101048566
					40:[f1<0.0166387968] yes=55,no=56,missing=55
						55:leaf=-0.12511687
						56:leaf=-0.000454167166
				24:leaf=-0.131656334
			14:[f0<0.15743944] yes=25,no=26,missing=25
				25:leaf=0.143220991
				26:[f6<0.00482011493] yes=41,no=42,missing=41
					41:leaf=-0.0913165435
					42:[f0<0.17128028] yes=57,no=58,missing=57
						57:leaf=0.135769665
						58:leaf=-0.0256385859
booster[24]:
0:[f1<0.0199832767] yes=1,no=2,missing=1
	1:[f6<0.000645994791] yes=3,no=4,missing=3
		3:[f1<0.0184615385] yes=7,no=8,missing=7
			7:[f0<0.00865051895] yes=15,no=16,missing=15
				15:[f1<0.0161204021] yes=31,no=32,missing=31
					31:leaf=-0.0763315558
					32:[f1<0.0166387968] yes=55,no=56,missing=55
						55:leaf=0.0592440031
						56:leaf=0.0063966848
				16:leaf=0.105362527
			8:[f0<0.0155709349] yes=17,no=18,missing=17
				17:[f1<0.0192809366] yes=33,no=34,missing=33
					33:leaf=-0.0194173642
					34:leaf=-0.0659193099
				18:leaf=0.00783644989
		4:[f0<0.0363321789] yes=9,no=10,missing=9
			9:[f1<0.0169398002] yes=19,no=20,missing=19
				19:[f1<0.00998327695] yes=35,no=36,missing=35
					35:leaf=0.00859453343
					36:[f6<0.000745378667] yes=57,no=58,missing=57
						57:leaf=-0.0551701412
						58:leaf=-0.179234669
				20:[f6<0.000944146304] yes=37,no=38,missing=37
					37:leaf=0.133168444
					38:leaf=-0.019905651
			10:[f6<0.00342874182] yes=21,no=22,missing=21
				21:[f0<0.102076128] yes=39,no=40,missing=39
					39:[f6<0.00134168158] yes=59,no=60,missing=59
						59:leaf=0.0561871082
						60:leaf=-0.00975412317
					40:leaf=0.119199611
				22:[f0<0.122837365] yes=41,no=42,missing=41
					41:leaf=-0.133723438
					42:[f3<0.0076923077] yes=61,no=62,missing=61
						61:leaf=-0.0013662891
						62:leaf=-0.0708010718
	2:[f0<0.0224913508] yes=5,no=6,missing=5
		5:[f6<0.000546611031] yes=11,no=12,missing=11
			11:[f0<0.0121107269] yes=23,no=24,missing=23
				23:[f0<0.00865051895] yes=43,no=44,missing=43
					43:[f1<0.0286622085] yes=63,no=64,missing=63
						63:leaf=0.0178025868
						64:leaf=-0.0280796252
					44:[f1<0.0291471574] yes=65,no=66,missing=65
						65:leaf=-0.138091922
						66:leaf=0.0204953589
				24:[f1<0.0275083613] yes=45,no=46,missing=45
					45:leaf=-0.00191116391
					46:leaf=0.135722265
			12:[f6<0.000745378667] yes=25,no=26,missing=25
				25:[f1<0.0291471574] yes=47,no=48,missing=47
					47:leaf=0.104099028
					48:leaf=-0.143220946
				26:leaf=-0.186942279
		6:[f6<0.00114291394] yes=13,no=14,missing=13
			13:[f1<0.0265050158] yes=27,no=28,missing=27
				27:[f1<0.024581939] yes=49,no=50,missing=49
					49:[f8<0.833333373] yes=67,no=68,missing=67
						67:leaf=-0.0026534046
						68:leaf=0.0913013816
					50:leaf=-0.122548282
				28:leaf=0.156317517
			14:[f0<0.0432525948] yes=29,no=30,missing=29
				29:[f1<0.0250167213] yes=51,no=52,missing=51
					51:leaf=0.0190763287
					52:leaf=-0.22414045
				30:[f8<0.833333373] yes=53,no=54,missing=53
					53:[f1<0.022909699] yes=69,no=70,missing=69
						69:leaf=0.0390955545
						70:leaf=-0.130456209
					54:[f6<0.00233551976] yes=71,no=72,missing=71
						71:leaf=0.0693398789
						72:leaf=0.0107519729
booster[25]:
0:[f1<0.0199832767] yes=1,no=2,missing=1
	1:[f6<0.000645994791] yes=3,no=4,missing=3
		3:[f1<0.0184615385] yes=7,no=8,missing=7
			7:[f0<0.00865051895] yes=15,no=16,missing=15
				15:[f1<0.0161204021] yes=31,no=32,missing=31
					31:leaf=0.0763315558
					32:[f1<0.0166387968] yes=55,no=56,missing=55
						55:leaf=-0.0592439994
						56:leaf=-0.0063966834
				16:leaf=-0.105362542
			8:[f0<0.0155709349] yes=17,no=18,missing=17
				17:[f1<0.0192809366] yes=33,no=34,missing=33
					33:leaf=0.0194173679
					34:leaf=0.0659193173
				18:leaf=-0.00783643126
		4:[f0<0.0363321789] yes=9,no=10,missing=9
			9:[f1<0.0169398002] yes=19,no=20,missing=19
				19:[f1<0.00998327695] yes=35,no=36,missing=35
					35:leaf=-0.00859458465
					36:[f6<0.000745378667] yes=57,no=58,missing=57
						57:leaf=0.0551701076
						58:leaf=0.179234669
				20:[f6<0.000944146304] yes=37,no=38,missing=37
					37:leaf=-0.133168444
					38:leaf=0.0199055932
			10:[f6<0.00342874182] yes=21,no=22,missing=21
				21:[f0<0.102076128] yes=39,no=40,missing=39
					39:[f6<0.00134168158] yes=59,no=60,missing=59
						59:leaf=-0.0561871082
						60:leaf=0.00975412317
					40:leaf=-0.119199611
				22:[f0<0.122837365] yes=41,no=42,missing=41
					41:leaf=0.133723408
					42:[f3<0.0076923077] yes=61,no=62,missing=61
						61:leaf=0.00136629329
						62:leaf=0.0708010793
	2:[f0<0.0224913508] yes=5,no=6,missing=5
		5:[f6<0.000546611031] yes=11,no=12,missing=11
			11:[f0<0.0121107269] yes=23,no=24,missing=23
				23:[f0<0.00865051895] yes=43,no=44,missing=43
					43:[f1<0.0286622085] yes=63,no=64,missing=63
						63:leaf=-0.0178025812
						64:leaf=0.0280795973
					44:[f1<0.0291471574] yes=65,no=66,missing=65
						65:leaf=0.138091907
						66:leaf=-0.0204953589
				24:[f1<0.0275083613] yes=45,no=46,missing=45
					45:leaf=0.00191117264
					46:leaf=-0.13572228
			12:[f6<0.000745378667] yes=25,no=26,missing=25
				25:[f1<0.0291471574] yes=47,no=48,missing=47
					47:leaf=-0.10409902
					48:leaf=0.143220946
				26:leaf=0.186942279
		6:[f6<0.00114291394] yes=13,no=14,missing=13
			13:[f1<0.0265050158] yes=27,no=28,missing=27
				27:[f1<0.024581939] yes=49,no=50,missing=49
					49:[f8<0.833333373] yes=67,no=68,missing=67
						67:leaf=0.00265339692
						68:leaf=-0.0913013816
					50:leaf=0.12254826
				28:leaf=-0.156317517
			14:[f0<0.0432525948] yes=29,no=30,missing=29
				29:[f1<0.0250167213] yes=51,no=52,missing=51
					51:leaf=-0.0190763362
					52:leaf=0.224140465
				30:[f8<0.833333373] yes=53,no=54,missing=53
					53:[f1<0.022909699] yes=69,no=70,missing=69
						69:leaf=-0.039095562
						70:leaf=0.130456209
					54:[f6<0.00233551976] yes=71,no=72,missing=71
						71:leaf=-0.0693398565
						72:leaf=-0.0107519757
booster[26]:
0:[f6<0.00720532704] yes=1,no=2,missing=1
	1:[f0<0.202422142] yes=3,no=4,missing=3
		3:[f6<0.00561518595] yes=7,no=8,missing=7
			7:[f0<0.178200692] yes=11,no=12,missing=11
				11:[f6<0.00501888292] yes=13,no=14,missing=13
					13:[f0<0.147058815] yes=15,no=16,missing=15
						15:leaf=-0.00134784589
						16:leaf=0.0574484654
					14:[f1<0.0263043474] yes=17,no=18,missing=17
						17:leaf=-0.112408929
						18:leaf=-0.0197713263
				12:leaf=0.0776121691
			8:leaf=-0.11828123
		4:[f0<0.223183393] yes=9,no=10,missing=9
			9:leaf=0.0403352976
			10:leaf=0.121994659
	2:[f0<0.347750872] yes=5,no=6,missing=5
		5:leaf=-0.128021389
		6:leaf=0.0472892411
booster[27]:
0:[f6<0.00720532704] yes=1,no=2,missing=1
	1:[f0<0.202422142] yes=3,no=4,missing=3
		3:[f6<0.00561518595] yes=7,no=8,missing=7
			7:[f0<0.178200692] yes=11,no=12,missing=11
				11:[f6<0.00501888292] yes=13,no=14,missing=13
					13:[f0<0.147058815] yes=15,no=16,missing=15
						15:leaf=0.00134784111
						16:leaf=-0.0574484728
					14:[f1<0.0263043474] yes=17,no=18,missing=17
						17:leaf=0.112408914
						18:leaf=0.0197713207
				12:leaf=-0.0776121691
			8:leaf=0.11828123
		4:[f0<0.223183393] yes=9,no=10,missing=9
			9:leaf=-0.040335279
			10:leaf=-0.121994659
	2:[f0<0.347750872] yes=5,no=6,missing=5
		5:leaf=0.128021389
		6:leaf=-0.0472892411
booster[28]:
0:[f5<0.994347811] yes=1,no=2,missing=1
	1:[f1<0.0198160522] yes=3,no=4,missing=3
		3:leaf=0.00141953258
		4:leaf=0.0986213908
	2:[f6<0.00720532704] yes=5,no=6,missing=5
		5:[f0<0.202422142] yes=7,no=8,missing=7
			7:[f6<0.00561518595] yes=11,no=12,missing=11
				11:[f8<0.833333373] yes=15,no=16,missing=15
					15:[f1<0.0250167213] yes=17,no=18,missing=17
						17:leaf=-0.00900889933
						18:leaf=-0.15075925
					16:[f0<0.178200692] yes=19,no=20,missing=19
						19:leaf=0.000942890998
						20:leaf=0.120831266
				12:leaf=-0.109221227
			8:[f0<0.223183393] yes=13,no=14,missing=13
				13:leaf=0.0301391017
				14:leaf=0.108961999
		6:[f1<0.0176254176] yes=9,no=10,missing=9
			9:leaf=-0.121667929
			10:leaf=-0.0124014299
booster[29]:
0:[f5<0.994347811] yes=1,no=2,missing=1
	1:[f1<0.0198160522] yes=3,no=4,missing=3
		3:leaf=-0.00141954189
		4:leaf=-0.0986213982
	2:[f6<0.00720532704] yes=5,no=6,missing=5
		5:[f0<0.202422142] yes=7,no=8,missing=7
			7:[f6<0.00561518595] yes=11,no=12,missing=11
				11:[f8<0.833333373] yes=15,no=16,missing=15
					15:[f1<0.0250167213] yes=17,no=18,missing=17
						17:leaf=0.00900890585
						18:leaf=0.15075925
					16:[f0<0.178200692] yes=19,no=20,missing=19
						19:leaf=-0.00094288704
						20:leaf=-0.120831266
				12:leaf=0.10922122
			8:[f0<0.223183393] yes=13,no=14,missing=13
				13:leaf=-0.0301391017
				14:leaf=-0.108961992
		6:[f1<0.0176254176] yes=9,no=10,missing=9
			9:leaf=0.121667922
			10:leaf=0.0124014197
booster[30]:
0:[f6<0.00442257989] yes=1,no=2,missing=1
	1:[f0<0.147058815] yes=3,no=4,missing=3
		3:[f1<0.032541804] yes=7,no=8,missing=7
			7:[f6<0.0038262771] yes=11,no=12,missing=11
				11:[f0<0.129757792] yes=15,no=16,missing=15
					15:[f3<0.0076923077] yes=21,no=22,missing=21
						21:leaf=0.00385728804
						22:leaf=-0.032162752
					16:leaf=0.115890846
				12:[f1<0.0197993312] yes=17,no=18,missing=17
					17:leaf=-0.124054566
					18:[f1<0.0216722414] yes=23,no=24,missing=23
						23:leaf=0.0542626418
						24:leaf=-0.0295555722
			8:leaf=0.0959034339
		4:leaf=0.114156701
	2:[f0<0.15743944] yes=5,no=6,missing=5
		5:leaf=-0.136680186
		6:[f1<0.0265050158] yes=9,no=10,missing=9
			9:[f1<0.0205016732] yes=13,no=14,missing=13
				13:[f0<0.160899654] yes=19,no=20,missing=19
					19:leaf=-0.0461895913
					20:[f1<0.0166387968] yes=25,no=26,missing=25
						25:leaf=-0.0300610438
						26:leaf=0.060501691
				14:leaf=-0.109254256
			10:leaf=0.0964139476
booster[31]:
0:[f6<0.00442257989] yes=1,no=2,missing=1
	1:[f0<0.147058815] yes=3,no=4,missing=3
		3:[f1<0.032541804] yes=7,no=8,missing=7
			7:[f6<0.0038262771] yes=11,no=12,missing=11
				11:[f0<0.129757792] yes=15,no=16,missing=15
					15:[f3<0.0076923077] yes=21,no=22,missing=21
						21:leaf=-0.00385728572
						22:leaf=0.0321627446
					16:leaf=-0.115890846
				12:[f1<0.0197993312] yes=17,no=18,missing=17
					17:leaf=0.124054566
					18:[f1<0.0216722414] yes=23,no=24,missing=23
						23:leaf=-0.0542626679
						24:leaf=0.0295555722
			8:leaf=-0.0959034413
		4:leaf=-0.114156686
	2:[f0<0.15743944] yes=5,no=6,missing=5
		5:leaf=0.136680186
		6:[f1<0.0265050158] yes=9,no=10,missing=9
			9:[f1<0.0205016732] yes=13,no=14,missing=13
				13:[f0<0.160899654] yes=19,no=20,missing=19
					19:leaf=0.046189595
					20:[f1<0.0166387968] yes=25,no=26,missing=25
						25:leaf=0.0300610401
						26:leaf=-0.060501691
				14:leaf=0.109254263
			10:leaf=-0.0964139402
booster[32]:
0:[f6<0.00263367128] yes=1,no=2,missing=1
	1:[f5<0.994565248] yes=3,no=4,missing=3
		3:leaf=0.088659063
		4:[f1<0.032541804] yes=7,no=8,missing=7
			7:[f3<0.0230769236] yes=11,no=12,missing=11
				11:[f0<0.0605536327] yes=17,no=18,missing=17
					17:[f6<0.00154044922] yes=23,no=24,missing=23
						23:leaf=0.00135698111
						24:leaf=-0.0693053603
					18:[f1<0.00961538404] yes=25,no=26,missing=25
						25:leaf=-0.0776736662
						26:leaf=0.0289851297
				12:leaf=0.0794293135
			8:leaf=0.0911003202
	2:[f0<0.0916955024] yes=5,no=6,missing=5
		5:leaf=-0.134513468
		6:[f8<0.833333373] yes=9,no=10,missing=9
			9:[f6<0.00342874182] yes=13,no=14,missing=13
				13:leaf=-0.0130729936
				14:leaf=-0.0900395513
			10:[f1<0.0264046825] yes=15,no=16,missing=15
				15:[f1<0.0245150514] yes=19,no=20,missing=19
					19:[f6<0.00621148851] yes=27,no=28,missing=27
						27:leaf=0.0193839744
						28:leaf=-0.0467770845
					20:leaf=-0.118315876
				16:[f6<0.00392566063] yes=21,no=22,missing=21
					21:leaf=0.113687992
					22:[f0<0.15743944] yes=29,no=30,missing=29
						29:leaf=-0.0816336125
						30:leaf=0.111681394
booster[33]:
0:[f6<0.00263367128] yes=1,no=2,missing=1
	1:[f5<0.994565248] yes=3,no=4,missing=3
		3:leaf=-0.0886590555
		4:[f1<0.032541804] yes=7,no=8,missing=7
			7:[f3<0.0230769236] yes=11,no=12,missing=11
				11:[f0<0.0605536327] yes=17,no=18,missing=17
					17:[f6<0.00154044922] yes=23,no=24,missing=23
						23:leaf=-0.00135698181
						24:leaf=0.0693053678
					18:[f1<0.00961538404] yes=25,no=26,missing=25
						25:leaf=0.0776736662
						26:leaf=-0.0289851297
				12:leaf=-0.0794293061
			8:leaf=-0.0911003277
	2:[f0<0.0916955024] yes=5,no=6,missing=5
		5:leaf=0.134513468
		6:[f8<0.833333373] yes=9,no=10,missing=9
			9:[f6<0.00342874182] yes=13,no=14,missing=13
				13:leaf=0.013073002
				14:leaf=0.0900395438
			10:[f1<0.0264046825] yes=15,no=16,missing=15
				15:[f1<0.0245150514] yes=19,no=20,missing=19
					19:[f6<0.00621148851] yes=27,no=28,missing=27
						27:leaf=-0.0193839706
						28:leaf=0.0467770658
					20:leaf=0.118315876
				16:[f6<0.00392566063] yes=21,no=22,missing=21
					21:leaf=-0.113687992
					22:[f0<0.15743944] yes=29,no=30,missing=29
						29:leaf=0.0816336498
						30:leaf=-0.111681402
booster[34]:
0:[f1<0.0132107027] yes=1,no=2,missing=1
	1:[f6<0.00163983298] yes=3,no=4,missing=3
		3:[f0<0.00865051895] yes=7,no=8,missing=7
			7:leaf=-0.0060529341
			8:[f3<0.0076923077] yes=15,no=16,missing=15
				15:[f1<0.0101337787] yes=27,no=28,missing=27
					27:leaf=0.0296211485
					28:leaf=0.122833245
				16:leaf=0.00665729446
		4:[f1<0.00971571915] yes=9,no=10,missing=9
			9:[f0<0.0726643577] yes=17,no=18,missing=17
				17:leaf=-0.116375767
				18:leaf=-0.03340872
			10:[f0<0.0605536327] yes=19,no=20,missing=19
				19:leaf=-0.0480865203
				20:[f6<0.00298151467] yes=29,no=30,missing=29
					29:leaf=0.102296017
					30:[f0<0.147058815] yes=37,no=38,missing=37
						37:leaf=-0.041644223
						38:leaf=0.0828067884
	2:[f1<0.0157525092] yes=5,no=6,missing=5
		5:[f0<0.0155709349] yes=11,no=12,missing=11
			11:leaf=-0.133110464
			12:[f6<0.00258397916] yes=21,no=22,missing=21
				21:leaf=-0.00753103755
				22:leaf=-0.0545562319
		6:[f8<0.833333373] yes=13,no=14,missing=13
			13:[f1<0.024581939] yes=23,no=24,missing=23
				23:[f3<0.0076923077] yes=31,no=32,missing=31
					31:[f0<0.0605536327] yes=39,no=40,missing=39
						39:leaf=-0.0179506987
						40:leaf=0.0398634449
					32:[f1<0.0197993312] yes=41,no=42,missing=41
						41:leaf=-0.112490334
						42:leaf=-0.00213462766
				24:leaf=-0.116370112
			14:[f1<0.0270234123] yes=25,no=26,missing=25
				25:[f1<0.0245150514] yes=33,no=34,missing=33
					33:[f6<0.00134168158] yes=43,no=44,missing=43
						43:leaf=0.0186526906
						44:leaf=-0.0121057164
					34:[f0<0.0294117648] yes=45,no=46,missing=45
						45:leaf=-0.19416593
						46:leaf=-0.00387549098
				26:[f0<0.0467128009] yes=35,no=36,missing=35
					35:[f6<0.00114291394] yes=47,no=48,missing=47
						47:leaf=0.0446997508
						48:leaf=-0.23885718
					36:[f6<0.00392566063] yes=49,no=50,missing=49
						49:leaf=0.0864392594
						50:leaf=-0.0122013595
booster[35]:
0:[f1<0.0132107027] yes=1,no=2,missing=1
	1:[f6<0.00163983298] yes=3,no=4,missing=3
		3:[f0<0.00865051895] yes=7,no=8,missing=7
			7:leaf=0.00605293456
			8:[f3<0.0076923077] yes=15,no=16,missing=15
				15:[f1<0.0101337787] yes=27,no=28,missing=27
					27:leaf=-0.0296211522
					28:leaf=-0.122833245
				16:leaf=-0.0066572926
		4:[f1<0.00971571915] yes=9,no=10,missing=9
			9:[f0<0.0726643577] yes=17,no=18,missing=17
				17:leaf=0.116375767
				18:leaf=0.0334087312
			10:[f0<0.0605536327] yes=19,no=20,missing=19
				19:leaf=0.0480865389
				20:[f6<0.00298151467] yes=29,no=30,missing=29
					29:leaf=-0.102296017
					30:[f0<0.147058815] yes=37,no=38,missing=37
						37:leaf=0.0416442305
						38:leaf=-0.0828068033
	2:[f1<0.0157525092] yes=5,no=6,missing=5
		5:[f0<0.0155709349] yes=11,no=12,missing=11
			11:leaf=0.133110464
			12:[f6<0.00258397916] yes=21,no=22,missing=21
				21:leaf=0.00753103709
				22:leaf=0.0545562394
		6:[f8<0.833333373] yes=13,no=14,missing=13
			13:[f1<0.024581939] yes=23,no=24,missing=23
				23:[f3<0.0076923077] yes=31,no=32,missing=31
					31:[f0<0.0605536327] yes=39,no=40,missing=39
						39:leaf=0.0179507099
						40:leaf=-0.0398634486
					32:[f1<0.0197993312] yes=41,no=42,missing=41
						41:leaf=0.112490334
						42:leaf=0.0021346428
				24:leaf=0.116370112
			14:[f1<0.0270234123] yes=25,no=26,missing=25
				25:[f1<0.0245150514] yes=33,no=34,missing=33
					33:[f6<0.00134168158] yes=43,no=44,missing=43
						43:leaf=-0.0186526906
						44:leaf=0.0121057155
					34:[f0<0.0294117648] yes=45,no=46,missing=45
						45:leaf=0.19416593
						46:leaf=0.00387549354
				26:[f0<0.0467128009] yes=35,no=36,missing=35
					35:[f6<0.00114291394] yes=47,no=48,missing=47
						47:leaf=-0.044699762
						48:leaf=0.238857225
					36:[f6<0.00392566063] yes=49,no=50,missing=49
						49:leaf=-0.0864392668
						50:leaf=0.0122013753
booster[36]:
0:[f0<0.00519031147] yes=1,no=2,missing=1
	1:[f6<4.96919092e-05] yes=3,no=4,missing=3
		3:[f1<0.0166387968] yes=7,no=8,missing=7
			7:leaf=-0.0321473926
			8:leaf=0.0628100485
		4:[f6<0.000347843365] yes=9,no=10,missing=9
			9:[f1<0.0192809366] yes=15,no=16,missing=15
				15:leaf=0.0199365076
				16:leaf=-0.0772478357
			10:leaf=-0.121103428
	2:[f1<0.0134280939] yes=5,no=6,missing=5
		5:[f6<0.00163983298] yes=11,no=12,missing=11
			11:[f3<0.0076923077] yes=17,no=18,missing=17
				17:[f6<0.00139137357] yes=25,no=26,missing=25
					25:leaf=0.119747512
					26:leaf=0.0211158786
				18:leaf=0.0236383397
			12:[f1<0.00971571915] yes=19,no=20,missing=19
				19:leaf=-0.0753193349
				20:[f0<0.0605536327] yes=27,no=28,missing=27
					27:leaf=-0.0382779613
					28:[f6<0.00298151467] yes=35,no=36,missing=35
						35:leaf=0.0887918025
						36:leaf=0.0163851883
		6:[f1<0.0157525092] yes=13,no=14,missing=13
			13:[f0<0.0155709349] yes=21,no=22,missing=21
				21:leaf=-0.0992506891
				22:[f6<0.00258397916] yes=29,no=30,missing=29
					29:leaf=-0.00641366886
					30:leaf=-0.0474148355
			14:[f8<0.833333373] yes=23,no=24,missing=23
				23:[f3<0.0076923077] yes=31,no=32,missing=31
					31:[f6<0.00233551976] yes=37,no=38,missing=37
						37:leaf=0.0142154908
						38:leaf=-0.0482014678
					32:[f6<0.00154044922] yes=39,no=40,missing=39
						39:leaf=-0.00980238151
						40:leaf=-0.121868521
				24:[f3<0.0076923077] yes=33,no=34,missing=33
					33:[f1<0.0160869565] yes=41,no=42,missing=41
						41:leaf=0.110726036
						42:leaf=-0.00241682772
					34:[f6<0.000844762428] yes=43,no=44,missing=43
						43:leaf=0.138761744
						44:leaf=-0.00349906762
booster[37]:
0:[f0<0.00519031147] yes=1,no=2,missing=1
	1:[f6<4.96919092e-05] yes=3,no=4,missing=3
		3:[f1<0.0166387968] yes=7,no=8,missing=7
			7:leaf=0.0321473666
			8:leaf=-0.0628100634
		4:[f6<0.000347843365] yes=9,no=10,missing=9
			9:[f1<0.0192809366] yes=15,no=16,missing=15
				15:leaf=-0.0199365076
				16:leaf=0.0772478282
			10:leaf=0.121103421
	2:[f1<0.0134280939] yes=5,no=6,missing=5
		5:[f6<0.00163983298] yes=11,no=12,missing=11
			11:[f3<0.0076923077] yes=17,no=18,missing=17
				17:[f6<0.00139137357] yes=25,no=26,missing=25
					25:leaf=-0.119747512
					26:leaf=-0.0211158581
				18:leaf=-0.0236383434
			12:[f1<0.00971571915] yes=19,no=20,missing=19
				19:leaf=0.0753193349
				20:[f0<0.0605536327] yes=27,no=28,missing=27
					27:leaf=0.0382779725
					28:[f6<0.00298151467] yes=35,no=36,missing=35
						35:leaf=-0.0887917951
						36:leaf=-0.0163852051
		6:[f1<0.0157525092] yes=13,no=14,missing=13
			13:[f0<0.0155709349] yes=21,no=22,missing=21
				21:leaf=0.0992506891
				22:[f6<0.00258397916] yes=29,no=30,missing=29
					29:leaf=0.00641365442
					30:leaf=0.0474148057
			14:[f8<0.833333373] yes=23,no=24,missing=23
				23:[f3<0.0076923077] yes=31,no=32,missing=31
					31:[f6<0.00233551976] yes=37,no=38,missing=37
						37:leaf=-0.0142154871
						38:leaf=0.048201479
					32:[f6<0.00154044922] yes=39,no=40,missing=39
						39:leaf=0.00980238337
						40:leaf=0.121868521
				24:[f3<0.0076923077] yes=33,no=34,missing=33
					33:[f1<0.0160869565] yes=41,no=42,missing=41
						41:leaf=-0.110726051
						42:leaf=0.00241682166
					34:[f6<0.000844762428] yes=43,no=44,missing=43
						43:leaf=-0.138761759
						44:leaf=0.00349904574
booster[38]:
0:[f5<0.994347811] yes=1,no=2,missing=1
	1:[f5<0.980434775] yes=3,no=4,missing=3
		3:leaf=0.00200865883
		4:leaf=0.0928456038
	2:[f6<0.00720532704] yes=5,no=6,missing=5
		5:[f0<0.223183393] yes=7,no=8,missing=7
			7:[f6<0.00641025603] yes=11,no=12,missing=11
				11:[f0<0.00519031147] yes=13,no=14,missing=13
					13:[f6<4.96919092e-05] yes=15,no=16,missing=15
						15:leaf=0.0281302184
						16:leaf=-0.0683248937
					14:[f1<0.012107024] yes=17,no=18,missing=17
						17:leaf=0.0298092812
						18:leaf=-0.00102374074
				12:leaf=-0.0984891728
			8:leaf=0.100880317
		6:[f1<0.0176254176] yes=9,no=10,missing=9
			9:leaf=-0.10830342
			10:leaf=0.00315310317
booster[39]:
0:[f5<0.994347811] yes=1,no=2,missing=1
	1:[f5<0.980434775] yes=3,no=4,missing=3
		3:leaf=-0.00200865604
		4:leaf=-0.0928455964
	2:[f6<0.00720532704] yes=5,no=6,missing=5
		5:[f0<0.223183393] yes=7,no=8,missing=7
			7:[f6<0.00641025603] yes=11,no=12,missing=11
				11:[f0<0.00519031147] yes=13,no=14,missing=13
					13:[f6<4.96919092e-05] yes=15,no=16,missing=15
						15:leaf=-0.0281302016
						16:leaf=0.0683249086
					14:[f1<0.012107024] yes=17,no=18,missing=17
						17:leaf=-0.0298092961
						18:leaf=0.00102374307
				12:leaf=0.0984891802
			8:leaf=-0.100880317
		6:[f1<0.0176254176] yes=9,no=10,missing=9
			9:leaf=0.108303435
			10:leaf=-0.00315309223
booster[40]:
0:[f0<0.237024218] yes=1,no=2,missing=1
	1:[f6<0.00650964025] yes=3,no=4,missing=3
		3:[f0<0.202422142] yes=7,no=8,missing=7
			7:[f1<0.0199832767] yes=9,no=10,missing=9
				9:[f6<0.000645994791] yes=11,no=12,missing=11
					11:[f1<0.0184615385] yes=15,no=16,missing=15
						15:leaf=0.0560528152
						16:leaf=-0.039628461
					12:[f0<0.0397923887] yes=17,no=18,missing=17
						17:leaf=-0.060035985
						18:leaf=-0.00151525345
				10:[f0<0.0224913508] yes=13,no=14,missing=13
					13:[f6<0.000546611031] yes=19,no=20,missing=19
						19:leaf=0.00359884743
						20:leaf=-0.097740382
					14:[f6<0.00114291394] yes=21,no=22,missing=21
						21:leaf=0.0678019375
						22:leaf=0.0107829636
			8:leaf=0.0901201814
		4:leaf=-0.122830838
	2:[f1<0.0169230774] yes=5,no=6,missing=5
		5:leaf=-0.0274425056
		6:leaf=0.117593959
booster[41]:
0:[f0<0.237024218] yes=1,no=2,missing=1
	1:[f6<0.00650964025] yes=3,no=4,missing=3
		3:[f0<0.202422142] yes=7,no=8,missing=7
			7:[f1<0.0199832767] yes=9,no=10,missing=9
				9:[f6<0.000645994791] yes=11,no=12,missing=11
					11:[f1<0.0184615385] yes=15,no=16,missing=15
						15:leaf=-0.0560528077
						16:leaf=0.0396284498
					12:[f0<0.0397923887] yes=17,no=18,missing=17
						17:leaf=0.0600359887
						18:leaf=0.00151525578
				10:[f0<0.0224913508] yes=13,no=14,missing=13
					13:[f6<0.000546611031] yes=19,no=20,missing=19
						19:leaf=-0.00359883183
						20:leaf=0.0977403745
					14:[f6<0.00114291394] yes=21,no=22,missing=21
						21:leaf=-0.0678019375
						22:leaf=-0.0107829692
			8:leaf=-0.0901201814
		4:leaf=0.122830845
	2:[f1<0.0169230774] yes=5,no=6,missing=5
		5:leaf=0.0274425019
		6:leaf=-0.117593952
booster[42]:
0:[f0<0.237024218] yes=1,no=2,missing=1
	1:[f6<0.00650964025] yes=3,no=4,missing=3
		3:[f0<0.17128028] yes=7,no=8,missing=7
			7:[f6<0.00482011493] yes=9,no=10,missing=9
				9:[f0<0.147058815] yes=13,no=14,missing=13
					13:[f6<0.00402504485] yes=17,no=18,missing=17
						17:leaf=0.00146561407
						18:leaf=-0.0791078955
					14:[f1<0.0183110368] yes=19,no=20,missing=19
						19:leaf=0.104110353
						20:leaf=0.010874941
				10:leaf=-0.124356568
			8:[f1<0.0166387968] yes=11,no=12,missing=11
				11:leaf=-0.0445208773
				12:[f1<0.024816053] yes=15,no=16,missing=15
					15:[f6<0.00596302934] yes=21,no=22,missing=21
						21:leaf=0.125405148
						22:leaf=0.0148020638
					16:leaf=0.0155795533
		4:leaf=-0.111960873
	2:[f1<0.0169230774] yes=5,no=6,missing=5
		5:leaf=-0.0232161488
		6:leaf=0.105548605
booster[43]:
0:[f0<0.237024218] yes=1,no=2,missing=1
	1:[f6<0.00650964025] yes=3,no=4,missing=3
		3:[f0<0.17128028] yes=7,no=8,missing=7
			7:[f6<0.00482011493] yes=9,no=10,missing=9
				9:[f0<0.147058815] yes=13,no=14,missing=13
					13:[f6<0.00402504485] yes=17,no=18,missing=17
						17:leaf=-0.00146561326
						18:leaf=0.0791078806
					14:[f1<0.0183110368] yes=19,no=20,missing=19
						19:leaf=-0.104110338
						20:leaf=-0.0108749522
				10:leaf=0.124356575
			8:[f1<0.0166387968] yes=11,no=12,missing=11
				11:leaf=0.0445208773
				12:[f1<0.024816053] yes=15,no=16,missing=15
					15:[f6<0.00596302934] yes=21,no=22,missing=21
						21:leaf=-0.125405148
						22:leaf=-0.0148020685
					16:leaf=-0.0155795524
		4:leaf=0.111960866
	2:[f1<0.0169230774] yes=5,no=6,missing=5
		5:leaf=0.0232161488
		6:leaf=-0.105548598
booster[44]:
0:[f0<0.0121107269] yes=1,no=2,missing=1
	1:[f6<0.000447227183] yes=3,no=4,missing=3
		3:[f1<0.0278428085] yes=7,no=8,missing=7
			7:[f1<0.0184615385] yes=13,no=14,missing=13
				13:[f0<0.00865051895] yes=21,no=22,missing=21
					21:[f0<0.00519031147] yes=33,no=34,missing=33
						33:leaf=0.0347297974
						34:leaf=-0.0193401333
					22:leaf=0.0882747397
				14:[f1<0.0209866222] yes=23,no=24,missing=23
					23:[f0<0.00519031147] yes=35,no=36,missing=35
						35:leaf=-0.0291963499
						36:leaf=0.00339379371
					24:leaf=0.0381252952
			8:leaf=-0.0577438623
		4:leaf=-0.109453507
	2:[f6<0.000546611031] yes=5,no=6,missing=5
		5:[f1<0.0275083613] yes=9,no=10,missing=9
			9:[f1<0.0183110368] yes=15,no=16,missing=15
				15:[f1<0.0166387968] yes=25,no=26,missing=25
					25:[f1<0.0164046828] yes=37,no=38,missing=37
						37:leaf=0.0222185198
						38:leaf=-0.0220950264
					26:leaf=0.0843294784
				16:[f1<0.0199832767] yes=27,no=28,missing=27
					27:leaf=-0.0340105519
					28:leaf=-0.00405688537
			10:leaf=0.119656578
		6:[f1<0.0308361202] yes=11,no=12,missing=11
			11:[f0<0.0224913508] yes=17,no=18,missing=17
				17:[f1<0.0181438122] yes=29,no=30,missing=29
					29:leaf=0.0544973202
					30:[f6<0.000745378667] yes=39,no=40,missing=39
						39:leaf=-0.0476944
						40:leaf=-0.135072276
				18:[f1<0.0187792629] yes=31,no=32,missing=31
					31:[f0<0.0363321789] yes=41,no=42,missing=41
						41:leaf=-0.0666278601
						42:leaf=0.00048331279
					32:[f6<0.000944146304] yes=43,no=44,missing=43
						43:leaf=0.079409942
						44:leaf=0.00330032036
			12:[f6<0.00253428752] yes=19,no=20,missing=19
				19:leaf=0.0809915066
				20:leaf=0.0204533897
booster[45]:
0:[f0<0.0121107269] yes=1,no=2,missing=1
	1:[f6<0.000447227183] yes=3,no=4,missing=3
		3:[f1<0.0278428085] yes=7,no=8,missing=7
			7:[f1<0.0184615385] yes=13,no=14,missing=13
				13:[f0<0.00865051895] yes=21,no=22,missing=21
					21:[f0<0.00519031147] yes=33,no=34,missing=33
						33:leaf=-0.0347297974
						34:leaf=0.0193401296
					22:leaf=-0.0882747397
				14:[f1<0.0209866222] yes=23,no=24,missing=23
					23:[f0<0.00519031147] yes=35,no=36,missing=35
						35:leaf=0.0291963536
						36:leaf=-0.00339379115
					24:leaf=-0.0381253064
			8:leaf=0.0577438548
		4:leaf=0.109453507
	2:[f6<0.000546611031] yes=5,no=6,missing=5
		5:[f1<0.0275083613] yes=9,no=10,missing=9
			9:[f1<0.0183110368] yes=15,no=16,missing=15
				15:[f1<0.0166387968] yes=25,no=26,missing=25
					25:[f1<0.0164046828] yes=37,no=38,missing=37
						37:leaf=-0.0222185329
						38:leaf=0.0220949762
					26:leaf=-0.0843294933
				16:[f1<0.0199832767] yes=27,no=28,missing=27
					27:leaf=0.0340105556
					28:leaf=0.00405689422
			10:leaf=-0.119656578
		6:[f1<0.0308361202] yes=11,no=12,missing=11
			11:[f0<0.0224913508] yes=17,no=18,missing=17
				17:[f1<0.0181438122] yes=29,no=30,missing=29
					29:leaf=-0.0544973314
					30:[f6<0.000745378667] yes=39,no=40,missing=39
						39:leaf=0.0476944074
						40:leaf=0.135072276
				18:[f1<0.0187792629] yes=31,no=32,missing=31
					31:[f0<0.0363321789] yes=41,no=42,missing=41
						41:leaf=0.0666278526
						42:leaf=-0.00048331212
					32:[f6<0.000944146304] yes=43,no=44,missing=43
						43:leaf=-0.0794099495
						44:leaf=-0.00330032315
			12:[f6<0.00253428752] yes=19,no=20,missing=19
				19:leaf=-0.0809914917
				20:leaf=-0.0204533841
booster[46]:
0:[f6<0.00193798449] yes=1,no=2,missing=1
	1:[f0<0.0570934266] yes=3,no=4,missing=3
		3:[f6<0.00154044922] yes=7,no=8,missing=7
			7:[f1<0.0154682277] yes=15,no=16,missing=15
				15:[f6<0.000546611031] yes=31,no=32,missing=31
					31:leaf=0.106830187
					32:[f0<0.0397923887] yes=45,no=46,missing=45
						45:leaf=-0.0133412806
						46:leaf=0.0898482352
				16:[f1<0.0159197338] yes=33,no=34,missing=33
					33:leaf=-0.10691306
					34:[f1<0.032541804] yes=47,no=48,missing=47
						47:leaf=0.00193075661
						48:leaf=0.0817317367
			8:[f1<0.0197993312] yes=17,no=18,missing=17
				17:[f1<0.0166387968] yes=35,no=36,missing=35
					35:leaf=-0.100877829
					36:leaf=0.061528597
				18:leaf=-0.106110625
		4:[f1<0.0169230774] yes=9,no=10,missing=9
			9:[f1<0.0166387968] yes=19,no=20,missing=19
				19:[f0<0.0605536327] yes=37,no=38,missing=37
					37:leaf=-0.022169156
					38:[f0<0.0640138388] yes=49,no=50,missing=49
						49:leaf=0.0968659148
						50:leaf=-0.0163362324
				20:leaf=-0.0425074212
			10:[f1<0.0270735789] yes=21,no=22,missing=21
				21:leaf=0.136936381
				22:leaf=0.0360467434
	2:[f0<0.070934251] yes=5,no=6,missing=5
		5:[f1<0.0166387968] yes=11,no=12,missing=11
			11:[f1<0.0157525092] yes=23,no=24,missing=23
				23:leaf=-0.124722339
				24:leaf=0.0763737336
			12:[f1<0.0199832767] yes=25,no=26,missing=25
				25:leaf=-0.158765033
				26:leaf=-0.0541329049
		6:[f6<0.00233551976] yes=13,no=14,missing=13
			13:[f0<0.0778546706] yes=27,no=28,missing=27
				27:[f1<0.0166387968] yes=39,no=40,missing=39
					39:[f0<0.0743944645] yes=51,no=52,missing=51
						51:leaf=-0.102923304
						52:leaf=0.0615890883
					40:[f0<0.0743944645] yes=53,no=54,missing=53
						53:leaf=0.109536424
						54:leaf=-0.0461980402
				28:leaf=0.103821397
			14:[f8<0.833333373] yes=29,no=30,missing=29
				29:[f1<0.0169230774] yes=41,no=42,missing=41
					41:leaf=-0.106836461
					42:[f6<0.0034784337] yes=55,no=56,missing=55
						55:leaf=0.0338361561
						56:leaf=-0.0327479914
				30:[f0<0.0882352889] yes=43,no=44,missing=43
					43:[f6<0.00243490352] yes=57,no=58,missing=57
						57:leaf=0.0150564946
						58:leaf=-0.0670133308
					44:[f1<0.0263043474] yes=59,no=60,missing=59
						59:leaf=-0.00014337826
						60:leaf=0.0539171882
booster[47]:
0:[f6<0.00193798449] yes=1,no=2,missing=1
	1:[f0<0.0570934266] yes=3,no=4,missing=3
		3:[f6<0.00154044922] yes=7,no=8,missing=7
			7:[f1<0.0154682277] yes=15,no=16,missing=15
				15:[f6<0.000546611031] yes=31,no=32,missing=31
					31:leaf=-0.10683018
					32:[f0<0.0397923887] yes=45,no=46,missing=45
						45:leaf=0.0133412704
						46:leaf=-0.0898482576
				16:[f1<0.0159197338] yes=33,no=34,missing=33
					33:leaf=0.10691306
					34:[f1<0.032541804] yes=47,no=48,missing=47
						47:leaf=-0.00193075475
						48:leaf=-0.0817317292
			8:[f1<0.0197993312] yes=17,no=18,missing=17
				17:[f1<0.0166387968] yes=35,no=36,missing=35
					35:leaf=0.100877829
					36:leaf=-0.0615286119
				18:leaf=0.106110618
		4:[f1<0.0169230774] yes=9,no=10,missing=9
			9:[f1<0.0166387968] yes=19,no=20,missing=19
				19:[f0<0.0605536327] yes=37,no=38,missing=37
					37:leaf=0.0221691728
					38:[f0<0.0640138388] yes=49,no=50,missing=49
						49:leaf=-0.0968659297
						50:leaf=0.0163362212
				20:leaf=0.04250741
			10:[f1<0.0270735789] yes=21,no=22,missing=21
				21:leaf=-0.136936381
				22:leaf=-0.0360467508
	2:[f0<0.070934251] yes=5,no=6,missing=5
		5:[f1<0.0166387968] yes=11,no=12,missing=11
			11:[f1<0.0157525092] yes=23,no=24,missing=23
				23:leaf=0.124722354
				24:leaf=-0.0763736442
			12:[f1<0.0199832767] yes=25,no=26,missing=25
				25:leaf=0.158765048
				26:leaf=0.05413289
		6:[f6<0.00233551976] yes=13,no=14,missing=13
			13:[f0<0.0778546706] yes=27,no=28,missing=27
				27:[f1<0.0166387968] yes=39,no=40,missing=39
					39:[f0<0.0743944645] yes=51,no=52,missing=51
						51:leaf=0.102923281
						52:leaf=-0.0615890883
					40:[f0<0.0743944645] yes=53,no=54,missing=53
						53:leaf=-0.109536424
						54:leaf=0.0461980328
				28:leaf=-0.103821397
			14:[f8<0.833333373] yes=29,no=30,missing=29
				29:[f1<0.0169230774] yes=41,no=42,missing=41
					41:leaf=0.106836461
					42:[f6<0.0034784337] yes=55,no=56,missing=55
						55:leaf=-0.0338361338
						56:leaf=0.0327479951
				30:[f0<0.0882352889] yes=43,no=44,missing=43
					43:[f6<0.00243490352] yes=57,no=58,missing=57
						57:leaf=-0.0150564928
						58:leaf=0.0670133457
					44:[f1<0.0263043474] yes=59,no=60,missing=59
						59:leaf=0.000143376878
						60:leaf=-0.0539171882
booster[48]:
0:[f1<0.0132107027] yes=1,no=2,missing=1
	1:[f1<0.0103678927] yes=3,no=4,missing=3
		3:[f6<0.00193798449] yes=7,no=8,missing=7
			7:[f0<0.0397923887] yes=15,no=16,missing=15
				15:[f0<0.0311418697] yes=25,no=26,missing=25
					25:leaf=0.0657403767
					26:leaf=-0.0712164119
				16:leaf=0.0994037166
			8:[f6<0.00342874182] yes=17,no=18,missing=17
				17:leaf=-0.0120593393
				18:leaf=-0.0630410016
		4:[f1<0.0116555188] yes=9,no=10,missing=9
			9:leaf=0.113243952
			10:[f1<0.0119063547] yes=19,no=20,missing=19
				19:leaf=-0.0437874347
				20:[f6<0.00213675201] yes=27,no=28,missing=27
					27:leaf=0.0848030448
					28:leaf=-0.00231407257
	2:[f1<0.0157525092] yes=5,no=6,missing=5
		5:[f0<0.0155709349] yes=11,no=12,missing=11
			11:leaf=-0.0905617252
			12:leaf=-0.0190466624
		6:[f8<0.833333373] yes=13,no=14,missing=13
			13:[f1<0.024581939] yes=21,no=22,missing=21
				21:[f6<0.000745378667] yes=29,no=30,missing=29
					29:leaf=0.0415221564
					30:[f0<0.0605536327] yes=33,no=34,missing=33
						33:leaf=-0.0746350363
						34:leaf=0.012945882
				22:leaf=-0.0974591672
			14:[f1<0.0160869565] yes=23,no=24,missing=23
				23:leaf=0.0816623718
				24:[f1<0.0164046828] yes=31,no=32,missing=31
					31:leaf=-0.0842446089
					32:[f0<0.126297578] yes=35,no=36,missing=35
						35:leaf=-0.00107933406
						36:leaf=0.0229171943
booster[49]:
0:[f1<0.0132107027] yes=1,no=2,missing=1
	1:[f1<0.0103678927] yes=3,no=4,missing=3
		3:[f6<0.00193798449] yes=7,no=8,missing=7
			7:[f0<0.0397923887] yes=15,no=16,missing=15
				15:[f0<0.0311418697] yes=25,no=26,missing=25
					25:leaf=-0.0657403842
					26:leaf=0.0712164119
				16:leaf=-0.0994037092
			8:[f6<0.00342874182] yes=17,no=18,missing=17
				17:leaf=0.01205933
				18:leaf=0.0630410314
		4:[f1<0.0116555188] yes=9,no=10,missing=9
			9:leaf=-0.113243923
			10:[f1<0.0119063547] yes=19,no=20,missing=19
				19:leaf=0.0437874384
				20:[f6<0.00213675201] yes=27,no=28,missing=27
					27:leaf=-0.0848030597
					28:leaf=0.00231405301
	2:[f1<0.0157525092] yes=5,no=6,missing=5
		5:[f0<0.0155709349] yes=11,no=12,missing=11
			11:leaf=0.0905617252
			12:leaf=0.0190466642
		6:[f8<0.833333373] yes=13,no=14,missing=13
			13:[f1<0.024581939] yes=21,no=22,missing=21
				21:[f6<0.000745378667] yes=29,no=30,missing=29
					29:leaf=-0.0415221676
					30:[f0<0.0605536327] yes=33,no=34,missing=33
						33:leaf=0.0746350139
						34:leaf=-0.012945882
				22:leaf=0.0974591672
			14:[f1<0.0160869565] yes=23,no=24,missing=23
				23:leaf=-0.0816623792
				24:[f1<0.0164046828] yes=31,no=32,missing=31
					31:leaf=0.0842446089
					32:[f0<0.126297578] yes=35,no=36,missing=35
						35:leaf=0.00107932917
						36:leaf=-0.0229171962
booster[50]:
0:[f6<0.00442257989] yes=1,no=2,missing=1
	1:[f0<0.147058815] yes=3,no=4,missing=3
		3:[f1<0.032541804] yes=7,no=8,missing=7
			7:[f1<0.0245150514] yes=11,no=12,missing=11
				11:[f6<0.00134168158] yes=15,no=16,missing=15
					15:[f0<0.0397923887] yes=23,no=24,missing=23
						23:leaf=0.00646891631
						24:leaf=0.114306413
					16:[f0<0.0501730107] yes=25,no=26,missing=25
						25:leaf=-0.131910771
						26:leaf=0.00778345671
				12:[f1<0.0260535106] yes=17,no=18,missing=17
					17:leaf=-0.145241722
					18:[f0<0.0467128009] yes=27,no=28,missing=27
						27:leaf=-0.0295422133
						28:leaf=0.0366512313
			8:leaf=0.0782513022
		4:leaf=0.0970076546
	2:[f0<0.15743944] yes=5,no=6,missing=5
		5:leaf=-0.120852143
		6:[f1<0.0265050158] yes=9,no=10,missing=9
			9:[f1<0.0197993312] yes=13,no=14,missing=13
				13:[f6<0.00720532704] yes=19,no=20,missing=19
					19:[f1<0.0140802674] yes=29,no=30,missing=29
						29:leaf=0.0756485015
						30:leaf=0.0129558276
					20:leaf=-0.0328818187
				14:[f6<0.00501888292] yes=21,no=22,missing=21
					21:leaf=0.00933804922
					22:[f6<0.00636056438] yes=31,no=32,missing=31
						31:leaf=-0.111225948
						32:leaf=-0.0119636627
			10:leaf=0.0761847347
booster[51]:
0:[f6<0.00442257989] yes=1,no=2,missing=1
	1:[f0<0.147058815] yes=3,no=4,missing=3
		3:[f1<0.032541804] yes=7,no=8,missing=7
			7:[f1<0.0245150514] yes=11,no=12,missing=11
				11:[f6<0.00134168158] yes=15,no=16,missing=15
					15:[f0<0.0397923887] yes=23,no=24,missing=23
						23:leaf=-0.00646890607
						24:leaf=-0.114306413
					16:[f0<0.0501730107] yes=25,no=26,missing=25
						25:leaf=0.131910786
						26:leaf=-0.0077834609
				12:[f1<0.0260535106] yes=17,no=18,missing=17
					17:leaf=0.145241752
					18:[f0<0.0467128009] yes=27,no=28,missing=27
						27:leaf=0.0295422152
						28:leaf=-0.0366512388
			8:leaf=-0.0782513022
		4:leaf=-0.0970076472
	2:[f0<0.15743944] yes=5,no=6,missing=5
		5:leaf=0.120852135
		6:[f1<0.0265050158] yes=9,no=10,missing=9
			9:[f1<0.0197993312] yes=13,no=14,missing=13
				13:[f6<0.00720532704] yes=19,no=20,missing=19
					19:[f1<0.0140802674] yes=29,no=30,missing=29
						29:leaf=-0.0756484866
						30:leaf=-0.0129558276
					20:leaf=0.0328818411
				14:[f6<0.00501888292] yes=21,no=22,missing=21
					21:leaf=-0.00933804363
					22:[f6<0.00636056438] yes=31,no=32,missing=31
						31:leaf=0.11122594
						32:leaf=0.0119636552
			10:leaf=-0.0761847347
booster[52]:
0:[f6<0.00183860073] yes=1,no=2,missing=1
	1:[f0<0.0570934266] yes=3,no=4,missing=3
		3:[f1<0.0154682277] yes=7,no=8,missing=7
			7:[f0<0.00865051895] yes=13,no=14,missing=13
				13:leaf=-0.0155239748
				14:[f3<0.0076923077] yes=23,no=24,missing=23
					23:leaf=0.100963853
					24:leaf=0.000244163501
			8:[f6<0.00154044922] yes=15,no=16,missing=15
				15:[f1<0.0159197338] yes=25,no=26,missing=25
					25:leaf=-0.0756050199
					26:[f3<0.0076923077] yes=37,no=38,missing=37
						37:leaf=0.00877109077
						38:leaf=-0.0392740853
				16:[f1<0.0197993312] yes=27,no=28,missing=27
					27:leaf=-0.0217172652
					28:leaf=-0.0810231715
		4:[f1<0.0169230774] yes=9,no=10,missing=9
			9:[f0<0.0605536327] yes=17,no=18,missing=17
				17:leaf=-0.0168747753
				18:leaf=0.0354889221
			10:leaf=0.116684571
	2:[f0<0.0640138388] yes=5,no=6,missing=5
		5:leaf=-0.114775725
		6:[f1<0.0202341136] yes=11,no=12,missing=11
			11:[f1<0.0199832767] yes=19,no=20,missing=19
				19:[f1<0.0192976594] yes=29,no=30,missing=29
					29:[f0<0.0743944645] yes=39,no=40,missing=39
						39:leaf=-0.0311836693
						40:leaf=0.0143263834
					30:[f6<0.0038262771] yes=41,no=42,missing=41
						41:leaf=-0.0161900576
						42:leaf=-0.104345649
				20:[f6<0.00521765044] yes=31,no=32,missing=31
					31:[f0<0.126297578] yes=43,no=44,missing=43
						43:leaf=0.0185334571
						44:leaf=0.125909597
					32:leaf=-0.0381224528
			12:[f1<0.0261204019] yes=21,no=22,missing=21
				21:[f0<0.115916952] yes=33,no=34,missing=33
					33:leaf=-0.181202754
					34:leaf=0.026515061
				22:[f0<0.0847750902] yes=35,no=36,missing=35
					35:leaf=-0.0694599077
					36:[f6<0.00392566063] yes=45,no=46,missing=45
						45:leaf=0.0905953944
						46:leaf=-0.0464869961
booster[53]:
0:[f6<0.00183860073] yes=1,no=2,missing=1
	1:[f0<0.0570934266] yes=3,no=4,missing=3
		3:[f1<0.0154682277] yes=7,no=8,missing=7
			7:[f0<0.00865051895] yes=13,no=14,missing=13
				13:leaf=0.0155239869
				14:[f3<0.0076923077] yes=23,no=24,missing=23
					23:leaf=-0.100963838
					24:leaf=-0.000244171795
			8:[f6<0.00154044922] yes=15,no=16,missing=15
				15:[f1<0.0159197338] yes=25,no=26,missing=25
					25:leaf=0.0756050125
					26:[f3<0.0076923077] yes=37,no=38,missing=37
						37:leaf=-0.00877108518
						38:leaf=0.0392740816
				16:[f1<0.0197993312] yes=27,no=28,missing=27
					27:leaf=0.0217172615
					28:leaf=0.0810231864
		4:[f1<0.0169230774] yes=9,no=10,missing=9
			9:[f0<0.0605536327] yes=17,no=18,missing=17
				17:leaf=0.0168747772
				18:leaf=-0.0354889296
			10:leaf=-0.116684571
	2:[f0<0.0640138388] yes=5,no=6,missing=5
		5:leaf=0.114775695
		6:[f1<0.0202341136] yes=11,no=12,missing=11
			11:[f1<0.0199832767] yes=19,no=20,missing=19
				19:[f1<0.0192976594] yes=29,no=30,missing=29
					29:[f0<0.0743944645] yes=39,no=40,missing=39
						39:leaf=0.0311836656
						40:leaf=-0.0143263862
					30:[f6<0.0038262771] yes=41,no=42,missing=41
						41:leaf=0.0161900613
						42:leaf=0.104345657
				20:[f6<0.00521765044] yes=31,no=32,missing=31
					31:[f0<0.126297578] yes=43,no=44,missing=43
						43:leaf=-0.0185334552
						44:leaf=-0.125909597
					32:leaf=0.0381224491
			12:[f1<0.0261204019] yes=21,no=22,missing=21
				21:[f0<0.115916952] yes=33,no=34,missing=33
					33:leaf=0.181202769
					34:leaf=-0.026515048
				22:[f0<0.0847750902] yes=35,no=36,missing=35
					35:leaf=0.0694598779
					36:[f6<0.00392566063] yes=45,no=46,missing=45
						45:leaf=-0.0905954018
						46:leaf=0.0464869924
booster[54]:
0:[f5<0.994347811] yes=1,no=2,missing=1
	1:[f6<0.00233551976] yes=3,no=4,missing=3
		3:leaf=0.078811951
		4:leaf=0.00545405969
	2:[f6<0.00442257989] yes=5,no=6,missing=5
		5:[f0<0.147058815] yes=7,no=8,missing=7
			7:[f6<0.0038262771] yes=11,no=12,missing=11
				11:[f0<0.129757792] yes=15,no=16,missing=15
					15:[f3<0.0230769236] yes=21,no=22,missing=21
						21:leaf=-0.00147491076
						22:leaf=0.0661052018
					16:leaf=0.0956977382
				12:[f1<0.0197993312] yes=17,no=18,missing=17
					17:[f1<0.0166387968] yes=23,no=24,missing=23
						23:leaf=-0.0172089301
						24:leaf=-0.131050169
					18:[f1<0.0216722414] yes=25,no=26,missing=25
						25:leaf=0.0548474975
						26:leaf=-0.0430898592
			8:leaf=0.0886136293
		6:[f0<0.15743944] yes=9,no=10,missing=9
			9:leaf=-0.110880189
			10:[f1<0.0265050158] yes=13,no=14,missing=13
				13:[f1<0.0197993312] yes=19,no=20,missing=19
					19:[f0<0.167820066] yes=27,no=28,missing=27
						27:leaf=0.0640318766
						28:leaf=-0.0055568791
					20:[f6<0.00501888292] yes=29,no=30,missing=29
						29:leaf=-0.00153491821
						30:leaf=-0.0973538533
				14:leaf=0.0717135668
booster[55]:
0:[f5<0.994347811] yes=1,no=2,missing=1
	1:[f6<0.00233551976] yes=3,no=4,missing=3
		3:leaf=-0.0788119435
		4:leaf=-0.00545409787
	2:[f6<0.00442257989] yes=5,no=6,missing=5
		5:[f0<0.147058815] yes=7,no=8,missing=7
			7:[f6<0.0038262771] yes=11,no=12,missing=11
				11:[f0<0.129757792] yes=15,no=16,missing=15
					15:[f3<0.0230769236] yes=21,no=22,missing=21
						21:leaf=0.00147490948
						22:leaf=-0.0661052391
					16:leaf=-0.0956977531
				12:[f1<0.0197993312] yes=17,no=18,missing=17
					17:[f1<0.0166387968] yes=23,no=24,missing=23
						23:leaf=0.017208958
						24:leaf=0.131050184
					18:[f1<0.0216722414] yes=25,no=26,missing=25
						25:leaf=-0.0548475236
						26:leaf=0.0430898555
			8:leaf=-0.0886136293
		6:[f0<0.15743944] yes=9,no=10,missing=9
			9:leaf=0.110880204
			10:[f1<0.0265050158] yes=13,no=14,missing=13
				13:[f1<0.0197993312] yes=19,no=20,missing=19
					19:[f0<0.167820066] yes=27,no=28,missing=27
						27:leaf=-0.0640318841
						28:leaf=0.00555688189
					20:[f6<0.00501888292] yes=29,no=30,missing=29
						29:leaf=0.00153491262
						30:leaf=0.0973538384
				14:leaf=-0.0717135668
booster[56]:
0:[f6<0.00233551976] yes=1,no=2,missing=1
	1:[f0<0.0778546706] yes=3,no=4,missing=3
		3:[f3<0.0230769236] yes=7,no=8,missing=7
			7:[f0<0.0121107269] yes=13,no=14,missing=13
				13:[f1<0.0161204021] yes=23,no=24,missing=23
					23:leaf=-0.0772408172
					24:[f1<0.0166387968] yes=33,no=34,missing=33
						33:leaf=0.0456661582
						34:leaf=-0.019375639
				14:[f6<0.000546611031] yes=25,no=26,missing=25
					25:[f1<0.0275083613] yes=35,no=36,missing=35
						35:leaf=0.0101289069
						36:leaf=0.111457117
					26:[f3<0.0076923077] yes=37,no=38,missing=37
						37:leaf=0.0052795033
						38:leaf=-0.0359813496
			8:leaf=0.0699478239
		4:leaf=0.0946013182
	2:[f0<0.0882352889] yes=5,no=6,missing=5
		5:[f1<0.0183110368] yes=9,no=10,missing=9
			9:[f6<0.00243490352] yes=15,no=16,missing=15
				15:leaf=0.0103115402
				16:leaf=-0.123616479
			10:[f0<0.0847750902] yes=17,no=18,missing=17
				17:leaf=-0.0906440169
				18:leaf=0.0935139656
		6:[f1<0.0175919719] yes=11,no=12,missing=11
			11:[f6<0.00273305504] yes=19,no=20,missing=19
				19:leaf=0.123943053
				20:[f0<0.0986159146] yes=27,no=28,missing=27
					27:leaf=-0.0724271387
					28:[f3<0.0076923077] yes=39,no=40,missing=39
						39:leaf=0.0288825575
						40:leaf=-0.0525771379
			12:[f0<0.0951557159] yes=21,no=22,missing=21
				21:[f6<0.00263367128] yes=29,no=30,missing=29
					29:leaf=-0.0017675577
					30:leaf=-0.133417904
				22:[f1<0.019816054] yes=31,no=32,missing=31
					31:[f0<0.166089967] yes=41,no=42,missing=41
						41:leaf=-0.0918240696
						42:leaf=0.0161910132
					32:[f6<0.00442257989] yes=43,no=44,missing=43
						43:leaf=0.0320908837
						44:leaf=-0.0285970718
booster[57]:
0:[f6<0.00233551976] yes=1,no=2,missing=1
	1:[f0<0.0778546706] yes=3,no=4,missing=3
		3:[f3<0.0230769236] yes=7,no=8,missing=7
			7:[f0<0.0121107269] yes=13,no=14,missing=13
				13:[f1<0.0161204021] yes=23,no=24,missing=23
					23:leaf=0.0772408247
					24:[f1<0.0166387968] yes=33,no=34,missing=33
						33:leaf=-0.0456661656
						34:leaf=0.0193756465
				14:[f6<0.000546611031] yes=25,no=26,missing=25
					25:[f1<0.0275083613] yes=35,no=36,missing=35
						35:leaf=-0.0101288967
						36:leaf=-0.111457102
					26:[f3<0.0076923077] yes=37,no=38,missing=37
						37:leaf=-0.00527950004
						38:leaf=0.0359813496
			8:leaf=-0.0699478313
		4:leaf=-0.0946013033
	2:[f0<0.0882352889] yes=5,no=6,missing=5
		5:[f1<0.0183110368] yes=9,no=10,missing=9
			9:[f6<0.00243490352] yes=15,no=16,missing=15
				15:leaf=-0.0103115486
				16:leaf=0.123616464
			10:[f0<0.0847750902] yes=17,no=18,missing=17
				17:leaf=0.0906440169
				18:leaf=-0.0935139656
		6:[f1<0.0175919719] yes=11,no=12,missing=11
			11:[f6<0.00273305504] yes=19,no=20,missing=19
				19:leaf=-0.123943061
				20:[f0<0.0986159146] yes=27,no=28,missing=27
					27:leaf=0.0724271312
					28:[f3<0.0076923077] yes=39,no=40,missing=39
						39:leaf=-0.0288825575
						40:leaf=0.0525771379
			12:[f0<0.0951557159] yes=21,no=22,missing=21
				21:[f6<0.00263367128] yes=29,no=30,missing=29
					29:leaf=0.00176756445
					30:leaf=0.133417889
				22:[f1<0.019816054] yes=31,no=32,missing=31
					31:[f0<0.166089967] yes=41,no=42,missing=41
						41:leaf=0.0918240696
						42:leaf=-0.0161910318
					32:[f6<0.00442257989] yes=43,no=44,missing=43
						43:leaf=-0.0320908949
						44:leaf=0.0285970587
booster[58]:
0:[f5<0.994347811] yes=1,no=2,missing=1
	1:[f5<0.980434775] yes=3,no=4,missing=3
		3:leaf=0.00620450871
		4:leaf=0.0792580023
	2:[f6<0.00342874182] yes=5,no=6,missing=5
		5:[f0<0.115916952] yes=7,no=8,missing=7
			7:[f6<0.0032299743] yes=11,no=12,missing=11
				11:[f0<0.0986159146] yes=15,no=16,missing=15
					15:[f6<0.00273305504] yes=19,no=20,missing=19
						19:leaf=0.00195911829
						20:leaf=-0.0672906861
					16:[f1<0.0228428096] yes=21,no=22,missing=21
						21:leaf=0.101096466
						22:leaf=-0.0426863916
				12:leaf=-0.0738863498
			8:leaf=0.0837311894
		6:[f0<0.122837365] yes=9,no=10,missing=9
			9:leaf=-0.0865314156
			10:[f8<0.833333373] yes=13,no=14,missing=13
				13:leaf=-0.069644317
				14:[f1<0.0105351172] yes=17,no=18,missing=17
					17:leaf=-0.0555755533
					18:[f6<0.0038262771] yes=23,no=24,missing=23
						23:leaf=0.0791155398
						24:leaf=-0.000918159785
booster[59]:
0:[f5<0.994347811] yes=1,no=2,missing=1
	1:[f5<0.980434775] yes=3,no=4,missing=3
		3:leaf=-0.00620448124
		4:leaf=-0.0792580396
	2:[f6<0.00342874182] yes=5,no=6,missing=5
		5:[f0<0.115916952] yes=7,no=8,missing=7
			7:[f6<0.0032299743] yes=11,no=12,missing=11
				11:[f0<0.0986159146] yes=15,no=16,missing=15
					15:[f6<0.00273305504] yes=19,no=20,missing=19
						19:leaf=-0.00195912272
						20:leaf=0.0672906712
					16:[f1<0.0228428096] yes=21,no=22,missing=21
						21:leaf=-0.101096466
						22:leaf=0.042686414
				12:leaf=0.0738863349
			8:leaf=-0.0837311894
		6:[f0<0.122837365] yes=9,no=10,missing=9
			9:leaf=0.0865314081
			10:[f8<0.833333373] yes=13,no=14,missing=13
				13:leaf=0.069644317
				14:[f1<0.0105351172] yes=17,no=18,missing=17
					17:leaf=0.0555755682
					18:[f6<0.0038262771] yes=23,no=24,missing=23
						23:leaf=-0.0791155323
						24:leaf=0.000918157806
booster[60]:
0:[f5<0.994347811] yes=1,no=2,missing=1
	1:leaf=0.0507111102
	2:[f6<0.00720532704] yes=3,no=4,missing=3
		3:[f0<0.202422142] yes=5,no=6,missing=5
			5:[f6<0.00482011493] yes=7,no=8,missing=7
				7:[f0<0.147058815] yes=9,no=10,missing=9
					9:[f6<0.00392566063] yes=13,no=14,missing=13
						13:leaf=0.000621572894
						14:leaf=-0.0524859317
					10:[f1<0.0183110368] yes=15,no=16,missing=15
						15:leaf=0.0845485926
						16:leaf=-0.00551569974
				8:[f0<0.17128028] yes=11,no=12,missing=11
					11:leaf=-0.108363278
					12:[f1<0.0166387968] yes=17,no=18,missing=17
						17:leaf=-0.050089892
						18:leaf=0.0470256433
			6:leaf=0.0688404292
		4:leaf=-0.051054012
booster[61]:
0:[f5<0.994347811] yes=1,no=2,missing=1
	1:leaf=-0.050711114
	2:[f6<0.00720532704] yes=3,no=4,missing=3
		3:[f0<0.202422142] yes=5,no=6,missing=5
			5:[f6<0.00482011493] yes=7,no=8,missing=7
				7:[f0<0.147058815] yes=9,no=10,missing=9
					9:[f6<0.00392566063] yes=13,no=14,missing=13
						13:leaf=-0.000621575047
						14:leaf=0.0524859391
					10:[f1<0.0183110368] yes=15,no=16,missing=15
						15:leaf=-0.0845486075
						16:leaf=0.00551569602
				8:[f0<0.17128028] yes=11,no=12,missing=11
					11:leaf=0.108363271
					12:[f1<0.0166387968] yes=17,no=18,missing=17
						17:leaf=0.0500899032
						18:leaf=-0.047025647
			6:leaf=-0.0688404292
		4:leaf=0.0510540307
booster[62]:
0:[f1<0.0116555188] yes=1,no=2,missing=1
	1:[f1<0.0103678927] yes=3,no=4,missing=3
		3:[f6<0.00193798449] yes=7,no=8,missing=7
			7:[f0<0.0397923887] yes=13,no=14,missing=13
				13:[f3<0.0076923077] yes=23,no=24,missing=23
					23:leaf=0.0185756311
					24:leaf=-0.0259972457
				14:leaf=0.0855672732
			8:[f1<0.00971571915] yes=15,no=16,missing=15
				15:leaf=-0.0526411794
				16:leaf=0.000753949513
		4:leaf=0.0995299891
	2:[f8<0.833333373] yes=5,no=6,missing=5
		5:[f1<0.024581939] yes=9,no=10,missing=9
			9:[f6<0.000745378667] yes=17,no=18,missing=17
				17:leaf=0.0387870595
				18:[f0<0.0605536327] yes=25,no=26,missing=25
					25:[f3<0.0076923077] yes=35,no=36,missing=35
						35:leaf=-0.0802671015
						36:leaf=-0.0114201345
					26:[f6<0.00228582788] yes=37,no=38,missing=37
						37:leaf=0.0995372534
						38:leaf=-0.0486481786
			10:leaf=-0.0899744555
		6:[f1<0.0184615385] yes=11,no=12,missing=11
			11:[f6<0.000645994791] yes=19,no=20,missing=19
				19:[f0<0.00865051895] yes=27,no=28,missing=27
					27:[f6<0.000149075728] yes=39,no=40,missing=39
						39:leaf=0.0107934512
						40:leaf=-0.0453231409
					28:[f1<0.0159197338] yes=41,no=42,missing=41
						41:leaf=0.0166328866
						42:leaf=0.0728480741
				20:[f0<0.0328719728] yes=29,no=30,missing=29
					29:[f6<0.000745378667] yes=43,no=44,missing=43
						43:leaf=-0.0329724327
						44:leaf=-0.10631156
					30:[f1<0.0166722406] yes=45,no=46,missing=45
						45:leaf=0.000514925516
						46:leaf=-0.0788422301
			12:[f1<0.019832775] yes=21,no=22,missing=21
				21:[f6<0.00193798449] yes=31,no=32,missing=31
					31:[f0<0.0173010379] yes=47,no=48,missing=47
						47:leaf=-0.00785424188
						48:leaf=0.132672489
					32:[f0<0.0882352889] yes=49,no=50,missing=49
						49:leaf=-0.0480330139
						50:leaf=0.022925511
				22:[f1<0.0199832767] yes=33,no=34,missing=33
					33:[f6<0.00139137357] yes=51,no=52,missing=51
						51:leaf=9.36390061e-05
						52:leaf=-0.0589794144
					34:[f1<0.0202341136] yes=53,no=54,missing=53
						53:leaf=0.02562402
						54:leaf=-0.00555984071
booster[63]:
0:[f1<0.0116555188] yes=1,no=2,missing=1
	1:[f1<0.0103678927] yes=3,no=4,missing=3
		3:[f6<0.00193798449] yes=7,no=8,missing=7
			7:[f0<0.0397923887] yes=13,no=14,missing=13
				13:[f3<0.0076923077] yes=23,no=24,missing=23
					23:leaf=-0.0185756497
					24:leaf=0.0259972494
				14:leaf=-0.0855672732
			8:[f1<0.00971571915] yes=15,no=16,missing=15
				15:leaf=0.0526411757
				16:leaf=-0.000753945671
		4:leaf=-0.0995300189
	2:[f8<0.833333373] yes=5,no=6,missing=5
		5:[f1<0.024581939] yes=9,no=10,missing=9
			9:[f6<0.000745378667] yes=17,no=18,missing=17
				17:leaf=-0.038787052
				18:[f0<0.0605536327] yes=25,no=26,missing=25
					25:[f3<0.0076923077] yes=35,no=36,missing=35
						35:leaf=0.0802671015
						36:leaf=0.0114201354
					26:[f6<0.00228582788] yes=37,no=38,missing=37
						37:leaf=-0.0995372534
						38:leaf=0.0486481674
			10:leaf=0.0899744332
		6:[f1<0.0184615385] yes=11,no=12,missing=11
			11:[f6<0.000645994791] yes=19,no=20,missing=19
				19:[f0<0.00865051895] yes=27,no=28,missing=27
					27:[f6<0.000149075728] yes=39,no=40,missing=39
						39:leaf=-0.0107934643
						40:leaf=0.0453231297
					28:[f1<0.0159197338] yes=41,no=42,missing=41
						41:leaf=-0.0166328792
						42:leaf=-0.0728480741
				20:[f0<0.0328719728] yes=29,no=30,missing=29
					29:[f6<0.000745378667] yes=43,no=44,missing=43
						43:leaf=0.0329723991
						44:leaf=0.106311582
					30:[f1<0.0166722406] yes=45,no=46,missing=45
						45:leaf=-0.000514927146
						46:leaf=0.0788422301
			12:[f1<0.019832775] yes=21,no=22,missing=21
				21:[f6<0.00193798449] yes=31,no=32,missing=31
					31:[f0<0.0173010379] yes=47,no=48,missing=47
