booster[0]:
0:[f6<0.00183860073] yes=1,no=2,missing=1
	1:[f6<0.00104353018] yes=3,no=4,missing=3
		3:[f6<0.000745378667] yes=7,no=8,missing=7
			7:leaf=0.280000001
			8:[f0<0.0259515569] yes=13,no=14,missing=13
				13:leaf=-0.264705896
				14:leaf=0.283561647
		4:[f0<0.0363321789] yes=9,no=10,missing=9
			9:leaf=-0.291666687
			10:[f3<0.0076923077] yes=15,no=16,missing=15
				15:leaf=0.269747913
				16:[f0<0.0501730107] yes=21,no=22,missing=21
					21:[f6<0.00144106545] yes=29,no=30,missing=29
						29:leaf=0.24545455
						30:leaf=-0.225000009
					22:leaf=0.253846169
	2:[f0<0.0640138388] yes=5,no=6,missing=5
		5:leaf=-0.298070759
		6:[f6<0.00352812558] yes=11,no=12,missing=11
			11:[f6<0.00293182256] yes=17,no=18,missing=17
				17:[f0<0.0743944645] yes=23,no=24,missing=23
					23:[f6<0.00213675201] yes=31,no=32,missing=31
						31:leaf=0.281818181
						32:leaf=-0.26000002
					24:[f3<0.0230769236] yes=33,no=34,missing=33
						33:leaf=0.252380967
						34:leaf=0.0600000024
				18:[f0<0.102076128] yes=25,no=26,missing=25
					25:leaf=-0.279310375
					26:[f0<0.105536327] yes=35,no=36,missing=35
						35:leaf=0.0600000024
						36:leaf=0.266666681
			12:[f0<0.122837365] yes=19,no=20,missing=19
				19:leaf=-0.293333352
				20:[f6<0.00541641843] yes=27,no=28,missing=27
					27:[f0<0.129757792] yes=37,no=38,missing=37
						37:leaf=-0.0818181857
						38:leaf=0.202040821
					28:[f0<0.202422142] yes=39,no=40,missing=39
						39:leaf=-0.27692309
						40:leaf=-0
booster[1]:
0:[f6<0.00183860073] yes=1,no=2,missing=1
	1:[f6<0.00104353018] yes=3,no=4,missing=3
		3:[f6<0.000745378667] yes=7,no=8,missing=7
			7:leaf=-0.280000001
			8:[f0<0.0259515569] yes=13,no=14,missing=13
				13:leaf=0.264705896
				14:leaf=-0.283561647
		4:[f0<0.0363321789] yes=9,no=10,missing=9
			9:leaf=0.291666687
			10:[f3<0.0076923077] yes=15,no=16,missing=15
				15:leaf=-0.269747913
				16:[f0<0.0501730107] yes=21,no=22,missing=21
					21:[f6<0.00144106545] yes=29,no=30,missing=29
						29:leaf=-0.24545455
						30:leaf=0.225000009
					22:leaf=-0.253846169
	2:[f0<0.0640138388] yes=5,no=6,missing=5
		5:leaf=0.298070759
		6:[f6<0.00352812558] yes=11,no=12,missing=11
			11:[f6<0.00293182256] yes=17,no=18,missing=17
				17:[f0<0.0743944645] yes=23,no=24,missing=23
					23:[f6<0.00213675201] yes=31,no=32,missing=31
						31:leaf=-0.281818181
						32:leaf=0.26000002
					24:[f3<0.0230769236] yes=33,no=34,missing=33
						33:leaf=-0.252380967
						34:leaf=-0.0600000024
				18:[f0<0.102076128] yes=25,no=26,missing=25
					25:leaf=0.279310375
					26:[f0<0.105536327] yes=35,no=36,missing=35
						35:leaf=-0.0600000024
						36:leaf=-0.266666681
			12:[f0<0.122837365] yes=19,no=20,missing=19
				19:leaf=0.293333352
				20:[f6<0.00541641843] yes=27,no=28,missing=27
					27:[f0<0.129757792] yes=37,no=38,missing=37
						37:leaf=0.0818181857
						38:leaf=-0.202040821
					28:[f0<0.202422142] yes=39,no=40,missing=39
						39:leaf=0.27692309
						40:leaf=-0
booster[2]:
0:[f6<0.00183860073] yes=1,no=2,missing=1
	1:[f6<0.00104353018] yes=3,no=4,missing=3
		3:[f6<0.000447227183] yes=7,no=8,missing=7
			7:leaf=0.231738269
			8:[f0<0.0155709349] yes=13,no=14,missing=13
				13:leaf=-0.265900344
				14:leaf=0.215213448
		4:[f0<0.0363321789] yes=9,no=10,missing=9
			9:leaf=-0.226662502
			10:[f6<0.00144106545] yes=15,no=16,missing=15
				15:leaf=0.23056145
				16:[f0<0.0501730107] yes=21,no=22,missing=21
					21:leaf=-0.255301356
					22:leaf=0.22122702
	2:[f0<0.0640138388] yes=5,no=6,missing=5
		5:leaf=-0.231007978
		6:[f6<0.00352812558] yes=11,no=12,missing=11
			11:[f6<0.00293182256] yes=17,no=18,missing=17
				17:[f6<0.002236136] yes=23,no=24,missing=23
					23:leaf=0.212300748
					24:[f0<0.0778546706] yes=31,no=32,missing=31
						31:leaf=-0.211141139
						32:leaf=0.189419135
				18:[f0<0.102076128] yes=25,no=26,missing=25
					25:leaf=-0.218332037
					26:[f0<0.105536327] yes=33,no=34,missing=33
						33:leaf=0.0493192226
						34:leaf=0.20606114
			12:[f0<0.126297578] yes=19,no=20,missing=19
				19:[f0<0.122837365] yes=27,no=28,missing=27
					27:leaf=-0.22779128
					28:[f6<0.00392566063] yes=35,no=36,missing=35
						35:leaf=0.0749943852
						36:leaf=-0.184492469
				20:[f6<0.00482011493] yes=29,no=30,missing=29
					29:[f1<0.0209364556] yes=37,no=38,missing=37
						37:leaf=0.216927573
						38:leaf=0.0247086287
					30:[f0<0.167820066] yes=39,no=40,missing=39
						39:leaf=-0.240651935
						40:leaf=0.0145298764
booster[3]:
0:[f6<0.00183860073] yes=1,no=2,missing=1
	1:[f6<0.00104353018] yes=3,no=4,missing=3
		3:[f6<0.000447227183] yes=7,no=8,missing=7
			7:leaf=-0.231738269
			8:[f0<0.0155709349] yes=13,no=14,missing=13
				13:leaf=0.265900314
				14:leaf=-0.215213448
		4:[f0<0.0363321789] yes=9,no=10,missing=9
			9:leaf=0.226662517
			10:[f6<0.00144106545] yes=15,no=16,missing=15
				15:leaf=-0.23056142
				16:[f0<0.0501730107] yes=21,no=22,missing=21
					21:leaf=0.255301356
					22:leaf=-0.22122702
	2:[f0<0.0640138388] yes=5,no=6,missing=5
		5:leaf=0.231007993
		6:[f6<0.00352812558] yes=11,no=12,missing=11
			11:[f6<0.00293182256] yes=17,no=18,missing=17
				17:[f6<0.002236136] yes=23,no=24,missing=23
					23:leaf=-0.212300748
					24:[f0<0.0778546706] yes=31,no=32,missing=31
						31:leaf=0.211141184
						32:leaf=-0.18941915
				18:[f0<0.102076128] yes=25,no=26,missing=25
					25:leaf=0.218332022
					26:[f0<0.105536327] yes=33,no=34,missing=33
						33:leaf=-0.0493192114
						34:leaf=-0.206061125
			12:[f0<0.126297578] yes=19,no=20,missing=19
				19:[f0<0.122837365] yes=27,no=28,missing=27
					27:leaf=0.227791265
					28:[f6<0.00392566063] yes=35,no=36,missing=35
						35:leaf=-0.0749943778
						36:leaf=0.184492484
				20:[f6<0.00482011493] yes=29,no=30,missing=29
					29:[f1<0.0209364556] yes=37,no=38,missing=37
						37:leaf=-0.216927573
						38:leaf=-0.0247086287
					30:[f0<0.167820066] yes=39,no=40,missing=39
						39:leaf=0.240651935
						40:leaf=-0.0145298764
booster[4]:
0:[f6<0.00183860073] yes=1,no=2,missing=1
	1:[f6<0.00104353018] yes=3,no=4,missing=3
		3:[f6<0.000745378667] yes=7,no=8,missing=7
			7:[f6<0.000447227183] yes=13,no=14,missing=13
				13:leaf=0.199855492
				14:[f0<0.0155709349] yes=23,no=24,missing=23
					23:leaf=-0.228206232
					24:leaf=0.19899492
			8:[f0<0.0259515569] yes=15,no=16,missing=15
				15:leaf=-0.197125569
				16:leaf=0.187862754
		4:[f0<0.0363321789] yes=9,no=10,missing=9
			9:leaf=-0.19595322
			10:[f6<0.00144106545] yes=17,no=18,missing=17
				17:leaf=0.197923943
				18:[f0<0.0501730107] yes=25,no=26,missing=25
					25:leaf=-0.204910412
					26:leaf=0.188156009
	2:[f0<0.0640138388] yes=5,no=6,missing=5
		5:leaf=-0.200369135
		6:[f6<0.00352812558] yes=11,no=12,missing=11
			11:[f6<0.00253428752] yes=19,no=20,missing=19
				19:[f0<0.0743944645] yes=27,no=28,missing=27
					27:[f6<0.00213675201] yes=33,no=34,missing=33
						33:leaf=0.190307215
						34:leaf=-0.169236541
					28:leaf=0.196767986
				20:[f0<0.0882352889] yes=29,no=30,missing=29
					29:leaf=-0.213172346
					30:[f1<0.00627090316] yes=35,no=36,missing=35
						35:leaf=-0.00290579908
						36:leaf=0.14090547
			12:[f0<0.122837365] yes=21,no=22,missing=21
				21:leaf=-0.197089151
				22:[f6<0.0053170342] yes=31,no=32,missing=31
					31:[f0<0.129757792] yes=37,no=38,missing=37
						37:leaf=-0.0497838818
						38:leaf=0.136658639
					32:[f0<0.202422142] yes=39,no=40,missing=39
						39:leaf=-0.184857011
						40:leaf=-0.0038750926
booster[5]:
0:[f6<0.00183860073] yes=1,no=2,missing=1
	1:[f6<0.00104353018] yes=3,no=4,missing=3
		3:[f6<0.000745378667] yes=7,no=8,missing=7
			7:[f6<0.000447227183] yes=13,no=14,missing=13
				13:leaf=-0.199855477
				14:[f0<0.0155709349] yes=23,no=24,missing=23
					23:leaf=0.228206247
					24:leaf=-0.19899492
			8:[f0<0.0259515569] yes=15,no=16,missing=15
				15:leaf=0.197125569
				16:leaf=-0.187862739
		4:[f0<0.0363321789] yes=9,no=10,missing=9
			9:leaf=0.195953235
			10:[f6<0.00144106545] yes=17,no=18,missing=17
				17:leaf=-0.197923928
				18:[f0<0.0501730107] yes=25,no=26,missing=25
					25:leaf=0.204910412
					26:leaf=-0.188156009
	2:[f0<0.0640138388] yes=5,no=6,missing=5
		5:leaf=0.200369135
		6:[f6<0.00352812558] yes=11,no=12,missing=11
			11:[f6<0.00253428752] yes=19,no=20,missing=19
				19:[f0<0.0743944645] yes=27,no=28,missing=27
					27:[f6<0.00213675201] yes=33,no=34,missing=33
						33:leaf=-0.190307185
						34:leaf=0.169236556
					28:leaf=-0.196767986
				20:[f0<0.0882352889] yes=29,no=30,missing=29
					29:leaf=0.213172361
					30:[f1<0.00627090316] yes=35,no=36,missing=35
						35:leaf=0.00290581514
						36:leaf=-0.140905455
			12:[f0<0.122837365] yes=21,no=22,missing=21
				21:leaf=0.19708918
				22:[f6<0.0053170342] yes=31,no=32,missing=31
					31:[f0<0.129757792] yes=37,no=38,missing=37
						37:leaf=0.0497838855
						38:leaf=-0.136658639
					32:[f0<0.202422142] yes=39,no=40,missing=39
						39:leaf=0.184857011
						40:leaf=0.0038750926
booster[6]:
0:[f6<0.00183860073] yes=1,no=2,missing=1
	1:[f6<0.000944146304] yes=3,no=4,missing=3
		3:[f3<0.0076923077] yes=7,no=8,missing=7
			7:[f6<0.000844762428] yes=13,no=14,missing=13
				13:leaf=0.172145069
				14:[f0<0.0242214538] yes=23,no=24,missing=23
					23:leaf=-0.109023005
					24:leaf=0.155787334
			8:[f6<0.000447227183] yes=15,no=16,missing=15
				15:leaf=0.160497189
				16:[f0<0.0155709349] yes=25,no=26,missing=25
					25:leaf=-0.162755057
					26:[f1<0.0102006691] yes=35,no=36,missing=35
						35:leaf=0.161287487
						36:leaf=0.027146956
		4:[f0<0.0328719728] yes=9,no=10,missing=9
			9:leaf=-0.187877268
			10:[f6<0.00144106545] yes=17,no=18,missing=17
				17:leaf=0.17745167
				18:[f0<0.0501730107] yes=27,no=28,missing=27
					27:leaf=-0.176743031
					28:leaf=0.16740039
	2:[f0<0.0640138388] yes=5,no=6,missing=5
		5:leaf=-0.182939842
		6:[f6<0.0038262771] yes=11,no=12,missing=11
			11:[f0<0.105536327] yes=19,no=20,missing=19
				19:[f6<0.00303120655] yes=29,no=30,missing=29
					29:[f6<0.00213675201] yes=37,no=38,missing=37
						37:leaf=0.171091452
						38:leaf=0.071934402
					30:leaf=-0.189473286
				20:[f1<0.0167558528] yes=31,no=32,missing=31
					31:[f5<0.994782627] yes=39,no=40,missing=39
						39:leaf=0.0416305289
						40:leaf=0.166485652
					32:leaf=0.0518455394
			12:[f0<0.13321799] yes=21,no=22,missing=21
				21:leaf=-0.189802468
				22:[f6<0.0053170342] yes=33,no=34,missing=33
					33:[f3<0.0230769236] yes=41,no=42,missing=41
						41:leaf=0.135847524
						42:leaf=-0.0256826393
					34:[f0<0.202422142] yes=43,no=44,missing=43
						43:leaf=-0.156357139
						44:leaf=-0.00284144143
booster[7]:
0:[f6<0.00183860073] yes=1,no=2,missing=1
	1:[f6<0.000944146304] yes=3,no=4,missing=3
		3:[f3<0.0076923077] yes=7,no=8,missing=7
			7:[f6<0.000844762428] yes=13,no=14,missing=13
				13:leaf=-0.172145069
				14:[f0<0.0242214538] yes=23,no=24,missing=23
					23:leaf=0.109023005
					24:leaf=-0.155787349
			8:[f6<0.000447227183] yes=15,no=16,missing=15
				15:leaf=-0.160497189
				16:[f0<0.0155709349] yes=25,no=26,missing=25
					25:leaf=0.162755057
					26:[f1<0.0102006691] yes=35,no=36,missing=35
						35:leaf=-0.161287487
						36:leaf=-0.0271469578
		4:[f0<0.0328719728] yes=9,no=10,missing=9
			9:leaf=0.187877268
			10:[f6<0.00144106545] yes=17,no=18,missing=17
				17:leaf=-0.17745167
				18:[f0<0.0501730107] yes=27,no=28,missing=27
					27:leaf=0.176743031
					28:leaf=-0.167400405
	2:[f0<0.0640138388] yes=5,no=6,missing=5
		5:leaf=0.182939842
		6:[f6<0.0038262771] yes=11,no=12,missing=11
			11:[f0<0.105536327] yes=19,no=20,missing=19
				19:[f6<0.00303120655] yes=29,no=30,missing=29
					29:[f6<0.00213675201] yes=37,no=38,missing=37
						37:leaf=-0.171091437
						38:leaf=-0.0719344094
					30:leaf=0.189473286
				20:[f1<0.0167558528] yes=31,no=32,missing=31
					31:[f5<0.994782627] yes=39,no=40,missing=39
						39:leaf=-0.0416305363
						40:leaf=-0.166485652
					32:leaf=-0.0518455431
			12:[f0<0.13321799] yes=21,no=22,missing=21
				21:leaf=0.189802468
				22:[f6<0.0053170342] yes=33,no=34,missing=33
					33:[f3<0.0230769236] yes=41,no=42,missing=41
						41:leaf=-0.135847524
						42:leaf=0.0256826375
					34:[f0<0.202422142] yes=43,no=44,missing=43
						43:leaf=0.156357139
						44:leaf=0.00284146518
booster[8]:
0:[f6<0.00183860073] yes=1,no=2,missing=1
	1:[f6<0.000944146304] yes=3,no=4,missing=3
		3:[f6<0.000447227183] yes=7,no=8,missing=7
			7:leaf=0.170341805
			8:[f0<0.0155709349] yes=13,no=14,missing=13
				13:leaf=-0.185466394
				14:leaf=0.160423517
		4:[f0<0.0328719728] yes=9,no=10,missing=9
			9:leaf=-0.175073847
			10:[f6<0.00144106545] yes=15,no=16,missing=15
				15:leaf=0.163138524
				16:[f0<0.0501730107] yes=21,no=22,missing=21
					21:leaf=-0.157164201
					22:[f6<0.00173921685] yes=29,no=30,missing=29
						29:leaf=0.165679693
						30:leaf=0.0810168386
	2:[f0<0.0640138388] yes=5,no=6,missing=5
		5:leaf=-0.171862483
		6:[f6<0.0038262771] yes=11,no=12,missing=11
			11:[f6<0.00253428752] yes=17,no=18,missing=17
				17:[f0<0.0743944645] yes=23,no=24,missing=23
					23:[f6<0.00213675201] yes=31,no=32,missing=31
						31:leaf=0.157502025
						32:leaf=-0.157098413
					24:leaf=0.168314815
				18:[f0<0.0882352889] yes=25,no=26,missing=25
					25:leaf=-0.189350575
					26:[f0<0.105536327] yes=33,no=34,missing=33
						33:leaf=0.0330364518
						34:leaf=0.129027262
			12:[f0<0.13321799] yes=19,no=20,missing=19
				19:leaf=-0.176180273
				20:[f6<0.00710594282] yes=27,no=28,missing=27
					27:[f0<0.150519028] yes=35,no=36,missing=35
						35:leaf=-0.0483216532
						36:leaf=0.101904035
					28:[f0<0.245674744] yes=37,no=38,missing=37
						37:leaf=-0.184311539
						38:leaf=-0.0445333496
booster[9]:
0:[f6<0.00183860073] yes=1,no=2,missing=1
	1:[f6<0.000944146304] yes=3,no=4,missing=3
		3:[f6<0.000447227183] yes=7,no=8,missing=7
			7:leaf=-0.17034179
			8:[f0<0.0155709349] yes=13,no=14,missing=13
				13:leaf=0.185466394
				14:leaf=-0.160423517
		4:[f0<0.0328719728] yes=9,no=10,missing=9
			9:leaf=0.175073847
			10:[f6<0.00144106545] yes=15,no=16,missing=15
				15:leaf=-0.163138524
				16:[f0<0.0501730107] yes=21,no=22,missing=21
					21:leaf=0.157164201
					22:[f6<0.00173921685] yes=29,no=30,missing=29
						29:leaf=-0.165679693
						30:leaf=-0.0810168311
	2:[f0<0.0640138388] yes=5,no=6,missing=5
		5:leaf=0.171862483
		6:[f6<0.0038262771] yes=11,no=12,missing=11
			11:[f6<0.00253428752] yes=17,no=18,missing=17
				17:[f0<0.0743944645] yes=23,no=24,missing=23
					23:[f6<0.00213675201] yes=31,no=32,missing=31
						31:leaf=-0.15750204
						32:leaf=0.157098413
					24:leaf=-0.168314815
				18:[f0<0.0882352889] yes=25,no=26,missing=25
					25:leaf=0.189350575
					26:[f0<0.105536327] yes=33,no=34,missing=33
						33:leaf=-0.0330364443
						34:leaf=-0.129027277
			12:[f0<0.13321799] yes=19,no=20,missing=19
				19:leaf=0.176180273
				20:[f6<0.00710594282] yes=27,no=28,missing=27
					27:[f0<0.150519028] yes=35,no=36,missing=35
						35:leaf=0.0483216532
						36:leaf=-0.101904035
					28:[f0<0.245674744] yes=37,no=38,missing=37
						37:leaf=0.184311539
						38:leaf=0.0445333384
booster[10]:
0:[f6<0.00183860073] yes=1,no=2,missing=1
	1:[f6<0.000745378667] yes=3,no=4,missing=3
		3:[f6<0.000447227183] yes=7,no=8,missing=7
			7:leaf=0.161714405
			8:[f0<0.0155709349] yes=13,no=14,missing=13
				13:leaf=-0.161235809
				14:leaf=0.159198567
		4:[f0<0.0259515569] yes=9,no=10,missing=9
			9:leaf=-0.164525211
			10:[f6<0.00144106545] yes=15,no=16,missing=15
				15:[f0<0.0294117648] yes=21,no=22,missing=21
					21:[f6<0.000894454366] yes=29,no=30,missing=29
						29:leaf=0.141851962
						30:leaf=-0.144518718
					22:leaf=0.152434751
				16:[f0<0.0501730107] yes=23,no=24,missing=23
					23:leaf=-0.146526858
					24:[f6<0.00173921685] yes=31,no=32,missing=31
						31:leaf=0.155495673
						32:leaf=0.0686349794
	2:[f0<0.0640138388] yes=5,no=6,missing=5
		5:leaf=-0.164265871
		6:[f6<0.00293182256] yes=11,no=12,missing=11
			11:[f0<0.0916955024] yes=17,no=18,missing=17
				17:[f6<0.00263367128] yes=25,no=26,missing=25
					25:[f1<0.0155016724] yes=33,no=34,missing=33
						33:leaf=0.105587624
						34:leaf=-0.0281803552
					26:leaf=-0.251053423
				18:leaf=0.162386104
			12:[f0<0.102076128] yes=19,no=20,missing=19
				19:leaf=-0.166673616
				20:[f6<0.00482011493] yes=27,no=28,missing=27
					27:[f6<0.00332935806] yes=35,no=36,missing=35
						35:leaf=0.15736796
						36:leaf=0.0271150731
					28:[f0<0.167820066] yes=37,no=38,missing=37
						37:leaf=-0.190314397
						38:leaf=0.0140476273
booster[11]:
0:[f6<0.00183860073] yes=1,no=2,missing=1
	1:[f6<0.000745378667] yes=3,no=4,missing=3
		3:[f6<0.000447227183] yes=7,no=8,missing=7
			7:leaf=-0.161714405
			8:[f0<0.0155709349] yes=13,no=14,missing=13
				13:leaf=0.161235809
				14:leaf=-0.159198552
		4:[f0<0.0259515569] yes=9,no=10,missing=9
			9:leaf=0.164525226
			10:[f6<0.00144106545] yes=15,no=16,missing=15
				15:[f0<0.0294117648] yes=21,no=22,missing=21
					21:[f6<0.000894454366] yes=29,no=30,missing=29
						29:leaf=-0.141851962
						30:leaf=0.144518718
					22:leaf=-0.152434751
				16:[f0<0.0501730107] yes=23,no=24,missing=23
					23:leaf=0.146526873
					24:[f6<0.00173921685] yes=31,no=32,missing=31
						31:leaf=-0.155495659
						32:leaf=-0.068634972
	2:[f0<0.0640138388] yes=5,no=6,missing=5
		5:leaf=0.164265871
		6:[f6<0.00293182256] yes=11,no=12,missing=11
			11:[f0<0.0916955024] yes=17,no=18,missing=17
				17:[f6<0.00263367128] yes=25,no=26,missing=25
					25:[f1<0.0155016724] yes=33,no=34,missing=33
						33:leaf=-0.105587624
						34:leaf=0.028180344
					26:leaf=0.251053452
				18:leaf=-0.162386104
			12:[f0<0.102076128] yes=19,no=20,missing=19
				19:leaf=0.166673616
				20:[f6<0.00482011493] yes=27,no=28,missing=27
					27:[f6<0.00332935806] yes=35,no=36,missing=35
						35:leaf=-0.157367945
						36:leaf=-0.0271150675
					28:[f0<0.167820066] yes=37,no=38,missing=37
						37:leaf=0.190314397
						38:leaf=-0.014047632
booster[12]:
0:[f6<0.00203736825] yes=1,no=2,missing=1
	1:[f6<0.000745378667] yes=3,no=4,missing=3
		3:[f6<0.000447227183] yes=7,no=8,missing=7
			7:leaf=0.155040786
			8:[f0<0.0155709349] yes=13,no=14,missing=13
				13:leaf=-0.141267419
				14:leaf=0.151490003
		4:[f0<0.0259515569] yes=9,no=10,missing=9
			9:leaf=-0.156534493
			10:[f6<0.00144106545] yes=15,no=16,missing=15
				15:[f0<0.0294117648] yes=21,no=22,missing=21
					21:[f1<0.00471571926] yes=33,no=34,missing=33
						33:leaf=-0.0325170532
						34:leaf=0.101227075
					22:leaf=0.141310781
				16:[f0<0.0501730107] yes=23,no=24,missing=23
					23:leaf=-0.141306818
					24:[f6<0.00173921685] yes=35,no=36,missing=35
						35:leaf=0.147113144
						36:leaf=0.0886306241
	2:[f0<0.070934251] yes=5,no=6,missing=5
		5:leaf=-0.161189318
		6:[f6<0.0032299743] yes=11,no=12,missing=11
			11:[f0<0.0951557159] yes=17,no=18,missing=17
				17:[f6<0.00273305504] yes=25,no=26,missing=25
					25:[f0<0.0743944645] yes=37,no=38,missing=37
						37:leaf=-0.00925696827
						38:leaf=0.0983008221
					26:leaf=-0.166960418
				18:[f1<0.00645484962] yes=27,no=28,missing=27
					27:leaf=0.0398067422
					28:leaf=0.141281381
			12:[f0<0.115916952] yes=19,no=20,missing=19
				19:[f6<0.00332935806] yes=29,no=30,missing=29
					29:leaf=0.00994515885
					30:leaf=-0.180593699
				20:[f6<0.00482011493] yes=31,no=32,missing=31
					31:[f0<0.126297578] yes=39,no=40,missing=39
						39:leaf=0.0102261975
						40:leaf=0.118540756
					32:[f0<0.167820066] yes=41,no=42,missing=41
						41:leaf=-0.179024786
						42:leaf=0.0101186242
booster[13]:
0:[f6<0.00203736825] yes=1,no=2,missing=1
	1:[f6<0.000745378667] yes=3,no=4,missing=3
		3:[f6<0.000447227183] yes=7,no=8,missing=7
			7:leaf=-0.155040786
			8:[f0<0.0155709349] yes=13,no=14,missing=13
				13:leaf=0.141267419
				14:leaf=-0.151490003
		4:[f0<0.0259515569] yes=9,no=10,missing=9
			9:leaf=0.156534493
			10:[f6<0.00144106545] yes=15,no=16,missing=15
				15:[f0<0.0294117648] yes=21,no=22,missing=21
					21:[f1<0.00471571926] yes=33,no=34,missing=33
						33:leaf=0.0325170383
						34:leaf=-0.101227097
					22:leaf=-0.141310781
				16:[f0<0.0501730107] yes=23,no=24,missing=23
					23:leaf=0.141306818
					24:[f6<0.00173921685] yes=35,no=36,missing=35
						35:leaf=-0.147113144
						36:leaf=-0.0886305869
	2:[f0<0.070934251] yes=5,no=6,missing=5
		5:leaf=0.161189318
		6:[f6<0.0032299743] yes=11,no=12,missing=11
			11:[f0<0.0951557159] yes=17,no=18,missing=17
				17:[f6<0.00273305504] yes=25,no=26,missing=25
					25:[f0<0.0743944645] yes=37,no=38,missing=37
						37:leaf=0.00925702043
						38:leaf=-0.0983008221
					26:leaf=0.166960418
				18:[f1<0.00645484962] yes=27,no=28,missing=27
					27:leaf=-0.0398067497
					28:leaf=-0.141281381
			12:[f0<0.115916952] yes=19,no=20,missing=19
				19:[f6<0.00332935806] yes=29,no=30,missing=29
					29:leaf=-0.00994516537
					30:leaf=0.180593699
				20:[f6<0.00482011493] yes=31,no=32,missing=31
					31:[f0<0.126297578] yes=39,no=40,missing=39
						39:leaf=-0.0102261947
						40:leaf=-0.118540742
					32:[f0<0.167820066] yes=41,no=42,missing=41
						41:leaf=0.179024756
						42:leaf=-0.010118613
booster[14]:
0:[f6<0.00213675201] yes=1,no=2,missing=1
	1:[f6<0.000944146304] yes=3,no=4,missing=3
		3:[f6<0.000447227183] yes=7,no=8,missing=7
			7:leaf=0.149400592
			8:[f0<0.0155709349] yes=13,no=14,missing=13
				13:leaf=-0.135450065
				14:leaf=0.134091526
		4:[f0<0.0328719728] yes=9,no=10,missing=9
			9:leaf=-0.154905513
			10:[f6<0.00144106545] yes=15,no=16,missing=15
				15:leaf=0.130416065
				16:[f0<0.0501730107] yes=21,no=22,missing=21
					21:leaf=-0.130075604
					22:[f1<0.00812708959] yes=29,no=30,missing=29
						29:leaf=0.057651028
						30:leaf=0.130702972
	2:[f0<0.0743944645] yes=5,no=6,missing=5
		5:leaf=-0.157396793
		6:[f6<0.0032299743] yes=11,no=12,missing=11
			11:[f6<0.00253428752] yes=17,no=18,missing=17
				17:leaf=0.141630381
				18:[f0<0.0882352889] yes=23,no=24,missing=23
					23:leaf=-0.18566072
					24:[f1<0.00595317734] yes=31,no=32,missing=31
						31:leaf=-0.0399799012
						32:leaf=0.112982541
			12:[f0<0.115916952] yes=19,no=20,missing=19
				19:[f6<0.00332935806] yes=25,no=26,missing=25
					25:leaf=0.0080917934
					26:leaf=-0.173660845
				20:[f6<0.00710594282] yes=27,no=28,missing=27
					27:[f1<0.00481605344] yes=33,no=34,missing=33
						33:leaf=-0.0843842477
						34:leaf=0.0591117814
					28:[f6<0.00899423566] yes=35,no=36,missing=35
						35:leaf=-0.0482054055
						36:leaf=-0.185485512
booster[15]:
0:[f6<0.00213675201] yes=1,no=2,missing=1
	1:[f6<0.000944146304] yes=3,no=4,missing=3
		3:[f6<0.000447227183] yes=7,no=8,missing=7
			7:leaf=-0.149400562
			8:[f0<0.0155709349] yes=13,no=14,missing=13
				13:leaf=0.135450065
				14:leaf=-0.134091526
		4:[f0<0.0328719728] yes=9,no=10,missing=9
			9:leaf=0.154905513
			10:[f6<0.00144106545] yes=15,no=16,missing=15
				15:leaf=-0.130416065
				16:[f0<0.0501730107] yes=21,no=22,missing=21
					21:leaf=0.130075604
					22:[f1<0.00812708959] yes=29,no=30,missing=29
						29:leaf=-0.0576509908
						30:leaf=-0.130702958
	2:[f0<0.0743944645] yes=5,no=6,missing=5
		5:leaf=0.157396793
		6:[f6<0.0032299743] yes=11,no=12,missing=11
			11:[f6<0.00253428752] yes=17,no=18,missing=17
				17:leaf=-0.141630381
				18:[f0<0.0882352889] yes=23,no=24,missing=23
					23:leaf=0.18566072
					24:[f1<0.00595317734] yes=31,no=32,missing=31
						31:leaf=0.0399799123
						32:leaf=-0.112982534
			12:[f0<0.115916952] yes=19,no=20,missing=19
				19:[f6<0.00332935806] yes=25,no=26,missing=25
					25:leaf=-0.00809179898
					26:leaf=0.173660845
				20:[f6<0.00710594282] yes=27,no=28,missing=27
					27:[f1<0.00481605344] yes=33,no=34,missing=33
						33:leaf=0.0843842626
						34:leaf=-0.0591117702
					28:[f6<0.00899423566] yes=35,no=36,missing=35
						35:leaf=0.0482054055
						36:leaf=0.185485527
booster[16]:
0:[f6<0.00173921685] yes=1,no=2,missing=1
	1:[f6<0.000745378667] yes=3,no=4,missing=3
		3:[f6<0.000447227183] yes=7,no=8,missing=7
			7:leaf=0.144205704
			8:[f0<0.0155709349] yes=13,no=14,missing=13
				13:leaf=-0.112658568
				14:leaf=0.138865143
		4:[f0<0.0259515569] yes=9,no=10,missing=9
			9:leaf=-0.145808697
			10:[f6<0.0012422977] yes=15,no=16,missing=15
				15:[f1<0.00394648826] yes=21,no=22,missing=21
					21:[f0<0.0294117648] yes=31,no=32,missing=31
						31:leaf=-0.0292037167
						32:leaf=0.0921910703
					22:leaf=0.138229981
				16:[f0<0.041522488] yes=23,no=24,missing=23
					23:leaf=-0.133828685
					24:[f0<0.0501730107] yes=33,no=34,missing=33
						33:leaf=0.0637652725
						34:leaf=0.13450183
	2:[f0<0.0605536327] yes=5,no=6,missing=5
		5:leaf=-0.160495117
		6:[f6<0.00253428752] yes=11,no=12,missing=11
			11:[f6<0.00213675201] yes=17,no=18,missing=17
				17:[f3<0.0076923077] yes=25,no=26,missing=25
					25:leaf=0.137615696
					26:leaf=0.0319068916
				18:[f0<0.0743944645] yes=27,no=28,missing=27
					27:leaf=-0.123074211
					28:leaf=0.132471204
			12:[f0<0.0882352889] yes=19,no=20,missing=19
				19:leaf=-0.160187155
				20:[f6<0.00899423566] yes=29,no=30,missing=29
					29:[f1<0.00627090316] yes=35,no=36,missing=35
						35:leaf=-0.060709361
						36:leaf=0.0290862471
					30:leaf=-0.160440132
booster[17]:
0:[f6<0.00173921685] yes=1,no=2,missing=1
	1:[f6<0.000745378667] yes=3,no=4,missing=3
		3:[f6<0.000447227183] yes=7,no=8,missing=7
			7:leaf=-0.144205719
			8:[f0<0.0155709349] yes=13,no=14,missing=13
				13:leaf=0.112658568
				14:leaf=-0.138865158
		4:[f0<0.0259515569] yes=9,no=10,missing=9
			9:leaf=0.145808697
			10:[f6<0.0012422977] yes=15,no=16,missing=15
				15:[f1<0.00394648826] yes=21,no=22,missing=21
					21:[f0<0.0294117648] yes=31,no=32,missing=31
						31:leaf=0.0292036925
						32:leaf=-0.0921910852
					22:leaf=-0.138229966
				16:[f0<0.041522488] yes=23,no=24,missing=23
					23:leaf=0.133828685
					24:[f0<0.0501730107] yes=33,no=34,missing=33
						33:leaf=-0.0637652054
						34:leaf=-0.134501845
	2:[f0<0.0605536327] yes=5,no=6,missing=5
		5:leaf=0.160495117
		6:[f6<0.00253428752] yes=11,no=12,missing=11
			11:[f6<0.00213675201] yes=17,no=18,missing=17
				17:[f3<0.0076923077] yes=25,no=26,missing=25
					25:leaf=-0.137615681
					26:leaf=-0.0319068767
				18:[f0<0.0743944645] yes=27,no=28,missing=27
					27:leaf=0.123074204
					28:leaf=-0.132471204
			12:[f0<0.0882352889] yes=19,no=20,missing=19
				19:leaf=0.160187155
				20:[f6<0.00899423566] yes=29,no=30,missing=29
					29:[f1<0.00627090316] yes=35,no=36,missing=35
						35:leaf=0.0607093535
						36:leaf=-0.0290862508
					30:leaf=0.160440132
booster[18]:
0:[f6<0.0012422977] yes=1,no=2,missing=1
	1:[f6<0.000447227183] yes=3,no=4,missing=3
		3:leaf=0.139058605
		4:[f0<0.0155709349] yes=7,no=8,missing=7
			7:leaf=-0.124952339
			8:[f1<0.00558528397] yes=11,no=12,missing=11
				11:[f6<0.000844762428] yes=17,no=18,missing=17
					17:leaf=0.0978690609
					18:[f0<0.0294117648] yes=29,no=30,missing=29
						29:leaf=-0.122067742
						30:leaf=0.089724794
				12:[f3<0.0076923077] yes=19,no=20,missing=19
					19:leaf=0.130626351
					20:[f0<0.0259515569] yes=31,no=32,missing=31
						31:leaf=-0.0040941448
						32:leaf=0.0854767859
	2:[f0<0.0432525948] yes=5,no=6,missing=5
		5:leaf=-0.150401548
		6:[f6<0.0032299743] yes=9,no=10,missing=9
			9:[f6<0.00173921685] yes=13,no=14,missing=13
				13:[f0<0.0501730107] yes=21,no=22,missing=21
					21:[f6<0.00144106545] yes=33,no=34,missing=33
						33:leaf=0.114525564
						34:leaf=-0.0864013061
					22:leaf=0.127346724
				14:[f0<0.0605536327] yes=23,no=24,missing=23
					23:leaf=-0.178969562
					24:[f6<0.00213675201] yes=35,no=36,missing=35
						35:leaf=0.117707305
						36:leaf=0.0242437478
			10:[f0<0.115916952] yes=15,no=16,missing=15
				15:[f6<0.00332935806] yes=25,no=26,missing=25
					25:leaf=-0.00348629709
					26:leaf=-0.164468646
				16:[f6<0.0038262771] yes=27,no=28,missing=27
					27:[f1<0.0167558528] yes=37,no=38,missing=37
						37:leaf=0.150176227
						38:leaf=-0.0233290214
					28:[f0<0.13321799] yes=39,no=40,missing=39
						39:leaf=-0.165022999
						40:leaf=0.00881003402
booster[19]:
0:[f6<0.0012422977] yes=1,no=2,missing=1
	1:[f6<0.000447227183] yes=3,no=4,missing=3
		3:leaf=-0.13905859
		4:[f0<0.0155709349] yes=7,no=8,missing=7
			7:leaf=0.124952354
			8:[f1<0.00558528397] yes=11,no=12,missing=11
				11:[f6<0.000844762428] yes=17,no=18,missing=17
					17:leaf=-0.097869046
					18:[f0<0.0294117648] yes=29,no=30,missing=29
						29:leaf=0.122067742
						30:leaf=-0.0897248015
				12:[f3<0.0076923077] yes=19,no=20,missing=19
					19:leaf=-0.130626336
					20:[f0<0.0259515569] yes=31,no=32,missing=31
						31:leaf=0.00409415131
						32:leaf=-0.0854768082
	2:[f0<0.0432525948] yes=5,no=6,missing=5
		5:leaf=0.150401548
		6:[f6<0.0032299743] yes=9,no=10,missing=9
			9:[f6<0.00173921685] yes=13,no=14,missing=13
				13:[f0<0.0501730107] yes=21,no=22,missing=21
					21:[f6<0.00144106545] yes=33,no=34,missing=33
						33:leaf=-0.114525601
						34:leaf=0.0864012837
					22:leaf=-0.127346754
				14:[f0<0.0605536327] yes=23,no=24,missing=23
					23:leaf=0.178969562
					24:[f6<0.00213675201] yes=35,no=36,missing=35
						35:leaf=-0.117707297
						36:leaf=-0.0242437441
			10:[f0<0.115916952] yes=15,no=16,missing=15
				15:[f6<0.00332935806] yes=25,no=26,missing=25
					25:leaf=0.00348635111
					26:leaf=0.164468646
				16:[f6<0.0038262771] yes=27,no=28,missing=27
					27:[f1<0.0167558528] yes=37,no=38,missing=37
						37:leaf=-0.150176227
						38:leaf=0.0233290214
					28:[f0<0.13321799] yes=39,no=40,missing=39
						39:leaf=0.165023029
						40:leaf=-0.00881002471
booster[20]:
0:[f6<0.000944146304] yes=1,no=2,missing=1
	1:[f6<0.000447227183] yes=3,no=4,missing=3
		3:leaf=0.1336914
		4:[f0<0.0155709349] yes=7,no=8,missing=7
			7:leaf=-0.103597537
			8:leaf=0.110774152
	2:[f0<0.0328719728] yes=5,no=6,missing=5
		5:leaf=-0.146772042
		6:[f6<0.00173921685] yes=9,no=10,missing=9
			9:[f0<0.0363321789] yes=11,no=12,missing=11
				11:leaf=0.0304415319
				12:[f6<0.00144106545] yes=15,no=16,missing=15
					15:leaf=0.126000121
					16:[f0<0.0501730107] yes=19,no=20,missing=19
						19:leaf=-0.0871054679
						20:leaf=0.120115206
			10:[f0<0.0605536327] yes=13,no=14,missing=13
				13:leaf=-0.161796167
				14:[f6<0.00611210521] yes=17,no=18,missing=17
					17:[f0<0.15743944] yes=21,no=22,missing=21
						21:leaf=-0.00657263538
						22:leaf=0.0988757312
					18:[f0<0.216262966] yes=23,no=24,missing=23
						23:leaf=-0.170431107
						24:leaf=0.018224312
booster[21]:
0:[f6<0.000944146304] yes=1,no=2,missing=1
	1:[f6<0.000447227183] yes=3,no=4,missing=3
		3:leaf=-0.133691385
		4:[f0<0.0155709349] yes=7,no=8,missing=7
			7:leaf=0.103597544
			8:leaf=-0.110774167
	2:[f0<0.0328719728] yes=5,no=6,missing=5
		5:leaf=0.146772027
		6:[f6<0.00173921685] yes=9,no=10,missing=9
			9:[f0<0.0363321789] yes=11,no=12,missing=11
				11:leaf=-0.0304415338
				12:[f6<0.00144106545] yes=15,no=16,missing=15
					15:leaf=-0.126000136
					16:[f0<0.0501730107] yes=19,no=20,missing=19
						19:leaf=0.0871054456
						20:leaf=-0.120115228
			10:[f0<0.0605536327] yes=13,no=14,missing=13
				13:leaf=0.161796167
				14:[f6<0.00611210521] yes=17,no=18,missing=17
					17:[f0<0.15743944] yes=21,no=22,missing=21
						21:leaf=0.00657264329
						22:leaf=-0.0988757387
					18:[f0<0.216262966] yes=23,no=24,missing=23
						23:leaf=0.170431107
						24:leaf=-0.0182243027
booster[22]:
0:[f6<0.0012422977] yes=1,no=2,missing=1
	1:[f6<0.000745378667] yes=3,no=4,missing=3
		3:leaf=0.110172965
		4:[f0<0.0259515569] yes=7,no=8,missing=7
			7:leaf=-0.124790855
			8:[f0<0.0294117648] yes=11,no=12,missing=11
				11:leaf=0.0346548036
				12:leaf=0.124896504
	2:[f0<0.0432525948] yes=5,no=6,missing=5
		5:leaf=-0.143894285
		6:[f6<0.00412442815] yes=9,no=10,missing=9
			9:[f0<0.126297578] yes=13,no=14,missing=13
				13:[f6<0.00362750934] yes=17,no=18,missing=17
					17:[f3<0.0230769236] yes=23,no=24,missing=23
						23:leaf=0.0359483249
						24:leaf=-0.0669172928
					18:leaf=-0.129369289
				14:leaf=0.136996165
			10:[f0<0.150519028] yes=15,no=16,missing=15
				15:[f6<0.00442257989] yes=19,no=20,missing=19
					19:leaf=-0.049006246
					20:leaf=-0.182749897
				16:[f6<0.00710594282] yes=21,no=22,missing=21
					21:[f3<0.0230769236] yes=25,no=26,missing=25
						25:leaf=0.0775526464
						26:leaf=-0.0695070773
					22:[f1<0.0084615387] yes=27,no=28,missing=27
						27:leaf=-0.154550031
						28:leaf=0.0105493367
booster[23]:
0:[f6<0.0012422977] yes=1,no=2,missing=1
	1:[f6<0.000745378667] yes=3,no=4,missing=3
		3:leaf=-0.110172994
		4:[f0<0.0259515569] yes=7,no=8,missing=7
			7:leaf=0.124790855
			8:[f0<0.0294117648] yes=11,no=12,missing=11
				11:leaf=-0.034654744
				12:leaf=-0.124896489
	2:[f0<0.0432525948] yes=5,no=6,missing=5
		5:leaf=0.143894255
		6:[f6<0.00412442815] yes=9,no=10,missing=9
			9:[f0<0.126297578] yes=13,no=14,missing=13
				13:[f6<0.00362750934] yes=17,no=18,missing=17
					17:[f3<0.0230769236] yes=23,no=24,missing=23
						23:leaf=-0.0359483175
						24:leaf=0.0669172928
					18:leaf=0.129369289
				14:leaf=-0.13699615
			10:[f0<0.150519028] yes=15,no=16,missing=15
				15:[f6<0.00442257989] yes=19,no=20,missing=19
					19:leaf=0.0490062535
					20:leaf=0.182749897
				16:[f6<0.00710594282] yes=21,no=22,missing=21
					21:[f3<0.0230769236] yes=25,no=26,missing=25
						25:leaf=-0.0775526315
						26:leaf=0.0695070773
					22:[f1<0.0084615387] yes=27,no=28,missing=27
						27:leaf=0.154550031
						28:leaf=-0.0105493609
booster[24]:
0:[f6<0.00213675201] yes=1,no=2,missing=1
	1:[f1<0.00802675635] yes=3,no=4,missing=3
		3:[f1<0.00663879607] yes=7,no=8,missing=7
			7:[f0<0.0294117648] yes=13,no=14,missing=13
				13:[f6<0.000844762428] yes=19,no=20,missing=19
					19:[f0<0.0155709349] yes=27,no=28,missing=27
						27:leaf=0.0183290355
						28:leaf=0.0942701772
					20:leaf=-0.121586442
				14:[f3<0.0076923077] yes=21,no=22,missing=21
					21:leaf=0.0973359197
					22:[f6<0.00154044922] yes=29,no=30,missing=29
						29:leaf=0.0403848365
						30:leaf=-0.0227035135
			8:leaf=-0.0887843966
		4:[f3<0.0230769236] yes=9,no=10,missing=9
			9:[f3<0.0076923077] yes=15,no=16,missing=15
				15:leaf=0.0964131877
				16:[f1<0.0105183944] yes=23,no=24,missing=23
					23:leaf=-0.00607893104
					24:leaf=0.0504970439
			10:leaf=-0.0378311723
	2:[f0<0.0743944645] yes=5,no=6,missing=5
		5:leaf=-0.14403905
		6:[f6<0.00253428752] yes=11,no=12,missing=11
			11:leaf=0.121198803
			12:[f0<0.0882352889] yes=17,no=18,missing=17
				17:leaf=-0.148827687
				18:[f6<0.00462134741] yes=25,no=26,missing=25
					25:[f0<0.13321799] yes=31,no=32,missing=31
						31:leaf=0.00538752088
						32:leaf=0.134564698
					26:[f0<0.159169555] yes=33,no=34,missing=33
						33:leaf=-0.176202118
						34:leaf=-0.000314130448
booster[25]:
0:[f6<0.00213675201] yes=1,no=2,missing=1
	1:[f1<0.00802675635] yes=3,no=4,missing=3
		3:[f1<0.00663879607] yes=7,no=8,missing=7
			7:[f0<0.0294117648] yes=13,no=14,missing=13
				13:[f6<0.000844762428] yes=19,no=20,missing=19
					19:[f0<0.0155709349] yes=27,no=28,missing=27
						27:leaf=-0.0183290783
						28:leaf=-0.0942701548
					20:leaf=0.121586427
				14:[f3<0.0076923077] yes=21,no=22,missing=21
					21:leaf=-0.0973358825
					22:[f6<0.00154044922] yes=29,no=30,missing=29
						29:leaf=-0.0403848961
						30:leaf=0.0227035116
			8:leaf=0.0887844414
		4:[f3<0.0230769236] yes=9,no=10,missing=9
			9:[f3<0.0076923077] yes=15,no=16,missing=15
				15:leaf=-0.0964131877
				16:[f1<0.0105183944] yes=23,no=24,missing=23
					23:leaf=0.00607895385
					24:leaf=-0.0504970513
			10:leaf=0.0378311835
	2:[f0<0.0743944645] yes=5,no=6,missing=5
		5:leaf=0.14403905
		6:[f6<0.00253428752] yes=11,no=12,missing=11
			11:leaf=-0.121198811
			12:[f0<0.0882352889] yes=17,no=18,missing=17
				17:leaf=0.148827687
				18:[f6<0.00462134741] yes=25,no=26,missing=25
					25:[f0<0.13321799] yes=31,no=32,missing=31
						31:leaf=-0.00538752601
						32:leaf=-0.134564713
					26:[f0<0.159169555] yes=33,no=34,missing=33
						33:leaf=0.176202118
						34:leaf=0.000314122735
booster[26]:
0:[f6<0.00144106545] yes=1,no=2,missing=1
	1:[f6<0.000447227183] yes=3,no=4,missing=3
		3:leaf=0.119560026
		4:[f0<0.0155709349] yes=7,no=8,missing=7
			7:leaf=-0.114082277
			8:[f0<0.0294117648] yes=11,no=12,missing=11
				11:[f6<0.000844762428] yes=15,no=16,missing=15
					15:[f3<0.0076923077] yes=21,no=22,missing=21
						21:leaf=0.115398034
						22:leaf=0.0130530158
					16:leaf=-0.104521424
				12:[f6<0.0012422977] yes=17,no=18,missing=17
					17:leaf=0.114867844
					18:leaf=0.0381811261
	2:[f0<0.0501730107] yes=5,no=6,missing=5
		5:leaf=-0.135109827
		6:[f6<0.00894454308] yes=9,no=10,missing=9
			9:[f0<0.242214531] yes=13,no=14,missing=13
				13:[f6<0.00611210521] yes=19,no=20,missing=19
					19:[f0<0.15743944] yes=23,no=24,missing=23
						23:leaf=-0.00526825152
						24:leaf=0.0647600666
					20:[f0<0.214532882] yes=25,no=26,missing=25
						25:leaf=-0.157643318
						26:leaf=-0.00261920574
				14:leaf=0.163668975
			10:leaf=-0.135995984
booster[27]:
0:[f6<0.00144106545] yes=1,no=2,missing=1
	1:[f6<0.000447227183] yes=3,no=4,missing=3
		3:leaf=-0.119560108
		4:[f0<0.0155709349] yes=7,no=8,missing=7
			7:leaf=0.114082292
			8:[f0<0.0294117648] yes=11,no=12,missing=11
				11:[f6<0.000844762428] yes=15,no=16,missing=15
					15:[f3<0.0076923077] yes=21,no=22,missing=21
						21:leaf=-0.115398049
						22:leaf=-0.0130530288
					16:leaf=0.104521431
				12:[f6<0.0012422977] yes=17,no=18,missing=17
					17:leaf=-0.114867859
					18:leaf=-0.0381810218
	2:[f0<0.0501730107] yes=5,no=6,missing=5
		5:leaf=0.135109767
		6:[f6<0.00894454308] yes=9,no=10,missing=9
			9:[f0<0.242214531] yes=13,no=14,missing=13
				13:[f6<0.00611210521] yes=19,no=20,missing=19
					19:[f0<0.15743944] yes=23,no=24,missing=23
						23:leaf=0.00526826456
						24:leaf=-0.0647600666
					20:[f0<0.214532882] yes=25,no=26,missing=25
						25:leaf=0.157643318
						26:leaf=0.00261920551
				14:leaf=-0.163668975
			10:leaf=0.135995984
booster[28]:
0:[f6<0.00293182256] yes=1,no=2,missing=1
	1:[f0<0.0916955024] yes=3,no=4,missing=3
		3:[f6<0.00263367128] yes=7,no=8,missing=7
			7:[f0<0.0847750902] yes=11,no=12,missing=11
				11:[f6<0.00243490352] yes=15,no=16,missing=15
					15:[f6<0.000447227183] yes=19,no=20,missing=19
						19:leaf=0.11283277
						20:leaf=0.0212532375
					16:leaf=-0.137620226
				12:leaf=0.127621368
			8:leaf=-0.204760492
		4:leaf=0.126359969
	2:[f0<0.102076128] yes=5,no=6,missing=5
		5:leaf=-0.14542985
		6:[f6<0.00332935806] yes=9,no=10,missing=9
			9:leaf=0.128909945
			10:[f0<0.115916952] yes=13,no=14,missing=13
				13:leaf=-0.166799843
				14:[f6<0.00442257989] yes=17,no=18,missing=17
					17:[f0<0.126297578] yes=21,no=22,missing=21
						21:leaf=0.0207029693
						22:leaf=0.12499623
					18:[f0<0.152249128] yes=23,no=24,missing=23
						23:leaf=-0.169653207
						24:leaf=0.000518544111
booster[29]:
0:[f6<0.00293182256] yes=1,no=2,missing=1
	1:[f0<0.0916955024] yes=3,no=4,missing=3
		3:[f6<0.00263367128] yes=7,no=8,missing=7
			7:[f0<0.0847750902] yes=11,no=12,missing=11
				11:[f6<0.00243490352] yes=15,no=16,missing=15
					15:[f6<0.000447227183] yes=19,no=20,missing=19
						19:leaf=-0.112832807
						20:leaf=-0.0212532692
					16:leaf=0.137620211
				12:leaf=-0.127621368
			8:leaf=0.204760492
		4:leaf=-0.126359969
	2:[f0<0.102076128] yes=5,no=6,missing=5
		5:leaf=0.14542985
		6:[f6<0.00332935806] yes=9,no=10,missing=9
			9:leaf=-0.128909945
			10:[f0<0.115916952] yes=13,no=14,missing=13
				13:leaf=0.166799828
				14:[f6<0.00442257989] yes=17,no=18,missing=17
					17:[f0<0.126297578] yes=21,no=22,missing=21
						21:leaf=-0.0207029805
						22:leaf=-0.124996223
					18:[f0<0.152249128] yes=23,no=24,missing=23
						23:leaf=0.169653237
						24:leaf=-0.000518546556
booster[30]:
0:[f6<0.00173921685] yes=1,no=2,missing=1
	1:[f0<0.0363321789] yes=3,no=4,missing=3
		3:[f6<0.00104353018] yes=7,no=8,missing=7
			7:[f6<0.000447227183] yes=11,no=12,missing=11
				11:leaf=0.105851799
				12:[f0<0.0155709349] yes=15,no=16,missing=15
					15:leaf=-0.0975296646
					16:[f6<0.000745378667] yes=19,no=20,missing=19
						19:leaf=0.102972664
						20:leaf=0.0252777915
			8:leaf=-0.113233872
		4:leaf=0.0851517022
	2:[f0<0.0605536327] yes=5,no=6,missing=5
		5:leaf=-0.156292468
		6:[f6<0.00213675201] yes=9,no=10,missing=9
			9:leaf=0.0961958468
			10:[f0<0.0743944645] yes=13,no=14,missing=13
				13:leaf=-0.117830724
				14:[f6<0.00263367128] yes=17,no=18,missing=17
					17:[f0<0.0847750902] yes=21,no=22,missing=21
						21:leaf=0.0245139301
						22:leaf=0.117921181
					18:[f0<0.0916955024] yes=23,no=24,missing=23
						23:leaf=-0.172790796
						24:leaf=0.000488481368
booster[31]:
0:[f6<0.00173921685] yes=1,no=2,missing=1
	1:[f0<0.0363321789] yes=3,no=4,missing=3
		3:[f6<0.00104353018] yes=7,no=8,missing=7
			7:[f6<0.000447227183] yes=11,no=12,missing=11
				11:leaf=-0.105851732
				12:[f0<0.0155709349] yes=15,no=16,missing=15
					15:leaf=0.0975296944
					16:[f6<0.000745378667] yes=19,no=20,missing=19
						19:leaf=-0.102972768
						20:leaf=-0.0252777841
			8:leaf=0.113233894
		4:leaf=-0.0851517096
	2:[f0<0.0605536327] yes=5,no=6,missing=5
		5:leaf=0.156292483
		6:[f6<0.00213675201] yes=9,no=10,missing=9
			9:leaf=-0.0961958319
			10:[f0<0.0743944645] yes=13,no=14,missing=13
				13:leaf=0.117830724
				14:[f6<0.00263367128] yes=17,no=18,missing=17
					17:[f0<0.0847750902] yes=21,no=22,missing=21
						21:leaf=-0.0245139673
						22:leaf=-0.117921166
					18:[f0<0.0916955024] yes=23,no=24,missing=23
						23:leaf=0.17279081
						24:leaf=-0.000488481368
booster[32]:
0:[f6<0.00889485143] yes=1,no=2,missing=1
	1:[f0<0.242214531] yes=3,no=4,missing=3
		3:[f6<0.00660902448] yes=5,no=6,missing=5
			5:[f3<0.0230769236] yes=7,no=8,missing=7
				7:[f1<0.00627090316] yes=9,no=10,missing=9
					9:[f1<0.00329431426] yes=13,no=14,missing=13
						13:leaf=0.0081458101
						14:leaf=-0.0606384948
					10:[f1<0.0084615387] yes=15,no=16,missing=15
						15:leaf=0.0496687256
						16:leaf=-0.00102290534
				8:[f6<0.00491949916] yes=11,no=12,missing=11
					11:[f1<0.00929765869] yes=17,no=18,missing=17
						17:leaf=0.0449435785
						18:leaf=-0.103344768
					12:leaf=-0.133196533
			6:leaf=-0.126377478
		4:leaf=0.139842406
	2:leaf=-0.122015893
booster[33]:
0:[f6<0.00889485143] yes=1,no=2,missing=1
	1:[f0<0.242214531] yes=3,no=4,missing=3
		3:[f6<0.00660902448] yes=5,no=6,missing=5
			5:[f3<0.0230769236] yes=7,no=8,missing=7
				7:[f1<0.00627090316] yes=9,no=10,missing=9
					9:[f1<0.00329431426] yes=13,no=14,missing=13
						13:leaf=-0.00814583804
						14:leaf=0.0606384575
					10:[f1<0.0084615387] yes=15,no=16,missing=15
						15:leaf=-0.0496687517
						16:leaf=0.00102286576
				8:[f6<0.00491949916] yes=11,no=12,missing=11
					11:[f1<0.00929765869] yes=17,no=18,missing=17
						17:leaf=-0.0449436009
						18:leaf=0.103344776
					12:leaf=0.133196533
			6:leaf=0.126377478
		4:leaf=-0.139842421
	2:leaf=0.122015886
booster[34]:
0:[f6<0.000546611031] yes=1,no=2,missing=1
	1:[f6<0.000447227183] yes=3,no=4,missing=3
		3:leaf=0.0978103802
		4:leaf=0.02372442
	2:[f0<0.019031141] yes=5,no=6,missing=5
		5:leaf=-0.11751499
		6:[f6<0.00332935806] yes=7,no=8,missing=7
			7:[f0<0.102076128] yes=9,no=10,missing=9
				9:[f6<0.00293182256] yes=13,no=14,missing=13
					13:[f0<0.0916955024] yes=17,no=18,missing=17
						17:leaf=0.0093485862
						18:leaf=0.114939615
					14:leaf=-0.12199457
				10:leaf=0.11890386
			8:[f0<0.115916952] yes=11,no=12,missing=11
				11:leaf=-0.152586281
				12:[f6<0.0038262771] yes=15,no=16,missing=15
					15:[f1<0.0167558528] yes=19,no=20,missing=19
						19:leaf=0.127588511
						20:leaf=-0.0113558788
					16:[f0<0.13321799] yes=21,no=22,missing=21
						21:leaf=-0.128045395
						22:leaf=-0.000943391118
booster[35]:
0:[f6<0.000546611031] yes=1,no=2,missing=1
	1:[f6<0.000447227183] yes=3,no=4,missing=3
		3:leaf=-0.0978103802
		4:leaf=-0.0237243753
	2:[f0<0.019031141] yes=5,no=6,missing=5
		5:leaf=0.117514983
		6:[f6<0.00332935806] yes=7,no=8,missing=7
			7:[f0<0.102076128] yes=9,no=10,missing=9
				9:[f6<0.00293182256] yes=13,no=14,missing=13
					13:[f0<0.0916955024] yes=17,no=18,missing=17
						17:leaf=-0.00934860483
						18:leaf=-0.1149396
					14:leaf=0.121994562
				10:leaf=-0.11890386
			8:[f0<0.115916952] yes=11,no=12,missing=11
				11:leaf=0.152586281
				12:[f6<0.0038262771] yes=15,no=16,missing=15
					15:[f1<0.0167558528] yes=19,no=20,missing=19
						19:leaf=-0.127588511
						20:leaf=0.011355862
					16:[f0<0.13321799] yes=21,no=22,missing=21
						21:leaf=0.128045395
						22:leaf=0.000943384017
booster[36]:
0:[f6<0.00889485143] yes=1,no=2,missing=1
	1:[f0<0.242214531] yes=3,no=4,missing=3
		3:[f6<0.0053170342] yes=5,no=6,missing=5
			5:[f0<0.167820066] yes=7,no=8,missing=7
				7:[f6<0.00482011493] yes=11,no=12,missing=11
					11:[f0<0.150519028] yes=15,no=16,missing=15
						15:leaf=-0.000340207975
						16:leaf=0.113075912
					12:leaf=-0.154819742
				8:leaf=0.12272235
			6:[f1<0.012341138] yes=9,no=10,missing=9
				9:[f0<0.207612455] yes=13,no=14,missing=13
					13:leaf=-0.166344747
					14:[f6<0.00641025649] yes=17,no=18,missing=17
						17:leaf=0.0391337797
						18:leaf=-0.0362507477
				10:leaf=0.076151602
		4:leaf=0.122596458
	2:leaf=-0.109515995
booster[37]:
0:[f6<0.00889485143] yes=1,no=2,missing=1
	1:[f0<0.242214531] yes=3,no=4,missing=3
		3:[f6<0.0053170342] yes=5,no=6,missing=5
			5:[f0<0.167820066] yes=7,no=8,missing=7
				7:[f6<0.00482011493] yes=11,no=12,missing=11
					11:[f0<0.150519028] yes=15,no=16,missing=15
						15:leaf=0.000340226485
						16:leaf=-0.113075919
					12:leaf=0.154819757
				8:leaf=-0.122722358
			6:[f1<0.012341138] yes=9,no=10,missing=9
				9:[f0<0.207612455] yes=13,no=14,missing=13
					13:leaf=0.166344747
					14:[f6<0.00641025649] yes=17,no=18,missing=17
						17:leaf=-0.0391337648
						18:leaf=0.0362507552
				10:leaf=-0.0761516094
		4:leaf=-0.122596458
	2:leaf=0.10951601
booster[38]:
0:[f6<0.000745378667] yes=1,no=2,missing=1
	1:[f0<0.00519031147] yes=3,no=4,missing=3
		3:leaf=0.000408074382
		4:leaf=0.0836954042
	2:[f0<0.0259515569] yes=5,no=6,missing=5
		5:leaf=-0.121719338
		6:[f6<0.00173921685] yes=7,no=8,missing=7
			7:[f0<0.0501730107] yes=9,no=10,missing=9
				9:[f6<0.00144106545] yes=13,no=14,missing=13
					13:[f1<0.00777591951] yes=17,no=18,missing=17
						17:leaf=0.0208529793
						18:leaf=0.0945719928
					14:leaf=-0.0870444104
				10:leaf=0.0982000679
			8:[f0<0.0605536327] yes=11,no=12,missing=11
				11:leaf=-0.155091405
				12:[f6<0.00243490352] yes=15,no=16,missing=15
					15:[f0<0.0743944645] yes=19,no=20,missing=19
						19:leaf=0.0344978981
						20:leaf=0.0991367623
					16:[f0<0.0847750902] yes=21,no=22,missing=21
						21:leaf=-0.13056162
						22:leaf=-0.000160602067
booster[39]:
0:[f6<0.000745378667] yes=1,no=2,missing=1
	1:[f0<0.00519031147] yes=3,no=4,missing=3
		3:leaf=-0.000408293388
		4:leaf=-0.0836954638
	2:[f0<0.0259515569] yes=5,no=6,missing=5
		5:leaf=0.121719338
		6:[f6<0.00173921685] yes=7,no=8,missing=7
			7:[f0<0.0501730107] yes=9,no=10,missing=9
				9:[f6<0.00144106545] yes=13,no=14,missing=13
					13:[f1<0.00777591951] yes=17,no=18,missing=17
						17:leaf=-0.0208529942
						18:leaf=-0.0945719779
					14:leaf=0.0870444104
				10:leaf=-0.0982000753
			8:[f0<0.0605536327] yes=11,no=12,missing=11
				11:leaf=0.155091405
				12:[f6<0.00243490352] yes=15,no=16,missing=15
					15:[f0<0.0743944645] yes=19,no=20,missing=19
						19:leaf=-0.0344978869
						20:leaf=-0.0991367623
					16:[f0<0.0847750902] yes=21,no=22,missing=21
						21:leaf=0.130561635
						22:leaf=0.000160601703
booster[40]:
0:[f6<0.00889485143] yes=1,no=2,missing=1
	1:[f0<0.242214531] yes=3,no=4,missing=3
		3:[f6<0.00660902448] yes=5,no=6,missing=5
			5:[f6<0.000447227183] yes=7,no=8,missing=7
				7:leaf=0.0870820731
				8:[f0<0.0155709349] yes=9,no=10,missing=9
					9:leaf=-0.106104158
					10:[f6<0.000944146304] yes=11,no=12,missing=11
						11:leaf=0.0690722242
						12:leaf=-0.00129928207
			6:leaf=-0.108223215
		4:leaf=0.109059483
	2:leaf=-0.0990130678
booster[41]:
0:[f6<0.00889485143] yes=1,no=2,missing=1
	1:[f0<0.242214531] yes=3,no=4,missing=3
		3:[f6<0.00660902448] yes=5,no=6,missing=5
			5:[f6<0.000447227183] yes=7,no=8,missing=7
				7:leaf=-0.0870820582
				8:[f0<0.0155709349] yes=9,no=10,missing=9
					9:leaf=0.106104195
					10:[f6<0.000944146304] yes=11,no=12,missing=11
						11:leaf=-0.0690722242
						12:leaf=0.00129929092
			6:leaf=0.10822323
		4:leaf=-0.109059475
	2:leaf=0.0990130529
booster[42]:
0:[f3<0.0230769236] yes=1,no=2,missing=1
	1:[f1<0.012341138] yes=3,no=4,missing=3
		3:[f1<0.0119063547] yes=7,no=8,missing=7
			7:[f6<0.0053170342] yes=13,no=14,missing=13
				13:[f0<0.13321799] yes=17,no=18,missing=17
					17:[f6<0.0038262771] yes=25,no=26,missing=25
						25:leaf=0.0164929759
						26:leaf=-0.118576989
					18:leaf=0.108981743
				14:[f0<0.207612455] yes=19,no=20,missing=19
					19:leaf=-0.137628481
					20:[f6<0.00710594282] yes=27,no=28,missing=27
						27:leaf=0.0693371892
						28:leaf=-0.0460740626
			8:leaf=-0.0735830739
		4:[f1<0.0145819392] yes=9,no=10,missing=9
			9:leaf=0.102278292
			10:[f1<0.0246822741] yes=15,no=16,missing=15
				15:[f6<0.004472272] yes=21,no=22,missing=21
					21:leaf=-0.00729832519
					22:leaf=-0.0742258355
				16:[f0<0.0726643577] yes=23,no=24,missing=23
					23:leaf=0.000342161482
					24:leaf=0.0948390439
	2:[f1<0.00929765869] yes=5,no=6,missing=5
		5:[f6<0.00482011493] yes=11,no=12,missing=11
			11:leaf=0.0308672879
			12:leaf=-0.0587089844
		6:leaf=-0.104552425
booster[43]:
0:[f3<0.0230769236] yes=1,no=2,missing=1
	1:[f1<0.012341138] yes=3,no=4,missing=3
		3:[f1<0.0119063547] yes=7,no=8,missing=7
			7:[f6<0.0053170342] yes=13,no=14,missing=13
				13:[f0<0.13321799] yes=17,no=18,missing=17
					17:[f6<0.0038262771] yes=25,no=26,missing=25
						25:leaf=-0.0164929759
						26:leaf=0.118577003
					18:leaf=-0.108981736
				14:[f0<0.207612455] yes=19,no=20,missing=19
					19:leaf=0.137628481
					20:[f6<0.00710594282] yes=27,no=28,missing=27
						27:leaf=-0.0693371817
						28:leaf=0.0460740775
			8:leaf=0.0735830963
		4:[f1<0.0145819392] yes=9,no=10,missing=9
			9:leaf=-0.1022783
			10:[f1<0.0246822741] yes=15,no=16,missing=15
				15:[f6<0.004472272] yes=21,no=22,missing=21
					21:leaf=0.00729834614
					22:leaf=0.0742258206
				16:[f0<0.0726643577] yes=23,no=24,missing=23
					23:leaf=-0.00034214597
					24:leaf=-0.0948390365
	2:[f1<0.00929765869] yes=5,no=6,missing=5
		5:[f6<0.00482011493] yes=11,no=12,missing=11
			11:leaf=-0.0308672804
			12:leaf=0.0587089844
		6:leaf=0.104552433
booster[44]:
0:[f6<0.000447227183] yes=1,no=2,missing=1
	1:leaf=0.079418838
	2:[f0<0.0155709349] yes=3,no=4,missing=3
		3:leaf=-0.0988360345
		4:[f6<0.000745378667] yes=5,no=6,missing=5
			5:leaf=0.0808805376
			6:[f0<0.0259515569] yes=7,no=8,missing=7
				7:leaf=-0.097916387
				8:[f6<0.0012422977] yes=9,no=10,missing=9
					9:[f0<0.0294117648] yes=11,no=12,missing=11
						11:leaf=-0.00443422096
						12:leaf=0.0949364528
					10:[f0<0.0432525948] yes=13,no=14,missing=13
						13:leaf=-0.100801535
						14:leaf=0.000148500243
booster[45]:
0:[f6<0.000447227183] yes=1,no=2,missing=1
	1:leaf=-0.079418771
	2:[f0<0.0155709349] yes=3,no=4,missing=3
		3:leaf=0.0988359451
		4:[f6<0.000745378667] yes=5,no=6,missing=5
			5:leaf=-0.0808805227
			6:[f0<0.0259515569] yes=7,no=8,missing=7
				7:leaf=0.097916387
				8:[f6<0.0012422977] yes=9,no=10,missing=9
					9:[f0<0.0294117648] yes=11,no=12,missing=11
						11:leaf=0.00443422608
						12:leaf=-0.0949364826
					10:[f0<0.0432525948] yes=13,no=14,missing=13
						13:leaf=0.100801542
						14:leaf=-0.000148499457
booster[46]:
0:[f3<0.0230769236] yes=1,no=2,missing=1
	1:[f1<0.00627090316] yes=3,no=4,missing=3
		3:[f3<0.0076923077] yes=7,no=8,missing=7
			7:[f1<0.00439799298] yes=13,no=14,missing=13
				13:[f0<0.0397923887] yes=21,no=22,missing=21
					21:leaf=-0.0213038661
					22:[f6<0.00278274692] yes=31,no=32,missing=31
						31:leaf=0.0833439976
						32:leaf=-0.00173175754
				14:[f0<0.105536327] yes=23,no=24,missing=23
					23:leaf=-0.0741123632
					24:leaf=0.0184126738
			8:[f6<0.00342874182] yes=15,no=16,missing=15
				15:[f0<0.0605536327] yes=25,no=26,missing=25
					25:leaf=-0.0361017175
					26:leaf=0.00558327651
				16:leaf=-0.0909161866
		4:[f3<0.0076923077] yes=9,no=10,missing=9
			9:[f6<0.00332935806] yes=17,no=18,missing=17
				17:[f1<0.00802675635] yes=27,no=28,missing=27
					27:[f0<0.0865051895] yes=33,no=34,missing=33
						33:leaf=-0.0764235333
						34:leaf=0.052864179
					28:[f1<0.0105183944] yes=35,no=36,missing=35
						35:leaf=0.0687504485
						36:leaf=0.0257228743
				18:[f0<0.115916952] yes=29,no=30,missing=29
					29:leaf=-0.139260411
					30:[f6<0.00362750934] yes=37,no=38,missing=37
						37:leaf=0.102259509
						38:leaf=-0.0175732635
			10:[f1<0.0102006691] yes=19,no=20,missing=19
				19:leaf=0.115528651
				20:leaf=-0.0325372107
	2:[f6<0.00491949916] yes=5,no=6,missing=5
		5:[f1<0.00929765869] yes=11,no=12,missing=11
			11:leaf=0.0419133082
			12:leaf=-0.0779525265
		6:leaf=-0.104575552
booster[47]:
0:[f3<0.0230769236] yes=1,no=2,missing=1
	1:[f1<0.00627090316] yes=3,no=4,missing=3
		3:[f3<0.0076923077] yes=7,no=8,missing=7
			7:[f1<0.00439799298] yes=13,no=14,missing=13
				13:[f0<0.0397923887] yes=21,no=22,missing=21
					21:leaf=0.0213038996
					22:[f6<0.00278274692] yes=31,no=32,missing=31
						31:leaf=-0.0833440274
						32:leaf=0.00173183344
				14:[f0<0.105536327] yes=23,no=24,missing=23
					23:leaf=0.0741123781
					24:leaf=-0.0184127185
			8:[f6<0.00342874182] yes=15,no=16,missing=15
				15:[f0<0.0605536327] yes=25,no=26,missing=25
					25:leaf=0.0361017659
					26:leaf=-0.00558328535
				16:leaf=0.0909161791
		4:[f3<0.0076923077] yes=9,no=10,missing=9
			9:[f6<0.00332935806] yes=17,no=18,missing=17
				17:[f1<0.00802675635] yes=27,no=28,missing=27
					27:[f0<0.0865051895] yes=33,no=34,missing=33
						33:leaf=0.0764235258
						34:leaf=-0.052864179
					28:[f1<0.0105183944] yes=35,no=36,missing=35
						35:leaf=-0.0687504187
						36:leaf=-0.0257229246
				18:[f0<0.115916952] yes=29,no=30,missing=29
					29:leaf=0.139260426
					30:[f6<0.00362750934] yes=37,no=38,missing=37
						37:leaf=-0.102259524
						38:leaf=0.0175732821
			10:[f1<0.0102006691] yes=19,no=20,missing=19
				19:leaf=-0.115528651
				20:leaf=0.0325372182
	2:[f6<0.00491949916] yes=5,no=6,missing=5
		5:[f1<0.00929765869] yes=11,no=12,missing=11
			11:leaf=-0.041913338
			12:leaf=0.077952534
		6:leaf=0.104575559
booster[48]:
0:[f6<0.00173921685] yes=1,no=2,missing=1
	1:[f0<0.0501730107] yes=3,no=4,missing=3
		3:[f6<0.00144106545] yes=7,no=8,missing=7
			7:[f0<0.0363321789] yes=11,no=12,missing=11
				11:[f6<0.000944146304] yes=15,no=16,missing=15
					15:[f3<0.0076923077] yes=19,no=20,missing=19
						19:leaf=0.0616070852
						20:leaf=-0.0140906246
					16:leaf=-0.0602840967
				12:leaf=0.0867580324
			8:leaf=-0.0816534162
		4:leaf=0.0892988145
	2:[f0<0.0605536327] yes=5,no=6,missing=5
		5:leaf=-0.142592087
		6:[f6<0.00213675201] yes=9,no=10,missing=9
			9:leaf=0.0794567764
			10:[f0<0.0743944645] yes=13,no=14,missing=13
				13:leaf=-0.105408199
				14:[f6<0.00253428752] yes=17,no=18,missing=17
					17:leaf=0.0948118567
					18:[f0<0.0916955024] yes=21,no=22,missing=21
						21:leaf=-0.0688549131
						22:leaf=0.00590639515
booster[49]:
0:[f6<0.00173921685] yes=1,no=2,missing=1
	1:[f0<0.0501730107] yes=3,no=4,missing=3
		3:[f6<0.00144106545] yes=7,no=8,missing=7
			7:[f0<0.0363321789] yes=11,no=12,missing=11
				11:[f6<0.000944146304] yes=15,no=16,missing=15
					15:[f3<0.0076923077] yes=19,no=20,missing=19
						19:leaf=-0.0616070814
						20:leaf=0.0140905697
					16:leaf=0.0602841824
				12:leaf=-0.0867580101
			8:leaf=0.0816534162
		4:leaf=-0.0892988443
	2:[f0<0.0605536327] yes=5,no=6,missing=5
		5:leaf=0.142592087
		6:[f6<0.00213675201] yes=9,no=10,missing=9
			9:leaf=-0.0794567689
			10:[f0<0.0743944645] yes=13,no=14,missing=13
				13:leaf=0.105408184
				14:[f6<0.00253428752] yes=17,no=18,missing=17
					17:leaf=-0.0948118567
					18:[f0<0.0916955024] yes=21,no=22,missing=21
						21:leaf=0.0688549131
						22:leaf=-0.00590640353
booster[50]:
0:[f3<0.0230769236] yes=1,no=2,missing=1
	1:[f1<0.012341138] yes=3,no=4,missing=3
		3:[f1<0.0084615387] yes=7,no=8,missing=7
			7:[f6<0.00710594282] yes=13,no=14,missing=13
				13:[f0<0.207612455] yes=19,no=20,missing=19
					19:[f6<0.0053170342] yes=29,no=30,missing=29
						29:leaf=0.0148916617
						30:leaf=-0.099836573
					20:leaf=0.125713661
				14:leaf=-0.0967915058
			8:[f6<0.00332935806] yes=15,no=16,missing=15
				15:[f1<0.0102006691] yes=21,no=22,missing=21
					21:[f0<0.0726643577] yes=31,no=32,missing=31
						31:leaf=-0.00693261949
						32:leaf=0.0806187093
					22:[f6<0.00233551976] yes=33,no=34,missing=33
						33:leaf=-0.00693251519
						34:leaf=-0.0479574166
				16:[f0<0.119377166] yes=23,no=24,missing=23
					23:leaf=-0.12128973
					24:[f1<0.00973244198] yes=35,no=36,missing=35
						35:leaf=-0.048610352
						36:leaf=-0.00794475246
		4:[f1<0.0145819392] yes=9,no=10,missing=9
			9:leaf=0.0903650299
			10:[f1<0.0246822741] yes=17,no=18,missing=17
				17:[f6<0.004472272] yes=25,no=26,missing=25
					25:leaf=-0.00422125682
					26:leaf=-0.0598449931
				18:[f0<0.0674740523] yes=27,no=28,missing=27
					27:leaf=-0.00574724656
					28:leaf=0.0781911612
	2:[f6<0.00491949916] yes=5,no=6,missing=5
		5:[f0<0.10899654] yes=11,no=12,missing=11
			11:leaf=-0.0336379446
			12:leaf=0.0296244677
		6:leaf=-0.0952521637
booster[51]:
0:[f3<0.0230769236] yes=1,no=2,missing=1
	1:[f1<0.012341138] yes=3,no=4,missing=3
		3:[f1<0.0084615387] yes=7,no=8,missing=7
			7:[f6<0.00710594282] yes=13,no=14,missing=13
				13:[f0<0.207612455] yes=19,no=20,missing=19
					19:[f6<0.0053170342] yes=29,no=30,missing=29
						29:leaf=-0.0148916794
						30:leaf=0.0998365656
					20:leaf=-0.125713661
				14:leaf=0.0967914984
			8:[f6<0.00332935806] yes=15,no=16,missing=15
				15:[f1<0.0102006691] yes=21,no=22,missing=21
					21:[f0<0.0726643577] yes=31,no=32,missing=31
						31:leaf=0.00693265954
						32:leaf=-0.0806186944
					22:[f6<0.00233551976] yes=33,no=34,missing=33
						33:leaf=0.00693249376
						34:leaf=0.047957439
				16:[f0<0.119377166] yes=23,no=24,missing=23
					23:leaf=0.12128973
					24:[f1<0.00973244198] yes=35,no=36,missing=35
						35:leaf=0.0486103483
						36:leaf=0.00794476457
		4:[f1<0.0145819392] yes=9,no=10,missing=9
			9:leaf=-0.0903650373
			10:[f1<0.0246822741] yes=17,no=18,missing=17
				17:[f6<0.004472272] yes=25,no=26,missing=25
					25:leaf=0.00422126753
					26:leaf=0.0598449744
				18:[f0<0.0674740523] yes=27,no=28,missing=27
					27:leaf=0.00574722514
					28:leaf=-0.0781911686
	2:[f6<0.00491949916] yes=5,no=6,missing=5
		5:[f0<0.10899654] yes=11,no=12,missing=11
			11:leaf=0.0336380266
			12:leaf=-0.0296244696
		6:leaf=0.0952521637
booster[52]:
0:[f6<0.000546611031] yes=1,no=2,missing=1
	1:leaf=0.0524777249
	2:[f0<0.0259515569] yes=3,no=4,missing=3
		3:[f0<0.019031141] yes=5,no=6,missing=5
			5:leaf=-0.0888856053
			6:leaf=-0.0216825418
		4:[f6<0.00173921685] yes=7,no=8,missing=7
			7:[f0<0.0501730107] yes=9,no=10,missing=9
				9:[f6<0.0012422977] yes=13,no=14,missing=13
					13:[f0<0.0294117648] yes=17,no=18,missing=17
						17:leaf=-0.00598401437
						18:leaf=0.0863915086
					14:leaf=-0.0374541059
				10:leaf=0.0821498334
			8:[f0<0.0605536327] yes=11,no=12,missing=11
				11:leaf=-0.129888684
				12:[f6<0.00203736825] yes=15,no=16,missing=15
					15:leaf=0.0757352859
					16:[f0<0.070934251] yes=19,no=20,missing=19
						19:leaf=-0.0928689316
						20:leaf=0.0013230372
booster[53]:
0:[f6<0.000546611031] yes=1,no=2,missing=1
	1:leaf=-0.0524777211
	2:[f0<0.0259515569] yes=3,no=4,missing=3
		3:[f0<0.019031141] yes=5,no=6,missing=5
			5:leaf=0.0888855904
			6:leaf=0.0216824226
		4:[f6<0.00173921685] yes=7,no=8,missing=7
			7:[f0<0.0501730107] yes=9,no=10,missing=9
				9:[f6<0.0012422977] yes=13,no=14,missing=13
					13:[f0<0.0294117648] yes=17,no=18,missing=17
						17:leaf=0.00598403206
						18:leaf=-0.0863914862
					14:leaf=0.0374541059
				10:leaf=-0.0821498707
			8:[f0<0.0605536327] yes=11,no=12,missing=11
				11:leaf=0.129888713
				12:[f6<0.00203736825] yes=15,no=16,missing=15
					15:leaf=-0.0757352859
					16:[f0<0.070934251] yes=19,no=20,missing=19
						19:leaf=0.0928689316
						20:leaf=-0.00132305641
booster[54]:
0:[f3<0.0230769236] yes=1,no=2,missing=1
	1:[f1<0.0294648819] yes=3,no=4,missing=3
		3:[f1<0.0220066905] yes=7,no=8,missing=7
			7:[f1<0.012341138] yes=11,no=12,missing=11
				11:[f0<0.223183393] yes=13,no=14,missing=13
					13:[f6<0.0053170342] yes=17,no=18,missing=17
						17:leaf=0.0014416168
						18:leaf=-0.0811191872
					14:leaf=0.0643871576
				12:[f1<0.0145819392] yes=15,no=16,missing=15
					15:leaf=0.0794072002
					16:[f0<0.129757792] yes=19,no=20,missing=19
						19:leaf=-0.0334529318
						20:leaf=0.0497579873
			8:leaf=-0.0770319626
		4:leaf=0.0544371493
	2:[f1<0.00929765869] yes=5,no=6,missing=5
		5:[f1<0.00607023388] yes=9,no=10,missing=9
			9:leaf=-0.0331193618
			10:leaf=0.0260976348
		6:leaf=-0.0848493874
booster[55]:
0:[f3<0.0230769236] yes=1,no=2,missing=1
	1:[f1<0.0294648819] yes=3,no=4,missing=3
		3:[f1<0.0220066905] yes=7,no=8,missing=7
			7:[f1<0.012341138] yes=11,no=12,missing=11
				11:[f0<0.223183393] yes=13,no=14,missing=13
					13:[f6<0.0053170342] yes=17,no=18,missing=17
						17:leaf=-0.00144158874
						18:leaf=0.0811191872
					14:leaf=-0.064387165
				12:[f1<0.0145819392] yes=15,no=16,missing=15
					15:leaf=-0.0794071481
					16:[f0<0.129757792] yes=19,no=20,missing=19
						19:leaf=0.0334529728
						20:leaf=-0.0497579761
			8:leaf=0.0770319998
		4:leaf=-0.0544370972
	2:[f1<0.00929765869] yes=5,no=6,missing=5
		5:[f1<0.00607023388] yes=9,no=10,missing=9
			9:leaf=0.0331193879
			10:leaf=-0.0260976516
		6:leaf=0.0848494247
booster[56]:
0:[f5<0.997608662] yes=1,no=2,missing=1
	1:leaf=0.0508501157
	2:[f0<0.167820066] yes=3,no=4,missing=3
		3:[f6<0.00482011493] yes=5,no=6,missing=5
			5:[f0<0.150519028] yes=9,no=10,missing=9
				9:[f6<0.0043231966] yes=13,no=14,missing=13
					13:[f0<0.126297578] yes=17,no=18,missing=17
						17:leaf=-0.00753240893
						18:leaf=0.0952065662
					14:leaf=-0.120219171
				10:leaf=0.0905554295
			6:leaf=-0.131829053
		4:[f6<0.0053170342] yes=7,no=8,missing=7
			7:leaf=0.104353294
			8:[f1<0.0110869566] yes=11,no=12,missing=11
				11:[f0<0.207612455] yes=15,no=16,missing=15
					15:leaf=-0.112924434
					16:[f6<0.00710594282] yes=19,no=20,missing=19
						19:leaf=0.0497529022
						20:leaf=-0.0464451425
				12:leaf=0.0648062155
booster[57]:
0:[f5<0.997608662] yes=1,no=2,missing=1
	1:leaf=-0.0508501492
	2:[f0<0.167820066] yes=3,no=4,missing=3
		3:[f6<0.00482011493] yes=5,no=6,missing=5
			5:[f0<0.150519028] yes=9,no=10,missing=9
				9:[f6<0.0043231966] yes=13,no=14,missing=13
					13:[f0<0.126297578] yes=17,no=18,missing=17
						17:leaf=0.00753239077
						18:leaf=-0.0952065811
					14:leaf=0.120219171
				10:leaf=-0.0905554369
			6:leaf=0.131829053
		4:[f6<0.0053170342] yes=7,no=8,missing=7
			7:leaf=-0.104353286
			8:[f1<0.0110869566] yes=11,no=12,missing=11
				11:[f0<0.207612455] yes=15,no=16,missing=15
					15:leaf=0.112924419
					16:[f6<0.00710594282] yes=19,no=20,missing=19
						19:leaf=-0.0497528948
						20:leaf=0.0464451462
				12:leaf=-0.0648062006
booster[58]:
0:[f6<0.00263367128] yes=1,no=2,missing=1
	1:[f0<0.0847750902] yes=3,no=4,missing=3
		3:[f6<0.00243490352] yes=7,no=8,missing=7
			7:[f0<0.0743944645] yes=11,no=12,missing=11
				11:[f6<0.00203736825] yes=15,no=16,missing=15
					15:[f0<0.0605536327] yes=19,no=20,missing=19
						19:leaf=-0.00135452941
						20:leaf=0.0696969256
					16:leaf=-0.0608177856
				12:leaf=0.0770669729
			8:leaf=-0.0996768624
		4:leaf=0.102418959
	2:[f0<0.0916955024] yes=5,no=6,missing=5
		5:leaf=-0.138835073
		6:[f6<0.00303120655] yes=9,no=10,missing=9
			9:leaf=0.103694752
			10:[f0<0.105536327] yes=13,no=14,missing=13
				13:leaf=-0.113413148
				14:[f6<0.00352812558] yes=17,no=18,missing=17
					17:[f1<0.0084615387] yes=21,no=22,missing=21
						21:leaf=0.102675758
						22:leaf=0.0189277604
					18:[f0<0.122837365] yes=23,no=24,missing=23
						23:leaf=-0.100143366
						24:leaf=0.0052787005
booster[59]:
0:[f6<0.00263367128] yes=1,no=2,missing=1
	1:[f0<0.0847750902] yes=3,no=4,missing=3
		3:[f6<0.00243490352] yes=7,no=8,missing=7
			7:[f0<0.0743944645] yes=11,no=12,missing=11
				11:[f6<0.00203736825] yes=15,no=16,missing=15
					15:[f0<0.0605536327] yes=19,no=20,missing=19
						19:leaf=0.00135454023
						20:leaf=-0.0696969926
					16:leaf=0.0608178452
				12:leaf=-0.0770669654
			8:leaf=0.0996768698
		4:leaf=-0.102418974
	2:[f0<0.0916955024] yes=5,no=6,missing=5
		5:leaf=0.138835073
		6:[f6<0.00303120655] yes=9,no=10,missing=9
			9:leaf=-0.103694744
			10:[f0<0.105536327] yes=13,no=14,missing=13
				13:leaf=0.113413155
				14:[f6<0.00352812558] yes=17,no=18,missing=17
					17:[f1<0.0084615387] yes=21,no=22,missing=21
						21:leaf=-0.102675773
						22:leaf=-0.0189277455
					18:[f0<0.122837365] yes=23,no=24,missing=23
						23:leaf=0.10014338
						24:leaf=-0.00527870189
booster[60]:
0:[f6<0.000745378667] yes=1,no=2,missing=1
	1:leaf=0.0413130037
	2:[f0<0.0259515569] yes=3,no=4,missing=3
		3:leaf=-0.0937187746
		4:[f6<0.00173921685] yes=5,no=6,missing=5
			5:[f0<0.0363321789] yes=7,no=8,missing=7
				7:[f1<0.00642140489] yes=11,no=12,missing=11
					11:leaf=-0.0127359014
					12:leaf=0.0157811698
				8:[f6<0.00144106545] yes=13,no=14,missing=13
					13:leaf=0.0790274888
					14:leaf=0.0227217264
			6:[f0<0.0605536327] yes=9,no=10,missing=9
				9:leaf=-0.116211869
				10:[f6<0.00213675201] yes=15,no=16,missing=15
					15:leaf=0.0584693998
					16:[f0<0.0743944645] yes=17,no=18,missing=17
						17:leaf=-0.0851651579
						18:leaf=0.00222603581
booster[61]:
0:[f6<0.000745378667] yes=1,no=2,missing=1
	1:leaf=-0.0413130485
	2:[f0<0.0259515569] yes=3,no=4,missing=3
		3:leaf=0.0937187746
		4:[f6<0.00173921685] yes=5,no=6,missing=5
			5:[f0<0.0363321789] yes=7,no=8,missing=7
				7:[f1<0.00642140489] yes=11,no=12,missing=11
					11:leaf=0.0127359768
					12:leaf=-0.0157811288
				8:[f6<0.00144106545] yes=13,no=14,missing=13
					13:leaf=-0.079027459
					14:leaf=-0.0227217227
			6:[f0<0.0605536327] yes=9,no=10,missing=9
				9:leaf=0.116211854
				10:[f6<0.00213675201] yes=15,no=16,missing=15
					15:leaf=-0.0584693775
					16:[f0<0.0743944645] yes=17,no=18,missing=17
						17:leaf=0.0851651579
						18:leaf=-0.00222604885
booster[62]:
0:[f6<0.00611210521] yes=1,no=2,missing=1
	1:[f0<0.167820066] yes=3,no=4,missing=3
		3:[f6<0.00482011493] yes=7,no=8,missing=7
			7:[f0<0.150519028] yes=13,no=14,missing=13
				13:[f6<0.0043231966] yes=17,no=18,missing=17
					17:[f0<0.126297578] yes=19,no=20,missing=19
						19:leaf=-0.0038332066
						20:leaf=0.0941977277
					18:leaf=-0.108115114
				14:leaf=0.0855036974
			8:leaf=-0.117314734
		4:[f6<0.0053170342] yes=9,no=10,missing=9
			9:leaf=0.0949847922
			10:[f1<0.00889632106] yes=15,no=16,missing=15
				15:leaf=-0.00590849249
				16:leaf=0.0363008566
	2:[f0<0.216262966] yes=5,no=6,missing=5
		5:leaf=-0.120121948
		6:[f1<0.00745819416] yes=11,no=12,missing=11
			11:leaf=-0.0169423986
			12:leaf=0.0531016029
booster[63]:
0:[f6<0.00611210521] yes=1,no=2,missing=1
	1:[f0<0.167820066] yes=3,no=4,missing=3
		3:[f6<0.00482011493] yes=7,no=8,missing=7
			7:[f0<0.150519028] yes=13,no=14,missing=13
				13:[f6<0.0043231966] yes=17,no=18,missing=17
					17:[f0<0.126297578] yes=19,no=20,missing=19
						19:leaf=0.00383323501
						20:leaf=-0.0941977277
					18:leaf=0.108115129
				14:leaf=-0.0855037197
			8:leaf=0.117314741
		4:[f6<0.0053170342] yes=9,no=10,missing=9
			9:leaf=-0.0949848071
			10:[f1<0.00889632106] yes=15,no=16,missing=15
				15:leaf=0.00590848597
				16:leaf=-0.0363008752
	2:[f0<0.216262966] yes=5,no=6,missing=5
		5:leaf=0.120121948
		6:[f1<0.00745819416] yes=11,no=12,missing=11
			11:leaf=0.0169423856
			12:leaf=-0.053101588
booster[64]:
0:[f6<0.000944146304] yes=1,no=2,missing=1
	1:[f0<0.0155709349] yes=3,no=4,missing=3
		3:leaf=-0.00798977166
		4:leaf=0.053058099
	2:[f0<0.0328719728] yes=5,no=6,missing=5
		5:leaf=-0.0945469365
		6:[f6<0.00173921685] yes=7,no=8,missing=7
			7:[f0<0.0397923887] yes=9,no=10,missing=9
				9:leaf=0.00574198086
				10:leaf=0.0556208827
			8:[f0<0.0640138388] yes=11,no=12,missing=11
				11:leaf=-0.0740864724
				12:[f6<0.00263367128] yes=13,no=14,missing=13
					13:[f0<0.0847750902] yes=15,no=16,missing=15
						15:leaf=0.00275164517
						16:leaf=0.0945119932
					14:[f0<0.0916955024] yes=17,no=18,missing=17
						17:leaf=-0.122265838
						18:leaf=0.00437698048
booster[65]:
0:[f6<0.000944146304] yes=1,no=2,missing=1
	1:[f0<0.0155709349] yes=3,no=4,missing=3
		3:leaf=0.00798963942
		4:leaf=-0.0530581959
	2:[f0<0.0328719728] yes=5,no=6,missing=5
		5:leaf=0.0945468768
		6:[f6<0.00173921685] yes=7,no=8,missing=7
			7:[f0<0.0397923887] yes=9,no=10,missing=9
				9:leaf=-0.00574201811
				10:leaf=-0.0556208491
			8:[f0<0.0640138388] yes=11,no=12,missing=11
				11:leaf=0.0740864947
				12:[f6<0.00263367128] yes=13,no=14,missing=13
					13:[f0<0.0847750902] yes=15,no=16,missing=15
						15:leaf=-0.00275157625
						16:leaf=-0.0945120007
					14:[f0<0.0916955024] yes=17,no=18,missing=17
						17:leaf=0.122265831
						18:leaf=-0.00437697675
booster[66]:
0:[f6<0.00362750934] yes=1,no=2,missing=1
	1:[f0<0.115916952] yes=3,no=4,missing=3
		3:[f6<0.00332935806] yes=7,no=8,missing=7
			7:[f0<0.102076128] yes=11,no=12,missing=11
				11:[f6<0.00293182256] yes=15,no=16,missing=15
					15:[f0<0.0916955024] yes=19,no=20,missing=19
						19:leaf=-0.00268957787
						20:leaf=0.0892641321
					16:leaf=-0.0989638716
				12:leaf=0.0978757143
			8:leaf=-0.112780906
		4:leaf=0.0816429034
	2:[f0<0.126297578] yes=5,no=6,missing=5
		5:leaf=-0.108264185
		6:[f6<0.00442257989] yes=9,no=10,missing=9
			9:leaf=0.0896327794
			10:[f0<0.152249128] yes=13,no=14,missing=13
				13:leaf=-0.103027754
				14:[f6<0.00611210521] yes=17,no=18,missing=17
					17:[f0<0.167820066] yes=21,no=22,missing=21
						21:leaf=-0.00442345161
						22:leaf=0.0541849732
					18:[f0<0.216262966] yes=23,no=24,missing=23
						23:leaf=-0.108316548
						24:leaf=0.0193653442
booster[67]:
0:[f6<0.00362750934] yes=1,no=2,missing=1
	1:[f0<0.115916952] yes=3,no=4,missing=3
		3:[f6<0.00332935806] yes=7,no=8,missing=7
			7:[f0<0.102076128] yes=11,no=12,missing=11
				11:[f6<0.00293182256] yes=15,no=16,missing=15
					15:[f0<0.0916955024] yes=19,no=20,missing=19
						19:leaf=0.0026895632
						20:leaf=-0.0892641619
					16:leaf=0.098963879
				12:leaf=-0.0978757143
			8:leaf=0.112780906
		4:leaf=-0.0816429108
	2:[f0<0.126297578] yes=5,no=6,missing=5
		5:leaf=0.108264223
		6:[f6<0.00442257989] yes=9,no=10,missing=9
			9:leaf=-0.0896327868
			10:[f0<0.152249128] yes=13,no=14,missing=13
				13:leaf=0.103027776
				14:[f6<0.00611210521] yes=17,no=18,missing=17
					17:[f0<0.167820066] yes=21,no=22,missing=21
						21:leaf=0.00442344695
						22:leaf=-0.0541849881
					18:[f0<0.216262966] yes=23,no=24,missing=23
						23:leaf=0.108316556
						24:leaf=-0.0193653572
booster[68]:
0:[f3<0.0230769236] yes=1,no=2,missing=1
	1:[f1<0.0294648819] yes=3,no=4,missing=3
		3:[f1<0.0084615387] yes=7,no=8,missing=7
			7:[f6<0.00665871613] yes=9,no=10,missing=9
				9:[f0<0.102076128] yes=13,no=14,missing=13
					13:[f6<0.00293182256] yes=19,no=20,missing=19
						19:leaf=0.0102239298
						20:leaf=-0.0913920626
					14:[f6<0.0038262771] yes=21,no=22,missing=21
						21:leaf=0.093634218
						22:leaf=0.022014387
				10:leaf=-0.062974669
			8:[f6<0.00332935806] yes=11,no=12,missing=11
				11:[f0<0.0259515569] yes=15,no=16,missing=15
					15:leaf=-0.0279089622
					16:[f1<0.0119063547] yes=23,no=24,missing=23
						23:leaf=0.0598329678
						24:leaf=-0.00297601125
				12:[f0<0.16955018] yes=17,no=18,missing=17
					17:leaf=-0.0826053619
					18:[f1<0.0108361207] yes=25,no=26,missing=25
						25:leaf=-0.047359772
						26:leaf=0.055730328
		4:leaf=0.0457285978
	2:[f6<0.00253428752] yes=5,no=6,missing=5
		5:leaf=0.00116365741
		6:leaf=-0.0544057116
booster[69]:
0:[f3<0.0230769236] yes=1,no=2,missing=1
	1:[f1<0.0294648819] yes=3,no=4,missing=3
		3:[f1<0.0084615387] yes=7,no=8,missing=7
			7:[f6<0.00665871613] yes=9,no=10,missing=9
				9:[f0<0.102076128] yes=13,no=14,missing=13
					13:[f6<0.00293182256] yes=19,no=20,missing=19
						19:leaf=-0.0102238869
						20:leaf=0.0913920626
					14:[f6<0.0038262771] yes=21,no=22,missing=21
						21:leaf=-0.093634218
						22:leaf=-0.0220143814
				10:leaf=0.0629746839
			8:[f6<0.00332935806] yes=11,no=12,missing=11
				11:[f0<0.0259515569] yes=15,no=16,missing=15
					15:leaf=0.0279090945
					16:[f1<0.0119063547] yes=23,no=24,missing=23
						23:leaf=-0.0598329678
						24:leaf=0.00297599146
				12:[f0<0.16955018] yes=17,no=18,missing=17
					17:leaf=0.0826053768
					18:[f1<0.0108361207] yes=25,no=26,missing=25
						25:leaf=0.0473597609
						26:leaf=-0.055730328
		4:leaf=-0.0457285866
	2:[f6<0.00253428752] yes=5,no=6,missing=5
		5:leaf=-0.0011635595
		6:leaf=0.0544057414
booster[70]:
0:[f6<0.000546611031] yes=1,no=2,missing=1
	1:leaf=0.0422353894
	2:[f0<0.0259515569] yes=3,no=4,missing=3
		3:leaf=-0.0596977659
		4:[f6<0.0012422977] yes=5,no=6,missing=5
			5:leaf=0.0496702492
			6:[f0<0.0467128009] yes=7,no=8,missing=7
				7:leaf=-0.0578322522
				8:[f6<0.00173921685] yes=9,no=10,missing=9
					9:leaf=0.0519410111
					10:[f0<0.0640138388] yes=11,no=12,missing=11
						11:leaf=-0.0582849756
						12:leaf=0.000313986326
booster[71]:
0:[f6<0.000546611031] yes=1,no=2,missing=1
	1:leaf=-0.0422352888
	2:[f0<0.0259515569] yes=3,no=4,missing=3
		3:leaf=0.0596977882
		4:[f6<0.0012422977] yes=5,no=6,missing=5
			5:leaf=-0.0496702939
			6:[f0<0.0467128009] yes=7,no=8,missing=7
				7:leaf=0.0578322783
				8:[f6<0.00173921685] yes=9,no=10,missing=9
					9:leaf=-0.0519409925
					10:[f0<0.0640138388] yes=11,no=12,missing=11
						11:leaf=0.0582849644
						12:leaf=-0.000313976983
booster[72]:
0:[f6<0.00710594282] yes=1,no=2,missing=1
	1:[f0<0.197231829] yes=3,no=4,missing=3
		3:[f6<0.0053170342] yes=5,no=6,missing=5
			5:[f0<0.167820066] yes=9,no=10,missing=9
				9:[f6<0.00462134741] yes=11,no=12,missing=11
					11:[f0<0.13321799] yes=13,no=14,missing=13
						13:leaf=-0.00464793295
						14:leaf=0.0882671326
					12:leaf=-0.0672403574
				10:leaf=0.0817714036
			6:leaf=-0.0730211735
		4:[f1<0.00745819416] yes=7,no=8,missing=7
			7:leaf=0.0726047754
			8:leaf=0.00312961475
	2:leaf=-0.0394456089
booster[73]:
0:[f6<0.00710594282] yes=1,no=2,missing=1
	1:[f0<0.197231829] yes=3,no=4,missing=3
		3:[f6<0.0053170342] yes=5,no=6,missing=5
			5:[f0<0.167820066] yes=9,no=10,missing=9
				9:[f6<0.00462134741] yes=11,no=12,missing=11
					11:[f0<0.13321799] yes=13,no=14,missing=13
						13:leaf=0.00464791851
						14:leaf=-0.0882671401
					12:leaf=0.0672403947
				10:leaf=-0.0817714036
			6:leaf=0.0730212033
		4:[f1<0.00745819416] yes=7,no=8,missing=7
			7:leaf=-0.0726047754
			8:leaf=-0.00312961894
	2:leaf=0.0394456387
booster[74]:
0:[f6<0.000745378667] yes=1,no=2,missing=1
	1:leaf=0.0335576795
	2:[f0<0.0294117648] yes=3,no=4,missing=3
		3:leaf=-0.0611531772
		4:[f6<0.00144106545] yes=5,no=6,missing=5
			5:leaf=0.0561854541
			6:[f0<0.0605536327] yes=7,no=8,missing=7
				7:[f6<0.00163983298] yes=9,no=10,missing=9
					9:leaf=-0.0147110242
					10:leaf=-0.0616182238
				8:[f6<0.00213675201] yes=11,no=12,missing=11
					11:leaf=0.0605447628
					12:[f0<0.0847750902] yes=13,no=14,missing=13
						13:leaf=-0.0464523844
						14:leaf=0.00285039749
booster[75]:
0:[f6<0.000745378667] yes=1,no=2,missing=1
	1:leaf=-0.0335576385
	2:[f0<0.0294117648] yes=3,no=4,missing=3
		3:leaf=0.0611532517
		4:[f6<0.00144106545] yes=5,no=6,missing=5
			5:leaf=-0.056185469
			6:[f0<0.0605536327] yes=7,no=8,missing=7
				7:[f6<0.00163983298] yes=9,no=10,missing=9
					9:leaf=0.0147110242
					10:leaf=0.0616182908
				8:[f6<0.00213675201] yes=11,no=12,missing=11
					11:leaf=-0.0605447255
					12:[f0<0.0847750902] yes=13,no=14,missing=13
						13:leaf=0.0464522988
						14:leaf=-0.00285039563
booster[76]:
0:[f6<0.00332935806] yes=1,no=2,missing=1
	1:[f0<0.102076128] yes=3,no=4,missing=3
		3:[f6<0.00293182256] yes=7,no=8,missing=7
			7:[f0<0.0916955024] yes=11,no=12,missing=11
				11:[f6<0.00253428752] yes=15,no=16,missing=15
					15:[f0<0.0743944645] yes=19,no=20,missing=19
						19:leaf=-0.00264598173
						20:leaf=0.079557173
					16:leaf=-0.0451346003
				12:leaf=0.0813560858
			8:leaf=-0.0828288645
		4:leaf=0.0857415795
	2:[f0<0.115916952] yes=5,no=6,missing=5
		5:leaf=-0.103668645
		6:[f6<0.00362750934] yes=9,no=10,missing=9
			9:leaf=0.0673796162
			10:[f0<0.126297578] yes=13,no=14,missing=13
				13:leaf=-0.0895431563
				14:[f6<0.00442257989] yes=17,no=18,missing=17
					17:leaf=0.0783550814
					18:[f0<0.15743944] yes=21,no=22,missing=21
						21:leaf=-0.0734646916
						22:leaf=0.00847983081
booster[77]:
0:[f6<0.00332935806] yes=1,no=2,missing=1
	1:[f0<0.102076128] yes=3,no=4,missing=3
		3:[f6<0.00293182256] yes=7,no=8,missing=7
			7:[f0<0.0916955024] yes=11,no=12,missing=11
				11:[f6<0.00253428752] yes=15,no=16,missing=15
					15:[f0<0.0743944645] yes=19,no=20,missing=19
						19:leaf=0.00264600525
						20:leaf=-0.079557173
					16:leaf=0.0451346263
				12:leaf=-0.0813560635
			8:leaf=0.0828288794
		4:leaf=-0.0857415497
	2:[f0<0.115916952] yes=5,no=6,missing=5
		5:leaf=0.103668615
		6:[f6<0.00362750934] yes=9,no=10,missing=9
			9:leaf=-0.0673796386
			10:[f0<0.126297578] yes=13,no=14,missing=13
				13:leaf=0.0895431563
				14:[f6<0.00442257989] yes=17,no=18,missing=17
					17:leaf=-0.078355059
					18:[f0<0.15743944] yes=21,no=22,missing=21
						21:leaf=0.0734646693
						22:leaf=-0.00847982429
booster[78]:
0:[f6<0.00263367128] yes=1,no=2,missing=1
	1:[f0<0.0847750902] yes=3,no=4,missing=3
		3:[f6<0.00233551976] yes=7,no=8,missing=7
			7:[f0<0.0640138388] yes=11,no=12,missing=11
				11:[f6<0.00173921685] yes=15,no=16,missing=15
					15:[f0<0.0363321789] yes=21,no=22,missing=21
						21:leaf=-0.00488781277
						22:leaf=0.04284909
					16:leaf=-0.0517850891
				12:leaf=0.0539804362
			8:leaf=-0.0556965992
		4:leaf=0.088669531
	2:[f0<0.0916955024] yes=5,no=6,missing=5
		5:leaf=-0.104545474
		6:[f6<0.00303120655] yes=9,no=10,missing=9
			9:leaf=0.0806674138
			10:[f0<0.115916952] yes=13,no=14,missing=13
				13:[f6<0.0032299743] yes=17,no=18,missing=17
					17:leaf=0.00445307139
					18:leaf=-0.0708847195
				14:[f6<0.00362750934] yes=19,no=20,missing=19
					19:leaf=0.0583368652
					20:[f0<0.126297578] yes=23,no=24,missing=23
						23:leaf=-0.0821521133
						24:leaf=0.00496899476
booster[79]:
0:[f6<0.00263367128] yes=1,no=2,missing=1
	1:[f0<0.0847750902] yes=3,no=4,missing=3
		3:[f6<0.00233551976] yes=7,no=8,missing=7
			7:[f0<0.0640138388] yes=11,no=12,missing=11
				11:[f6<0.00173921685] yes=15,no=16,missing=15
					15:[f0<0.0363321789] yes=21,no=22,missing=21
						21:leaf=0.00488778669
						22:leaf=-0.0428491682
					16:leaf=0.0517850928
				12:leaf=-0.0539803654
			8:leaf=0.0556966215
		4:leaf=-0.0886695534
	2:[f0<0.0916955024] yes=5,no=6,missing=5
		5:leaf=0.104545452
		6:[f6<0.00303120655] yes=9,no=10,missing=9
			9:leaf=-0.0806674138
			10:[f0<0.115916952] yes=13,no=14,missing=13
				13:[f6<0.0032299743] yes=17,no=18,missing=17
					17:leaf=-0.00445302017
					18:leaf=0.0708847269
				14:[f6<0.00362750934] yes=19,no=20,missing=19
					19:leaf=-0.0583368577
					20:[f0<0.126297578] yes=23,no=24,missing=23
						23:leaf=0.0821521133
						24:leaf=-0.00496900175
booster[80]:
0:[f6<0.000944146304] yes=1,no=2,missing=1
	1:[f0<0.0155709349] yes=3,no=4,missing=3
		3:leaf=-0.0111236572
		4:leaf=0.0516714901
	2:[f0<0.0363321789] yes=5,no=6,missing=5
		5:leaf=-0.059595637
		6:[f6<0.00263367128] yes=7,no=8,missing=7
			7:[f0<0.0847750902] yes=9,no=10,missing=9
				9:[f6<0.00233551976] yes=13,no=14,missing=13
					13:[f0<0.0605536327] yes=17,no=18,missing=17
						17:leaf=-0.00470981747
						18:leaf=0.042033039
					14:leaf=-0.0456998236
				10:leaf=0.0816757828
			8:[f0<0.0951557159] yes=11,no=12,missing=11
				11:leaf=-0.0776745826
				12:[f6<0.00332935806] yes=15,no=16,missing=15
					15:leaf=0.0604275279
					16:[f0<0.119377166] yes=19,no=20,missing=19
						19:leaf=-0.0568673834
						20:leaf=0.000417021598
booster[81]:
0:[f6<0.000944146304] yes=1,no=2,missing=1
	1:[f0<0.0155709349] yes=3,no=4,missing=3
		3:leaf=0.0111236759
		4:leaf=-0.0516714752
	2:[f0<0.0363321789] yes=5,no=6,missing=5
		5:leaf=0.0595956184
		6:[f6<0.00263367128] yes=7,no=8,missing=7
			7:[f0<0.0847750902] yes=9,no=10,missing=9
				9:[f6<0.00233551976] yes=13,no=14,missing=13
					13:[f0<0.0605536327] yes=17,no=18,missing=17
						17:leaf=0.00470980955
						18:leaf=-0.0420329943
					14:leaf=0.0456997976
				10:leaf=-0.0816757903
			8:[f0<0.0951557159] yes=11,no=12,missing=11
				11:leaf=0.077674605
				12:[f6<0.00332935806] yes=15,no=16,missing=15
					15:leaf=-0.0604275391
					16:[f0<0.119377166] yes=19,no=20,missing=19
						19:leaf=0.0568673313
						20:leaf=-0.000417025643
booster[82]:
0:[f6<0.00710594282] yes=1,no=2,missing=1
	1:[f1<0.00831103697] yes=3,no=4,missing=3
		3:[f0<0.207612455] yes=5,no=6,missing=5
			5:[f6<0.00501888292] yes=9,no=10,missing=9
				9:[f0<0.13321799] yes=15,no=16,missing=15
					15:[f6<0.00372689334] yes=23,no=24,missing=23
						23:leaf=0.0163716152
						24:leaf=-0.0656873956
					16:leaf=0.0781455711
				10:leaf=-0.0671473071
			6:leaf=0.0978304297
		4:[f1<0.012341138] yes=7,no=8,missing=7
			7:[f6<0.00472073164] yes=11,no=12,missing=11
				11:[f0<0.0916955024] yes=17,no=18,missing=17
					17:[f1<0.00998327695] yes=25,no=26,missing=25
						25:leaf=0.0105830412
						26:leaf=-0.0513036773
					18:leaf=0.00519307796
				12:leaf=-0.0846437067
			8:[f1<0.0220066905] yes=13,no=14,missing=13
				13:[f0<0.126297578] yes=19,no=20,missing=19
					19:leaf=0.0219569579
					20:leaf=0.0768971443
				14:[f0<0.107266441] yes=21,no=22,missing=21
					21:leaf=0.00446504122
					22:leaf=-0.0237667318
	2:leaf=-0.0350875519
booster[83]:
0:[f6<0.00710594282] yes=1,no=2,missing=1
	1:[f1<0.00831103697] yes=3,no=4,missing=3
		3:[f0<0.207612455] yes=5,no=6,missing=5
			5:[f6<0.00501888292] yes=9,no=10,missing=9
				9:[f0<0.13321799] yes=15,no=16,missing=15
					15:[f6<0.00372689334] yes=23,no=24,missing=23
						23:leaf=-0.0163715836
						24:leaf=0.0656873435
					16:leaf=-0.0781455636
				10:leaf=0.067147322
			6:leaf=-0.0978304148
		4:[f1<0.012341138] yes=7,no=8,missing=7
			7:[f6<0.00472073164] yes=11,no=12,missing=11
				11:[f0<0.0916955024] yes=17,no=18,missing=17
					17:[f1<0.00998327695] yes=25,no=26,missing=25
						25:leaf=-0.0105829844
						26:leaf=0.0513036214
					18:leaf=-0.00519308308
				12:leaf=0.0846436992
			8:[f1<0.0220066905] yes=13,no=14,missing=13
				13:[f0<0.126297578] yes=19,no=20,missing=19
					19:leaf=-0.0219569094
					20:leaf=-0.0768971741
				14:[f0<0.107266441] yes=21,no=22,missing=21
					21:leaf=-0.00446503842
					22:leaf=0.0237667207
	2:leaf=0.0350875668
booster[84]:
0:[f6<0.00611210521] yes=1,no=2,missing=1
	1:[f0<0.150519028] yes=3,no=4,missing=3
		3:[f6<0.00412442815] yes=7,no=8,missing=7
			7:[f0<0.105536327] yes=11,no=12,missing=11
				11:[f6<0.00303120655] yes=15,no=16,missing=15
					15:[f0<0.0847750902] yes=19,no=20,missing=19
						19:leaf=-0.00424203323
						20:leaf=0.0403863899
					16:leaf=-0.0828842074
				12:[f6<0.00352812558] yes=17,no=18,missing=17
					17:leaf=0.0561602972
					18:leaf=-0.00617186399
			8:leaf=-0.0775964633
		4:[f6<0.0053170342] yes=9,no=10,missing=9
			9:[f1<0.0095317727] yes=13,no=14,missing=13
				13:leaf=0.0761823729
				14:leaf=0.000546110561
			10:leaf=0.00251638005
	2:[f0<0.223183393] yes=5,no=6,missing=5
		5:leaf=-0.0665047094
		6:leaf=0.0163157992
booster[85]:
0:[f6<0.00611210521] yes=1,no=2,missing=1
	1:[f0<0.150519028] yes=3,no=4,missing=3
		3:[f6<0.00412442815] yes=7,no=8,missing=7
			7:[f0<0.105536327] yes=11,no=12,missing=11
				11:[f6<0.00303120655] yes=15,no=16,missing=15
					15:[f0<0.0847750902] yes=19,no=20,missing=19
						19:leaf=0.00424204767
						20:leaf=-0.0403863899
					16:leaf=0.0828842372
				12:[f6<0.00352812558] yes=17,no=18,missing=17
					17:leaf=-0.0561602786
					18:leaf=0.00617186818
			8:leaf=0.0775965005
		4:[f6<0.0053170342] yes=9,no=10,missing=9
			9:[f1<0.0095317727] yes=13,no=14,missing=13
				13:leaf=-0.0761823729
				14:leaf=-0.000546106778
			10:leaf=-0.00251638005
	2:[f0<0.223183393] yes=5,no=6,missing=5
		5:leaf=0.066504702
		6:leaf=-0.0163157918
booster[86]:
0:[f8<0.166666672] yes=1,no=2,missing=1
	1:[f3<0.0230769236] yes=3,no=4,missing=3
		3:[f1<0.012341138] yes=5,no=6,missing=5
			5:[f0<0.216262966] yes=9,no=10,missing=9
				9:[f6<0.0053170342] yes=13,no=14,missing=13
					13:[f1<0.0119063547] yes=17,no=18,missing=17
						17:leaf=0.00503238151
						18:leaf=-0.0499851666
					14:leaf=-0.0694936141
				10:leaf=0.0474351384
			6:[f6<0.002236136] yes=11,no=12,missing=11
				11:leaf=0.0429854691
				12:[f0<0.152249128] yes=15,no=16,missing=15
					15:leaf=-0.0288671087
					16:leaf=0.0396431386
		4:[f6<0.00342874182] yes=7,no=8,missing=7
			7:leaf=-0.00126521743
			8:leaf=-0.043543525
	2:leaf=0.0370758697
booster[87]:
0:[f8<0.166666672] yes=1,no=2,missing=1
	1:[f3<0.0230769236] yes=3,no=4,missing=3
		3:[f1<0.012341138] yes=5,no=6,missing=5
			5:[f0<0.216262966] yes=9,no=10,missing=9
				9:[f6<0.0053170342] yes=13,no=14,missing=13
					13:[f1<0.0119063547] yes=17,no=18,missing=17
						17:leaf=-0.00503236242
						18:leaf=0.0499851406
					14:leaf=0.0694936067
				10:leaf=-0.0474351384
			6:[f6<0.002236136] yes=11,no=12,missing=11
				11:leaf=-0.0429855287
				12:[f0<0.152249128] yes=15,no=16,missing=15
					15:leaf=0.028867105
					16:leaf=-0.0396431573
		4:[f6<0.00342874182] yes=7,no=8,missing=7
			7:leaf=0.00126519508
			8:leaf=0.0435435101
	2:leaf=-0.0370758548
booster[88]:
0:[f6<0.00710594282] yes=1,no=2,missing=1
	1:[f0<0.167820066] yes=3,no=4,missing=3
		3:[f6<0.00462134741] yes=5,no=6,missing=5
			5:[f0<0.126297578] yes=9,no=10,missing=9
				9:[f6<0.00352812558] yes=13,no=14,missing=13
					13:[f0<0.102076128] yes=15,no=16,missing=15
						15:leaf=-0.00551082334
						16:leaf=0.0467994437
					14:leaf=-0.0606114566
				10:leaf=0.0632448122
			6:leaf=-0.0529708639
		4:[f0<0.188581318] yes=7,no=8,missing=7
			7:leaf=0.0571073182
			8:[f6<0.00621148851] yes=11,no=12,missing=11
				11:leaf=0.00176513696
				12:leaf=0.0136394212
	2:leaf=-0.0349639468
booster[89]:
0:[f6<0.00710594282] yes=1,no=2,missing=1
	1:[f0<0.167820066] yes=3,no=4,missing=3
		3:[f6<0.00462134741] yes=5,no=6,missing=5
			5:[f0<0.126297578] yes=9,no=10,missing=9
				9:[f6<0.00352812558] yes=13,no=14,missing=13
					13:[f0<0.102076128] yes=15,no=16,missing=15
						15:leaf=0.00551079074
						16:leaf=-0.0467994176
					14:leaf=0.0606114939
				10:leaf=-0.0632447973
			6:leaf=0.0529708825
		4:[f0<0.188581318] yes=7,no=8,missing=7
			7:leaf=-0.0571073182
			8:[f6<0.00621148851] yes=11,no=12,missing=11
				11:leaf=-0.00176514266
				12:leaf=-0.0136394333
	2:leaf=0.0349639878
booster[90]:
0:[f1<0.00627090316] yes=1,no=2,missing=1
	1:[f6<0.00263367128] yes=3,no=4,missing=3
		3:[f0<0.0536332205] yes=7,no=8,missing=7
			7:leaf=-0.0226339605
			8:leaf=0.0442798398
		4:[f6<0.00412442815] yes=9,no=10,missing=9
			9:leaf=-0.01424924
			10:leaf=-0.049646046
	2:[f1<0.00739130471] yes=5,no=6,missing=5
		5:[f1<0.00682274252] yes=11,no=12,missing=11
			11:[f0<0.112456754] yes=15,no=16,missing=15
				15:leaf=0.000451078842
				16:leaf=0.0316484459
			12:leaf=0.0501845144
		6:[f0<0.221453279] yes=13,no=14,missing=13
			13:[f1<0.012341138] yes=17,no=18,missing=17
				17:[f6<0.0053170342] yes=19,no=20,missing=19
					19:[f0<0.129757792] yes=23,no=24,missing=23
						23:leaf=-0.0215080697
						24:leaf=0.0286443513
					20:leaf=-0.0968880579
				18:[f1<0.0220066905] yes=21,no=22,missing=21
					21:leaf=0.0522443242
					22:leaf=-0.00788941234
			14:leaf=0.0390466079
booster[91]:
0:[f1<0.00627090316] yes=1,no=2,missing=1
	1:[f6<0.00263367128] yes=3,no=4,missing=3
		3:[f0<0.0536332205] yes=7,no=8,missing=7
			7:leaf=0.0226339549
			8:leaf=-0.0442797802
		4:[f6<0.00412442815] yes=9,no=10,missing=9
			9:leaf=0.0142493155
			10:leaf=0.049646046
	2:[f1<0.00739130471] yes=5,no=6,missing=5
		5:[f1<0.00682274252] yes=11,no=12,missing=11
			11:[f0<0.112456754] yes=15,no=16,missing=15
				15:leaf=-0.000451014348
				16:leaf=-0.0316484533
			12:leaf=-0.0501846112
		6:[f0<0.221453279] yes=13,no=14,missing=13
			13:[f1<0.012341138] yes=17,no=18,missing=17
				17:[f6<0.0053170342] yes=19,no=20,missing=19
					19:[f0<0.129757792] yes=23,no=24,missing=23
						23:leaf=0.0215080716
						24:leaf=-0.0286443457
					20:leaf=0.0968880653
				18:[f1<0.0220066905] yes=21,no=22,missing=21
					21:leaf=-0.0522443764
					22:leaf=0.00788951293
			14:leaf=-0.0390466005
booster[92]:
0:[f6<0.00710594282] yes=1,no=2,missing=1
	1:[f0<0.197231829] yes=3,no=4,missing=3
		3:[f6<0.0053170342] yes=5,no=6,missing=5
			5:[f0<0.15743944] yes=7,no=8,missing=7
				7:[f6<0.00412442815] yes=9,no=10,missing=9
					9:[f0<0.115916952] yes=11,no=12,missing=11
						11:leaf=-0.0033167887
						12:leaf=0.0351787433
					10:leaf=-0.0522776432
				8:leaf=0.0495703481
			6:leaf=-0.0556245595
		4:leaf=0.04415581
	2:leaf=-0.033175759
booster[93]:
0:[f6<0.00710594282] yes=1,no=2,missing=1
	1:[f0<0.197231829] yes=3,no=4,missing=3
		3:[f6<0.0053170342] yes=5,no=6,missing=5
			5:[f0<0.15743944] yes=7,no=8,missing=7
				7:[f6<0.00412442815] yes=9,no=10,missing=9
					9:[f0<0.115916952] yes=11,no=12,missing=11
						11:leaf=0.00331672002
						12:leaf=-0.0351787396
					10:leaf=0.0522776507
				8:leaf=-0.0495703369
			6:leaf=0.0556246191
		4:leaf=-0.0441558063
	2:leaf=0.0331757627
booster[94]:
0:[f6<0.0012422977] yes=1,no=2,missing=1
	1:[f0<0.0259515569] yes=3,no=4,missing=3
		3:[f6<0.000546611031] yes=7,no=8,missing=7
			7:leaf=0.0318723395
			8:leaf=-0.0376028679
		4:leaf=0.0480387248
	2:[f0<0.0501730107] yes=5,no=6,missing=5
		5:leaf=-0.0519243218
		6:[f6<0.00243490352] yes=9,no=10,missing=9
			9:[f0<0.070934251] yes=11,no=12,missing=11
				11:[f6<0.00183860073] yes=15,no=16,missing=15
					15:leaf=0.0333229862
					16:leaf=-0.0329115279
				12:leaf=0.0593752675
			10:[f0<0.0916955024] yes=13,no=14,missing=13
				13:leaf=-0.0431158133
				14:[f6<0.00332935806] yes=17,no=18,missing=17
					17:leaf=0.0425735749
					18:[f0<0.119377166] yes=19,no=20,missing=19
						19:leaf=-0.0544132926
						20:leaf=0.00317564094
booster[95]:
0:[f6<0.0012422977] yes=1,no=2,missing=1
	1:[f0<0.0259515569] yes=3,no=4,missing=3
		3:[f6<0.000546611031] yes=7,no=8,missing=7
			7:leaf=-0.0318723097
			8:leaf=0.0376030207
		4:leaf=-0.0480387546
	2:[f0<0.0501730107] yes=5,no=6,missing=5
		5:leaf=0.0519244
		6:[f6<0.00243490352] yes=9,no=10,missing=9
			9:[f0<0.070934251] yes=11,no=12,missing=11
				11:[f6<0.00183860073] yes=15,no=16,missing=15
					15:leaf=-0.0333229527
					16:leaf=0.0329115689
				12:leaf=-0.0593752451
			10:[f0<0.0916955024] yes=13,no=14,missing=13
				13:leaf=0.0431157798
				14:[f6<0.00332935806] yes=17,no=18,missing=17
					17:leaf=-0.0425735936
					18:[f0<0.119377166] yes=19,no=20,missing=19
						19:leaf=0.054413233
						20:leaf=-0.00317564793
booster[96]:
0:[f6<0.00611210521] yes=1,no=2,missing=1
	1:[f0<0.167820066] yes=3,no=4,missing=3
		3:[f6<0.00462134741] yes=7,no=8,missing=7
			7:[f0<0.126297578] yes=9,no=10,missing=9
				9:[f6<0.00352812558] yes=11,no=12,missing=11
					11:[f0<0.102076128] yes=13,no=14,missing=13
						13:leaf=-0.00214744406
						14:leaf=0.0422710106
					12:leaf=-0.0555441044
				10:leaf=0.0553874075
			8:leaf=-0.0470593385
		4:leaf=0.0428637862
	2:[f0<0.242214531] yes=5,no=6,missing=5
		5:leaf=-0.0514272116
		6:leaf=0.0171938017
booster[97]:
0:[f6<0.00611210521] yes=1,no=2,missing=1
	1:[f0<0.167820066] yes=3,no=4,missing=3
		3:[f6<0.00462134741] yes=7,no=8,missing=7
			7:[f0<0.126297578] yes=9,no=10,missing=9
				9:[f6<0.00352812558] yes=11,no=12,missing=11
					11:[f0<0.102076128] yes=13,no=14,missing=13
						13:leaf=0.00214752182
						14:leaf=-0.0422710329
					12:leaf=0.0555441827
				10:leaf=-0.0553873889
			8:leaf=0.0470592938
		4:leaf=-0.042863775
	2:[f0<0.242214531] yes=5,no=6,missing=5
		5:leaf=0.0514272302
		6:leaf=-0.0171938092
booster[98]:
0:[f6<0.000944146304] yes=1,no=2,missing=1
	1:[f0<0.0155709349] yes=3,no=4,missing=3
		3:leaf=-0.0121101439
		4:leaf=0.0475939177
	2:[f0<0.0363321789] yes=5,no=6,missing=5
		5:leaf=-0.0498084053
		6:[f6<0.00173921685] yes=7,no=8,missing=7
			7:leaf=0.0439747684
			8:[f0<0.0640138388] yes=9,no=10,missing=9
				9:leaf=-0.0490573943
				10:[f6<0.00263367128] yes=11,no=12,missing=11
					11:[f0<0.0813148767] yes=13,no=14,missing=13
						13:leaf=-0.000812577258
						14:leaf=0.0572760627
					12:[f0<0.0951557159] yes=15,no=16,missing=15
						15:leaf=-0.0627548471
						16:leaf=0.00163507357
booster[99]:
0:[f6<0.000944146304] yes=1,no=2,missing=1
	1:[f0<0.0155709349] yes=3,no=4,missing=3
		3:leaf=0.0121099586
		4:leaf=-0.0475939624
	2:[f0<0.0363321789] yes=5,no=6,missing=5
		5:leaf=0.0498085059
		6:[f6<0.00173921685] yes=7,no=8,missing=7
			7:leaf=-0.043974679
			8:[f0<0.0640138388] yes=9,no=10,missing=9
				9:leaf=0.0490573607
				10:[f6<0.00263367128] yes=11,no=12,missing=11
					11:[f0<0.0813148767] yes=13,no=14,missing=13
						13:leaf=0.000812580169
						14:leaf=-0.0572760627
					12:[f0<0.0951557159] yes=15,no=16,missing=15
						15:leaf=0.0627548322
						16:leaf=-0.00163506786
booster[100]:
0:[f6<0.00144106545] yes=1,no=2,missing=1
	1:[f0<0.0294117648] yes=3,no=4,missing=3
		3:[f6<0.000745378667] yes=7,no=8,missing=7
			7:leaf=0.0252838284
			8:leaf=-0.0460490994
		4:leaf=0.054560516
	2:[f0<0.0605536327] yes=5,no=6,missing=5
		5:leaf=-0.0482641645
		6:[f6<0.00203736825] yes=9,no=10,missing=9
			9:leaf=0.0587993599
			10:[f0<0.0743944645] yes=11,no=12,missing=11
				11:leaf=-0.0556703024
				12:[f6<0.00263367128] yes=13,no=14,missing=13
					13:leaf=0.0437876359
					14:[f0<0.0951557159] yes=15,no=16,missing=15
						15:leaf=-0.0526198596
						16:leaf=0.0011844117
booster[101]:
0:[f6<0.00144106545] yes=1,no=2,missing=1
	1:[f0<0.0294117648] yes=3,no=4,missing=3
		3:[f6<0.000745378667] yes=7,no=8,missing=7
			7:leaf=-0.0252838787
			8:leaf=0.046049118
		4:leaf=-0.0545604974
	2:[f0<0.0605536327] yes=5,no=6,missing=5
		5:leaf=0.0482642241
		6:[f6<0.00203736825] yes=9,no=10,missing=9
			9:leaf=-0.0587994121
			10:[f0<0.0743944645] yes=11,no=12,missing=11
				11:leaf=0.0556702688
				12:[f6<0.00263367128] yes=13,no=14,missing=13
					13:leaf=-0.0437876508
					14:[f0<0.0951557159] yes=15,no=16,missing=15
						15:leaf=0.0526199229
						16:leaf=-0.00118437363
booster[102]:
0:[f8<0.166666672] yes=1,no=2,missing=1
	1:[f6<0.00710594282] yes=3,no=4,missing=3
		3:[f0<0.197231829] yes=5,no=6,missing=5
			5:[f6<0.00482011493] yes=7,no=8,missing=7
				7:[f0<0.13321799] yes=9,no=10,missing=9
					9:[f6<0.00352812558] yes=11,no=12,missing=11
						11:leaf=0.00183550373
						12:leaf=-0.0537624098
					10:leaf=0.0521671586
				8:leaf=-0.0360679924
			6:leaf=0.0386916175
		4:leaf=-0.0276741516
	2:leaf=0.0345538259
booster[103]:
0:[f8<0.166666672] yes=1,no=2,missing=1
	1:[f6<0.00710594282] yes=3,no=4,missing=3
		3:[f0<0.197231829] yes=5,no=6,missing=5
			5:[f6<0.00482011493] yes=7,no=8,missing=7
				7:[f0<0.13321799] yes=9,no=10,missing=9
					9:[f6<0.00352812558] yes=11,no=12,missing=11
						11:leaf=-0.00183548883
						12:leaf=0.0537624061
					10:leaf=-0.0521671511
				8:leaf=0.0360680073
			6:leaf=-0.0386916026
		4:leaf=0.0276741404
	2:leaf=-0.0345537253
booster[104]:
0:[f6<0.00611210521] yes=1,no=2,missing=1
	1:[f0<0.167820066] yes=3,no=4,missing=3
		3:[f1<0.00329431426] yes=7,no=8,missing=7
			7:[f0<0.0536332205] yes=11,no=12,missing=11
				11:leaf=0.000807714358
				12:leaf=0.0522721075
			8:[f1<0.00607023388] yes=13,no=14,missing=13
				13:leaf=-0.0489311256
				14:[f6<0.00462134741] yes=15,no=16,missing=15
					15:[f0<0.122837365] yes=17,no=18,missing=17
						17:leaf=-0.00156303123
						18:leaf=0.0466085114
					16:leaf=-0.0486537628
		4:[f1<0.0084615387] yes=9,no=10,missing=9
			9:leaf=0.0111556686
			10:leaf=0.0468431599
	2:[f0<0.242214531] yes=5,no=6,missing=5
		5:leaf=-0.0464283414
		6:leaf=0.0178085212
booster[105]:
0:[f6<0.00611210521] yes=1,no=2,missing=1
	1:[f0<0.167820066] yes=3,no=4,missing=3
		3:[f1<0.00329431426] yes=7,no=8,missing=7
			7:[f0<0.0536332205] yes=11,no=12,missing=11
				11:leaf=-0.000807798642
				12:leaf=-0.0522721
			8:[f1<0.00607023388] yes=13,no=14,missing=13
				13:leaf=0.0489311479
				14:[f6<0.00462134741] yes=15,no=16,missing=15
					15:[f0<0.122837365] yes=17,no=18,missing=17
						17:leaf=0.00156303088
						18:leaf=-0.0466085076
					16:leaf=0.0486537218
		4:[f1<0.0084615387] yes=9,no=10,missing=9
			9:leaf=-0.0111556677
			10:leaf=-0.0468431637
	2:[f0<0.242214531] yes=5,no=6,missing=5
		5:leaf=0.046428293
		6:leaf=-0.0178085044
booster[106]:
0:[f3<0.0230769236] yes=1,no=2,missing=1
	1:[f0<0.115916952] yes=3,no=4,missing=3
		3:[f6<0.00303120655] yes=5,no=6,missing=5
			5:[f1<0.00802675635] yes=9,no=10,missing=9
				9:[f1<0.00329431426] yes=13,no=14,missing=13
					13:leaf=0.0247899853
					14:[f6<0.0012422977] yes=19,no=20,missing=19
						19:leaf=0.00622589746
						20:leaf=-0.0466465354
				10:[f1<0.00892976578] yes=15,no=16,missing=15
					15:leaf=0.0652741715
					16:[f6<0.00213675201] yes=21,no=22,missing=21
						21:leaf=0.0257662553
						22:leaf=-0.0277145989
			6:leaf=-0.052376803
		4:[f6<0.0038262771] yes=7,no=8,missing=7
			7:leaf=0.0656708404
			8:[f0<0.150519028] yes=11,no=12,missing=11
				11:leaf=-0.0530830212
				12:[f6<0.00551580172] yes=17,no=18,missing=17
					17:leaf=0.048946891
					18:[f0<0.216262966] yes=23,no=24,missing=23
						23:leaf=-0.040899165
						24:leaf=0.0235292222
	2:leaf=-0.0247153509
booster[107]:
0:[f3<0.0230769236] yes=1,no=2,missing=1
	1:[f0<0.115916952] yes=3,no=4,missing=3
		3:[f6<0.00303120655] yes=5,no=6,missing=5
			5:[f1<0.00802675635] yes=9,no=10,missing=9
				9:[f1<0.00329431426] yes=13,no=14,missing=13
					13:leaf=-0.0247899517
					14:[f6<0.0012422977] yes=19,no=20,missing=19
						19:leaf=-0.00622588443
						20:leaf=0.0466465391
				10:[f1<0.00892976578] yes=15,no=16,missing=15
					15:leaf=-0.0652741492
					16:[f6<0.00213675201] yes=21,no=22,missing=21
						21:leaf=-0.0257663336
						22:leaf=0.0277145877
			6:leaf=0.0523769781
		4:[f6<0.0038262771] yes=7,no=8,missing=7
			7:leaf=-0.0656708479
			8:[f0<0.150519028] yes=11,no=12,missing=11
				11:leaf=0.0530830584
				12:[f6<0.00551580172] yes=17,no=18,missing=17
					17:leaf=-0.0489469096
					18:[f0<0.216262966] yes=23,no=24,missing=23
						23:leaf=0.0408991687
						24:leaf=-0.0235292129
	2:leaf=0.0247153305
booster[108]:
0:[f6<0.00710594282] yes=1,no=2,missing=1
	1:[f1<0.00739130471] yes=3,no=4,missing=3
		3:[f1<0.00627090316] yes=5,no=6,missing=5
			5:[f3<0.0076923077] yes=9,no=10,missing=9
				9:[f1<0.00439799298] yes=17,no=18,missing=17
					17:leaf=0.0306809414
					18:leaf=-0.0113616912
				10:leaf=-0.0320509784
			6:[f0<0.0865051895] yes=11,no=12,missing=11
				11:leaf=0.0125729283
				12:leaf=0.068477504
		4:[f1<0.012341138] yes=7,no=8,missing=7
			7:[f6<0.00332935806] yes=13,no=14,missing=13
				13:[f0<0.0743944645] yes=19,no=20,missing=19
					19:[f6<0.0012422977] yes=23,no=24,missing=23
						23:leaf=0.0148861082
						24:leaf=-0.0487250574
					20:leaf=0.0391207747
				14:[f0<0.167820066] yes=21,no=22,missing=21
					21:leaf=-0.0572144985
					22:leaf=-0.0180629995
			8:[f1<0.0220066905] yes=15,no=16,missing=15
				15:leaf=0.0391962975
				16:leaf=-0.00658489764
	2:leaf=-0.025907388
booster[109]:
0:[f6<0.00710594282] yes=1,no=2,missing=1
	1:[f1<0.00739130471] yes=3,no=4,missing=3
		3:[f1<0.00627090316] yes=5,no=6,missing=5
			5:[f3<0.0076923077] yes=9,no=10,missing=9
